-0.043881723405232026 0.04882518864709409 -0.1024399262696971 0.015780886997557912 -0.08412844067467891 0.05647621758857657 0.019117410014930912 -0.05145965568991439 -0.08113811439067396 0.07147867550288621 -0.11895719039913502 -0.1257947003188971 0.1797355845507954 -0.044664705792370946 0.05065613139626653 0.021702582665673622 0.040275800345696604 0.07676403517598228 -0.10507855968753009 -0.1407589238904436 -0.10313411460076952 -0.015367594610302224 -0.06967324727851487 -0.16446721737510278 0.13437898914866686 0.05202149971424759 0.13901254100984084 0.052012394677041975 -0.0621273586445861 -0.04649838990710628 -0.03607265114505013 0.13752808853464485 0.12501750969457182 0.1303717549246677 -0.11896192902792467 0.0465937268096847 -0.04552742282977934 0.1086359129380966 -0.019065123225931912 -0.06831465086481044 0.028857832658539584 0.2041689857305169 -0.019333220107068103 -0.07969171401165412 -0.07597123838394536 0.15262895570755503 0.213901434381214 0.16024842231554423 0.08366963583405779 0.14609274891981208 -0.05632751060611657 -0.012953642688184787 0.051523835619804594 -0.007353523955977461 0.006117717913306289 0.10939842686324319 0.0862528843385619 0.12691689561718889 0.13381887582382662 0.03704484422749396 0.09270492333700052 -0.14438512181721905 -0.05855960580297712 -0.029770823482398786 -0.11043092123830084 -0.05605889782695728 -0.06397607216055641 -0.0023518081631351303 -0.13970225453770665 -0.009053389748851469 -0.021086706526451622 -0.042549152197280726 0.07622353982718681 0.005327542150279793 0.0312400622737877 -0.017938567424083965 -0.0055870235741528745 0.04568320437134605 -0.1450845005219096 -0.09796872290672147 -0.01226405431370692 -0.09544159888240371 -0.11308061794730935 -0.23995680772232766 0.01968112654210865 0.15536726511493862 0.0484863845658862 0.0009844096287894095 0.14071158613209966 0.12261606950060511 -0.17082531500172604 0.05293852445373111 -0.12508239565213616 0.17783878852633292 0.02081103150543273 -0.0795177407046158 0.06243700859065169 -0.12736410781264482 -0.08395935696564744 -0.043503096694050704 0.10324437680355421 -0.02746149055003689 -0.16276901903937652 0.05004365432358278 0.0403770448360848 0.0464849514723248 0.03421657465352142 -0.09906216044462549 -0.005745554651043748 -0.012895234593252439 0.0549691852953843 0.1823426904740498 0.10643948408835642 -0.03398220866583401 0.042680956758294544 0.017724728754915372 0.12554506038259478 -0.014277734882113292 -0.004420282643441481 -0.14136536099859318 -0.18984049653204219 -0.015118124244074153 0.11207576140324733 0.07360238156815091 -0.014298549696096008 -0.055720838389245346 -0.18572464062609928 -0.001595770775076894 0.04120139908959991 -0.07870323014848515 -0.030895559847048087 -0.08454542973867801 0.015548986108285746 0.03611553868489977 -0.08814117729016764 -0.06079729412859125 -0.04380993138306957 -0.0858993177583982 -0.08418482249163482 -0.10529025943835967 0.09824833435947497 0.16912937792214972 -0.09225077146034656 -0.0708323700324947 0.09768643540160671 0.25947256687309495 0.07437501512775889 -0.047347526208824854 0.015449587375886614 0.1229613328587515 -0.07621374788168606 0.13436335761665794 -0.05559348291256834 0.1004895262494116 0.09049641336305742 -0.17951737122171119 0.15458971907661812 -0.05255501654526053 -0.23770600415056584 0.20808471035393772 0.04685735403462578 -7.418064044534781e-05 -0.009423481659319152 0.04867743832081626 -0.0460397081244476 -0.11252947903860917 -0.02384063865749912 -0.06159313603128374 -0.011329728497504049 -0.03949605613189133 0.07703633351866519 -0.058835365819955555 0.22356845368777578 0.15414804588503123 0.0649873916085099 -0.16496435226882086 0.013534953178311982 0.04252694126383193 -0.17785310105635507 0.044360485605611094 -0.14166845268348505 0.09936891077994249 -0.08656197820185371 -0.12408667310468334 -0.05034216703624236 0.11747682039032457 0.1330110744528744 0.17942321691003024 -0.02468510995032206 -0.08992121360149492 0.00925884072838765 0.1547403037214967 -0.06048242949681176 0.08714099258625158 -0.11899426091048196 -0.1230184943918613 0.07075603004438201 0.010490642500026723 0.02614723126575937 0.12081334099341064 0.024361559241527737 0.045230042238171536 0.06474919901406578 -0.07079518524604007 0.023865294119156326 0.15394664433591998 -0.08283975743307848 0.0734052454406734 -0.022939597854661237 0.07711129659662465 -0.08794344074631835 -0.01119860160153583 -0.00019739466859886677 0.011024271485947954 0.01924829133352114 -0.06691057438051395 -0.08400492019249982 0.10598445996756718 -0.1460095626611162 -0.00017995036165919913 -0.047754247004059835 0.08534020726306496 -0.05845347931747694 0.15127030212733178 -0.08330860780257891 0.11936408101402791 -0.017562869787678317 -0.011901951765119401 0.06293692329369084 0.012817042570791103 -0.10500309660906343 -0.24065642416090377 0.22529230762156072 -0.10104184643648309 0.059270061987338474 -0.006051063837929505 -0.03869336562789864 -0.14022211545401736 -0.034156324580018174 0.1041133099093976 0.08796832429062541 -0.04406023946534557 -0.16515150092102074 -0.06497562123876903 -0.07060924905327572 -0.11056588454071126 -0.14015889606691226 -0.08358203671396641 0.020279900507393547 -0.14918228629712807 -0.045822066959651464 0.033036897826884876 0.10126062424002734 -0.2274217636112293 0.027450391859299202 -0.0638061871854212 0.10981490908633638 0.009977436688191352 0.021669670354848486 -0.052685819655342 0.016455609477185756 0.015051946298268499 -0.0844049024607478 -0.18284694203759225 -0.13025932931963755 0.016627122574393718 -0.15083019384263907 -0.21993758960518114 -0.14699648884479377 -0.12461555807773726 -0.14483005767714038 -0.058794266693483935 0.20111630652130824 0.10063244315796155 0.07702114947787041 -0.1228323897178698 -0.05998981290733531 0.01784916321949438 0.066867897119514 0.009779917106772645 -0.040257017515214634 0.1286031289690205 -0.06302259667489464 0.07105825708171389 0.08817859100787068 0.008377090261215804 0.16630073557913808 0.07700133890434839 0.1288573174961864 -0.019386911517593863 0.02048397127418647 0.13508313630132068 0.0015208908024362253 -0.006369423580132802 0.005329357047312663 -0.04911180528131961 -0.08936854340894702 -0.0755835117998665 0.04688713603506605 0.019643299527052956 -0.05585084618421418 0.08286685221963275 -0.1527788792802851 0.12563833474011224 -0.025044445511474875 -0.12585848636884797 -0.12979794659361876 -0.1073683380202638 0.0629270080668075 -0.12431967009311638 0.04722134224740887 -0.010736014899727812 0.0675103255637146 -0.04313569447654811 -0.16148305908463334 0.12275819166399807 0.10646895497828548 0.009941340946299443 -0.10620571518973176 0.021636050860839102 0.0016449635875586486 -0.10749608796668729 0.0596864912410669 -0.049818278589007364 -0.12431391812148501 0.04120390585609185 -0.04472733315112096 -0.007972066970782217 -0.03305211207948536 -0.10349140413706555 -0.01101449134303366 -0.05023455205034123 0.027970157156829347 0.08572920862929378 0.10169714242191347 -0.0201055750315213 -0.07512800408451374 0.09908135909860599 0.09093751122598537 0.0024005111399565057 0.010542982153855648 -0.18702368799650168 -0.08325276111304347 0.14595632107475212 0.08163169585015084 -0.0940858236257679 -0.048773756018171535 -0.05242655344147171 -0.15143782604147948 0.0013718311464963827 -0.021203817368922774 0.16499803963348933 -0.13221342537195716 0.006142534780543265 -0.00333127715042896 -0.12004726601893922 0.10519666204506739 -0.24183185539860774 0.0028696279897103545 0.018352106733770787 -0.03516690026602861 -0.0889206698665899 0.0019190801518540934 0.21159495950482896 -0.12900506912296783 0.11911877509129168 -0.0030493478031980784 0.1417941547349916 0.10946507675214545 -0.04161749325289288 0.004767782975191998 0.07457253964731973 -0.005932292022801586 0.1305608729621884 -0.01904071524737626 0.19941385574472584 -0.018668341497276038 -0.037637973689127434 -0.06688052714381114 -0.024694176915671592 -0.013686425715134488 0.026969611911758284 0.07497973379230671 -0.06611954919099619 0.16484584043118963 -0.14668727663484282 0.026245392067154434 -0.08018225770277876 -0.10265645462195067 -0.06608838175748648 -0.0049983772080100485 0.08264724018224859 -0.062328533982977476 0.11564089051733487 0.20235450305087124 0.109600588158234 -0.03794691617517606 0.07959718225616402 -0.05526431155821279 -0.10882433459924985 0.04480753104764439 -0.020427282424159303 0.0711926488293167 -0.029781892288743048 0.01435779393088928 -0.039012032896737395 0.05404133705770073 -0.07591162536422436 -0.011181270725899056 0.0823325016406713 0.09309790477632507 0.06214387068375931 -0.026993813336377737 -0.0062371223900151 -0.009268387160099572 -0.11677686303651486 -0.19796849719696594 0.11019642136491231 0.11300086790665914 -0.026421326584826946 -0.007059960706363231 -0.0015133995371099005 -0.05513418428238255 -0.09189691870346843 0.23784045580506008 0.08796798514173111 -0.0754646758428303 -0.011319139682771307 -0.08339393472408792 -0.11236278307185253 0.051752783251864026 -0.11529045148618872 -0.0005637843810067654 -0.07134066645348425 -0.03311644715244709 -0.05411847540784194 -0.03528976091345989 -0.08146407497372203 0.018437022355914646 0.21117431542887705 0.11899007286554569 -0.14044107937187986 0.038739113063800026 0.3169177962275864 0.10020581740940726 0.041300572924584555 0.05799001202508375 -0.10236742116067232 -0.15712976259317474 0.05818111829108205 0.06478410880126116 -0.1697502669995393 0.027909328202675127 0.06913286092323229 -0.0498394464580036 0.11140950950289717 0.14289904411146004 0.14078270876512192 0.035949707150644036 0.04387768843342844 0.021345485396368352 -0.04004431735549504 -0.08578731816103408 -0.1279717303433327 0.07542505813454724 0.12330432568117058 0.14989476667400312 -0.10171256822695195 -0.14174781517014912 0.07463611729500777 -0.08042091319453688 0.16252647653692975 0.1360540276938478 -0.07170861835681518 0.01434421124317578 -0.10914110615826181 -0.023259976447630462 -0.10550078244910949 -0.11899324652321833 -0.10792832068076133 -0.012491283375275768 0.11783256842936246 -0.1728064309348334 -0.06607061056076097 -0.00936429198430843 0.026215745763164572 0.026704328242645077 -0.17964557441509565 0.008451040093498592 0.057727215843815495 -0.03805609611863487 0.12124456237663753 -0.11254077945414515 0.00225373189079294 0.024722420061808522 0.12741568496803687 -0.05219884733526218 -0.02430386476887323 0.024862711368757062 -0.013114151442127533 0.042962587009392636 -0.11605905156220762 0.04911989837124207 0.10306165468422973 0.1424668154191095 0.1339421133453818 0.08187538471249844 -0.027462804083151035 0.026659585694559108 -0.2744854507415194 0.040090683377882096 -0.029569811211966814 0.04453619636657771 0.03769867274770488 0.16053592881630194 0.09243453403524568 0.08543333314135113 -0.043457038664470884 0.18142417121731083 -0.05131837923425514 0.18155180770581483 0.020635210102013607 0.015201558329998989 -0.1428337820074053 0.12843513311894236 0.07453393531711891 0.05556131129018469 -0.21160241748785588 -0.11601259788198788 -0.08095126772478685 -0.1394161369363141 -0.012672841794072819 -0.08386954243636963 -0.16604766359574674 0.07913443544805798 0.001312510767816781 0.18276841363618307 0.17401261329113127 0.042767130309394635 -1.9259571223955682e-05 -0.24025075451984015 0.017599510039933573 0.022112161355207043 0.12086166756846056 -0.021097442293049593 0.23940076874413485 0.07902082655662895 0.04020112260104705 -0.0005011951011054034 0.08114106529671303 -0.10313447974801451 0.025873931730470447 0.01728831940680245 -0.012257297114608379 -0.10019193241357174 -0.09374898437953814 0.15526736870260127 0.11544185501653287 -0.14426961279624503 0.11785991975993336 0.04336538385703078 -0.12761290749655493 -0.04837304977042406 0.0091293146763236 -0.05796388642910588 -0.06797935567223991 0.04002985114665955 0.04209505270431772 -0.05095037294583082 0.10838254809290307 -0.18902066315393878 0.17052018471348473 0.06659544511242452 0.027183132869408794 0.0523876562693162 0.08642980959996044 -0.08415830553691743 -0.07076002288217095 -0.07522864097531112 0.084703065841783 -0.0528059559405938 -0.07494581191528436 -0.029578784719605636 0.30358924656218295 0.006930514488804479 0.11382165291906099 -0.10705606972667098 0.1148712102062774 -0.03407338437463489 -0.060877005114399155 0.07357866603446131 -0.01667884401354723 0.1667181126695241 0.03661478504880624 -0.03482434951268555 0.012378892285229086 0.05761697297354917 -0.08315920421288693 -0.12471660397992808 0.16635624991855705 -0.004801919260468145 -0.052140149145632524 -0.16160668235335876 0.08986524744880606 0.2246553486427911 -0.05299632664539752 -0.10434734257550785 0.012101055802603969 -0.2159259279162951 0.08812955228057306 0.09311378078390038 -0.10898866952403029 0.0895339251581503 0.010274295501690667 -0.0004640829775972072 -0.01027780187388092 -0.027851871011573034 0.06639420191910649 -0.04913906507380589 0.08869035285452237 -0.09294760479229452 -0.013293370160648209 -0.057824140439450666 -0.043267413018895855 0.009706772876090619 -0.04569466668723263 0.1253811197394968 -0.156231891139081 -0.1621664938360039 -0.20699349261416766 -0.025263452158404844 -0.08619601486793424 -0.07471824188164072 -0.0861145359224334 -0.12237815017701173 -0.013923758724584664 -0.11205036630051446 0.1600925103688714 -0.07684270071249394 -0.0443114245035607 -0.05847175525789167 0.03777376242917799 -0.03607700198803314 0.0409281557073419 -0.07206554966630728 -0.11088011261473225 0.08207694102690821 -0.08795537957430752 0.1638199930732772 -0.1347805165971835 0.05714806549008224 0.0731234785851577 0.03165116261455122 -0.20801412185339282 -0.0063447505636939315 -0.010219494483701071 0.08243363934202232 -0.0006269394039510288 -0.044242857307664855 0.07034037505722034 -0.16036319733006862 -0.08453942381595714 -0.11523814571583327 -0.014585798914026818 -0.10482415210197481 -0.11900775964047937 0.11207125175586788 0.05710300162266252 -0.09222699976196483 0.11295537698020085 -0.0897745863473048 0.20971216048631855 -0.1539159437742731 0.16905265543963283 0.203923260642618 -0.0963373023134114 0.049236688193226665 0.0143743012656491 0.04905789099128334 -0.05996913240861667 0.040309238921489056 -0.0401081774670604 -0.05858900955462824 0.075026541662425 0.08504710216017802 -0.0528605154408255 -0.0995486917585169 -0.04540114024227745 0.10808016820606092 -0.032411391918798486 -0.15751160079977689 -0.0471893821795875 -0.029670400646929954 -0.006366529253366008 0.004965767103336373 0.005821854041340328 0.014225541794242097 0.021139532989964887 0.08350909978706292 0.029344632500687664 0.0251804530249452 0.2138603134216208 0.09932918452773877 -0.001479401310555314 0.08260290984681044 -0.04727482220884585 -0.08055274708331676 0.027940149498322783 0.15976607339587118 -0.0346819723808267 0.0813011977437328 -0.13206226171585958 0.05318256100007798 0.15018281595402347 0.09350319778299956 0.08141455785953533 -0.027055480204598144 -0.03778610835479042 0.0025981636331822203 0.08138778246730487 0.1366880006550048 -0.19312501028688944 -0.13944877102905787 0.1074955821852664 0.06044022606713324 -0.0161370320391872 -0.029198024357304703 -0.08661234843280018 0.05766856171023748 -0.07080378646024334 -0.04384343763810025 0.008420563699968618 -0.08252301874015278 -0.2397523438916853 0.04436951487099571 -0.06817549385709554 -0.13508176138768432 -0.02994667036611719 -0.08549666513532615 -0.06482370835397548 0.008373984941375246 0.016779598776101107 -0.07342901504355653 0.05431659040723228 0.10449441898539513 -0.09888410115075492 -0.11482147656602498 0.2629460647307859 -0.18749277575044418 0.25019692658599146 -0.01667944052818815 -0.0769205052859981 -0.09629513353905199 0.17739070001810542 -0.09153665690396096 -0.1191044278527659 -0.03988379220864171 -0.09738314415574448 0.07277751614333232 -0.04889458182049522 0.0772639700514772 -0.0752013815901937 0.04158334728789869 0.04363607084875534 0.03386072281300786 0.0020346641247715683 -0.1298645581953936 0.09700222560605873 0.1283534064468562 -0.028601119230922997 -0.053381907497599294 -0.04949047650132146 0.14974514363596506 -0.12104465129992517 -0.06971884108435007 0.09371953255351205 -0.07892576383792432 -0.058845338478414555 -0.036626673607448326 0.11200430934419836 0.07453858021747077 -0.02340770241794774 -0.06020962486276498 0.0869102692583447
0.006313355542674933 -0.007444334797229069 -0.01952931004637966 0.005358990541653758 0.013159836312003532 -0.02086532381988198 -0.012785947291800746 -0.006930186302199909 0.009875976511251135 -0.007263604510271654 0.0025231438205349766 -0.008945115341998733 0.006316735869428956 0.018237245966194703 0.006225478915544778 0.005695209737265418 0.003582941340216099 -0.007876848527068755 -0.010063342684995844 -0.016165439425742473 0.011778995997196324 -0.003764848770123886 0.011981082721371163 -0.0037642084078420737 0.007339802159535875 -0.013663715483964159 -0.029404400300978954 -0.010022726690253421 0.005973789742771221 0.0014185538817569532 -0.00047946975024120906 0.004703267121478166 0.0025278401021745873 0.0032752101989472365 0.0031147824732078557 0.0029039589633745263 -0.0055220856787945695 0.008711615275310072 -0.005389315889513019 0.007681922592109074 -0.010251321081640298 -0.0024082332429755967 -0.015321875151567538 0.0027547091876891135 -0.006217830754563723 -0.0069994066888119 0.00895127402627021 -0.01571315331026343 -0.014274869659014533 0.006787657986667557 -0.01064728661134119 0.02112286595696143 0.00018173906745567903 0.01463179653990933 0.006764925082544214 -0.008690177296238772 0.01223744245491284 0.00350039680437525 0.005644929311150428 -0.009429046270781248 -0.006261641071219626 0.011320629806411738 0.0093281352017043 -0.00011125474314817504 0.010490987683938973 0.017994293451859735 0.012596928970558686 0.0076494579154182596 -0.0024097885409220454 0.0059756399248096816 0.0032136026644685313 0.008094540933566695 -0.012517964678601603 0.008449954187037163 0.002410049205996003 -0.002434586808275113 -0.009205741533829937 0.010499105472225153 -0.010976485431106525 0.0134027742719146 -0.0033721828886506557 0.0062667681018626865 -0.001234997365718145 0.00414720383403442 0.011841329360317824 0.01670716542432186 0.01869449932657451 -0.007776301222517163 0.004006298802927879 -0.018652891665732623 -0.015149835198041044 0.012584945670532572 -0.012674594996793465 -0.012427086867781316 -0.03553214497094515 0.004684919476430022 0.002967793636395964 0.0006158887089650372 -0.019332680894680484 0.0017195296049935024 0.005222409453322585 0.007573525437652721 0.009143712101152548 0.006912336417034739 0.009132312693799325 0.013814873650112499 -0.004283500652964776 -0.00040834493666265504 -0.013632200097459475 0.016273351200194963 0.005802176691504813 -0.00817200106827584 0.00842264859202855 -0.0016838611372700185 -0.002290312940875747 -0.004828521280300841 -0.000605621088160314 -0.0024399754683804707 0.018009862880246127 -0.018073509012512916 0.005607236577635007 0.006700424287731216 0.0009904008801348155 0.007610791481919544 -0.008670159335532664 0.008599705673054013 -0.004231991720543891 0.003157348611777529 0.002546766002516691 -0.011398257817705416 0.012040486002344385 -0.013008700228123461 -0.00109262068325982 -0.006796489607018222 -0.02480348953124572 0.01778070798332121 0.007780327491565938 -0.01660450571310518 -0.002623255436757966 -1.4673125482011368e-05 0.0014982780479345312 0.007135437159686222 -0.009757921603675297 -0.0013008954219626806 -0.0033374638807419747 -0.01333193721874699 0.012314082867473777 -0.004179994828279028 -0.0029932853355325566 -0.0007302640256824894 -0.003629336879455852 -0.0073371467925242165 -0.0025270395992910036 -0.001513945004842491 0.006011272656190864 -0.017138039488526803 0.004256684078811988 -0.012676396867710936 -0.012675849760626084 0.008593770965400883 -0.013157749963454772 0.005810575932441505 0.010258250405950757 -0.024262945034844212 -0.009214592077434218 0.004844882156619994 0.002950676937363973 0.001030241998964421 -0.001865593093638211 0.01023002515030825 -0.005018763985851274 6.02361791972176e-05 0.008416366728690578 0.009645961523435291 0.0023149698069638218 -0.01554187129513964 0.014513698087821198 -0.00032887830519347716 -0.008870004900420943 0.008474634664270715 0.0013597262226959226 0.0018163125669825465 -0.008978581097774628 -0.005719836905602506 -0.0017464082866278548 0.00941087927041212 0.005658381366365673 -0.009564254707427809 -0.008993239925358843 -0.0005767075002003343 0.005827921102877939 0.0023359136091732242 0.013801716291288403 -0.004873094963434663 -0.005583513588225285 0.00030785866774116785 0.02243791287396322 -0.013421366693010368 0.010660909142562717 -0.006050383046765928 0.013279013943296707 -0.005730176927663672 0.010138670161990538 0.004272797188092182 -2.6674245290218122e-05 -0.0036001295214826107 0.0028071546376273867 -0.0031469672169376767 -0.0017285580612348122 -0.013535420924202903 -0.015804043234114565 0.003976754675735574 -0.012846144660178995 -0.004986786483889393 0.007679884646236374 -0.006875620772594637 -0.007449246555933213 0.016282452602151158 0.006707374061262606 0.014128750119180364 0.016367021669991332 0.013396518881350508 0.01995768273828306 0.0017763656439590506 0.004271247686535125 0.005847567621313101 0.010645674650365087 0.021366580591735934 0.0010120143576467229 0.01106295237189706 0.00623375143481913 -0.001485313582463533 -0.007050377428085037 0.011226487014873523 0.002887257371825785 -0.0012675782012044354 -0.013342874314539491 -0.008868018819600228 0.013710035067394637 -0.0026383227147946547 -0.013635475187672358 0.003921789620875601 0.003093235432299899 0.018469043620022184 0.0011650557268562348 -0.004879350606349757 -0.013819639276738094 0.01356107418062494 0.015798783943876002 0.014141532070219419 0.01117955807008367 -0.002037967310398721 0.004537808734900715 0.01302637354458449 -0.0028113009345864717 -0.0075937159920172505 -0.010012933526773375 0.006992335788605539 0.012411366963354674 0.008120604894432594 0.001170106172453181 -0.001215879342781944 0.0034889738576439396 -0.01205161643304038 0.015413358548337289 -0.004234366200294925 0.0032064703427568757 -0.0006665184625453381 -0.006671038093872292 -0.0023003178169948148 0.007009930211013632 0.0018849132307675051 0.005169932786378193 0.012111779834916757 -0.0035191715143809976 -0.0017222713795082317 0.01241745382482033 0.0025067539216540964 0.021729819712964872 -0.01751717018844901 0.005422373495868085 -0.003376494978578525 0.012947999052025663 0.0004430789122697497 0.008282435338505251 -0.01280870469011082 0.006434031637945228 -0.00032873007671828944 -0.011350862714723423 -0.004461287133593357 0.015981192759241505 0.0011200934616476831 -0.007593539282006384 -0.0027152550436226513 -0.0024506530285055297 0.004294717401958375 -0.01571814490219049 0.0068480179198795775 -0.00280054656917497 0.01828692693955004 0.018181138480432252 0.01506750150182137 -0.010184184028382072 -0.004060367220111311 -0.017328925999189154 0.0038201329767601766 0.00019901069446116572 0.014194634716410177 -0.0020683993767621517 -0.0025887878232077233 0.027106557317580583 -0.008431710017512663 0.005314207350876018 -0.004640267374301592 0.016857145639311975 0.00027747750568283625 -0.01713264583949547 -0.011680451960091667 0.018771340135077235 0.0025716399599264718 0.01678571687754409 -0.0084996524680947 -0.016273162226823585 0.00803653682977706 0.010643195982034965 0.006930418535296651 -0.004315057083683605 0.005044713859886849 0.00997939478857762 0.015223533906053535 0.007482488084871198 0.011733444321676776 0.018443334458603595 0.005643059627469406 -0.005734155019037151 -0.004476560649882467 -0.0019063637455734655 -0.0028451117564659303 -0.0005946070285900233 -0.009558643045602751 0.005764443995628642 -0.02072969632644809 -0.013166054816242728 -0.006163736399161458 0.020024676469097207 0.003092927808075374 0.003965530239858431 -0.012745894302755119 -0.015544733062817933 0.017784463724381486 0.011029020800432996 0.0033734427176788924 0.003417183213092722 0.002355321559479826 0.009058999189992754 -0.0012600122211642345 -0.011827070940586841 -0.0052324521780945455 -0.00802360025277574 -0.008200128832720765 -0.012282531943722745 0.00701899823398601 0.011003248588402124 -0.015310331815733583 0.01014315727920329 0.0006311359715865753 -0.012959013866809267 0.0004902266596877887 -0.007756162950800322 0.002681465348016962 -0.012135593426643729 0.013463086393875293 0.0008455607460488543 -0.013308058132606354 0.00964191299029289 -0.009891930006472335 0.013885786457077207 -0.01032048733535234 -0.008095001091879746 -0.017672951181273294 -0.010136072758863243 -0.02575786421618287 -7.948115074709989e-06 0.002001861793028841 0.008440923261476996 0.007698323763607284 -0.006328775917408721 -0.01125173647732578 0.007003908092023974 -0.010116305938774002 0.001267254894303374 -0.009775185419681774 0.00733493885264929 0.011249758044892323 0.014038258642754452 -0.005993647941065304 -0.004279889273554988 0.001362692941110465 0.010153605138248272 -0.007151395728354932 -0.006309069561488319 0.009517651760634863 -0.0005994213180380246 -0.004879536865393046 0.0036791585246092814 0.004592369359725424 0.004170083446663185 -0.004356296214454383 0.018911686632306742 0.010318691382700418 -0.002739633331746363 0.006764593720947743 0.010060248704745492 0.01199552436729795 0.0006691241001241715 -0.014720337149592283 -0.00733774556104813 -0.0064202258010902236 0.008485014991411601 0.006590195237904989 0.0040263175937720885 -0.006450533772405936 0.010643576589294905 0.0034138176378662333 -7.659666950323423e-05 0.0154001037377082 -0.0006670135239794839 0.016324469957369126 -0.0026254231142959043 -0.009699703224168027 -0.0028240010754416976 0.005375151943175275 -0.015973212199478497 -0.009109611542737714 -0.020475749530569524 -0.012982340603360773 -0.007667843210182506 -0.0013036671910528841 0.016055615085557133 0.009315450626532832 -0.005724622369360554 0.010435360274240834 -0.012777912255863345 -5.394196766832068e-05 0.003970796985197804 0.006816115748007968 -0.002763916062838201 0.0027294237969739134 -0.01853374720142821 0.006457769030638536 0.002773037161146586 4.742954130196082e-05 0.0020560654088019933 -0.019615448824136034 -0.004461350366588767 -0.00037449832289288096 -0.01879940897163403 0.0011043148584485903 0.01187420465028753 0.008072756022485326 -0.006243911135820047 0.021590336520626065 -0.005261461181501792 -0.014858926031312518 -0.016045369180836565 0.006676646703771354 -0.009948597375172783 0.005943818041614379 -0.003083300206387835 0.011855529351987084 -0.014459330168607685 0.009444920743967225 -0.015308810875684482 -0.0021739967141536465 -0.005753704778361008 0.002762496985025491 0.0023965533538908264 -0.0005615747139440647 -0.024578124595865277 -0.011630210668505203 -0.019034943013923146 -0.0023236537556579283 -0.020954385786075124 0.00564274856479001 0.019640609821089148 0.011406345997121054 -0.021321223572511813 -0.0065877297962906355 -0.00820185497518639 -0.01804206902195583 -0.00608340231675387 0.0014907833840977869 0.005154608709090166 0.0031938186230351003 0.005837876362669466 -0.009704115812570914 -0.003630403855742932 -0.007952226518361624 0.010015777845870193 0.005230924517884375 -0.00806274645660211 -0.00474951185005335 0.002011586017446583 -0.01173870453965753 0.0019196427516980795 -0.0046187115135540805 0.01373394569130119 -0.005861580270369135 -0.00524323907633493 -0.008890464731138128 -0.002275566505477438 0.0023144120752672495 0.007964600596556877 -0.0097092892408529 -0.0015773934800654887 0.006019858086844571 0.013481584943414587 0.002686179056739933 0.00920441690062738 -0.012862485588827213 0.0032561853327623775 -0.003776637433784563 0.014509671594164261 0.010314304954602511 0.0041583326029071745 0.0072960992299711995 0.00420876194789112 0.004356020574153575 -0.0030553667623761313 0.0007723696396848437 0.0035357678426837127 -0.015553053282401289 -0.009800197117276768 0.0022155230168550834 0.016956202007799816 0.0018824732327023441 -0.008897284554418383 -0.003060714383574309 -0.013485509555723899 -0.0005666908739622589 0.0020357405143416408 0.00837714932244014 -0.02624370697277058 -0.012673295827138536 -0.017835577337187453 0.004136588123448949 0.014681726150105878 -0.0106408531228944 -0.01126760199816391 -0.00020678701662798894 -0.009340957831418589 0.020854963487407407 0.008997358601066128 0.002203346476632886 0.0006955115031382035 0.009871334455408757 -0.0037487268474735557 -0.001128304112251051 0.011475091660885341 0.007545797161506038 -0.012688496293613016 0.015314464120506304 5.2245633928894016e-05 0.011467650023922013 -0.0026965046270565497 0.00046697382470405063 0.010945117791075347 -0.00478510395039503 0.0028085953066370713 0.009974831783363879 -0.004791054761557106 -0.001001990679778138 0.0021041284044318598 -0.013777271413835944 0.006908323444932964 0.008675156516317459 -0.0013482734110742943 -0.015161401804406215 0.01371646203093229 0.0002063996568028367 0.002694347316115925 0.01887001431324455 -0.007780734706231216 0.012464719196656902 0.011985484357624308 -0.005707484263577568 -0.004210543230317847 -0.0011659207164838507 -0.028673202724107318 0.001543963625785667 0.00021481922022448304 -0.0016950542295568432 0.011529850071363278 -0.015573807931020398 -1.841031841312675e-05 -0.006610678493200276 -0.011892136910475238 -0.0074079963985825194 -0.004294754930322551 -0.008577600356084292 -0.0012218981367628893 -0.0013983379828116644 -0.01245373096933276 -0.022280053927615815 -0.005636635191070692 0.0013381635799438929 -0.007988051687923879 0.014666816406073797 0.025426122056706857 -0.0071782961343235955 -7.511401860553733e-05 -0.013516210111917532 -0.014863391696508863 -0.01268266406699124 0.008920324514803853 0.01609093955997061 -0.01228445939277326 -0.007388641426628328 -0.018509569841091908 -0.007904866530746622 -0.020685537203284154 -0.022284712943558972 -0.0003507417126416946 -0.007227598943927762 -0.0005017703362733499 -0.004257372640167332 -0.012583476888282865 -0.005935188787683949 0.007809246123651766 -6.855349736091049e-05 -0.002895106566386137 -0.0028145664678803253 0.0005841648687970204 -0.007371289393022016 -0.021938043169430044 0.0035984135474006695 -0.0024748402254225334 0.008170818825948414 -0.008801386684921798 -0.014281596476720738 0.0040171621364600285 -0.0012931764258862254 -0.011901200939074335 -0.00963725786288692 -0.0019479146904744949 -0.000635205372782621 -0.011559798263029528 0.010617739821550922 -0.00911014288011907 -0.004267043631246755 -0.003476552199805019 -0.02037946563092815 0.002204426336137441 -0.007704640551760674 -0.010302252927318005 -0.0033355284266678126 0.008440307242188713 0.00962612881707602 0.01115232130655948 -0.001764509186420754 0.00573552106260135 -0.013617146387769535 -0.021560189848411352 -0.0039599348226821455 -0.010080704794200203 0.0075015608427939275 0.0008596736680219067 -0.006393747690977697 0.0009724124225185513 0.010809738999978473 -0.015398046514527634 0.009834736457498532 0.0007857160646663143 -0.00448236243313563 0.014236283186051595 -0.009341741350740293 0.01868654944076672 0.026858886498504365 -0.012193658561361254 -0.004038794092065802 -0.008127063256734176 -0.0071619337586976695 -0.002859815971111807 -0.001894165436873504 4.46257368241403e-05 0.014885197693554184 0.0023466417418332008 0.002141969468253029 -0.015283495479597804 -0.0010780712211896218 -0.0031295074354706774 0.004123582938022212 0.015854142882422644 0.021846589085195073 0.013261543919413482 0.008773844990708726 0.006581067900339815 -0.00911348496380389 0.0035382867868887155 0.006615644003291687 0.004232371818941309 -0.009594969389657947 0.0031416371484598565 0.011665751773610667 0.0041524403325038164 0.0008273929564481788 -0.0009394573776716036 -0.010484898613992327 0.001392705896480065 0.0051686252476214915 -0.016459205280175637 0.0015228096839584513 -0.007301552335585927 -0.027343830189021357 0.0046835735522395595 -0.0035021348728640767 -0.017841422164418072 -0.006535641815294139 -0.007126855796036608 0.007141477408942081 -0.016233975210334893 0.00034822175184926136 0.0020417401206662784 -0.010579136940497303 -0.0038290821131125403 -0.001559178589502202 0.0022710873254244584 -0.012332574883788206 -0.02521108219013303 0.00874360458025656 -7.565262431376061e-05 -0.0012818865632665169 -0.0010731603157286978 0.002857329349922509 -0.0030177660055194138 0.009463676796112817 0.005324781989803092 -0.009150764171930705 0.0003878806401762427 0.001471629799239941 0.010234184214180373 0.0007088538589184972 -0.003782814149815123 0.0019079756396182146 0.012454819647125961 0.006289389304011207 -0.006688387022748887 -0.008011618078580373 -0.019354787149493693 -0.007279581042761245 0.004972533855117768 -0.010414220415701171 0.009746329748144692 0.005028635620106984 0.0028129234831000506 0.0143825174225597 0.009078524480797805 0.0008486864309161912 -0.032346958984774216 0.003660223552174629 0.005046319232043482 -0.0035262396492365938 -0.002338841116747951 0.0175482251592118 0.0034688423164873443 0.010489415487573208 -0.0079233936512635 -0.0013117206198640064 -0.0027577899501843666 -0.006131591615226202 0.018610900287456215 -0.013015261577558404 0.0006464577684350425 -0.0032000805646446944 -0.0162652944625504 -0.00154393081931986 -0.012230428222004493 -0.009817809501189519 -0.00015026042310546206 0.005178483156332574 0.005357384609195734 0.003844769968565457 0.006845687768846839 0.007472868705452483
0.16174458317500484 -0.029396429105517655 -0.12798900184306086 -0.03173452419199036 0.025383295451891136 0.08110358548538617 -0.014530316304981026 0.006636249380330197 0.04132649211941666 0.1717260412121804 0.029139632977466995 -0.12595706983419686 -0.12829199382790576 -0.09633585292661855 0.029682258756721834 -0.15669533049075285 -0.008142277026381397 -0.025392354596265706 0.07309682675013524 -0.1470589922011907 0.025352231284742562 -0.031330458442057486 -0.17588285429525893 0.08864627194747948 0.04177996594976746 -0.048722218763419305 0.07232357896933277 -0.057542429236459754 -0.02966542625652143 0.027835297964965405 -0.06607890946010835 -0.10356783283749645 -0.1653501226870035 -0.07698453748910072 0.030949644664728094 -0.033805069912179936 -0.016412463736969612 -0.017333277366879406 -0.20992694826877276 -0.06365624965251519 0.10587605247891547 -0.24082447509823923 0.3317544544335021 -0.03313225132020012 -0.11114244565714528 0.04856706009915904 -0.01651028523276587 -0.012753657779301947 0.1324267836770186 0.006407364574256464 -0.09166695077019174 0.02484955583728184 0.04884069146059374 -0.04470017781264052 0.030693938358038738 0.1186485483271276 -0.03689109249749626 0.11528605800404852 -0.19383040363195636 0.13727476586150175 0.005250752552514232 -0.1355349115439965 0.10588141493376105 -0.0829352293720481 0.03571293858624261 0.04255675056495016 -0.0016254199494974719 -0.08092171418438279 -0.11541134808614055 0.08998085797105204 -0.03629848643666441 0.03338259007312873 -0.06292003728777994 -0.13950182907678507 -0.043817251466969694 -0.07859976543025762 0.0027178487065678005 0.11216862949903127 -0.09817016595648892 0.06820649310427666 -0.0768969837662916 0.1326402344760855 -0.013606868365710833 0.14206618131075205 -0.028437650200827953 -0.005733968730859708 0.02707595925972325 2.3422863245035665e-05 -0.11209156968950255 -0.005095769666501781 0.07710475209780535 -0.026669638760527793 -0.0955792670185757 0.08332989540586527 0.0025929115873517417 -0.010135374876735916 -0.017885180946585744 0.06643782785514916 0.028518963962878043 -0.15155577102559703 0.06930454849781838 -0.027879508327683915 -0.058580301149104966 -0.12639860863898952 -0.08485984789848586 0.181763642937708 -0.13823691649665124 0.024532741827689684 -0.127325847323984 0.03311361864961798 0.16150022997933425 -0.15430746837244858 0.17270631278576157 0.13125752719931616 0.16775948539505642 -0.02268092753320173 -0.03532005671675705 0.13013943680646264 -0.11146280103809467 -0.08707069138080158 -0.05269799579988601 0.05582364267375531 0.008643352331124262 -0.07301562397679669 0.07170502085420682 -0.025136890077071483 -0.16079012289994443 -0.12453265912804157 0.21016285027837253 0.13975410122698295 -0.07667703888949852 -0.041943406512006294 0.011402264219154837 0.21088419182478607 -0.1973946032235602 -0.016690748912155922 -0.10643964887435595 0.022490149114203814 0.141104299883836 0.002155381889784135 0.17063482302567404 0.04883895573174438 0.08786935906380426 0.10528929188208845 0.028746957357647963 0.10515613691531787 -0.02645872211837444 -0.043516401769542905 -0.16390450825263106 -0.0673429965918974 0.11372150892949977 -0.026346480859772575 -0.11462447681512658 -0.051729120061038684 0.02827816835895129 -0.04559041129933213 -0.06721184136612214 0.06094265947276313 -0.19165009131233018 -0.00016319991355126962 -0.18636075852284667 0.019484895760793798 0.05363373840990892 -0.017721356577853443 0.0488399545454532 0.09445701164676001 0.18722672141975602 0.04421735350187189 -0.021170056343533687 0.14163871387174448 -0.020767174298140123 -0.03561530407528314 0.0140722169285436 0.04521092741714213 0.06993774623385735 -0.15778180766636826 0.020075163824228366 -0.07456972145342336 0.05809751323147199 0.026780058456826007 -0.07767958746873019 -0.018307926023199726 0.1040523337181977 0.018988635812921546 0.14798507308829195 0.06615856684999977 0.012307640410385352 0.029612891056488712 0.17689600493870825 -0.011483754352923667 0.03942558174671146 -0.0030072730253161784 0.14894768420630392 -0.20927637777305585 0.2242072676071811 0.1318230305434216 -0.15853065795715002 -0.11000303699431926 -0.014089662461645917 -0.14303243915726682 0.0541987879494458 0.15366018944782575 -0.10059223085472419 0.05001039533889847 0.064219216040723 -0.11768985962119057 0.060008091287121375 -0.0421908401386622 0.11170221823768994 -0.3134288770772315 0.04225881655857858 0.041101376798944655 0.08407361241102557 -0.061946389755042644 0.09369526938666956 -0.054696025237819954 -0.01450859650445447 -0.03242239196681212 0.05583285216082304 0.005162178435281704 -0.07227110935785858 -0.11721487109642433 0.21535420327371854 -0.05829206811612226 0.09717887189503045 0.15452625138039322 0.01084271245722694 0.03190064217033978 0.08707968255042338 0.04048211245386307 -0.19528789755057038 -0.02608906432274267 -0.03948220246000139 0.21176473474539842 -0.09520034297316665 0.0412183360214229 0.11008812624492795 -0.08513320885123617 0.04367952940528415 0.07762275137577733 0.07885037318592167 0.09926353948936074 0.15440755575766751 0.14227287911000386 0.010530295723030518 0.1924732365164386 -0.0594748313397262 -0.01589575234544734 0.09597384180014279 0.10023869677540524 -0.04873042895674256 -0.02702525715717914 0.07940081893872608 0.026889791984911555 0.19033546926045114 -0.04429814963393622 -0.016848744627365658 0.06138117186941335 -0.008792046129804193 -0.04752813455176385 -0.09865152022619518 -0.06901016178336494 0.06652647930861008 -0.1002740324018265 -0.019093764805378232 0.016236176364358024 0.00041768564430170297 0.04403481936716403 -0.09996140769283662 0.026258909740575508 0.014038262374861093 -0.033350769537077045 0.10066865654596045 -0.04401769202810168 0.07609981969450917 -0.09011559354124375 0.034397217507075244 -0.1277599076075223 0.07779938301446788 0.03485333715006184 0.0030497445421359677 0.04161827277645463 -0.09130884319496525 0.06379188739277898 0.03191814221571395 0.04451284566067794 0.11293016629259901 0.19622385427220027 0.044573149784768056 0.026591925008446225 -0.088646940252397 -0.17826307066373606 -0.033577377928919155 0.08061142319012943 0.038095157373236634 0.020463714577487753 0.04938825886364426 0.0048065481559206435 -0.09805134023344103 0.08608003121861513 -0.003254565546378537 0.06420627029090233 0.08587461854320808 -0.02342772339185332 0.14008869730466825 -0.07098196382254819 0.037074992488780656 -0.26965515707835697 0.005152434890620513 0.056098773133038286 -0.04835995481550504 -0.04542879733662658 -0.014467351365656156 -0.02101699024329802 -0.08895594363465727 -0.04738522728467791 0.11628327308674265 0.12067237036893375 0.1242819363483084 0.26243384259051206 -0.0990413171089149 0.13594033439273573 0.07481811770864609 0.11428526856682532 0.2158295976129933 0.008049647096873756 0.03992155363600563 0.027764530142402384 -0.09508703886537934 -0.05186028232194767 -0.021667063809850826 -0.15455885738555156 0.09497689533683432 -0.039375532227451736 0.0005737451185873443 -0.023345731975636448 -0.011804327255648723 -0.10671497498239245 -0.09575702751288197 0.07143970412310133 0.030009890016430375 0.033092316338575074 -0.0038447281446693958 0.015605659181633577 0.21100731910680354 0.031712958227168346 -0.16159392057872995 -0.07103796521388366 0.0737817711533193 0.08837857068809137 0.0799394027062642 -0.02005594241876022 0.008253052071640968 -0.04101643292302133 0.05691687376550936 0.04605719823351113 -0.08221296439434442 0.09549504381370075 0.15249115005698582 0.12790404917961234 -0.06293192877151955 -0.08591698261663068 -0.08304521821107519 0.02703994847255073 0.004674643425374882 0.0035759355989029343 -0.023228300666495914 -0.2389980400597526 0.037715984611873345 -0.022829929520794122 0.013739728663910367 -0.1146735454028307 -0.0011256523742036973 0.07488773720239147 0.050061224386777806 -0.034834252208527434 -0.028436033163953753 0.10557180298795767 -0.07342606798926066 -0.07041616657308705 -0.029223797738039375 -0.05542348763008035 0.0326605954615 -0.0077214958432042 0.061360025805812506 0.057395789181429964 0.023476075170466498 0.17275573907735808 0.0921995926260636 -0.0993977556386296 -0.00198900257299315 -0.05391704810344936 -0.05939326121486678 0.008573067216422302 -0.03200032924394607 -0.001136928666966036 -0.23910516674434448 0.07066824166472876 0.056229022675603396 -0.10257800462999249 0.10590721989193501 -0.09096288102852525 0.019295416844118212 -0.0484275980117345 -0.2195836537748514 -0.06236847045007614 -0.07444069631366343 -0.30358240989919455 0.03231814977752382 0.05776887162598712 -0.06378866153670323 0.04098450287650005 -0.017583331260046582 0.09785681089228941 0.010981010630123404 -0.23312835621388753 0.10179414411045562 0.04409366402810631 -0.13734822273769423 -0.2357226014931747 -0.11038941284222596 -0.09179005729646146 0.005317397373578253 -0.02190817824683193 0.08977989337955283 -0.11938945951502843 -0.060065138263580876 0.0059126718267034925 -0.037300373251129705 0.07203042304285175 0.1385020829107068 0.1903606489334809 -0.1157685608743923 -0.04841487255652283 -0.11180588597874029 -0.12734237814560523 -0.04254828558374014 -0.17135081365637864 0.0678380502583735 -0.07793088518741151 0.03978043346810734 -0.017883074494436903 0.12473574647108401 0.061526756379532165 0.09784183011456841 0.0323046179166243 -0.10086617612810918 0.07120498073375729 0.1111621517841079 -0.20156793329177816 -0.054462990806859166 0.00045132362918546594 0.1867549256762836 0.038231868026634856 -0.06225662393840562 -0.08162749102275489 0.08507520091555702 0.08284744844037033 -0.08569498658766367 -0.03932066494132523 0.10929438068360492 -0.07068645310820536 -0.08570337225496295 0.07329451112745158 0.08396883677843034 -0.0667157897039562 0.06340594001353266 -0.007786816497247055 -0.181336712201604 0.016777683761731763 -0.04117829485143756 0.23587430491177025 -0.05573997409502222 0.11253984031693162 0.041331426102183266 0.10331845909217233 0.1282606230160919 0.03310993334471309 -0.09193025275010186 0.02282592210722406 -0.21984033811300444 0.030004534537757126 0.09137621897146381 0.03825894689147289 -0.07508088216550189 0.08210857856207876 -0.024389295468990872 -0.10806138145323534 -0.160130946043872 0.10242072935665547 0.18273885781119217 0.1949763924108119 -0.054129789930143314 0.13966193750486672 0.21573084091622757 0.03653596868060754 -0.005867547927630351 -0.03521751347480901 -0.02615999111039202 0.038535657341450646 -0.264440450676497 0.040788947246569694 0.006365784803395309 0.0009889346231063806 -0.0488917432203924 0.02047983246297727 0.029633666149951395 -0.017104020007780666 -0.03260785841132005 -0.11971465840343852 -0.07720630097674634 0.2239072851965045 -0.005029445131403563 -0.09483472435819022 -0.10613685504147309 0.06979443200234739 -0.039714887547149455 -0.06067113565137151 0.18620014981621394 0.06024325686684798 -0.13586128418179946 -0.0963439421470271 0.03502363658985134 0.13607661070645913 0.01163938679475369 -0.04590279535279104 0.1427695762002274 -0.007442780209040502 0.0934749137758482 0.03985556211126807 -0.10259654939326864 -0.04639904011158565 0.029335709802814282 0.15934162168929614 -0.007897930658314505 -0.030010033873618235 -0.018571535837028006 -0.0010470994202100628 -0.0035501484637847727 0.22801305205443426 -0.025398488620141272 0.0424970921395983 -0.0418050904913301 0.04928050469139541 -0.11068323792738106 0.060289583090421 -0.024919258690096736 -0.11765717663436848 0.08223664137265287 0.007721608556478331 0.10872599918786022 0.05007536158506958 0.08654259679369193 -0.13136739950626009 0.18622764024572666 -0.06463882816870972 0.07067220044396577 -0.10061827933562942 0.0761005545957139 -0.005783158356827446 -0.06228966722797422 -0.04105280333589305 -0.04988708043351901 -0.06812732191910055 -0.17275696089451276 0.02487640261799422 0.10996177247290262 -0.01129358719944937 0.06318590116639725 0.10691984306732939 0.055725244461595436 -0.12627250143760482 0.027036035983526895 0.03984141991604548 0.013649255661419977 -0.06506618512394058 -0.023120499535836572 0.10103314220276029 -0.07825556263854302 0.16454992660232662 -0.08597221168034945 -0.154564992467149 -0.04049354940350692 0.008185205550931782 -0.0666901982936495 0.14303332340347358 -0.05530845271359877 -0.01967375006656335 0.11019653145379897 -0.08134590628695058 0.12551919976918935 0.08631630197027429 0.10719499709152379 0.04036206839924988 0.0835224721103716 -0.10099372958802233 0.13557439326474546 0.15618957219732765 -0.11923436538313718 0.0561749158348239 0.18928948816474844 -0.2064245049997286 -0.10861081657834828 0.036519467844167125 0.029843842018101127 0.101566352443255 0.03798273895517199 -0.019435789254885028 -0.0640996609582281 -0.31381945380536624 -0.08809947427325959 0.06072858440849389 -0.04457438861990865 -0.028915386776796184 0.2854445968948995 0.06504601012417756 0.014356187110955628 -0.07156901765796143 -0.010930043225692106 0.04071091700396239 -0.0186778197371607 0.08984217722546949 -0.01161117338758577 -0.02107178461050692 0.08188274242835766 -0.12180683840859127 -0.08453762888647179 0.02558362770756562 -0.07655003056665609 -0.08212772778184434 -0.22166603928403872 0.03204568826838589 0.006615851006895274 -0.05467972892796135 -0.14785944219941846 0.11923912936273137 0.14208373878261746 -0.013062563202347437 0.061767687737654876 0.15269698945772608 -0.13796029765787363 -0.014983715337118349 0.0679015583432731 -0.059610501896335606 0.030782281196802486 0.20667899387931882 -0.07389924887374734 0.23100994612580475 -0.06835549386195415 0.03259839094048691 -0.09268905542551299 -0.19570011548916014 0.06233760968503489 0.06385695101579437 -0.056962644263514786 0.026287574175553666 0.08469824069666367 -0.11141063948781803 -0.02615046840566278 -0.27421423539474904 0.05456471369952933 -0.043753121581955906 0.03101716858208089 -0.00807448227787192 0.08846486857488396 0.010181203176962975 0.056436302272155736 0.030908495198548713 0.13911588903184413 0.25487295917766567 -0.014849864337512423 -0.1638062206458271 0.12047803609701718 -0.11655637951106507 -0.01186688474389842 -0.19588609001632226 0.13043525005489356 -0.03626023069966277 -0.074816606551395 0.04882160427686819 0.04579943539093844 -0.10330219609930172 0.04121510914351427 -0.012054492948790008 -0.10514903717209764 -0.0825288653514068 -0.15782150697794695 0.08826786070799922 -0.1776779131610537 -0.15212671005231837 -0.04799978966695527 -0.16416977017838277 0.12137598099148261 -0.12560695965075183 0.12170833745030679 -0.13821341023313327 0.12340862454640902 -0.05603313487685935 -0.010782500400944089 0.017614954911715424 0.05535590895901599 0.05659854926215402 0.12104562285887267 0.12539199691684114 0.05560910010869761 0.028265313279227267 0.1420073479705792 0.05727894319917645 0.014070742809937574 -0.16071430844918344 -0.0874627348747539 -0.10427133677292291 -0.0074006676589731014 0.10283542486871733 -0.000577929765830832 -0.13768576878464509 0.027882509629338588 -0.03760648728682638 0.013269252988279991 -0.08483353687872479 0.08805600725013178 -0.024716459517425245 -0.17037548432424862 -0.17769582296919867 0.07618787387157523 -0.10699568241439131 -0.10273291405020761 -0.15266872265617978 -0.11705581684594216 -0.04311999608119238 0.03174779989028647 0.044807527334557576 0.1357880820366581 0.06780855670485098 0.06579846521584873 0.15801789374500702 0.05672212185151253 -0.004757039828915572 0.023077266182127142 -0.19145065483740242 -0.12143294390606701 0.15362479518043426 -0.1520167568248468 0.13032593567439024 0.004731585435446887 -0.19532644720156758 0.01944033855544962 -0.12247711206283438 -0.03932403344503368 -0.07788631507102148 0.179386542021641 0.07929958241845003 -0.06076411100163112 -0.24636080159222645 -0.20191906443180851 0.05343061185323834 -0.07821532530095252 0.036702162803775466 -0.14773328864227386 -0.020816767067345157 -0.0026008269319096364 0.02865910123392768 0.018309179042347 -0.08880193086652119 -0.06722138644412855 -0.154677065990866 0.13696522250730664 0.1859521115661369 0.025791384819985226 0.028555492534833755 0.09088235552172114 -0.16473772053782643 0.031084947595933506 0.009486023102960314 0.11790455269316837 0.008929946065843665 -0.22296269284234832 -0.04614718815653664 0.031078601807012253 0.06406436053976416 0.041913959576129 -0.0023009226087372303 -0.14557499724207187 0.21355758005248432 -0.12025209964120308 0.04456344287361117 0.047720054771478636 -0.00946230979794823 0.00900084760337398 -0.03595082619873184 -0.035495481042577895 0.03252978587247358 0.09051059070834651 0.08018552067181797 -0.18069580584685235 -0.1495950229806613 0.04666653881613974 -0.010506845663729104 0.05485507017924334 0.027941979739033618 0.06083044974764624 -0.07467127193520082 -0.11185409441411352 0.13665323706463534 0.07374955164911051 0.10941965246649821 0.1040965992243761 0.10140585515203107 0.10441262643158228 0.14077136051869638 0.047165977869280507 -0.053966254741317034 -0.0641891711616009 -0.016837131064933734 -0.015150334115213441 0.06055880768666639 -0.01820179649182067 0.15022707934195384 0.02553698847552346 -0.01045829353262638 0.011978671457504603 0.00636381548777758 0.037456059762259956 -0.049371266967306815 -0.1299497726920776 -0.010392401260757553 0.006713437777013152 -0.039372801501565656 0.13347214045946154 0.21606650484678053 -0.07471253444106736 -0.1333601062520401 -0.06012139331093314 -0.07213710321601137 -0.02903245908504646 -0.019335352129681245 0.10320096203460152 -0.0997722707017614 0.20194185039116563 -0.16971134417732717 0.03504417444680241 0.055029134818228694 -0.021462198318707965 0.02796164169743884 -0.12712945098495837 -0.027715167865467395 -0.028245420274390438 -0.01430493391704094 -0.009244826308521236 -0.06867746951958734 0.07191483033793997 -0.07799972155007127 -0.012050257594836218 -0.05451597600641937 0.1100958493770948 0.11824289980403943 0.004782599820051603 0.11800798489654307 -0.11485593836228675 -0.059599238842562664 0.15747375838284386 0.15419483131828463 0.17129172934259715 0.028543517598429866 0.05989083397778359 -0.07002702291657655 0.1959457855147534 -0.014120389830278031 0.002289079508574649 -0.02685344833774064 0.03933151793957426 -0.08485438949503464 -0.11543198323641261 0.012533234004364707 0.010899230562159412 0.07385319901301589 0.07063309144639476 0.0019795044542996235 -0.016893716652826598 -0.042742924242679746 0.06132079581543731 0.10795258018306116 -0.11579146307162087 -0.01107261520935365 0.16622131274595237 -0.19556837368389393 0.025987736832712993 0.02582259769943796 -0.10249986084711063 0.17747912813196762 -0.00799947616025296 -0.008904479882982999 0.17916617178826236 0.02627875232109928 -0.06066350956525985 -0.05929073897963741 -0.10981730513646575 -0.01276668288960135 0.19199521712113718 0.04470144179867489 -0.02746932608925954 0.04446818754698801 -0.09300672810822024 0.02097191999072678 0.08566968040437875 -0.09396879893795156 -0.0967333170230786 -0.11396496371766786 0.020765657025899893 0.21900058191059033 -0.04467133486371054 0.015577668725980412 0.006278595653142971 0.017185700238797032 -0.06872543724077813 0.011457525011818334 -0.020941923174945937 -0.18137568681987984 -0.018220960185472927 -0.01947535540140159 -0.022735169954172924 0.13125799808346156 0.005556246404557703 0.11456960389779841 0.11866494482774144 0.053090304251921405 -0.004375214118247798 0.0941734511124398 0.012458850014368908 -0.03215074479700247 0.10218301158326495 0.11677794882704873 -0.09127729119241489 -0.03488196619862323 -0.08024132672729038 -0.042019080364140274 0.06833596888884648 -0.1388364334513903 0.08637564790456856 -0.05433290017346157 0.04573794429367773 -0.11118565797734856 0.029649025291982538 0.008826062108425878 0.055396853469994296 0.016068586195135782 -0.008051159625107293 0.0198537180577391 0.10706908054622971 0.02826675146568276 0.05020374330263006 -0.2014056173751452 0.17728994192040945 0.05133739454542461 -0.004258942651999706 -0.029691237355116307 0.03667759022460391 -0.004566585213713285 0.12653188220155556 -0.19395124356702717 0.011660744968180783 0.11778144680869468 -0.09012370208590005 -0.09120389036786684 -0.18268222499865902 0.16592403866792588 0.05292167586078273 -0.11417896608723363 -0.22769106387502125 -0.03462862601214348 -0.09223881077232479 -0.06812064929922332 -0.1294127590807258 -0.02220388330120121 0.04602181965476377 -0.06240134398869253 0.16279229360333733 0.0831714970287925 -0.06842509592624949 0.08127998582185535 0.1417067625231322 0.13068593701832348 0.10572713847467964 -0.14068380478095194 0.03667847736218911 0.18229707840959533 0.10106725543572648 0.07412491847174733 -0.04434341316328613 -0.011896911574653073 0.08064943140498006 0.14998758711541177 0.09415182567539447 -0.06745206712136907 0.02385454981951753 0.08018766307681793 -0.045016494932900324 0.13815605557514504 -0.11131360797434307 0.06244580770199266 -0.042239176368543054 -0.0455557599216024 0.10913678743490222 -0.1438100301682429 -0.1328497477359056 0.15388072912471676 0.13031302442211687 -0.027782870313852577 0.053612845916305676 0.14870545216186173 0.026978492730334203 0.08108576156691184 -0.10655805203832784 0.022416282053594565 0.15494529833636303 -0.11444147280288097 0.10866915885724301 -0.00814798922497446 -0.008742375537650782 -0.17689540596039746 -0.08091393206329742 -0.03232851899489281 -0.040414528183424836 0.011181496877612511 -0.05883178922122012 0.1354187112340802 0.033941349167610255 -0.004281193033193041 0.00750368177239691 0.04656424143059641 0.2099424854163768 -0.029077861722006076 0.1952031564213844 -0.07731209365366068 -0.1526168746139333 -0.1468143338857778 0.07593457897579162 0.024856162485589986 0.09202859375173245 -0.040381549181159986 0.12279481851618149 -0.08037476133606566 -0.021700506142663962 0.1018069459925755 0.08426151160200523 -0.1596213616035043 0.13000360467961158 0.1554424807700109 -0.15213006769854925 0.10394971423788024 -0.030886455705655083 -0.02038605672409552 0.18994631234690795 0.021663862780281137 -0.20063666901204089 -0.1527473891031281 0.04125767410887521 0.2040571772625516 -0.07483656999765242 0.03533501626271494 0.05746624549121755 -0.06003777715760786 0.05432331652596729 -0.16807784794371555 0.11160840677978599 -0.03535952557251624 -0.0064674535162361855 0.05546326700036917 -0.002991588774745474 -0.1465509706598369 0.10406585371094385 -0.095960381202737 0.06888390089559676 0.04423876137331726 0.010474930036937162 -0.10715768319155196 0.12991010937847902 -0.08884823001071407 0.16602271773787625 0.08554196175899133 0.07632321355446074 -0.13905574756796837 0.02847745108015538 0.052858457565771025 0.10307116212549454 0.010731201704556633 0.14482017312546752 0.09746859825135101 0.10776345282304414 -0.05853928875797532 -0.042509821110855606 0.06306323787467137 0.0915326859054107 0.0006237376375698052 -0.06481157153505014 0.046053690871565675 -0.08324975446540223 0.0022822515953260323 0.04260874303666368 -0.13336985976146887 -0.06603223051668188 0.18097487333695014 0.12112272211891598 -0.18229301349823734 0.037973039218064907 0.09355646940791051 -0.07863475488428573 -0.061876998526635744 0.10578447820342628 -0.05685215008366638 0.01653533217208957 0.022143098788662482 0.03524589403037897 -0.011417395327792144 0.19855582891269408 -0.12295688442465923 0.10014231835473218 0.07644289533951973 -0.15315553316752337 -0.0018353396861928246 -0.010183390336017851 0.039999581628795224 -0.11173079459209685 0.127414089561879 0.015201887037893158 -0.031413959388273426 0.05070597264259423 -0.06177344609043948 0.13187407294577957 -0.03730723491629782 -0.10092638291234945 0.13786194675854754 -0.0939072816747332 0.13406116055788395 -0.024438161452240557 -0.020421176630429905 0.004037766017326165 0.13802524662562707 0.10832006373176113 -0.046990778077295695 -0.24193137739618278 0.03227822478874093 -0.002228720623718692 0.11365840638895101 -0.0024918094028817594 -0.16217114663193052 -0.01142472531335182 0.1672694846008364 0.04226423065700203 0.16757152162356578 -0.07013631805488973 0.03165914865868301 0.01669214701165809 -0.21248416303968218 -0.013612885724510642 0.1405868245260537 0.16231732061309745 0.020579077441535996 -0.14938041555637088 0.1294918796323853 0.13997778834772928 -0.25664146503022633 0.05705552208828859 0.03546890626811373 -0.12095703769103167 -0.2311513016458926 0.02402100779008921 0.06972606936842021 -0.139887987166113 -0.12518238089273798 -0.21046761434454617 -0.0668744395429984 -0.10091213349360383 -0.0955462053161105 -0.009361088644858946 0.18916577802984677 0.09650236652796791 0.07126384717125563 0.052176314394088034 0.24261585961114943 -0.008753625097436808 -0.12090744282800842 -0.07178335520318757 -0.1199412699853279 -0.028324590411802884 0.10100626579583467 0.11758234602306925 0.04511085277799882 -0.178438085448364 -0.20236408548802814 -0.12973250588835292 0.12936785591812294 -0.06791697474263084 -0.14796747180460326 -0.0336281515715965 -0.03140725309367794 0.20324747175103516 0.19037229523998908 -0.06264532454671544 -0.1137757344694671 0.060709905309272616 0.0317740808426146 0.030284261088912107 0.024439571004168395 -0.06968235850430159 -0.005190348083821215 0.06818382794993777 -0.15223080057572386 0.05445470780283596 0.10877992693988138 0.056128197383456147 0.12254319795811883 0.08211138861148315 -0.024953664397308714 -0.06639523597888652 0.023078896688284806 -0.13974269092772704 0.07993888974886919 -0.07689639895563494 -0.0590342468812283 -0.004069506976849417 -0.2491644745437186 0.16979981515328293 -0.008188464100586122 0.1271285186857117 0.08605807237916281 0.2056165939475564 -0.04143765933495165 0.06176842533483648 -0.23934963466987622 -0.11391804180228149 0.06908617789813831 0.13167770787216074 -0.09423886028052662 0.09795960733014243 -0.04557894256663971 -0.010391265634042598 0.09167341605835409 0.1890470993652168 0.15779236161109825 0.038294735349355624 0.06237468779133961 -0.08489356387730354 -0.0025641651989273856 0.0027693208464209733 0.008932603247677466 -0.05230378806778809 0.005313967272261147 -0.12837264345957994 -0.08870160865261267 0.004375467522897433 0.04914819682445737 0.19207360152886843 -0.10039049543924679 0.032056192809823615 -0.0012171546801618797 0.0973885986243933 -0.08395585957792151 -0.11940978031778288 0.20138393926543294 -0.04455256331488116 -0.24216115135529404 0.10654018720879216 0.06479658355662679 0.027139238855805024 0.09239675774401078 0.054903072634085906 -0.11392372133287106 0.06235796415990962 0.03513162948185627 -0.1366044914011303 0.04471282399788028 0.1058981884598498 0.04294363809292305 -0.12898482290220717 -0.022920592019753366 -0.10889131284643987 -0.05629451613300606 0.10587565485732688 0.07970370525522277 -0.14778788037649668 0.05379016837428235 0.06721073878212233 -0.00443947745422435 -0.004285006972698562 0.09123044375483605 0.17613966235105302 -0.01490733502915622 -0.0965110601160551 0.0979450028027244 -0.06935656847558061 -0.058925751532728866 -0.0720089864181896 0.019811185463727492 -0.09363007007797912 -0.1870793598221525 0.1361727019237903 0.1553470552430055 0.054701821517924284 0.007163968533222735 -0.133871594436394 -0.11421385082593223 -0.18253927051781554 -0.0805203181989714 0.0007236819803931494 0.15595057996021278 0.047081177108514866 -0.022928384581163922 -0.07512500332604978 0.053893346440566564 0.0802867466021779 -0.14593793694757667 0.03764526420462332 -0.10628455831654371 -0.03657009642219495 -0.06442496331549752 -0.0004645862397464263 0.010137981187561557 0.10235355838912481 0.030984276556539358 -0.04045362585754413 -0.06233897292086529 0.13655723289242097 0.1444718941810721 0.03479556531808596 0.01590030813974966 -0.02243990611167411 -0.12549968212213844 0.03018178094764583 -0.17912813085432722 0.04398706914335416 -0.021550748434783995 -0.023098179908057348 -0.06803275448292305 0.02851178985098167 0.09144307169257533 0.17343572704357435 0.06936193837994874 -0.015906248369636368 -0.05495693852170359 0.06471135785078139 -0.13123372855358315 0.0969525441583624 0.14754255721300735 0.022434966242291843 0.0054305510238886615 0.22556735490396324 0.022844245036777983 0.029219916427221923 0.02140042422972301 -0.014222132052191574 -0.014602208818994041 0.02685240636137588 -0.008120731229723227 -0.17284430714541543 0.11270909046775535 -0.07872229792419662 -0.10184130173566117 -0.026925404928184828 0.0028927719988857425 0.01925172921114641 0.07020768870189208 0.048544944876086994 -0.12383888086425558 0.005431081817993376 -0.05749013780784691 0.1787542710653832 0.06298536404028811 -0.028168436011570527 0.03667474688447177 0.08852412305161486 -0.03131032045007748 -0.03441814474215459 0.10480602051850292 -0.11713197779828075 0.032461410301081545 -0.1699903515396945 -0.0925543816890185 0.056437543133028026 0.13344641818450753 0.077897863547158 0.041605608644505895 -0.17135978287842535 0.06321666905071517 0.06739952144248165 -0.01361689296942101 -0.028402132369210138 0.13928499192788285 0.008858983708757 0.24797895502555062 0.05649778364269847 -0.06273284120183482 -0.06697862083771888 0.09865750107623333 -0.0014383911248204723 -0.10559195587348008 -0.11644661979532947 0.0816979588674397 0.07413530662923848 -0.07258158475685683 -0.04336634382471025 0.06577541396414982 0.06641588649800156 -0.013576176488011968 -0.04914320264728865 0.13375519318901605 0.03116552035432864 -0.0163034344871034 -0.03359378172516323 -0.13378435569797398 0.03598842822040392 0.0769447773506404 0.02372335863748932 -0.010181806360502484 -0.030046542510375533 -0.025173547331561425 -0.10065886179114551 0.10353782923151429 -0.01623172640024238 -0.04220057257375957 0.01717100865900017 -0.07403298051125932 0.20570837107237255 0.030500103657698698 0.10289952194838807 -0.003867551888951833 -0.14173238862403412 0.10444721178350662 0.09283894360193967 -0.10526023706231832 0.18936552992988415 -0.07606690186504036 0.10950306598830292 -0.04511795997718192 0.10054398271851377 -0.10595999845428912 -0.10055879413562509 -0.08625284086504086 -0.0108365545289732 0.07930300113022483 -0.2652552187980358 -0.0652986821787512 -0.02868384680260983 -0.11076354192797051 -0.13854382989581607 -0.10965945661136627 0.026899219247758555 0.0508334244245497 0.05045365116258574 0.05727491602893921 0.0018261107304777093 -0.013133160201942605 0.027749586507106093 -0.05098074840334793 -0.25462578958290255 -0.041645652573023925 -0.0559465717581968 0.027836706932669073 -0.010763674578193544 -0.08011336500559432 0.15865975026443446 -0.005877457562696428 0.055088890970839466 -0.1179676621853174 0.027322655524289148 0.025236567380824134 0.008082066186333864 0.028622082954869493 -0.10371205090136944 -0.09561499146453344 0.06562091964610668 0.02180055369854714 0.06900997814215885 -0.20265672003404137 0.07755548094922947 -0.08415911040899533 -0.35435664893216573 0.038794276578920976 0.00014791690284807885 -0.11457600753085828 0.005030756987454399 0.0976231144008314 -0.06838809286420795 0.02298855579436625 -0.20814228774307883 -0.07196694861246469 0.12179744702096236 -0.0960473287876453 -0.12402186564452007 -0.07721893604229349 -0.05597261334678376 -0.048313039268806576 -0.15500565360446264 -0.038428099012729956 -0.3451078725772742 -0.28920388956573717 0.092499258379723 -0.0313111138144334 -0.0016071774744770078 -0.008290235813933627 -0.016199984995523328 0.11022399118454863 -0.2975891294570671 -0.11406358485403999 -0.13791492211113449 0.05275602666421665 0.09976654801047014 -0.04770448375020622 -0.07497572071983208 0.21312010609433366 -0.0027289069777286456 0.10856001979987952 -0.03130074325236513 -0.057426398173024494 -0.0020688331962021847 -0.01039040696740799 0.10235465782317411 0.03331279078970826 -0.10786845177623476 -0.09834369446259204 -0.0643958908191333 -0.09676439629526468 0.06698675464799504 -0.13270121953302885 -0.05686335913235026 -0.0315871054482167 -0.011249979321813817 0.12843884191306287 0.021298250522519355 0.04385338078272804 0.16676044682410154 0.05156322029929862 0.11564435921100973 0.0771046633751442 -0.2313754183761713 0.0745748222288965 -0.10633927329023708 -0.2336673244783671 0.06628995193933389 0.11331287873245934 0.0382717223773051 0.145918672719192 -0.021622570325602258 -0.161883379162334 -0.08464800115820686 0.2694410965998931 -0.19817148546280808 -0.18645834265072347 -0.05446325562953208 -0.015591229634045462 0.06791946513780846 -0.19308830938655167 0.09138925661522299 0.018651934594970672 0.09725336219239564 -0.07219283907625659 0.07238230181929378 -0.03581319017699794 -0.10600722099758408 -0.08177827764920828 -0.04717550346925072 -0.02142640890541516 0.06840450306226947 -0.09051568594178731 0.16223972469337328 -0.10614269756478635 0.012556330354369878 0.014417671257742643 0.06128038909465911 0.0511694120443876 0.19535858382400395 -0.05942732347070799 0.06572878076348546 0.09122733313663954 -0.06432714179538025 0.07465862433660594 -0.05176793444699323 0.061253840358375826 0.21371489391714976 0.00935360670320117 0.02031491961290323 0.02652268124098856 0.05223616082127799 0.023350332677750246 -0.018488431544677705 0.11125260129791707 0.05226936627673052 -0.025441652195312525 0.04533461232972735 0.028670266946718783 0.0326468915781511 -0.15209835360670035 -0.015445572088684202 -0.08541457742570141 0.1521542216042446 0.005600739567518748 0.1391269873582743 0.034565258895534544 -0.07034517318538923 -0.11619917179315553 -0.13472287136143887 -0.06572928401593368 0.07956635905642123 -0.06631124774787407 -0.0629575889233213 -0.03959669769896554 -0.06837820951702733 0.0114058683942215 0.01634803224606427 0.06957538433665487 0.003558460251136091 0.1675225311737888 -0.02096279604585131 -0.002272117727574394 0.13154706719053982 0.013107551155744591 0.1472090232335965 0.04347244667270554 0.062186370700856614 0.09935915639147556 -0.10978396743107188 -0.18604833724954548 -0.03569574885062655 -0.10888363458203554 0.07451465386114224 0.0004232491627225804 0.0002681303124100693 -0.05668001697950203 0.13786767798686828 0.08867874641824501 0.028744241169943827 -0.05175518321051627 0.03674808894122646 -0.11833195998692947 -0.10325510269924505 -0.03322787219320419 0.11052108979850493 -0.09892158265308086 0.032363908493227046 0.04221834270996347 0.09082759894554375 0.016803272805904514 -0.05460444762374234 0.16437855241914484 -0.11734296753849095 -0.038183162657811597 -0.10495459306802817 0.016813295965678595 0.09178960438893247 -0.05697088141722631 -0.11371812904481536 0.1166025889813659 -0.04584830148132828 0.08954929280686384 0.10315427147912312 0.18050024990689847 0.13774044918625883 -0.0029074517451429683 0.06692030715480303 0.04476922147931958 0.1443371355924906 -0.09064694776313392 0.030607794299799915 0.0558523890719831 0.20626267841301657 0.11008565998818748 -0.10197404815570466 0.07575561926312069 -0.06578427141205954 -0.06291086018391101 -0.06808179565861928 -0.05402195981062859 0.08556153849785761 0.2028839815330311 -0.10846137541370107 -0.07611851280403809 -0.020338213399440815 0.022460434347220528 0.07284029403251205 -0.07687903464442078 -0.09104559091662934 0.22253625320928183 0.07313311159662779 -0.1129964581242008 -0.0791794787909979 0.043308361154838666 -0.04843082182923154 0.051691062834395916 -0.04361298573536732 -0.01549828513944876 -0.10669750083635451 -0.014501899242811105 -0.011185185356238588 0.08676239784847216 -0.07934141306588323 -0.10326508549535689 0.007735283801780475 0.06182174159175432 0.05959755894247744 0.10994957398979595 -0.01601029673097541 0.15281761504007416 -0.15786940154687526 0.060223937158469125 -0.03059300945990827 -0.02597804744415591 -0.08299448602645336 -0.23651432383217977 -0.0914447005469912 -0.053598965180690565 0.11481389352631102 -0.16071000391460727 0.06564847704041941 0.15320359741494602 0.12376923885370245 0.02374040482638924 -0.06409940502745055 0.0015741484727781398 0.05279337525662056 0.17590694808043755 0.0041458247425074455 -0.06200707868807408 0.059164126022646195 -0.00216561606595057 -0.0035314317785324076 0.2204705716240562 0.26896153389244304 -0.11718963173816094 0.1130630437061432 -0.22475055260504412 0.010512900252650139 0.020100546829408587 0.07218106413935138 -0.03755618068882645 0.004806146089179688 0.05975113176410931 0.010038711532388065 0.13936088341097225 0.12168484644350505 0.033292846843014395 0.08224724145826161 -0.01801665956693726 -0.032911569543310364 0.08450085285721107 0.06459766012701634 0.06213469085198534 -0.04174275944909513 -0.2296505435399291 -0.10691561608154886 -0.03115992461331315 0.04794586040767367 -0.046047898985639484 0.022503606537656227 -0.036276357679231354 -0.010611993015682497 -0.07532201788460842 -0.03337182935723153 0.03584696258050703 -0.016162376948035864 0.07049864463612067 0.010662396435240355 0.17571856442689826 0.057484256469570706 -0.021597912083900755 -0.22259537773569574 0.09670209382578694 -0.04172037996055136 -0.07686888168442593 0.0971927456960537 0.25217978721664847 0.050371776722242856 0.08898427584705428 -0.12163466963554868 -0.0815671414767119 -0.02748690970211656 0.1266481075692739 -0.09849229082655851 0.17755883090426586 0.03130187427994113 0.1548416387431881 -0.1325853903078277 -0.07595604698712594 -0.04405928923671193 0.06660885650308049 0.049165327615648416 0.062241061483734414 -0.0031307611872598063 -0.07533000107565865 -0.01996578650756176 0.06792552819293429 -0.14028680089420878 0.00319887046623837 0.11168237536657842 0.0016988837349959066 0.16552257308152607 0.048164063309949115 -0.20063433413562662 -0.02499113181548649 -0.1354038035569535 0.10320309895509987 0.16889923530572293 0.1454707715005906 -0.09482152293553259 0.017865340908802593 0.07967031014445573 -0.16056801532683843 -0.09666587653901274 0.17167070422838795 0.05949587855667621 0.17279642777419632 0.10794186809793965 0.15346919808467996 -0.050028020362331393 -0.2751700992661346 -0.04305410768875128 -0.11843709566281509 0.028631555512788877 0.0535868351375353 -0.19659816553552353 0.01562535799964679 0.07601632773391961 -0.09581383924307144 -0.2731743950333492 0.07082668854277437 0.08826897043992323 0.21180802638638604 0.12620539216706442 0.18378106764427224 0.17621309681015523 0.1239153180299873 -0.006841625404388851 0.010833159826393612 0.13903992062214388 0.04666396731233791 -0.11561664602740467 0.13365099270552042 0.08097978413172711 -0.11046215244775759 0.07469179533701438 0.028119220230616727 0.00043467378069012794 -0.09553343007709612 0.059491966663505536 0.012986812543738506 -0.12111144273579329 0.08358769595872902 -0.07962848571306295 0.06308181435733547 -0.10194864879972476 0.1334856000369805 -0.03655760417907251 -0.07072684625403898 0.028902118964847456 0.09309462226825115 -0.03635558298246148 -0.14672752738001682 0.09881681777174901 0.08553578936671051 -0.09222549336386608 -0.03293464656065963 -0.09183820269320185 -0.005591606671926699 -0.2057468634108519 -0.0278654889386952 0.08927178613575572 0.07552588865067093 -0.1488471678352766 0.03377467991501016 0.21570178653274238 0.22468851719980984 -0.09201059678849748 0.02982458451881973 -0.017570864378262115 -0.030219217394638 0.20786130856899881 0.041215807351086285 0.008331500012044737 -0.03985017483295553 -0.08687530778019151 0.08115953542519055 0.026432567372609413 -0.06985665506925218 -0.008651958894215342 0.1577200507555073 0.01910800975676994 0.03805834014655305 0.059480408394598096 -0.03166687593264407 -0.18282722872057683 -0.12323052929213898 0.030159070301799776 0.049958282496514975 -0.08000892265809043 0.14790160823504345 0.049666008889648804 -0.09974886433644722 -0.04215999987201872 -0.15589612798479124 -0.02402905200893546 -0.01293974551753278 0.0721982003356158 -0.016666534551842804 -0.2525382637352675 0.019935145005988177 0.09966538323537746 -0.03203174553016584 -0.021353085119054985 -0.0008708166426757226 -0.018158538177732022 0.03304267108204902 0.13234400888757783 0.08819771632559398 -0.08759006531708993 0.03234395764294418 0.0008637312611890262 -0.013601802580797859 0.19657397898768686 0.08890135236950103 0.12897330343131935 -0.015509424604091633 -0.1350522413766099 0.14982339662883082 0.01878281603498636 -0.02048765459239536 0.03544376311187948 -0.05094507893490709 -0.15002463633309293 0.1442318301102807 -0.03030473040590124 0.046045670296018464 -0.09167110591438654 -0.1294652464958839 -0.13430107114048898 0.05812223960043554 -0.0846225852497465 -0.16019742688798214 -0.09388816819596646 -0.14431343642146272 0.2581027413738766 0.09803826242038984 -0.03906050571056719 0.0793877968817205 -0.05647776872088149 0.16050433074311388 -0.1936875855935556 0.06872775359897669 0.09789296578593817 0.08064508057371995 0.1496490438215317 0.14507800771457133 0.03218383025808018 -0.0034202532326502587 -0.0729392153643938 0.029180367773237972 0.1326227493686838 -0.10380202728255485 -0.004586267680182834 0.03748272327409337 -0.10914536632674965 -0.051218723392226786 0.0764383683368659 -0.09811076287872822 0.03225272124659839 -0.02839942331658765 -0.2470883487974575 0.08463760336471132 -0.10239206238203957 0.032159119554987514 0.20255586746441903 0.03466344867123554 0.019472540817173194 0.09415435223892635 0.07386433108120581 0.025743736366415707 -0.03216245136933439 0.05977499896117873 -0.009472360115705073 0.08260326988376017 -0.03262648014996634 -0.09370655692794227 0.1911936385261656 -0.07407220740249032 0.1101904542935226 -0.08609579811966468 0.062289845230656844 -0.04725791285237147 -0.09943881128359748 -0.019599418911231965 0.082741502840759 0.15944104445669158 -0.05373718936134317 0.0819990099088783 0.07530048518960655 0.1474967408722721 -0.009440608043921566 0.019399827937638475 0.07621275313415386 0.03253792362304143 0.05459481878609261 -0.02120310568922175 -0.009407417883994641 -0.2135993553956093 -0.1133006395763356 0.09787443121202581 -0.03429131858166336 0.019552241432754566 -0.16309524751635543 -0.023806696345234052 0.034788385148990165 -0.0696681773730039 0.038561125939359744 -0.04837359672828205 0.0760681909648393 0.15474429121269745 -0.2403451173577296 -0.08356928308600338 0.010539136662105812 0.06544254024347039 0.029014873548607864 -0.2628770315270403 0.09147505132081818 0.034789099258866585 -0.04152340348739049 -0.07500135897347521 0.07505950713351443 -0.02139683930756018 0.016849933594961078 0.13040139861487143 -0.18305119258416394 0.10758108220251951 -0.02904994296477374 -0.00508285551350821 -0.03580437484371518 -0.10127972011457788 -0.20000395843587912 -0.12951308613675333 0.046476903998546426 -0.05815922896398601 0.11620102882208484 -0.09564028656099367 -0.015526801173689452 -0.011883643431769378 0.027318932739873986 0.017500611965645264 -0.09687857872903452 0.00030313832437823103 -0.009023445635430524 0.14867611670676942 0.05658755627431312 0.06642199279657762 -0.010277460945581815 0.16901980625092627 0.0029610015046005207 -0.04840288385255105 0.029635923595655488 -0.08759920613472699 0.11417536349816135 -0.05397161920522267 0.14709916441371285 -0.0037833706123768488 -0.12184756816598954 0.07489139022827283 -0.15378467833685586 0.11171482350210317 -0.0053933903539665675 0.022340707448750823 0.09335335172548097 -0.13124988330998974 0.11444843407760437 0.0073462368608868634 -0.025620149971245607 -0.049373346325944964 0.08512242920127472 0.11168674561748157 -0.061022769979524175 -0.14516480965715953 0.031489895730269966 0.20434533998333704 0.017043365826335227 0.10225414165553358 0.12500547978785959 0.05930793078981252 -0.01412398442639075 0.012180010760333438 0.0005577213342483286 -0.029387371934940985 -0.13155908596260146 -0.004182538641716764 -0.07820366657455408 -0.035619507491549365 0.15358271314501845 -0.09253875721740903 -0.21005933443645203 -0.10915374613300438 -0.0018400285686273104 0.10224175666477618 0.0359731793790976 0.0028506332012218083 0.10146291399312869 -0.05087343524077384 0.14752252560398693 -0.06638635901059378 -0.026213105089018023 0.02916827877312653 0.005691048257903254 0.13963131957688657 0.11458857627491338 -0.10525778330952007 -0.11090099650297272 -0.18575300425772687 -0.03057660966604847 -0.0861902487748316 0.04336224006557714 -0.01736022759082103 0.08234287095225798 -0.13262820157589186 -0.01932858651949999 0.07483557861000625 -0.00914575606628073 -0.05935206425003592 -0.04658528410799894 0.0706570584144562 0.11294359287018198 0.12374228074202505 0.04036242716922391 -0.21752491526277598 0.052863017421385945 0.033227072798655846 0.0028737935309427996 -0.20113553114140406 -0.128238352034562 -0.057183925341855846 -0.13448329201508208 0.010756727947666774 -0.1035454972211258 0.01496499846309715 -0.11079944081621883 0.16997984845926392 0.04101167829447406 -0.08079557029436629 0.03211332354030996 -0.12466201906191851 0.0829276416569719 0.039664774278386196 0.021592761124901876 -0.007658949250061223 -0.1630851548789839 -0.04416577743393972 -0.06108199575295744 -0.020661374287717842 0.08795538305339756 -0.08269681175056562 0.01968209476023671 0.005394527730212635 -0.10761451726002634 0.10803932271133142 -0.037221300708549204 0.15106717172717354 0.03767983738076867 -0.08098302300031965 -0.07795894364306132 -0.018367121217737436 0.13184220449980197 -0.05778370387138517 -0.02074442336216852 0.04517298873487659 0.03857329722035726 0.12858365004848402 0.015063478055116533 -0.03353831882400524 -0.06447137790972478 0.14778703710307936 -0.12774114338807838 0.041446362884247974 -0.020306260743153743 0.04872585171911418 0.06223425448885563 0.01517711157311524 0.05285411691469726 -0.00717626934546311 -0.08866751986568415 -0.2925994410612682 -0.11297467525813705 -0.00917754504955392 -0.026639826610145665 -0.050479906742579725 -0.005116383359878541 -0.09278316447836618 0.1001266908343577 0.16679111081565423 -0.07814894765679736 0.07480486991804026 0.020950425606930084 0.013265215932995662 0.021975628819827526 -0.023410848005693985 0.10412166222826442 -0.24320141041648705 0.0861628642251903 -0.12664026229539388 -0.048683361057438014 0.006040986073746243 0.17807253608446424 0.03914841959289216 -0.03730225806457067 -0.03646181532461939 0.040127976319106716 0.09114106277000342 0.10585225231642638 0.04100474902578396 -0.09367565632378094 -0.029546510336732012 -0.04300414938861484 0.06465504228902445 0.10060607780376148 -0.14069845331592068 0.01861261848039493 0.11561815128518833 -0.07485737899697031 0.054434257917716035 -0.0379594908498325 0.0009497807280265785 -0.16400779705169188 -0.06733945580950237 -0.0864643392375664 -0.10165087437367247 0.025537149452572825 -0.00795326311561514 -0.011695009532180495 0.13369872705982916 -0.11857469022058058 0.06652276629133387 0.2612685422653503 -0.00562979507933524 0.02754159297279939 0.016302226057461427 0.003740698391436734 -0.144765909575077 0.06259731703413375 0.08551898563925332 -0.01042687562671878 -0.1276817317913254 0.03741988827241196 0.04455723676769916 0.03850499892213083 0.033887684910423134 0.07916128792337909 -0.1854165897360166 -0.03801170094180881 0.11369532430271209 -0.07242545604642468 -0.14303005182603573 -0.09491819464703978 -0.05563838321547808 -0.11672033355092973 -0.0928143993547703 -0.13226304221387503 0.056457299670850836 0.20600701748528868 0.026871467863895895 -0.027824690281328356 -0.08067797442991918 -0.03581946946527173 -0.10970815405612652 0.06312262263218897 -0.020039501647272126 -0.09982572105159278 0.1137012743753922 0.13959150988442853 0.051628509637648444 -0.04499132278453324 -0.1050093908235809 0.08680896984489915 -0.06509529544933201 -0.21849359075364386 0.0674673541780392 0.13432108601196419 0.22286197428589113 0.20610717100034903 0.18934276612273987 0.045091153844156955 -0.15308496834354834 0.016111804536589548 0.09933182235882805 -0.15544122889577267 0.10232920657073716 -0.02026294037357801 -0.037643455959377826 0.05152465912282941 0.049663186553891334 0.10126307433310845 0.08416972046926094 -0.06037215486969111 -0.01593040014194474 -0.003917424881868607 0.08795282022918727 -0.0232348655090582 0.01756169443140851 -0.010187543296327166 0.02397925259576757 0.027565608181479528 -0.07959097161160673 0.2514418980966364 0.07060977052262261 0.08655624980277374 -0.007265352572731182 0.030071416101815438 0.10544250650967205 0.09676657931169759 -0.047266842220924685 0.050010566350615134 -0.06372600100906942 0.0037976076225278476 -0.19045105769519374 -0.1797719242624989 0.04818031304053971 -0.09838647262172148 -0.12214129881852964 -0.06070061392350807 -0.11067706052438664 0.0854935636325159 0.13429769539516714 -0.055323838075229705 -0.003532233592659429 -0.010966240890369076 -0.1726010892764015 0.004100289938906164 -0.1651543358233689 -0.18799776690377817 -0.3335648936724203 0.08419796774342682 -0.057376414139567594 -0.08114344552886385 0.06772259644511097 -0.05641208640081499 0.03635144951703242 0.08873019570702921 -0.05267255192263842 0.1557215592642901 0.0395832681518182 -0.08414985195522227 -0.019913516215665023 0.13099593588898847 0.06229867556269563 -0.30623189911629384 0.07133859436433183 -0.020116252414580354 0.11514637648948796 -0.026345391632626666 -0.04424737459461505 0.009503338297687512 -0.0804211076636107 0.07335712514739759 -0.009628583335336718 0.1484079651331046 -0.1351533391278968 -0.04710884984271823 0.12591912468999047 -0.03925148787136595 0.11448082692714139 -0.15305619191514833 0.13004932125172958 -0.06087279127269811 -0.07312367567862647 0.23241907375810672 0.03603833147686726 -0.03376817305469299 -0.137573816879407 0.18183129802235115 0.011122711967991443 0.18681355852497 0.06119265548783049 -0.13226790099041055 -0.1181425409732602 -0.029448753834830286 0.055877530059007856 -0.03482019362669949 0.06421829904735783 -0.11610851076766868 -0.08890615042269905 -0.09661820451366959 0.00123003984936326 -0.05503140239289357 0.1572030798696988 -0.0022533324471252537 -0.06091670737799 -0.1632726577824346 0.1308480105577763 0.17211355722361546 0.21492332668659983 0.10608375713349677 0.17122430618950105 -0.07096150672562292 0.22003673066614612 -0.12192424354169969 -0.054009580498145845 -0.028802687082136274 0.1739832447274975 0.043238465333529666 0.04272070407487297 0.19545732161143503 0.030040712860658944 -0.008352455453007475 -0.02544582509128142 -0.05801719796166312 0.1713246273145784 0.10098793552090986 0.21976858296054624 -0.061642687868819296 0.07292112604847273 0.005136911059967508 -0.11891115568771642 0.14064464144895744 0.08923290847594684 0.02265037978816758 0.10258243985355783 -0.007346126506404087 0.07973785401059079 -0.10378692080421173 0.12152992766175838 -0.13631461308359996 -0.0667032512854911 0.03338254342168432 -0.07728427593898658 -0.11961262074984394 -0.03980943856218629 0.06585567901058866 -0.097180122953215 -0.0649652495296951 -0.08340396412297663 -0.019161352534555552 -0.12731858160487183 -0.11256188205548784 -0.13173678772275166 0.1090567210262499 -0.08473610327787319 0.00791665363258916 0.01130434225027893 0.21542358070928677 0.03651756986134866 0.07307749337414227 0.07823696913408265 0.12156926938830313 -0.09844950065660786 -0.09371283830776524 0.09521425522337357 -0.0819219162100293 -0.060996051295343384 0.04605997928407806 0.09485396129714437 -0.002510004202228495 -0.05198739210792887 0.07485739891059846 0.15808646053587003 -0.1517862415838324 0.05605174689995684 -0.13318791846005018 -0.1355372606043885 0.029654521724794942 -0.06431481724783235 -0.02720365651741157 0.16939500948863256 -0.08703323441459718 -0.024635524708333502 0.0452926296242958 0.1104574479869865 -0.03419285583894315 -0.03870879870549593 0.011022529274257155 -0.059129613160896294 -0.032360329117275814 -0.042462741075500465 -0.09586386214191427 -0.06276177785268969 0.1333515521488808 -0.05981517304878398 0.017136999538870875 -0.09195799004670342 0.05735454620094434 -0.03263021462267805 -0.03303007965797528 -0.029326763712615063 0.15556582449662146 -0.134732608171243 -0.16499501656575696 -0.02059399175953123 -0.02844619108628223 -0.15765869217874026 0.04674915948840823 -0.15921615081228932 0.006798214289942078 0.04889686173019965 -0.12830949372445566 0.03511209843444773 -0.0014986743333154637 -0.16300112634058067 0.04662399155945441 0.0016903970498433293 0.17311723538077942 -0.2016536398849684 -0.13318382501137882 0.022762449153533565 0.222575070712848 0.015062099606457192 0.19374276944181643 -0.1548198540610192 -0.1640497330168287 0.11699131743942988 -0.007842220084866524 0.10550894409485317 0.06359901191378439 -0.1096441224565486 -0.05155759988386631 -0.15153134616806832 0.05788492345600689 -0.16819110782670968 -0.06721268100369358 -0.038879516518968475 0.12679488976387726 0.10464076821457846 0.000524337271804394 -0.07575553693233 -0.17718390424612662 0.10328604651582846 0.011433211151586823 0.05199466592090711 0.10687709765785398 0.11107375096711047 0.04830097807824893 0.00653500199484045 -0.16653159305918624 -0.046184476520734694 -0.06399248672704679 0.06438767040161338 0.0069278338242568845 0.0029397764095014777 0.060919123555353824 0.0007388507464388246 -0.11684008187661506 -0.09015324651014196 0.011050500767463904 0.0060360503980262286 0.04214644731015509 -0.04260918794439357 -0.0038017578275517925 0.38519992070110853 -0.025491450382085907 -0.08743201661102981 -0.07827813184376159 -0.06348371222217332 -0.09491240413950981 0.1683067910645655 -0.15497637700081085 0.07306981463396492 -0.004787614187378155 -0.07970724217028287 -0.09188392056149006 -0.0894402146829559 -0.1504331805665702 -0.06494825100031737 0.0006915770484034887 0.002621493729010764 -0.0013126024185451776 -0.013665083234901284 0.08207433844226827 -0.06410628071220666 -0.01918119490207688 -0.08958924200632883 -0.08251044152095376 -0.1646015064930649 -0.06910072281193626 -0.1030157839656177 0.14121980301953185 0.04969968301321231 -0.13678090135860513 0.1372126732100224 -0.03630748676733168 -0.03737183215501192 -0.027626425468967406 0.049701404716372945 0.07614073313040345 -0.01538041131017574 -0.0817948856340468 -0.023387509599146237 -0.010280655858679735 0.04386302052221607 -0.06197531563013158 0.10119118673188827 0.16391067322044162 0.13632015688226204 -0.10390085811689222 0.10014079680367031 -0.05890309881197574 -0.1375678996009078 -0.005409979358280491 -0.16020985776178454 -0.16883030590107703 0.12069411988698166 -0.13529095015448578 -0.12472116488775173 -0.057685487746656 -0.0346692628967495 -0.11503586939121727 0.16500020309196928 0.05207687652523266 -0.08960179021498509 0.12675312396353777 -0.05121593645278434 0.044722862936662326 0.056672725472047596 0.07212661177935853 0.18511293107969598 0.015269481140585569 -0.13664968382674578 0.041974225486471416 0.014173445253300868 -0.11190662340701767 0.019269370256649692 -0.05271737577221554 0.15884050380856585 8.778110856733082e-05 0.006973587290964515 0.018172441817551347 -0.05414796260400814 0.1120047023182162 0.06722667340327639 -0.1857737163847411 -0.05582175375374266 -0.027251725252148133 -0.09472468636682191 -0.07753945598168631 -0.13576134676963833 0.03491772288375834 -0.13419588738623722 -0.08487529927400109 -0.08111217903133586 -0.09780979141922148 -0.033904322897384875 0.01575325136495147 0.07041558820912203 -0.008322848391484549 0.04117862058145363 -0.140120213599123 -0.05551043858413358 0.022320833622346 0.03603486692478366 0.029286893800639167 0.07720222976854552 0.02843285018436462 0.18518778764837288 0.08441242905231378 -0.0021524651444909957 -0.07833076578579416 -0.03481918745536423 0.13246398208820784 -0.0219365554552255 -0.1310126548892784 0.16840110057991578 0.12284874248861564 0.07460419701991033 -0.06742256873431804 -0.05268420760244301 0.04512166418709887 0.11179560698826181 -0.14283990143347877 0.19408129190134127 -0.021575367366406924 0.09823467417932066 0.1291113396845364 -0.05053399407899823 0.05441340129232781 0.22264050223651188 -0.024183930020015156 -0.01989861098739431 0.05515380500107232 0.0018019067709432552 0.0034015795646692897 -0.20975963588795876 -0.155237413821629 -0.199998411934011 0.06798841795336796 0.1549806619181476 0.06700911298215632 0.002666484014020731 0.04489685422150031 0.06743963430317598 0.012909203583731686 0.014666295046285069 -0.07888901475901837 -0.03644025215612104 0.10259235162002955 0.003540400782781643 0.20878042437863234 -0.034076092220294875 -0.01010430274804979 0.012977692391844958 -0.10305622951617055 0.21855957808811163 -0.14009892800791854 -0.11493969356315163 0.02956691872673014 0.07483491584056134 0.13037157012675715 0.14241246393159987 -0.048290735645614404 0.045763264885239054 0.0784315618220791 -0.10513514189863396 -0.04019217537574749 -0.04364242482338949 0.03174007304823059 -0.136027935480358 0.09241237336291802 -0.12425462337203996 -0.0913842609750276 0.22239894285105305 -0.141723737182253 0.06467803114695322 -0.18650508462897714 -0.02570808039003796 0.23192428961633965 0.15733401983912013 0.19311388664072562 0.08971691500563454 -0.18210056862438662 0.015558671446427356 -0.050050909202213514 0.03406575540096258 0.049721531562379025 -0.06730836325357457 0.04886002711767656 0.03360578405321563 0.01865464557928575 0.08215300599614993 -0.023077731604304617 0.0667106594711698 0.0475041841425196 -0.21053560746981848 -0.03801307616751234 -0.09537846635895603 0.07148832685627415 0.03731238187200993 -0.11822073735998247 0.17700302185813 0.0647408393455826 0.06712990576887139 0.019212642686350104 -0.010511514463776952 0.05298213308572948 -0.0725228339847335 -0.08220191685016748 -0.10272622817773712 0.056868751142323364 -0.022460872998479518 -0.05132674991510879 0.1327704603417393 -0.16142962030830835 -0.06770611222616253 0.08376669371268851 0.14619223994766775 0.05764938945268693 -0.04583807592107667 -0.0786232238689072 -0.052235172629102794 0.12465361217198498 -0.03094518288204581 -0.055963649725634654 0.09577975458151582 -0.051103849850705936 -0.05911708582122705 0.013857071063115081 -0.04338201916203378 0.06885835918903671 -0.21206588182660385 -0.12465374492343435 0.04249283014539194 0.06807601138210442 -0.025738161258530345 -0.09879090400778028 0.008182976663559214 -0.0573782487426439 -0.032772222781569896 -0.2724536198529132 -0.025173903509434076 -0.04885641962902526 0.09611983375599822 -0.09425445537723552 -0.11708345418351299 -0.02864823041126157 -0.09714671530217706 0.16019967435523305 0.005965682734499615 -0.09314488540458732 0.1904059569064117 0.06846521133260892 0.06610115326317588 -0.030008055479867263 0.11573843882645347 -0.11706605822972443 -0.07156176246173188 -0.0033777944932713837 -0.10499572213280418 0.15288755837646292 0.023335691258829165 0.1497969853796746 0.1048364832631196 -0.10986796591287756 0.028016407440957947 0.06942974607663097 0.006129037361716439 -0.15021299837106974 0.2597612613839253 -0.084962142681217 0.14961615493708033 0.10544534215082695 0.005893504272850331 0.18787365172136525 -0.04218367180962567 0.01743089021271428 0.11088490976123404 0.025975659527857353 0.08844136833976614 -0.08025323833602507 -0.28898666156499253 0.008316433075636436 -0.0927627010837638 -0.058587507403522664 0.06966050903242312 -0.03940286253132706 -0.07019990533806277 0.10389997046080404 -0.13157829789932549 -0.010632687667770842 0.09472718532874333 0.015616317515819912 0.15104787948185558 -0.07586973364846396 -0.0003411068958144875 -0.048868229683947925 0.2480578337616118 -0.1826654475383321 0.1678215863401115 0.15437837970082408 0.11118933822622272 0.0379798323013976 0.11018430448420558 0.037456932111300176 0.026544746608167295 0.026333786562325042 -0.05250935774066241 0.03112408235591201 0.09670606879242563 0.01915095054431284 0.028644630235615916 0.08574249227018889 0.16426777063204748 0.10118370935602568 -0.09094971624943603 0.006848389764182234 -0.19242305777674168 -0.15916455180889966 0.04777764976124112 -0.14790330470028892 0.0478982615335354 0.12772170460897328 -0.06541025177105338 -0.08648382756927503 0.08155286418969393 0.050446681077066645 0.07320038096740634 -0.03783060604244729 0.19946866386754164 0.12890794901234 0.020986777772643215 0.045221004802989614 0.01025222497059601 -0.13668557203360274 -0.050017613283368255 -0.05106739813525815 -0.024861533494828655 0.14256978782688123 -0.057739646088448844 0.19457995317230478 0.06556562750132078 0.03835665721843025 0.01774969547538505 0.030165181543492407 0.008545283737961526 -0.02311587612181879 0.13756334777350038 0.1569120947201029 -0.0802345214835982 -0.03364808912135039 -0.012448229641447024 0.10245185555532281 -0.010471306888808296 0.24120318745908584 -0.07507949443592006 0.09376917921237245 0.063022543554322 -0.02118020927761115 -0.09468200991522568 0.05209268571487621 -0.1200395919164636 0.1873618251709937 0.07959590024043807 0.2805221561433916 0.008467909186055727 0.04354972411702563 0.10473617927722874 -0.02634880837100607 -0.0823680177677129 0.07078362170218636 0.11111687394067392 0.13173905973132466 0.11471623976229883 -0.016222545431016252 0.1508196085128227 -0.011698367408497582 0.156687829328555 -0.06052053907788461 -0.14791910046459847 0.06697031202614248 0.02078137764076308 -0.07736192852597815 -0.06286277510546376 0.0514273455837385 0.09441397886557973 -0.15346426571651003 -0.16235551307640655 -0.031711415517393836 -0.0906221194142842 -0.08822586047382272 -0.043771011619029805 -0.0022079716584111823 0.08903349832945727 0.0981838956564068 -0.10303591530042215 0.014668147215235775 -0.10432295007490162 0.09979453311523132 -0.0960710144517036 -0.030319432352928954 -0.13491959843553128 -0.037402830772674985 0.022694957375393048 0.04727829769075647 0.021110234140866865 -0.04702362867057121 0.06362145012466355 -0.012358924375784376 -0.19890075735471321 -0.16855657282776915 0.04324107683050443 0.04450542450017886 0.1792380696213876 -0.03612633169290735 0.0067119162809630584 -0.13820231065060493 0.04327750872552327 -0.12781331480022617 -0.05317981566199268 0.06247818933552633 0.012368424506854792 0.0749104634227675 0.09229545168338293 0.06922680093073867 0.12653767556015796 -0.042282441576109546 -0.0324710167209677 -0.028125034088208167 0.006288282206860086 0.09882761572129546 -0.02049377750073206 0.034775610283638625 0.15716523938626747 0.10918395857244234 0.04996199581469314 0.05486571825363222 0.054237662690116505 0.031892074342237474 -0.011886040994363972 0.030256267276647965 0.11495964773793532 0.10606792664944742 0.18352951163736403 -0.06419823410492148 0.1039667615956295 0.041564119196478164 -0.11796536476042717 -0.09433132571361195 -0.11870080475508406 0.04860667112149684 0.11149398949646508 0.0760931441473054 0.03218287506307 0.022099631411742243 -0.23857439135978953 -0.026146146463300074 0.0975342660760111 -0.16595437595484908 0.06343458850130342 -0.08453181648888718 -0.0991327934847305 0.06555039550515114 -0.1346693969097838 -0.13896552296173134 -0.14185680344527654 -0.09942593445630506 -0.2842996995150269 -0.018363095787515767 0.15816283807200626 0.07158749235124694 0.2589368973932278 -0.10132923659120358 -0.0505851317833252 0.0696560016919033 0.09836233187567364 -0.013675934015916108 -0.027901335477512196 0.008952129918708335 -0.053873772886137476 -0.11813594722842956 -0.08674377559652484 0.11430232288451893 -0.058231401813859114 0.022799275650093043 -0.14510960376057264 -0.2291744221117985 0.006281888758407338 -0.18056513537115332 0.12399029865342857 -0.12192954300693264 0.05018052817335345 0.2434514594444496 0.12249806167425892 0.16941099820683486 0.026898586157415142 -0.1572423750029631 -0.005402550932865126 -0.03411269967264244 0.08305089605089648 -0.029366732074200593 -0.07950403947971106 -0.02091489590111646 0.08624230108514118 -0.0467414239050091 0.22701414826120186 0.06572828139644701 -0.021385913790883254 0.0703227197316895 -0.014661837078006836 -0.09785313609888771 -0.04776056355143952 -0.11965786664724906 0.22226322086530348 0.06116500453034464 0.08083381816763413 -0.1145090401159676 0.029565973332457588 0.050464602200413704 -0.3024169546812305 0.048223422705053594 -0.049243245442165635 0.14423106736480934 -0.05722074095339381 -0.05575732647500099 0.0678010231054515 -0.12971095815313485 0.021082040103255706 0.036174360894943115 -0.07876018060600702 0.1960182244580592 -0.12836594935475812 0.11705231435764787 -0.2612578304616596 0.015617915068331966 -0.05426574269151624 -0.06361983742218168 0.065289350627018 0.037861120719133 0.14157840151889026 0.0026853433881033344 -0.07382961364390035 -0.06210164462303743 -0.004800565232814272 -0.011293357330077924 0.04916038233701118 -0.0975884491812859 -0.18395151424753295 -0.1471135172366403 0.06535453664982538 -0.09790187309563392 -0.07959110855869223 -0.14506030060981961 0.0809799264848915 -0.03872802081275838 -0.10531352792859788 -0.08438696108089395 -0.12372718054338408 -0.10491562172930599 0.046546076476974965 -0.11581032787552083 0.2223626976622136 -0.05837673460008934 0.1665190916247645 0.0068245285842833915 0.07944255140764743 -0.023478270218422328 -0.09669373299691762 -0.013862631382990775 0.03375172836089692 0.052415470904648105 0.07303366952894254 -0.04285442394406069 0.17369554321917177 -0.029056723361220196 -0.23717332786502304 0.08423003790078301 0.08272130692891873 0.1268799117218824 0.0530102259225077 -0.06105015588993046 -0.11350440504761997 -0.0871295991042596 -0.00647076541453952 0.19642463629910575 0.006647241091181779 0.24061087649601554 -0.020981193236114467 0.009127872120045588 0.039421142453634185 -0.11440299309720332 0.05692502705032375 0.10076725242041769 0.19687247682018943 0.004729600142936335 -0.009553350059693957 -0.1421511875039085 0.13444176157043988 -0.05923655108740395 -0.09194615461916089 -0.05901307996053556 -0.11062271100285528 0.06500339822138206 -0.08194200428110424 0.019936074366402937 0.0923147364915712 0.057233190238939434 -0.08264039906125703 0.013933081826192474 0.21785429322117095 -0.013191273406358785 -0.0723487745177295 0.05316762111319827 0.1210465946867663 -0.15733063834423702 -0.13286565100825565 0.023234301208023948 -0.1770214931622514 -0.15642349823300164 -0.04845368842580026 0.05765390662578372 0.0399230576142085 -0.035932498128654615 0.07268884389896924 0.1232635370949562 0.03605508420585658 0.08880152697712815 -0.05400562208570311 -0.021430665560103153 -0.06486417483203324 -0.12367853829869355 -0.0766943853328845 -0.0031072129333930393 -0.0018094744390086466 0.17717690771170175 0.18309963242303906 0.06223618055951807 -0.13476460756824554 0.15263035260673505 0.03648112086459515 0.06593490401590778 0.03484716686652519 0.12994601929686075 -0.1500870404982889 0.22441173858000596 -0.01930570653031587 0.0964625778831685 0.10651204406205853 0.012346546383601768 -0.21271112484573707 -0.029511819527076946 0.03479793524567395 0.030895106223190773 -0.08961164112720452 -0.017044625444974777 0.021572384848438795 0.014064709348604992 -0.13691302222147034 0.08609014835602959 -0.025435349888571972 0.005877277323014875 0.11696954004189757 0.2473629339992683 -0.0753287258820137 0.19503096920820237 -0.09830854432863875 0.1331205320051354 0.08988409544645483 -0.05130746006794596 -0.13252997709101821 -0.10152977425850106 0.04259537855344145 0.007628832772080658 0.06705345910176487 0.1776878811006036 0.004638118956257902 -0.10526872180802255 -0.08959969863940818 0.08268649876170686 0.12350389161872967 -0.09870734619380321 -0.023763582628216356 -0.17416054090200067 -0.09905699645657429 0.18998360238588471 0.061429248985625254 0.008415902577812238 -0.050061752518220884 0.05143118242767978 0.08585941756531067 0.08746401130082734 -0.01063613640458876 -0.05173032685755756 -0.08719403834058208 0.049715162806787755 0.0989962129765439 -0.1950491159298352 0.04131755883694572 -0.0276357507095443 0.12583790264313882 0.06981699850449655 