0.13609939465774487 -0.10676365938485594 0.058737067299549764 0.11776102316967568 0.16813661240879726 -0.059067584829599465 -0.25761195795242603 -0.08404915266284688 -0.03414313559365701 0.07811302277730851 0.028424489744793398 -0.011417641903370634 0.02270004167672325 0.046959599904141815 -0.003713425736836001 0.2174471223215124 -0.14049138223290308 -0.05353431002866547 -0.2983254862674856 0.1469184419453264 0.15880615905253592 0.08865328730902966 0.19300901952203178 0.08866263090159887 0.06193900319440783 0.07018389739773678 -0.09079636911095529 0.036674944910020664 -0.13013214736264986 0.1160765247344531 0.09414374232787517 -0.025405678704100782 0.04981562903423805 -0.04222609795249726 0.1428621063119733 0.11585762083532095 -0.12785220787006107 0.12427922896977786 0.08978617861331814 0.03828372594204135 -0.018751497964074316 0.019412092170577842 0.1418634454896722 -0.09083342491003615 -0.009013674394414401 0.04827766455416746 -0.09406603576366346 -0.012123797598248845 -0.012197358882267091 -0.015534970398713014 0.10109115122376672 0.020680271163564867 0.06083178123708758 -0.01850644378214757 -0.01444432555113282 -0.018591160222340364 -0.13391558637938547 -0.11854921039713875 0.08150349422606122 0.011180790867142592 0.010514371632040007 0.010101500789186205 0.016352030408191286 0.05507428297355005 0.09141669045793269 -0.13587698633585238 -0.011826713151130703 -0.18273313367927313 -0.10947127555625952 0.13580668236047017 -0.0008166769490430521 -0.15860514268941017 -0.15619076667122378 -0.1538395105442037 -0.10622082319364688 -0.05533930226094502 -0.0646421803543564 0.014646964036419272 0.010947315119704723 0.18223471269491476 -0.06065371234457262 -0.12364785575352831 -0.015213910630873614 -0.0740465277174441 -0.12083892698991561 -0.022763468483155105 0.036334193270253876 0.14847990996932955 0.015936303246741515 0.13261702247505477 -0.1673474178680828 0.024431926331839146 -0.04952290393490305 0.12076356151795034 0.0363038363702534 0.124464945586653 -0.1468908063153049 -0.03995137288433436 0.08833625114393158 -0.3122781439276541 0.03502093954523124 -0.01717641620285267 0.1265833765684906 0.1138930966986692 -0.022135720720923027 -0.11830673359560728 -0.0016947895727753408 0.08764023327702702 0.029001353207320297 -0.01883283990852033 -0.11782553348957936 0.05504859083985486 -0.1124295955441699 -0.02654212633977962 0.11329966527272689 -0.1046028148232448 0.09763135765348273 0.037129242172911754 0.1293145080833976 0.03025384941935475 -0.3127257814732854 -0.10072307575901727 0.11462595074226639 -0.010200050623835381 -0.0485234900736297 0.07281571047428721 -0.07389927589269228 0.16021646429932912 -0.25295282418124376 0.12184819159916967 0.08006897588570439 0.11426489416100954 0.05908387033258239 -0.004444081511322531 -0.0010545191070100034 -0.04153548170338364 -0.10273285361004032 0.17765564642809534 0.10385191149544547 -0.0048447815032640965 0.1583142802544418 -0.0906998660582596 0.08451815018724551 -0.1231165109419875 -0.0775164401789716 0.09477211998271573 -0.047984323249816885 -0.053045998788144345 -0.021069434190502803 0.029223440019486464 0.12917672544442346 -0.05933541463848018 0.05096634255876964 0.05738880752643383 -0.1321968108598535 -0.017627775908181806 0.060716688482065496 0.09921914637384348 0.03856527819692659 -0.009612754735483809 0.1444761044350956 0.06112233927746084 -0.0024744988250583366 -0.10871808210724739 0.0748581096180108 0.027996820254960444 0.11206861603986883 -0.0623625194766702 0.08125501293747353 0.05399974934200788 -0.0483679332270783 -0.03526983406284517 -0.016033211193676313 0.03835555071294333 0.07162516950806586 0.03891161081155212 0.17788686561236788 0.11128849833956958 -0.015303168430504069 0.14856747583827187 -0.0756035759283024 0.1252512612893542 -0.09620456598526174 -0.10964575558233665 0.11628658491414334 0.026127501532234955 -0.03459836814454325 0.135872889249406 -0.09299652707054937 0.07583025091252406 0.2016531970507706 -0.0736590232007215 -0.08924340653502949 -0.17767022752352957 -0.05826736983758658 -0.11942921102725766 -0.14105901675660604 -0.1738232437879452 -0.05444481150742238 -0.050674184945130256 -0.06177661107339308 0.0718996975320491 -0.1721561633042395 0.04735735939793086 -0.10232107549979814 0.01674777334949531 0.02875139852021774 0.17900913227483234 0.062038174085760324 -0.1778757136157435 0.11110991576652396 -0.2222354098938733 -0.051826561421037004 0.08274785922038107 0.09437976630267271 0.009763190685320763 0.1259305114629386 -0.13453930347152748 -0.12400105517695481 -0.08315244800377818 0.15319189172467515 0.04001070869127853 0.010394017795531493 -0.09777601135420595 -0.11177552456443865 -0.13258268898224781 -0.06330779807708979 -0.1201159171992665 0.023414729282167097 -0.06028341608420305 0.2762869617841991 0.04779062345734389 -0.0441411182552014 0.06308007527743761 -0.010500488303967328 0.13735063423279367 0.03277511781080035 -0.0033987821636427547 0.16004609934900782 -0.020737248989680702 0.12264742934899858 0.06640484594398796 -0.0004155298402750329 0.04590268921148875 0.0440821543122811 0.05076754990649484 0.1142745872625421 0.07133591351541772 -0.015315322797658121 0.05736527455166821 -0.11649343056558024 0.08136532363969401 0.013067846936042508 -0.10770687533851919 -0.04029361681702942 0.0028849363517969664 -0.10596638684994204 -0.11279489138626031 -0.12419637192053133 0.19287949023115816 0.07190909211874241 0.023259310938510757 0.03230047406870108 0.004217788986313777 -0.024229669218592792 0.07034621190373268 0.006382491930325625 0.030271818265660666 0.06521451386671304 -0.10172528594209765 -0.09271466385426476 0.08633103134585601 -0.017460601893594187 -0.054801467188522725 0.04602067990088583 -0.0796084842329861 -0.19580497892142598 0.04514054480906122 -0.17772836803950026 -0.28319842708310383 -0.08339325611891743 0.19540273478311496 0.010086499101590811 -0.025373423374049592 0.11194562251884627 0.20593903678452105 -0.21390593023852109 -0.05052398866090986 -0.05808052757785895 -0.013156081988945995 0.1833879750057385 0.015208909114360328 0.010653336352770656 0.0955803262607994 0.042988733606259405 -0.18199689105792913 -0.15911046469939372 -0.011605260658481898 -0.045947536031297725 -0.11008347393213058 -0.1255941472913125 0.07399486462721022 0.13213417780833664 -0.18231005794760033 0.060581403530106305 0.014240514775795668 -0.0022540283861445147 -0.0374456250595258 0.015214252801795565 -0.01861114160374553 -0.0765687280868052 0.09214525436988887 -0.09851830697391946 0.03752830563201803 0.00937899376242005 -0.1662746477407404 0.0011765383536807322 0.0066044317844525385 -0.044595069125853114 -0.13497711128174708 -0.10235545100682591 0.016711371404414095 0.07252456254308805 -0.13860467130065618 0.09787919853255267 -0.13113075364734444 0.02816592140158208 0.0755633819908579 -0.03846782155276633 0.06561250710481148 0.13832584868116002 -0.15676659543768665 -0.19183988873831215 0.28044612292581644 0.1558670698510081 0.05289622805046554 0.02399321565252704 -0.016495929475740453 0.21740622476292537 0.008942183667047415 0.15163338435525026 0.13434565863824002 0.08466020808753803 0.034004214995782545 -0.14293775823334742 -0.13572665791007946 0.03183732864133849 -0.02192121477367604 -0.03354693502592795 -0.0537818058344163 0.0347860237969586 -0.014084887943520204 -0.1737927629067921 0.19770362037434597 0.17977312460505152 -0.00833452243941706 -0.17663987046169155 0.0609458098185125 -0.008855354812245702 0.18709564231364728 -0.06951795330273845 0.05970180665448474 -0.0638570911251406 -0.11114621496798238 0.02663085208167842 0.17315582488901415 0.259321123986149 -0.15245439878450054 0.13845558329608496 0.0016619814241463846 -0.19589855172790924 -0.00899395895797919 0.007548051539478694 0.02267596133961139 -0.021891944975014142 -0.03332878858973284 -0.03484648110848977 -0.09435861573381756 -0.12912105161740522 -0.12432735596988449 -0.08857771039584243 0.025642181566555955 -0.024668667994531004 0.10285369766458291 -0.03384138933844349 -0.05980664771410459 -0.040774240913179806 0.036373399366369186 0.007288209410194393 0.08243157106699919 0.03381198077780856 0.09826931972033308 0.1616368887292769 0.14137828000279803 -0.058043130106855745 -0.03229253784735003 -0.011621462268877785 0.14770220182937185 0.14770425954344193 0.09636738440256405 0.0903567062682904 0.040734679890405245 -0.12361308192092933 0.07895454306842054 0.20518871217346446 0.13816015347636254 0.08627066611004602 -0.05004563478522783 0.05397220270168582 -0.12862195477322116 -0.04580106735078182 -0.04087689557679561 0.01702281439090492 0.16291008508536353 -0.18107986086913452 -0.06128970913389035 -0.14532800137572063 -0.19453617380240132 -0.02184156174481281 0.008816792406676184 -0.12493838917354486 0.1672298120547561 -0.1338989802786795 0.10042563974247408 0.09960558843294864 -0.009038062384634902 0.18328619341201235 -0.20705049332830505 -0.009098663829352356 0.04135385347721795 0.06445374268334174 0.05128093050093113 -0.008289447642290376 0.156996214070721 -0.042668002103471596 0.16431774374074357 0.027945623195526244 0.07465197742922382 -0.09929433150210643 0.013680847769997269 -0.1068256507515627 -0.14316460628009722 -0.09181353689527369 0.15484002053742896 0.05181092430337286 -0.17854598732150664 0.023942729716242686 0.003010759019042575 0.08908743710122313 -0.21116832973450217 -0.026914026946816327 -0.014848946153270884 0.042648532750650135 0.11701068456533414 -0.05354845675539807 -0.044656286453210764 -0.017391546990537046 0.0405436223118701 0.017604319790125646 -0.052676242215230686 0.06526856785395285 -0.09220421217200309 0.005961215233919664 0.09438572937847813 0.05956297502926361 -0.08889612480388993 0.08950424836480153 0.05495309487913611 0.10306520461121536 -0.26084501114405917 0.04109132336750709 0.29154862002196386 -0.0731492691252912 -0.09995559171516816 0.039281491493301346 -0.07643557089053238 -0.07226884537082857 -0.10961596434109983 0.11387036320436224 -0.13308255482845174 0.07717331822839783 -0.1116306480243142 -0.11789391290417868 -0.05627262749535877 -0.12409148197276997 -0.11307100199192721 0.02381149264491137 -0.0005534295216930937 0.0729890675363915 -0.028313143180109187 -0.09096026153703572 0.0002042451381641549 0.04854740113877512 0.13620765295037807 -0.09199735298403866 0.09903059918127292 -0.2349612794232531 0.11530174384989962 -0.10639794552657206 -0.11031432252767713 0.2602784635823029 -0.03640766226434813 0.2122436631975785 0.09679743964524352 0.17310518720788937 0.15723482714926054 -0.05721917374927537 -0.08865959897640867 0.11533942084043175 0.1187656784325472 -0.11391976585680952 -0.009018510971153226 -0.008062083322575095 0.00406592861888559 0.13367164220927447 0.013942661107058855 0.08571760035191851 -0.05332346336136237 0.16421594833781183 -0.07416831568761453 -0.00961945487983873 0.14052192094010515 0.20926604982120686 -0.007612149492414031 -0.12405842855831713 -0.09015882753662005 -0.08766168722733013 -0.009356971388412589 -0.055221756779634416 -0.004129322908762637 -0.05053033402977332 0.07577946158847641 -0.05939856220886706 -0.045048182703155665 -0.06627248349987125 0.11466355026852376 0.18446156531409133 -0.041468463937360145 -0.0023732902804852133 -0.1381692946403162 -0.13095902128657408 -0.032509313669826144 -0.07727029955414155 -0.15703932400328827 0.1360409455351343 0.12350289256060808 -0.10687523034301386 0.1707457987860025 -0.21413028717733665 0.007204986414340356 -0.014842967147422163 -0.07508962960876775 0.18582963323214424 0.01907358790946155 0.07891493838089546 -0.0798543921112251 0.0854286247407999 -0.06616327839481222 0.12980942084127564 -0.22814319662010218 -0.16666502392681062 -0.12470882869821379 0.13595813909036936 -0.04131241719121487 0.049734041484527265 0.016562414759453966 0.04178876608712238 -0.019321158105285917 -0.2517343102593612 -0.17009041099915262 -0.07434851201420391 -0.09443303937567733 0.07434347766445991 0.04220149760042706 -0.013687742217618499 -0.03808497786773013 0.015476534395561167 0.06047635499027633 0.029761076515280305 0.05689460364206857 -0.19540063128574162 -0.14368750003845504 0.11277140543617144 0.0921051489974248 0.1008670584275455 -0.23654097804662244 -0.16448640361816497 -0.07872490896364394 0.12143332023935671 0.03800318807517916 0.06481066152884227 0.1416734715608894 -0.038162702355373945 -0.07678856601760106 0.13374053836239574 0.047431920079008316 -0.08578852655357551 0.01796185463991357 -0.0431774219678503 -0.05264623828954756 0.06758309109435125 0.15847954494818875 -0.003350864707138758 -0.18226477382180017 -0.0037430096561507685 0.10587998137910891 -0.10213587038157546 0.2435677346836429 -0.06172326872920152 0.0014936136632208703 0.10187043177972144 -0.15532588389709523 -0.028505852434801505 -0.028697117014566304 0.1206581372067282 0.008658372348639793 0.06635142313949857 -0.0013961384841106696 -0.1074325507205941 -0.11834246555440037 -0.03309061423806153 0.10419236722554191 0.14138523890944735 0.26828422634411603 0.05388560741379368 0.032360264345738625 0.03523210285746723 -0.007220662823284158 -0.0743909111423673 -0.01668244106679247 -0.10337159484150171 -0.0028117113218383166 0.053629951736155416 0.0526359996830449 -0.1209067780648053 -0.11274556274549973 0.01807634354561924 0.08974292163345865 -0.0318970882095979 -0.016121706550180925 -0.12509863808592642 -0.017398700341901614 -0.21091111882328467 -0.036689952533442684 0.0821419140627459 0.06056766464318979 -0.0009942860463993985 0.07925471982185361 0.012707881989612639 0.009948860349052097 0.14161490840006144 -0.026443212887378782 -0.14933330324530417 0.02843307445752677 -0.2427179042489237 -0.037452431126745386 -0.10297496260820929 -0.06267872082389114 -0.14563277274570202 0.02583306765760765 -0.06763870388057075 0.034549233455755314 -0.02349609351774146 0.1093003796463714 0.10093219038634554 -0.09984791574565287 -0.15444376659530132 0.003485764310941054 -0.1415877964769475 -0.15968133693992226 0.24025164212512415 0.055609378945268496 0.10205589851314277 -0.28634980678705485 -0.022127244285422946 -0.07354580677127535 0.029890691866546266 0.10922011193855348 -0.10703378547596576 -0.22134429448485135 -0.07233413632896725 0.009227521377892898 0.09226186113035417 -0.07792650307592922 -0.1055932737788845 -0.007329100034076052 0.25532928320301956 -0.1046632124692427 0.05275505836072586 0.20971413003411601 0.09541627080019804 0.10996567121367413 0.04319133340032662 0.18688142760150883 -0.038617824593151946 -0.10839810482587264 0.0006112711341780298 -0.012475706302287318 -0.02546087491128666 0.27658485365572955 -0.14007154829591953 0.06170302106086483 -0.11460555634647292 0.10906135166426656 0.10997195944535715 -0.1375049736243365 0.015451704233244795 -0.027302235189664893 0.09334363816173591 -0.05142389147243405 0.026476142829671298 -0.03243197274579039 0.015108710736829107 -0.02924642027235927 0.1382374125015558 -0.03830711890828869 0.029008636369423104 0.011604229589273629 -0.08017778906048752 0.020948931762144032 -0.0522779032011804 -0.03901319500763994 0.011587371921899741 0.052170943099037206 0.10954937558679621 -0.13618336738149328 -0.0929315527977535 -0.0437685681759291 -0.1771968553708694 -0.09969305960194397 0.0024611362696377054 -0.08742906301431046 0.020484235207171145 -0.09878484272398777 -0.017841383501416588 0.023987938627097694 0.2103104415908427 0.1859743139440746 -0.09889599337378768 -0.03960445741353675 -0.11339236055908593 0.1300963408576676 0.11226328130555761 -0.03604588240991197 -0.126034529219297 0.06697212683025751 -0.19580151861343198 0.13746147299566416 -0.017840490557680073 0.0017014323239673867 -0.11810478709773363 -0.11367026704596267 -0.008525926883089672 0.10325723404317844 -0.11706429281278599 -0.15496465432958992 0.062429234230967225 0.06268720707854601 0.11004658152131347 -0.19077460330869778 0.051973289627984115 -0.15002703796860317 -0.0018462355282863143 0.1833812909858268 0.17345293039948373 0.004006621955064763 0.07324860234037948 0.08712771830276056 0.12511297416426778 -0.020503298489585414 0.18474078627239873 -0.0037249069153241876 -0.08992451809670401 0.15140074859035868 0.05326725182291834 -0.039778021881593004 -0.009957352266217842 0.004099157073452753 0.04780037315401888 -0.11212808757340412 -0.01695058367163547 -0.01029161138614531 0.08928984487246042 0.12718550237808396
0.01695344721678639 -0.0065747483816669325 -0.014447767095247565 0.0003568067809968445 0.027142476586253322 0.0021110715124678155 -0.005431882811004688 0.0012357707026848996 0.006789789881027927 0.006915064237098176 -0.0046205472641980445 0.004447919172370655 0.012278534657695806 -0.006833620038617301 0.00680287963770139 0.008068361002916335 -0.0034337460924284773 0.0010564088381556016 -0.002928341002021564 0.007648719418479452 -0.0028960408332425625 -0.0005546180971250197 -0.0035016521533696547 -0.016926784367623463 0.003606647634363241 0.002283263713548979 -0.008516092473479125 0.014204436069006178 -0.007404049038327278 5.8862380625741435e-05 -0.02074711625276575 0.0013424997885883117 -0.005692076476211045 0.006172994651868963 -0.013364166290138922 -0.019807187735047777 -0.0013814629801181088 -0.011391339285601937 0.027844216868609634 0.003530222901519969 -0.008104853810000043 0.00436016892290377 0.011125180553619819 -0.002624625287946402 -0.0005238583790984556 -0.013912310216115782 0.01102584918836921 0.007048581468204026 -0.014499246298442153 -0.00960506400957536 0.004362125889993349 -0.006989291908843766 0.009397741720729984 -0.007221405319936778 -0.009853678581167038 -0.0038852905199811463 0.0013694591983032809 0.007231294338438588 0.0026813565525292842 0.00645443826976917 -0.002877564643229762 0.009874165264981598 -0.005026339569974848 -0.004699676706975863 -8.26636978521028e-05 0.02042069344521935 0.01569009759095132 0.00017892207526816088 -0.005814271242042008 0.00033409078984049406 -0.0008280330601423785 0.0018375870258476165 -0.014754242088009436 0.001993406262502507 0.006979264776847159 0.004358434454317895 -0.005406656247685208 -0.0037062917338826122 0.001656669264209005 0.005965385638311984 0.0012334155983899705 0.004142150536547323 -0.020170464058239506 0.01316314218886364 0.005700399767774628 -0.001813696278733812 -0.0028456607732371313 -0.009136701218158485 -0.015647269500394113 0.0052482452874376565 0.011340548260384133 -0.006743371501936435 0.011430770163412002 -0.01233724337402149 -0.005648518397031628 0.002343342344200985 0.006362825894940583 0.0016494389819523786 -0.009081223784571543 0.016964274965319083 0.007937486818292462 0.009472671219950308 0.0012527653803687732 -0.006477753223118495 -0.009968129123084191 0.0053300640661294715 0.008083900523815607 0.011577994745456597 0.012231145337714579 -8.129576762024313e-05 0.013107786183215384 -0.008024364683212354 0.004017618615143569 0.011513300911411712 0.007994934234544608 0.0032365430350819956 -0.01345793897575168 -0.005841022229993221 -0.011838120526415623 0.007434590651025648 0.012091073450178291 0.009058926626669177 -0.010543199150658046 0.0018481378809568686 0.005579723536562894 -0.005584357413647077 -0.009236914916668544 -0.0022603724851397882 0.003541220210747936 0.007488473975105026 0.0014361339243551053 -0.00309597047205215 0.013282417417811452 0.007772756888112395 -0.006686377712393521 -0.006133000718041686 0.02199578832379574 -0.00027850290603435954 0.002583369680798911 0.010550368465268176 -0.007230089644685057 -0.000458628987065964 -0.0011592623811933149 -0.009111314218432084 -0.009098468281367535 -0.005649077748756998 0.0034533452554380973 -0.012277578895212742 -0.02591814573410131 -0.008758588676071578 0.010174775850959477 0.012489889321638775 -0.0016978514645265951 -0.010836084552218002 -0.00016579955072764413 0.016394140029126456 0.009375182510280912 -0.005347176874543961 -0.009065086327938461 0.01855161062367707 -0.010536724578132626 0.013064160154240402 0.011205728510407244 0.006138371302082839 -0.00590370101507184 0.004010739513215472 -0.006547177600584866 0.015865076912730015 0.0020481057396688224 0.00358120439473187 0.012250618840498224 0.005739600802233565 0.0029042128691572433 -0.0016882947247952604 -0.003229979229343009 -0.012107379210593894 -0.01699655978232525 -0.00826874783946852 -0.0007682162706243087 0.01569336747481415 -0.010338170297303035 0.018290772308070073 -0.015997347145060875 0.014598043453984341 -0.000596882310951685 -0.010205948242840455 0.0022757865167399183 0.005608225262195249 0.0051506001663035195 0.008075226991366377 -0.0025608802700157218 0.010773877651846397 -0.0013697922784475444 0.023003720412360644 0.005326540740549746 -0.007173277845753921 0.010348423908483903 0.0011078987121388357 0.005305808357280328 -0.004664262342855088 -0.023296974861291307 0.009608290866845183 0.0013969899223547084 -0.015149287738919038 -0.013575982229487927 -0.004110913422396182 0.002944880592375713 0.001490078131305253 0.0187243810498921 -0.011460008610270923 9.110793049047823e-05 -0.0017520032411073383 -0.010820181184640967 0.000858012381221478 0.0009006108744846574 0.0029575881131516436 0.008051017456312662 -0.007044365900269912 0.006940384690255486 -0.004197347892034535 0.0021272023452406762 0.015143193467994306 0.010182970122240178 -0.003354371854584547 -0.008110338236162641 0.00041245596136490776 -0.014433137962124292 -0.0049418678543014976 0.00392079722111522 -0.008244564499469444 -0.004761997849715269 -0.007114245569403939 0.017275397103466972 0.010443489306317678 -0.0014391136885035774 -6.928996629531104e-05 -0.0065288905670997386 0.00037069065997517354 -0.009140996661207587 0.01291120867559442 -0.008449214596091355 -0.011774122418993583 0.015842213157707816 -0.01358463091456708 -0.0024610234774132505 -0.02557803986151368 0.014163454625712524 0.013689759779714782 0.010590279555872188 -0.00865897874149843 -0.004907255708481495 0.013022335068458346 0.011001254033892538 -0.009315827949628944 -0.00039197063917695925 -0.009831704547321117 0.00036719504945779025 -0.013330810895288378 -0.016325954318334963 0.008478551798645794 -0.002529585610412495 0.020280767381111137 0.0032178141809376445 -0.008627037827189307 -0.02392673579796396 0.007475858709367726 0.008245177744469956 0.004557564176573302 -0.010182461204028041 -0.0010852047578895651 -0.01775376004427786 0.008252589848871485 -0.005331232297364152 0.0036108805079766845 -0.007058368365096183 -0.005887604561658144 0.014549249292874081 0.021437512287970018 0.027879527728794262 0.008175139164208122 0.0010988172506083392 -0.0003439053824035045 -0.02203002144542934 5.410282777609598e-05 0.0036430353746750737 -0.003100515435252021 -0.0210324407561219 -0.009476829882017208 -0.0032886350978981343 0.009771497458493051 -0.0075049494342701575 -0.0040243712654217546 -0.0022219605879589474 -0.008545441323792438 0.0023433706694098696 -0.005260125256800851 -0.0039023812004656978 -0.004565250165301389 -0.001231271662382152 -0.0018150984200591403 -0.008871245804819084 -0.004675907318644631 0.0048092100089949 -0.013584699943683267 0.01063835782044961 -0.006251993098217432 0.003994455734897173 0.009491881397561144 -0.02520954593562821 0.0018507452306869485 0.01650055155340446 0.009145418550313436 0.021417713930948344 -0.005790335313152946 -0.0028880314015605553 0.006056653353245823 0.007293876963169133 -0.008030591175083061 0.010909956134210131 -0.00433412884130402 -0.010695367411850025 0.00573363700210511 -0.007938663222023537 -0.0021081163562520176 0.014166665507650977 0.00652852373145623 -0.01054254167249068 -0.021915481542838552 -0.008644005850735364 0.0030134369048374844 -0.0177670942694974 -0.002521916776139909 0.02503618487418343 0.011601295216531788 0.014793555255993627 -0.00013394723569425674 -0.008495964203159621 -0.016370666365020454 -0.011510413099810983 -0.004938719950879913 0.012472648410807467 -0.0029274412089255186 0.008168632371875354 -0.0027161402717500423 -0.0077334213925665364 -0.0009191382822574438 -0.007640069263175349 -0.002292098404998034 0.006474299325446943 -0.004340185941998078 0.010471297681229117 -0.020541957647132528 0.0023774603387894397 0.010980205373785155 -0.004151999894219463 0.025345203421774147 0.022127162849672706 -0.007621576804094027 0.0038254701394151115 -0.007203373675605661 -0.015827540947688137 -0.0006845596528235663 0.003333875985338705 -0.008695050169890247 -0.0025745949361884236 -0.004802006034781753 -0.004530939726229969 0.013167954582759918 0.007108516642221246 0.005595352366571256 0.014089437164145522 -4.6949304959086955e-05 0.023066915833366702 0.014218481583194298 0.0016873132704509884 0.008370528746117229 -0.011302618711257897 -0.0010900820958434135 0.003260480766869359 -0.0186896475793929 0.003198625186428018 0.0003594540434863651 0.013652654345474118 -0.018606391247887835 -0.013093455160460623 -0.0033575905879784256 0.002358097566111176 -0.012078085904902263 -0.025099822000631142 0.0021437873096184414 0.0038016900656909196 -0.005389470498227269 0.0017419489410201586 0.007279593885140966 0.006420269883631352 0.004484103805224557 0.010990469375782965 -0.015989692021392825 -0.007019680011003273 -0.011167088251333142 0.0036487379254074837 -0.007747946417347031 -0.012891900803611809 -0.017343192630891763 -0.009397926272741613 0.008300142044858247 0.010582744469122425 -0.009778705905594275 0.008169499548335513 0.0005331012476140222 0.0021952657123627084 -0.026475655014595458 0.027233835933780877 0.010082360798173838 -0.005633518697552463 0.009340970888032873 0.02415698349124621 -0.016359769460853317 0.0035810990279783778 -0.017568822040643865 -0.009894628184510154 -0.0013905196732006643 0.010884952497466648 0.016235721224849464 0.006840354219855822 -0.013253629616372083 0.007318681942142056 0.014361534299991182 -0.014470444369815592 0.01769968177553677 -0.008056950826852925 -0.01219574775169049 0.0048642892615518305 -0.007844595005314063 0.023080762582442703 -0.004131963242955021 -0.0052689060271244184 -0.00568009355736912 0.01454886547012768 0.0010179761350013672 -0.013305717710527083 0.01652723016232528 0.010452334376566893 -0.0005987349020458574 -0.006668496034556146 0.003951867882204773 0.0009303596218695762 0.0057035632010422254 0.0051398020687455324 0.011314056301982286 0.01309832241355543 0.008952247034512207 -0.02186322269181001 -0.007838592301377918 0.0058685032625426185 -0.0008308099445204975 0.011869144752569545 -0.0027169488693577653 0.008082224845372387 0.00033214454699868065 -0.0016404323428292839 -0.013361530040836464 0.010296828957365427 -0.005653157230250667 0.007657857082116998 -0.00537516556689265 -0.0050950702513575105 0.00027752964819884203 0.0061945866774900035 0.0028014574595724862 0.009252194682944003 -9.715647248430704e-05 -0.003922267178704327 0.011135545753278962 -0.016100984010205755 0.0027615640461094767 0.01660406647428741 0.01342524409088248 -0.011574200763832148 0.002975070960423425 -0.01744598938328674 -0.0045554904732170295 0.004811284505162937 0.008450569382847231 0.009116616968732236 -0.015331171803362504 -0.007753316293436635 -0.0010298219480480253 0.0008024209183793269 -0.018749364293161725 0.024165692665442166 -0.006580171296008416 -0.021824787632245518 -0.02826549546432941 0.002828854793158467 -0.007246719424088389 -0.0023424180566090323 -0.005904479472524929 -0.013854906978530115 -0.0012055249681946782 -0.010616755477584141 -0.007190912353644298 0.0030990552645988622 0.01166825940091801 0.00262141693549414 9.430443903684652e-05 -0.0034702135134607355 0.008307712878850657 0.005097796281183116 -0.0039000218378098996 0.009966122388443759 -0.0069468712311515 0.01628258817352077 0.0028542894311068207 -0.020682397852757044 -0.014296416606074875 0.0033384433512751405 0.006986362585757374 0.008052132867385039 -8.085191150295423e-05 0.009328557435371386 0.01740104034188817 0.01581620726509765 -0.007178054549555164 0.013559218151834647 0.007915049492126697 -0.0006986564253749966 0.002451049481170297 0.003603374139775503 -0.004877046259963855 4.425845504732707e-06 -0.0023648324015536214 0.008378504447506983 0.014712210640680146 -0.0026485496881280867 -0.01877779824160786 -0.0005476752940640853 0.0023351799295707803 0.013713642067030508 0.013687847343735047 0.010029528268882882 0.011570097002702225 -0.010823143370192115 0.0031063240751844053 -0.003889332537007345 0.00820379127463633 0.0025679613884930295 0.003767264809214306 -0.008597551879798961 -0.011875675323371202 -0.024253661250904827 0.006301921056624582 -0.009815105656578975 0.002979913880734809 0.002835088640327122 -0.00040779328643212486 -0.006928942804713056 -0.014796453867913907 -0.00337798108671815 0.0022694876814325364 -0.00861334258290093 0.008594951352680635 -0.009809754455827055 -0.009616760117407598 0.0017290877260820233 -0.003268205654204671 0.015897194935472203 0.013702487090420582 0.0016153864825314366 0.00020851380930592112 -0.003926806584667595 0.008319798400512907 -0.009305590204251488 0.0002838500569038702 -0.00955856593063113 -0.0012289451700320862 0.012920255790750974 -0.019532005607783065 -0.008496070075327208 -0.0009365933239816247 0.0004391739244490914 0.004296718704291406 0.0009307541751234537 -0.011985847893042842 -0.0005187888773935827 -0.009209530449931377 0.0030684638462704435 0.011611364445831955 0.0019017201234111903 -0.00519847322591511 -0.014932552359918317 0.004714578005478019 0.006238640007542258 -0.005520697908803928 -0.010679444860943618 0.003860384288623339 -0.01352467987128277 -0.0004871935103534979 0.006399166470428596 0.005054352628478995 -0.013440999739466206 -0.0019411627539704021 0.003245269816397464 0.006048578080412306 0.012840656795587943 0.0004062064755118159 -0.005426949623637506 -0.017117798506396557 0.0037538609790029533 0.0025934776485851897 -0.01197718823588078 -0.0059027693454819265 0.001654460961568145 -0.012677175493093624 -0.014041706634866022 -0.01069531879623813 0.008009822393986388 0.011724561123151619 -0.02442125593044543 -0.0034506659529234948 -0.0009958783138888194 0.012818160073810939 0.003288524955174273 -0.0007029949726399322 0.004962364596371745 -0.003750902306250422 0.0020570812225969596 -0.007887455762631815 0.01548502902223361 -0.00026703904030444446 -0.02594104840534658 -0.008625511219733135 -0.003071830442427632 0.007442731098095522 0.007291404547178305 0.009659986308612398 0.006282098819745571 -0.004273818651143945 0.010971531484010777 0.013673486347464419 0.017566214396933337 -0.005910557583190271 0.0011343834771168756 0.012753984874860444 -0.011759968719238387 -0.004159336637460238 -0.012441996750649869 -0.001494873960572973 0.0014396117809593032 -0.002863123612824626 0.00129396297876073 -0.0036585264269507773 0.010705409194498097 0.009128215954400816 0.003462639423271124 -0.012611518976137824 0.003030210447768037 0.023429148491351998 0.0006458240173510378 -0.01728964612173824 -0.00646877796060974 0.0002250503237523956 0.013390622629308303 0.015265637617822568 0.006422473159922439 -0.00826087052078785 0.010532898624409514 -0.00693334658079789 0.0004322053207007001 0.006450984949279846 0.009453825282105375 -0.012389529894571876 0.007839653736209885 0.013561952471031527 0.005762342468643055 0.0038045453609133256 0.018074256491608418 -0.017485577632703763 0.008176264055387005 0.00918119853644047 0.009834822817384289 -0.000773714845123813 0.01705575307758249 -0.0067844114916038745 -0.0014236560957992708 -0.0021817588376062285 0.007292235945668638 -0.0023116924210861375 0.014410281055270164 0.014222893004056323 0.010592697347984155 -0.002718520727414498 0.00045075050621714777 0.01139583691299049 0.014138852996504823 0.006207301816748746 0.005620521085773061 0.018594166552920503 -0.004525018371374225 -0.00034941713350403685 -0.008700051153951033 0.008367166758504475 -0.0027075112833798583 -0.0021837379177751114 -0.004786317103691041 0.002310299381536698 -0.0041795248826126475 -0.00933453750034821 0.002315275652891353 -0.012195550077211714 0.017954774520630722 -0.012043537646209263 0.015058677642459533 -0.01727019007562424 -0.011563958560900726 0.010380801721236213 0.0002653643617021049 0.005950005805437955 -0.010797123925300236 -0.01212491488419851 0.01727509785022004 -0.006526089425823337 0.004985192138096297 -0.009812486166171294 -0.015744851939309995 -0.006213411068826815 0.013554530531531208 -0.0058924676904589125 -0.0027880382350351056 0.015827674157973728 -0.004483970461366263 -0.008552757963201204 0.011332402777147435 0.007249530470071419 -0.0019387963529831243 0.006085576129049002 -0.02310223779833936 0.0001554417230510949 0.011157268522897713 -0.006641419078674753 0.010665660137033217 -0.006408206838988972 0.011404677618212556 0.008205387325815975 -0.010704068506817445 0.00794100700650038 -0.0020573817330907366 -0.003465886399900721 0.0014373627335781593 -0.006543207596061226 -0.008394728395238622 -0.01105804027573053 -0.013916835715912583 -0.0022563035991085287 0.02274453672723249 0.00480506053074509 -0.008525460280314182 0.01197935031049247 0.007845768583452994 -0.0055480188162807 -0.004477713399219051 -0.007966912379082721 -0.0058700627396110275 0.010839376142624868 -0.010426826010895044 -0.009628450061289413 -0.0001847846400590582 0.01078089077386376 0.01038335551960672 0.023336368425098643 -0.0017555279786105546 0.004595155805241657 -0.0054518092509380466 0.01476562615631112 -0.009961616901187723 -0.006605994093910475 -0.0054903356307882826 -0.004496467349942491 -0.00015765190071196714 -0.0005104151251375679 -0.006880954682125604 9.566849125993886e-05 -0.014834379202321182 0.0161685383637266
-0.11567129453083203 -0.05822149759929381 -0.027191165532384962 0.0812340237471932 -0.06387372622992472 -0.03677253929813861 0.004943824625009079 0.12826015688651404 -0.02221693044628938 -0.053900963130018555 -0.12134525786822975 -0.17527673463035898 0.20668342949200275 -0.03664156512667863 0.01912384072591357 0.018875568119526488 -0.08113324191516981 -0.029184326688043525 -0.016689079639941647 -0.08154835430218237 0.03421209398263023 0.030161649292732164 0.08010288546190426 0.05346339064699374 -0.12313755319008214 0.0876322361320002 -0.07035427712582251 0.15066232891432615 0.011556904442576902 -0.12898204707853822 -0.026919446811346264 -0.03899027512404201 0.08607590882066438 0.10186773039358525 0.10555684430677804 -0.016477867970291906 0.027192486468609108 -0.07395063394716088 0.10865443459602704 -0.06553080510598809 0.16219423478369566 -0.0184398780039547 -0.026471444963391634 -0.20137417298906096 -0.07339542830291797 -0.1305962004321574 -0.04529016582216283 -0.08875546975342628 -0.029275039674274504 0.08013350817800555 -0.12405639898108602 0.03138672580559679 -0.08610323993735024 0.07378742560642625 0.043212920065049634 0.0748762170145734 0.021832570334824098 0.03786652040647952 0.022326902089799695 0.0989770185086317 -0.028498062259148162 -0.028731373793571633 0.09125239460627098 -0.12707746025355018 0.0935534635426533 0.09175500228222773 0.07635573382772487 0.2754004344675015 0.002074522149703242 -0.13427074294685948 0.1691781576975608 0.05582379010559406 0.10446441541192827 -0.021231146940099477 -0.14587362450677147 -0.11276356696058196 -0.06444939501345325 0.11682192349854277 0.164919228286362 -0.05228256739959718 0.08967259182800749 -0.051177952087714654 -0.007994303803925844 0.025222775175960607 0.04940047091374509 0.06353618687277894 0.06509921735871421 0.0949357180791952 -0.08025239674355265 -0.0586480281975655 -0.0455641046872129 0.0022604670532456917 -0.14092246084958387 0.03165806478642366 -0.006982632317572843 -0.0587796100177456 -0.060116632142874035 0.09065143555281141 0.0048002160137694625 0.012988566577996047 0.042009079515586044 -0.03254637070757286 -0.017195488802173316 0.13501932938556993 0.08766349622771764 0.05294456491703189 0.03516988028897554 0.029704345103914263 -0.05012979966951569 0.01997899080193808 0.22065095743378127 0.054709122261684805 -0.10944913158910394 0.16568769380724033 0.02047421358796377 -0.014661869354845977 -0.011652100493317248 0.0882779433321391 0.01300339087625826 -0.06533904839655148 -0.07016931424273326 -0.18819995371925866 -0.020530607532765976 0.12178052359555536 0.05720608869782696 -0.06938864611774309 0.07309697080759534 0.0019128607787821134 0.04628552186769966 -0.06010976519910456 0.32486224589800167 -0.12089769604204353 -0.05989455745422425 0.09480138387182717 -0.08105962121968789 0.11727199665755408 0.13150105214836352 0.026215564623053977 0.017156796385781686 -0.010927684924538569 0.08514990424252003 0.18379824777546447 0.017990070572163955 -0.0069713989134764015 0.04013084938522187 -0.16032293649690815 0.13663636242937757 0.11648539892192906 0.17299824957746715 -0.07514264007915343 -0.1309028966468674 -0.030224471767556 -0.13682714123962464 -0.05556843752480516 0.06703086511228035 0.15123497657462714 0.002206775375107057 -0.045861828538377836 -0.004278056714141133 0.03247687470845418 -0.08302191212158921 0.15275836739114926 0.024302885962055702 0.009736994038348191 0.06875529682136249 0.10718444788216225 0.0003775011159931686 -0.054902875253952085 0.19801615811067486 -0.030305676168092602 0.016480185598961826 0.20920560633372737 0.022825968362307245 -0.07071983128441715 0.040201432134241 0.06754139911424473 -0.07909627072174776 -0.0679330878758647 0.09286828207247357 -0.013241726149479468 -0.02889043653824855 0.22998222956240344 -0.03520154742232518 0.16786584342218785 -0.06448681584380005 -0.0951865144440333 -0.141123266605316 0.02564639914650739 0.07267556272201708 0.03245805218869669 0.017745243512298777 0.06945667950095227 -0.02533040448715681 -0.012176620194705405 0.05500193672414791 -0.003898151994559219 0.22052064967713894 -0.06080087719529674 -0.015470518096626296 -0.016713560030584357 -0.05575121005691586 -0.14781113583930316 0.09628753797027 0.020090174401451773 -0.06241834800540918 0.012066862876151751 0.0588179649150265 0.027964040684668796 0.06399384191613619 0.032684985200860016 0.07031532914858736 -0.05246807239950493 -0.0649917814264032 0.08921518908595764 0.1959138995610102 0.09335812130897718 -0.026063585959692166 0.06996903342381408 0.07683001705647341 -0.22565606603647764 -0.09146051174697106 -0.043255770315989185 0.04781022999020878 0.15389804781987748 0.07270913694274102 0.31565437124062884 0.17957380057628056 -0.18459513164232094 0.16664789365788343 0.07334499234887731 0.053789565262778054 -0.06763607443477006 -0.1613414937475715 0.0018918098931551414 0.06286490720082363 -0.110428972552749 0.01283440583365586 0.1755372123675329 0.021170645477492332 0.1474343943579271 0.044051752045806976 0.08119039053719652 0.005009748441795879 0.12697704852931194 -0.03616120149047981 -0.001386258408292434 0.025765381315605976 0.2018575816354677 0.03708433248763603 -0.17326481663262727 0.026822017301836597 -0.11346590776041861 -0.012563178623335525 0.12710035132231098 0.05154231089218275 -0.0023848437156249276 0.14003111701612592 0.045513216572955394 0.1903728500997611 -0.06697757687215287 -0.17327288406623628 -0.1061563306497149 -0.024687472290132937 -0.022266389990633097 -0.10879085777602375 -0.17384706980568002 -0.1385405666713277 -0.0637901255435482 -0.11212178619839075 -0.24432780076047947 0.04519338262730238 0.019059388047158402 0.029022801523416943 0.06023350852378982 0.15454012878203513 0.08806184968506665 0.04914509432894079 0.0019462034476118856 -0.0915592774135965 0.23318194470390888 -0.11307957636951876 -0.07713933154210668 -0.04149214959431673 0.015754618793954855 0.005944909894077124 -0.07939830308734727 0.007421544758765014 -0.06021314872792017 0.026068040009314973 0.12676923209231392 -0.08790972299468795 0.2105851244289782 0.054517559975180596 -0.018469821914148428 -0.048530917996822416 -0.029978370490622228 0.23565339719972697 0.07272557833068326 -0.1826352564590422 -0.09111853403069599 0.03016602529687713 0.1214696321964601 -0.11755025767157687 0.05415903750212097 0.04033821819715415 -0.0598444583231707 -0.11785537573349865 -0.11938647470660237 0.10573262215056846 -0.022809407832125074 0.06983337590371239 -0.026883814997255027 0.03785501733295394 0.04243840372666825 0.1366212119999573 -0.22006599969204857 0.010228888829884283 0.019270698799050075 -0.18700736244251664 0.1574141847883311 -0.07861794900009844 -0.20902038217024452 0.012411429960946444 -0.025996776037938304 -0.042607370033950834 -0.15077301803801577 -0.11913797874203011 -0.10425019457568836 -0.04139490756761852 0.15019414428354047 0.1631897451268171 0.011665588274150943 0.010364941680527557 0.07045574409441785 0.07729633679313627 -0.08973687454717223 -0.04630291110152381 -0.014902661156101574 0.0066050049280460005 0.060112845647158505 -0.19847208211280742 0.028947244554552134 0.1842438841529624 0.06882836157649554 -0.0298535893913715 -0.11923325527962704 0.11139312679266956 -0.04002076588630643 -0.023052604390903658 0.12481563558059004 0.00980790920934689 -0.17176821484113142 -0.017591940226872126 0.1756886700311595 0.07913064991893051 -0.045071216990968416 0.018365173588528953 0.0031458162272830553 0.08996131788317023 -0.024747976587318136 0.070072259132448 -0.05055332882055551 0.13214368093942686 0.0600285458813456 -0.09269804372070443 0.01873740169576085 0.01954800491817852 0.003621180144686604 0.10195550890651876 -0.04270219518660717 -0.08634821003416787 0.06335797655906633 -0.031942887105052754 0.056030334725341815 0.003141210013552927 -0.13985908651190648 -0.05095018729878623 0.028450057452141273 -0.1706767425012627 0.00019276074667215788 0.12104314667009279 -0.1671828163600103 -0.1790981759222874 -0.018799295556549307 -0.034308592914488636 0.09199553296939605 -0.08260508260764081 0.10790967580663045 0.016381365488773596 0.04933776921124872 0.10270577226282114 -0.06388156303765614 -0.15155394404320882 -0.007912033210456052 0.024908471065277472 -0.12726795145899394 0.08783542555615659 0.1514849713952551 -0.06227154251324668 -0.018576241026158638 -0.035823918763006356 -0.09317671747931003 -0.06349241979290823 0.033946805556740914 0.0838318280044895 0.012726974958353267 -0.03924971194766611 0.12639299908574714 0.1757459221620132 0.05904474492435555 0.18369741465472722 -0.008424333859577058 0.22440387168414677 -0.042748993456785206 -0.006305582585863342 -0.02216869074225242 0.020086567378556307 0.21479651621851623 -0.12180586466801026 0.0329410488312699 0.04989274151214363 -0.1013142220605867 -0.1278429714603371 -0.019085741166380732 0.006962960742087906 0.21987998927313646 -0.057327744492108985 0.16241214893515696 -0.06501483068417051 -0.009768532165410593 -0.11744734190411633 0.027580719106029626 -0.058763133449194524 -0.09827823748491958 -0.2147435146466543 0.08682055212031324 -0.02944126342960074 -0.050697160100900335 -0.15714681355961557 -0.12655993416708966 -0.0103237894295542 -0.03158345239348004 -0.017021594608998648 0.02970721768328007 -0.03587051910490199 0.06585195443258046 0.07538208997418155 -0.24055626576039527 0.1248059899923602 0.046892210694631446 -0.13011794811231944 -0.005388379793853223 -0.15960471026061349 0.0042705881134843205 0.16112251348267156 0.12229250995950272 0.24449143275310029 0.12913500928385385 0.06248867031763701 0.059993921578473414 0.02823326501494852 0.169547728241832 0.006490705392786276 0.039832583762717415 0.06758047366378282 0.2088692192356253 -0.06298239527709365 -0.04498683028667638 -0.08498875292499279 0.1435818139617211 0.045668105220170715 -0.0024525077122308247 0.0793545492152496 0.09494026910961882 0.09472794772684322 -0.03161393030872211 0.0017471184199635765 0.06301363395449841 0.060927475587136556 -0.0028209738225465158 0.19555749108584516 -0.12821837346838794 0.04480838030650135 0.06454227970768858 0.0361453150098876 0.07711312289207921 0.05597502728320581 0.2450245086303831 -0.06118238155674498 -0.005202655650243075 0.07519433084967483 -0.013033145956680158 0.03728809142201625 0.11073145584665464 0.04255090377949224 -0.06473743661516716 -0.011733468750889119 0.012318718125432717 0.19490757087507557 0.1359964871888904 -0.09295614510604357 0.1624046572971169 -0.11900252929422798 0.10504312742449698 -0.06048877011745656 -0.09697592589945865 0.07055254498173104 0.11510523588554564 0.015747652039334124 0.076836873796099 0.11550038743762686 0.08815565703682215 -0.14632957627377838 0.06475484536777922 -0.06249379641429523 0.0035568070248460956 0.07825977125283451 0.08479063015037433 -0.26861655195199224 0.03004300238263951 0.012236588827191985 0.11093777520489434 0.10689429853256993 -0.1427969945873863 -0.0807258037631587 -0.05530553587280601 0.06490089763564888 0.07027172232262609 -0.04780774896716164 0.12236246541385898 -0.030230178117007463 0.10590630733574094 -0.05092981538359246 0.08733953009156209 0.11450375849902973 -0.08492454840567809 0.07165133908653738 0.11831813914363798 0.13510330456083658 -0.006077651414986491 0.014574905132514115 0.19835368009680712 -0.044662706436885455 0.008131918203571495 -0.05804993607119254 -0.0384408831691052 -0.06251378162371406 0.020541764576931014 0.07184469269357198 0.05771440563916124 -0.05870664047662685 0.19053229512206102 -0.06243461367387463 0.10490958244931475 -0.15483039045925326 -0.08664702471861327 0.027639249468907282 -0.0650409144284712 0.06170445342629379 0.017165683024269268 -0.09120899533458784 -0.05069479791411271 -0.052958369003703314 0.19104455819487526 0.08110387325142784 0.07471820630455563 -0.03440305419421866 0.013228280007112028 0.006797519807973999 -0.06603562437978144 0.20193714634951912 -0.12671106711846142 0.08735700732284403 0.276415686996494 -0.03805676740660375 0.1366439121291248 -0.0006908109184987655 0.10318159417753618 0.041337831425413564 0.12817795138129198 0.1451353695307501 -0.11751192041124117 0.0815335119026357 -0.0038080008847464733 0.058151299958115577 0.09757409869831896 -0.18547726982150714 0.18475870406085956 -0.033962297392111804 0.1729171088556022 0.09708829060434306 0.021863780987556092 -0.04728766252998934 -0.06073485619916426 0.0564780942643316 -0.03889384906223024 0.03829162900277558 0.11077155708487983 0.007612789567397201 -0.1436782734909816 0.03333965614628202 0.039377049195780396 0.08836098699966721 -0.018962253707468603 0.13226854952446288 0.02101276680627131 0.07498310863293986 -0.14918523823261784 -0.018681663234656677 -0.08899679674277068 -0.07246074957888506 -0.08253613432507285 -0.07618369351254921 0.0058062224610400705 0.061244240718342655 -0.006904047814349281 0.06274628521505249 0.01536611827569449 -0.00030858346705970853 0.12816034498700496 -0.04022174523443622 0.11571869008402924 -0.211419847101408 0.052355275598818175 -0.13760293350213007 -0.004355362021412569 0.06408135518552777 0.19042937936474913 0.08825523893943817 0.008249381365749455 -0.147234716814493 -0.003812622209894659 0.01474086282491591 0.12918839719245417 -0.053535751230132184 -0.017676937322265027 0.23694203915250034 -0.04978896946700482 -0.03775701906745333 -0.08516242731988286 -0.04410719703680035 -0.17753022571707 -0.061027381374227 0.080580591648021 0.06133523929989173 -0.0894277329560531 -0.12175010691000632 0.08703550699138943 0.03448229729146632 0.16638770281801438 0.12114012745417031 0.007677745984701832 -0.03222245569843362 -0.048147718219667596 0.14633322853940492 -0.15053239639646415 0.033882078397780825 -0.0009952302925319127 0.09690941727715874 -0.08971018907501048 0.10585226416012775 0.05379887286544508 -0.016294247719460343 0.036664545458458785 -0.020769940610215285 -0.10325767151871842 0.07472534958925008 -0.043178881138610174 -0.11438774561117988 0.08867945468321982 -0.02104354527278953 0.1609663604483217 0.1123458230662063 -0.011073409402355502 0.07764593353643034 0.06742847377741158 0.09357261768627236 -0.014701498128328643 0.015192264805874475 -0.03362945273230594 -0.0414670849694598 -0.08295325481458277 -0.018306610657714162 -0.19374026018821816 -0.04319027200667267 -0.013822021810484463 0.20808800566655297 0.08425998834031909 0.05309520686475671 0.130959239630773 -0.10573842913472968 0.032226363663414394 -0.10823444892508281 -0.0784767018380208 -0.07412890584972576 -0.07193758047813893 -0.2232712338872255 0.08418705513039858 0.11067785210027176 0.11649153494553652 0.13906023098464654 -0.04383666851766486 -0.009179077168201506 0.06990902288076635 0.041173317174441344 -0.12995554924968267 -0.07089827100932852 0.05131824281392745 0.05465616081350763 0.08275895782281721 -0.06819407433724008 0.020056196028917964 0.03661793088860491 -0.008710244487666994 -0.0755180281221211 -0.13363559461161056 0.10081342011576158 -0.008999521558307579 0.01375684261115962 -0.06632899595082982 -0.01678185674017216 0.10627088470488703 0.1164199468011604 0.0725241164876546 0.001460533076280946 -0.0016844789798895372 -0.09851756693895351 -0.0612370649230267 0.07203110807388961 -0.15094352188501445 -0.0377998676404544 -0.15204336002642135 -0.10404688522989734 0.16768755007265984 -0.07898140637338381 -0.02278300527642124 -0.016918795858016544 0.07225225989852765 0.09746479572357909 -0.03514593561754268 -0.01114497106133356 -0.050974390204455364 -0.04493341250869592 -0.0881154062203611 -0.025505689516868303 -0.08303145798907059 -0.04822747298263625 -0.13101165145186866 -0.010289197645425713 0.06990837886996218 -0.013948798884489012 -0.002311724991737837 0.08930511264815823 0.10282337537807594 -0.08107152976705942 -0.026361960276632845 -0.08629228764851338 -0.02516390760723776 0.14065769389078658 -0.06218824861425409 0.16603990672119864 -0.06706706954955276 -0.030926289767447913 0.024062972213731604 -0.091890396537314 0.17886774471635108 -0.006787325835845379 -0.07543482925025308 0.1018825340921247 0.12390731922738867 -0.20772151913331866 0.018028473050871647 0.10030940500996373 -0.1438157749522113 0.1141943189792194 -0.05682178464955548 -0.2044672718736261 0.08612322453013903 -0.023705324898231177 0.007628544019754406 -0.019634111415985787 -0.158420606906521 0.048670292634534026 -0.03933956474578544 -0.0023157578159744923 0.0659162063555857 -0.06913992564040887 -0.010326382393047716 -0.0937506889879558 -0.039798178679670546 -0.10986638426804343 0.08459218709652806 0.12274123753985278 0.011247055651874761 -0.051499788953077885 -0.03942888675473047 0.01236575675043933 -0.1772094169350225 -0.04459573117762547 -0.04494815887186138 -0.09134733908040894 0.06955088714359847 -0.0019213486723344603 0.07592049976604151 0.029118223830166615 0.059787999513504546 -0.10124863379939854 -0.10165772560097812 -0.015005349486662743 0.0010783714087610626 -0.12023584288118434 -0.03702510232324393 -0.027110856593848928 -0.1784115009690391 -0.027674938419770315 -0.01863860545292691 0.08779658154091137 0.12376104676473426 -0.09208335382668635 0.05670960883300293 0.030604477226806124 0.08279534273871116 0.05584444762812127 -0.21376913059343985 0.03045815076217044 -0.02716158125125687 0.17025041699209648 0.013567127167679624 0.018683474470850798 -0.04790343945510772 0.18267178137249443 0.10038487150960004 0.03791417576822135 -0.0216752528910772 -0.05537778917521447 -0.03925261389293453 0.02604544592178524 -0.04910590306529973 0.06447363255734047 0.1611146388540936 0.1467892283548083 -0.1666961260030153 0.05873366823962073 -0.09578554309769936 0.12444575747264494 0.2359490666730635 -0.07219010974317572 -0.05655639008105206 -0.03491787794303135 0.07576120866062201 -0.09052342800080852 0.07104898680585672 0.13230260244797548 -0.08232495981191974 0.08463804867819377 0.15650145263896442 0.052371700691951205 -0.00033545043748795184 0.021736434075953118 -0.02504869991459994 0.071114249224452 -0.0007868011016697442 0.11187905535800118 0.10691392683100069 0.051175640057586236 -0.10002705877565637 -0.14712668686410113 0.02895822429813671 -0.04871021504477507 0.12324123394475164 -0.0815939496347817 0.06602512870101974 0.03536242593883828 -0.06976598338472606 0.050840802070543936 0.04666144310436407 0.022752799060396383 0.17805408834545114 -0.024433798245294968 0.037677930716693626 -0.08953510930309103 -0.00215804362549378 0.10376064376072998 -0.007125328601101611 0.10369134181243128 0.01881283031172977 0.07426535709155217 -0.034805783676445476 -0.03920871318720422 0.08173195948593852 0.1009259934224529 -0.06827779957778478 -0.11726690260870291 -0.2598754694207766 0.13149842624633779 -0.16814089244330405 -0.21415102427268454 -0.031945945506882005 -0.006726637607348165 0.03251885557155656 0.02920136044104923 0.1344053615327299 -0.033477207906221454 0.11536890650987427 0.046729598534956125 -0.11576844711043936 0.02375764832137531 0.010914435780634005 0.04356409642947043 -0.14265793161058646 -0.03327778584361783 0.1367228260040948 -0.14734394524113 0.11335557092118378 0.061786728484482106 -0.13601807152676548 0.14193958873705653 0.038699417547730895 -0.1933493489715234 -0.1502655907418696 -0.022369291829795745 -0.07318763810374075 0.007980966342617857 0.05104085734084745 0.1501675628415973 -0.10632138124018682 -0.03424357034450554 -0.1222747325291999 -0.014553309601747113 -0.21001771848696305 0.11533788846188253 -0.14269109251131154 0.05062431775112913 0.13727913641550132 -0.07307231522908846 0.11214398643598428 -0.05342574958936892 0.07629930974387712 -0.04885468223948704 0.06024290325361491 -0.06276527231503412 0.0787352113209501 -0.0207522003639738 -0.13222681883724413 -0.10889867603786582 0.08559206155504438 0.11686787932897394 -0.02204528561228055 0.08393415055513391 0.03313608621937563 -0.010716870259675486 -0.019737590422042917 0.17452434327494085 -0.012954420712091396 0.20890753058152675 -0.11402336635312847 0.06196097468494115 -0.07348108653165485 -0.016541947743260354 0.07841306659253655 -0.08734591429933364 -0.15414179125224214 0.05964227121357784 0.031843063485914265 -0.09942312890044305 -0.058329613827922296 0.08201993295698369 -0.014242848474214205 -0.03512506283668604 0.18510249460361902 0.15024400195258175 -0.1898252162547517 -0.05682354843792396 0.0915588373027877 0.08637844495348412 -0.031027651127082567 -0.16926121132433916 -0.08174882170264225 -0.11614362445962059 0.1802755914493359 -0.06394339507722979 -0.008928284036218226 -0.03473865828510804 -0.04903221279875642 0.15665063845400226 -0.15736369478685855 0.07673089228602384 -0.07141898792452261 0.1940495907639779 0.21837075711178724 0.1348907537621902 -0.029854927842540336 0.00010823177357655524 -0.02863234736212889 -0.01844834863732775 -0.03886179465912104 0.04930568519790628 -0.008505392575342068 0.08215005079011964 -0.006815759752269881 0.15146068892863973 0.05679919331904759 -0.01969716272895268 -0.0702815313255219 -0.09824381059446986 0.05284573175570947 -0.12059616728691534 -0.1186007661041964 0.13176741355920388 -0.0769043438252278 -0.026734963007050076 -0.008723113484360492 -0.130011750601747 -0.02814464301520923 0.042312232688898464 -0.029389754914344417 -0.1583679172176922 0.09378572481516455 0.14285406413824514 -0.01363634544663212 0.024941578565032537 0.07970415576033502 0.03451281128495253 -0.10445345008776283 0.06030968319425463 -0.059949950147274195 0.019149647350433313 0.07285702679136562 0.01669315572458825 0.12116229869348333 0.0668713574605557 0.041179599612287954 0.07794768154393794 0.15270390170441905 -0.2002042492252552 -0.0029814983938547834 -0.1189060349762671 0.009421180101660159 0.007622302773912689 0.03629980735260802 0.02359517028339847 0.13866530860526596 0.06638037753585574 -0.14403013312543403 0.03460695369092653 0.010935840472284705 0.022879943326155942 0.034008985791174486 -0.1687922617748668 0.10640378853321737 -0.06187425966982323 -0.005852561879695621 0.04347704612797587 -0.03577773507040042 0.11210372588478315 0.04011926887807681 0.04395976602420151 0.16380433634327082 -0.0395622250978367 0.033423422173040576 0.06300594473054495 -0.024599272639566218 0.05310023352891347 -0.15087606039400045 -0.1135984250055858 -0.1878772284432455 0.007871358960150853 -0.05672306245369018 -0.13872923312484292 0.0875475498217302 -0.03309036233913883 0.07710718774452097 -0.15476878813587366 -0.005640084869403968 0.11430134667635386 -0.013772456190014083 0.020168333617375096 0.10251865044172954 -0.11150784952172459 -0.10837651765328411 0.002799618016689554 -0.05631972714632498 0.16258178881787255 0.07503794614706472 0.09871236812031536 0.1145828186027546 -0.21316637519394943 -0.013574546862793462 -0.0014245531259556477 0.15893345683497612 0.044231433655733524 -0.07299905200789245 -0.0738892991925891 -0.024443025367090813 -0.052870638487327995 0.009646003628144084 -0.13123748775620034 -0.042764451579775174 0.10957075483254475 -0.06239827027129227 0.2326080278082489 -0.15772372798467027 0.018669593468121467 0.02563272924065396 -0.09437464016951704 0.049335206631332396 -0.053523338603204476 0.03916580330406476 0.19983306655782127 -0.030952879500643942 -0.17906976896269428 0.15643830199802083 0.02652349366442462 0.03236876215890688 -0.012128903127917456 0.2698102971361119 0.024800873721252396 0.04217944221638676 -0.006508364091256498 0.0726222401046201 0.05402283791667942 -0.06252094356606254 0.0014587982458534629 -0.04051046741394997 -0.0031855687699099667 0.0025004324906009114 -0.1807841143478561 0.007750069350956971 0.036378364628484657 -0.058181897320799474 0.032098485879284544 0.036926426675656064 -0.09554757433930286 -0.01253236710426227 0.027219033656110645 0.11980661843660571 0.011528265777737636 -0.1048281410818934 0.1450146983616341 0.05021311334332311 -0.005037721306086584 0.11074989859163899 -0.056545906246936506 0.18009996322768446 -0.11286761371496644 -0.04429573468861043 0.03815508223847701 0.2118394799747518 -0.18579478881430547 0.14207130654616304 0.1390668860903617 0.09114614958237562 -0.09271558168726443 0.1429568902887835 -0.058635543321963905 0.014866439621036029 -0.1446365148743309 0.03562263203838625 0.12881685432053858 0.04484815420623372 0.03803084038075439 0.18240266172130737 0.15267391845768766 -0.09311814052930664 0.023615391153815078 0.20322677308536657 -0.09531842046429255 -0.008181882132553588 0.04302443108075404 -0.015085452605154854 0.10524626646561978 0.1362734232318775 -0.12935547398468616 0.05337991272069623 -0.10590355608242355 -0.0962542835176268 -0.17875103115551874 0.047254516518334316 -0.15406223900977634 -0.0684055012994904 0.05006327187029652 0.17377819774873732 0.0332855597597129 0.1628809176114798 0.03759853458000253 -0.059039632665904535 0.08016963824140723 0.056521580993364254 0.07802721618381583 0.005861568746941136 0.10299122930935914 0.008876418895365834 0.016611417314555506 0.03117375806479882 0.08505615407896593 -0.033751572856513916 0.10046587125025076 -0.056718207484419886 0.12701388254543208 -0.13994248934599293 -0.0116359408836977 -0.01949287741651116 0.1501854098443885 0.03619433333554364 -0.026834131150930193 0.054417762214128765 -0.19085593188180877 -0.10344463699403386 0.09346565347474003 0.0021178996102825714 -0.06984964022140695 -0.032522526467205506 -0.048044265716625005 0.1831191942096615 0.04135237487742103 0.051025465866515254 -0.08133177180517241 -0.18306154187098722 -0.1102545825542976 0.07323807097458193 0.004788624971256558 -0.03358807969157915 0.13746466177148756 -0.024737214274280186 0.03482925967105462 0.05567808436653228 0.025066157995675298 0.020096846948974394 0.05706851854019016 0.061568228943598854 -0.004503568137171347 -0.0603813914871459 0.0190409815758323 -0.14459415478427756 -0.04080694199718226 -0.04753208947150673 -0.12836889243020438 -0.00634331240628764 0.13688631405703564 0.04648864947746239 -0.03927564937828662 0.10950789501386768 -0.0961831422346432 0.11425727454142463 0.16749764517754945 0.12206793289348128 0.09197965178103358 -0.14586703147404123 0.04973399733413344 0.005376818651228494 -0.12723520334176988 0.016596808439614037 -0.028706704754618728 0.0992993635779036 -0.06874799383878727 0.017990159655262485 0.06802193758250734 -0.055607173881138894 0.020010513224658407 0.007729909684851593 0.11377489934578221 0.017266966070111654 0.06039701660643273 0.08646737348874259 -0.16673971786923802 -0.15759783689570311 0.0377331489088346 -0.04542505595329099 0.11376034281114582 -0.04274561688087387 0.025191946628816818 -0.17350004747958775 0.12451688233594008 -0.3274365117985212 0.0046425608727788175 -0.029137536328037394 -0.01504843991017464 0.07537487241765764 -0.12320847336773894 -0.10549470924828548 0.016780675681533855 -0.006905672516846207 0.02364376209031736 0.13803450059960817 0.1771822356901082 -0.06271582275656416 -0.02768245424576978 0.06008001664279027 0.11182814713531894 0.08801214457192776 0.04885016981186963 0.014658308418573584 -0.09602921714032395 -0.12585338023396136 -0.014167022318087663 -0.08963994980089929 0.030778954079887906 -0.0017449735342917768 0.06000001675791126 0.00686580130245979 0.04223047771518682 0.04218324630672665 0.005797405208809501 0.06405568701075451 -0.19263813210084643 -0.0029932208067539054 -0.005065241944262744 0.18045522094341995 0.019374163477677727 -0.029289563612486223 0.10103969878612874 -0.004289857137005589 -0.11236154668262636 -0.004053171936377544 -0.142411099332778 -0.18803699839307508 -0.06318203279767616 -0.04561206422538428 -0.08632142130672212 -0.027890095943159582 0.036628167547232617 -0.06171045682796352 0.01352789700277904 0.036391231028243654 -0.042353086869161796 -0.054171008751447224 -0.1145131786548905 -0.1638942647465859 -0.09734259154836342 0.07098117813275319 0.021062799904169996 0.011900298694363633 -0.06477779719846344 0.011219719933596148 -0.010731193651705339 -0.20207274972796577 0.007664854585302288 0.054230961017898774 -0.02494687907130323 -0.04334945368033164 0.03853083730497528 0.022921784947104555 0.15252045905780012 0.018786406743771376 0.004408879236009354 -0.025265754753241637 0.06271514064979332 0.026886914967859964 0.012720846543527755 0.02023000836153449 0.1674253083059983 -0.1422914151648273 0.056723370758171646 0.14870965382635604 -0.22454982307385582 -0.03740385590389955 0.06228668263508604 0.043591515604360885 -0.07321415477265822 -0.0016362794311055463 0.030401237111953843 0.05323073893559146 -0.09345741079834986 -0.04758008190905303 0.03315589538748885 0.05673080479556438 -0.17972405007735265 0.11946803680502066 -0.06585725752100342 0.01780830473741868 -0.08659166748324437 0.05128897384875141 -0.0534932875690395 -0.0767165758471522 -0.058144472234591564 0.0919409260387189 -0.027019583347886834 0.05204517051790864 0.0036441656150849374 0.09603400654588823 -0.08126747780278504 -0.10790568923832593 -0.07273592775463464 -0.07055297025611357 0.06965119427933487 0.1082636745403311 0.06410430331454843 -0.09567843252689637 -0.12547620905403423 0.023929159377150712 0.13691776629687116 -0.04362084017092161 -0.058639414530225455 0.021972045043399058 0.15084823784559281 0.024915913820346042 0.05790191652713387 -0.18335692640094656 -0.0926616515420546 0.02669251020809445 0.07822764268924311 0.03566841479742144 -0.016254435102500547 -0.13089457181252576 -0.049022674141223105 -0.04325447720084125 0.08003346179247835 -0.013265929152380805 -0.06750383889847666 -0.1217580635086443 0.01581603736926747 0.12758150334369275 -0.05554912515215423 0.004844410579137158 0.0311033288810303 0.14474844751961155 -0.05258654248064231 -0.11164561232851944 -0.026680436399728114 0.09353543540910744 0.013044488310758232 0.17342364793924042 -0.024469271094247475 0.01207147546198923 0.15165257053462497 -0.0008550521168410686 0.13064937978040694 0.09059134586325855 -0.022998894084458894 0.011993563694632274 0.06364565091354314 -0.23201586746673772 0.014003734431827642 -0.1376836884115654 0.08883011756569188 -0.14871337014139402 -0.05248386716008775 0.04465940350033414 0.13344582921834025 -0.03903162542704527 0.056873366678583344 0.07291000066273629 0.13509873827640875 -0.13749794264025747 -0.036435432049965466 -0.11335746176143312 0.13185633772897262 -0.025620557477779422 0.10745307316961555 0.05848913811568066 0.11949453847726646 0.15684255282372853 0.07291223712616263 0.14866933855376777 0.04129559399935288 -0.09829787964777827 -0.13776262871997927 -0.05715362736290977 0.27448741409006133 -0.017997156071042294 0.09310738812415421 -0.019880782967687104 0.029455147007461966 -0.11259049195307809 -0.0447834722088989 0.10010566270394529 -0.09042794502339013 -0.053685064887785114 0.1429609217611668 -0.02304743655922758 -0.18337435430269666 0.006113850948539805 0.05394026080861189 0.05032187203655535 0.0952942509313096 -0.11175726862094873 0.0591180152577081 0.032300268455745684 0.0619672325032465 -0.0001601435286019051 0.001910183276361921 0.1903767918269333 -0.06839219033541423 -0.0715049136309413 -0.026734324004447012 0.07176162434389793 0.07218782319553595 0.1337358130230242 -0.025179369123295395 -0.024865391883525823 -0.03333236887986979 -0.14230568551519499 0.06060601287876599 0.06984633732765068 -0.0327427317688227 -0.05891973639483905 0.05395476119406837 -0.023499304359040154 0.16657090924418808 0.12063316225577324 -0.05234991773391367 0.015791328445823753 -0.013806254285693074 -0.029233173141352542 -0.013524790544934535 -0.11303271406116841 0.08562652755717691 -0.09617955488981897 0.02188846381572709 0.09999803309763731 0.016269417744308637 0.0005286211211445726 -0.002414540539664477 -0.13498272735957031 -0.07045093061224933 0.21373019013284988 0.03759592020329657 -0.10745976623237985 -0.06948321892826112 0.09349401498328873 -0.04191911150723623 0.2834302458563034 0.1277836643221972 0.048679671266373126 0.03799207528626263 0.03290599059612159 0.01805215748783983 0.26518423976669586 0.029436107456011926 -0.13162434732586825 -0.045478673798297335 -0.001523220870991523 -0.12108002395476129 -0.07251864368467624 -0.05529835133400916 0.31315302597981526 0.04218130045578952 -0.011879901607952778 -0.008143336707088252 -0.13423840391229694 0.06513233851830065 0.14524105358189862 -0.061368573479873983 -0.12479734809765561 -0.1387416007756569 -0.27463524535212014 -0.055284326466503685 -0.0441137002408 0.12231349171947824 -0.08675201823646671 -0.05948765474421499 -0.011857440155308482 -0.055672406237670995 -0.0908114312899467 -0.05922446389330982 -0.17586651771620743 0.02938186193655525 -0.02221972941418179 -0.18114592376042388 0.1273680844377285 0.08842918162132347 -0.007988825674764815 -0.10877492849870861 -0.09276702810090734 -0.02867199231032491 -0.006404600364687585 -0.08138074587168094 -0.027615712785740203 0.042148462207293055 -0.06564320627229345 -0.025025675661157355 0.04596767931805118 0.13652026358254543 -0.05478530205106912 -0.04753755962769541 -0.16034656478877082 0.08546892789714276 0.05519455424330941 0.06483887500503953 0.05984174634759772 -0.0615420763021995 0.026321846765292027 0.10310559838358935 -0.07462920659892652 -0.07611607962033526 0.10333584185347512 0.10479980788421157 -0.09124050400413583 -0.12130909931490533 0.09097761698399753 -0.16727429292438267 -0.025845167392534035 0.11850717375556759 -0.22586326897048936 0.024999150426529154 -0.04815837223148771 -0.035161410671947224 0.18241672621402807 0.004795399528086864 0.12215272073267339 0.1501652459218761 0.000874725543484084 -0.07016385723593473 -0.11908487716778371 -0.026145291163785955 0.005806927057160989 -0.0633261420185272 0.11392040863020393 -0.04857931720087735 -0.02714410021816887 0.05597681774992185 -0.04547861004234053 -0.03214353043090019 0.03175507600621782 -0.013047165271870437 -0.02142234516611446 0.1021014659029941 -0.007832300177994021 0.0505431478772573 -0.016088605398353252 -0.04135859866518566 0.07367679189044013 -0.09135584406977856 -0.11737683620073333 0.025659780263179374 -0.059358757265586495 0.09346191639948455 -0.07675905126100034 0.17172995643785088 0.06028538222712894 0.10186015995013813 0.046069547166580495 -0.08387916873445794 0.19177619340564342 0.1435380760930974 -0.06831757313701262 -0.0014035613503761595 0.0021908353992822556 -0.10519837246604154 0.07100046334745029 0.0021953221336830225 -0.02536026889296133 0.06524951626416066 -0.05425441138670627 -0.039239060934134734 0.06977406121798688 0.0985508023978898 0.010316587198643425 0.026204298048222358 -0.02245192171782695 0.16793474571671413 0.18021095752532426 -0.03652316912211479 -0.17715460495823945 0.16774978803242316 0.004114901036553685 0.02390240818722248 -0.03587368602744721 0.08857474045925956 -0.00779544632311691 0.06957305409296152 -0.008098648078100902 -0.017070771493463064 -0.04177759686363108 0.017157484803436436 0.14314333808874438 -0.03428875728777726 -0.09523870115517952 0.13035575203012967 -0.06976765550253838 0.09834349915596764 0.004722360477750941 0.15425402002079583 -0.018814300798961077 -0.07916908551832326 -0.0312866981507036 -0.22255302975339278 -0.025148372321979612 0.015024312771289239 0.10555402023858372 0.21316893782288496 -0.060646780192058325 -0.011584237502973802 0.17349004966959067 0.014174763092075892 -0.005684596430802773 0.10384186040728227 0.09552347273648405 -0.01457420475722667 -0.06664200651719364 -0.011602277884256424 -0.003722197579982043 0.14637201851356785 0.0027291454612297303 0.024107003544072334 0.09279821313404533 0.06393872851650234 -0.01997188082780969 -0.10346091944034734 -0.022421497055475432 0.089993197273556 -0.07487511939147729 0.1452308529311022 0.07516417540839887 -0.14903963053888994 0.03546853130239306 -0.27959946763548327 0.008869530062438543 -0.04726847673190681 -0.1550305283901649 0.03015212750487441 0.060364380795322435 -0.02699923773915635 -0.04142264345744799 0.09470318057736424 -0.18706574491440217 -0.009551991874451243 0.03033516914045272 -0.016642838808041106 0.15899855770232504 0.10390598446482563 0.17846730089931254 -0.1901461799768674 -0.14467987400621446 -0.023633426061213783 0.13753374404603197 0.10278769094529829 0.07048066284385514 0.107290131800116 -0.059204525399239656 -0.1042883459873489 -0.1040998561983096 0.03236051366345716 0.023456271434914182 0.04984035837573551 0.10278142609815175 -0.015835545844593714 0.023262473900633927 -0.22800742657871817 0.03477594334385259 -0.05213126893665901 -0.04497768120587317 0.15658839304544142 -0.1179470095396157 0.06743101756320606 -0.10761935527575774 0.13868114192814246 -0.12374816782205772 -0.1814441030334599 -0.0153029903224016 0.18500406643298944 0.07850651153430033 0.04549762317957369 -0.09641513316136599 0.018653682244566958 -0.03015281479077377 0.05643000180516415 0.07888354839645935 -0.11128271092245073 0.10687749772994957 0.08389442414592974 -0.07408572297250814 0.1320560683624214 0.09957968994702014 -0.015293732842972023 0.0184263022719463 -0.0396693226493816 -0.0151181163527277 -0.017265804215284192 0.05029335880615978 0.01783271148094545 0.009599666400693381 0.07659904170442612 -0.1267639987306315 0.02208562275727939 0.038178789469473576 -0.0014655222936863863 -0.13140946539354437 0.07632307760008764 0.12665138480790883 0.06555619350656562 0.22969922437453433 -0.19833442692464928 0.047760655789170416 -0.01974624539986661 0.07843742235131113 -0.013343208410318762 0.03708192889348646 0.136138840996459 0.20723651340237934 -0.09375223232681788 0.046791328775885 0.1569595646642042 0.026124167652551093 -0.10299437183454113 0.05046924875261556 -0.20656172208107082 0.016861682781724865 0.12582057612291617 0.0055674217244570615 -0.08833288863672377 -0.13273446938710243 0.09825928706747941 -0.03436148365900272 -0.03706949254735094 -0.031798969141325246 -0.02813348352047426 0.12197820815169043 -0.09408437680490757 -0.17014774062473403 0.03293577264253126 -0.04427624289561067 0.05466784010098833 -0.01916201762812152 -0.06406279939646299 -0.08871710830372764 0.02884015319944979 0.04217448294598004 -0.023687273330995018 -0.1109910193010947 0.17539516093952395 0.005666831832849535 0.17293516517735966 0.12742583879197955 -0.04733718145723663 0.009914739371451637 -0.07179842862977844 0.08561401390806762 0.06265520398467282 -0.08234787980022555 -0.007175887786096179 0.08180420036626657 0.11594306595138366 0.08461124166192967 0.0077846034693194515 0.18975741849650848 -0.13544993639725086 0.17332631178027988 0.042042189343987735 0.1043815139199134 -0.07536665229546037 -0.04678593971936919 0.03550539451308276 -0.004915234227165342 0.06919737697368367 0.1445170790064616 0.005576584842938848 -0.0508938613701364 -0.034613674912821336 0.015786930331942315 -0.0664702453127622 -0.025147601156146736 -0.08654347898328472 0.13587711883658868 -0.12052568063278214 0.06766675335031373 -0.00929753706196373 0.27476395203149645 -0.00016175329992572984 0.09854279273126597 0.020712667817042 0.08356276429125688 -0.1307473770636117 0.082075363465513 0.1838191860570747 -0.07234442391883603 -0.04811726246151364 -0.024530586318049823 0.13904906919089638 -0.13860743487695226 0.0730484220866959 0.07728362403434709 0.05977423821378337 0.11335521346944176 0.02282128075871796 0.022068716821446333 0.09759599091526376 0.17028065835897693 -0.02732794278607926 0.0064555008192234385 0.07617155077597884 0.19183559945062212 0.1646616683250962 0.14267015166652294 -0.20461362801938315 0.12301073276714918 -0.06597876698774564 0.06288954168873119 -0.008107639773272843 -0.017732176371507813 0.0019334029869311096 -0.160708961864804 0.0733960162332908 -0.047082697188399816 0.014152652517093998 -0.17039048830023515 0.13735675799258643 0.1099665640563984 0.07724200117988035 0.050306564861566434 -0.04903441215991468 -0.04833302754510659 -0.15425182058244283 0.10436696165838383 -0.14076038055706133 -0.19642297299883554 -0.019208238439617564 0.09653635775925512 -0.14037793110284447 0.0277929103578205 0.06404947739055049 0.1267420829187963 0.07742708583281034 -0.08060977098928775 -0.03554709516779763 0.025100175591157754 0.03768661571504527 0.09435407199728776 0.0038612386224945246 0.07054392026852914 -0.06892424372550127 -0.11865903066117554 -0.09614513091186526 0.0662187330652256 0.05193130230814517 0.028375241227725653 -0.06637151205911124 0.01676828247549999 -0.11934815385743475 0.15750653199681885 0.07533748926471134 -0.0849491050187096 0.20508737246319753 0.03812549788785567 0.134596583103174 0.09193840931717862 0.01573498486269932 -0.03177934879930944 0.28725582472291955 0.03117281279691115 0.03377521319645558 -0.09784238676334123 0.1355096235790959 -0.21750744992581889 0.01820229601068414 -0.009113847256118683 -0.0021170971324491667 -0.0308499624713222 0.06234766855017221 0.1328545931748262 0.10521009261741775 0.07611333284147868 0.1400916809143084 0.11371259440166329 -0.020609747641335614 0.06418736090069953 -0.027799452371570076 0.1700739480826501 -0.05949773972188394 -0.032172584235688584 -0.05929003578013921 0.2317775633739423 0.06007410335551463 0.08888586845461156 0.04523981594272657 0.06643344672772813 0.05030918777397447 0.02594023595155084 0.022800075998357913 -0.20059599636637143 0.06616225921797142 0.044252614093870005 0.12075692990578026 0.014972488097338373 0.07777503433052493 0.024795333882868007 -0.12409793009963065 -0.09716192928388934 -0.02391253175266192 -0.1778434343049705 -0.14380598705000472 0.0437752805485694 0.04313396311118746 0.10290158883851071 0.020336732276409187 -0.04445651580426043 0.0297525652701612 0.0014387219950313679 0.17834641954507405 -0.03510753758790294 -0.05100204776684194 0.011872099991629822 -0.07812261586616394 -0.02302794640666416 -0.08487937952089934 0.08127490880554541 -0.02212383306858105 -0.10320447688840197 -0.13898780609591413 0.004622573079437936 -0.04601152425172879 -0.050066490452567204 0.07665211844281788 -0.0481514002463406 -0.17494660368219442 0.07883858029847887 0.07707477715046211 0.007043004469499292 0.13968244332009327 0.1277279194539784 0.02885190335389942 0.04653503332332019 0.041762962612194574 0.07756484516687195 0.0704953280232864 -0.07284642093105634 0.05815755981260024 -0.1416394006926086 -0.014027898178509276 -0.010369661610810866 0.06783220221514798 0.07711617255073963 0.05614702930996907 -0.12223836579797649 0.08289022705377964 0.13606027088927983 -0.041400482393288585 0.042845949096063804 -0.10606021448533887 0.03139269643204174 -0.05239005464715284 -0.2424595275796049 0.028428179426352253 0.018909063749232388 0.019529924322848807 -0.002664547562285008 -0.06912641455761645 -0.05110989013248508 0.1229257251887688 0.06363341109952317 -0.031630392203227 0.1409931305959978 0.024436450568356024 -0.001754394141585876 0.08733791223229341 -0.10799661554137495 -0.03195063600761079 0.056478237774268296 -0.03728772689586696 -0.20937382638910113 -0.032125702814539664 0.038169465080591033 -0.10529931632650157 0.07958370723019088 0.07433147102940661 0.12285687295504015 -0.023240513583134295 0.016603544170568196 -0.11369878019770076 -0.265659261260128 0.030977167984949254 0.010275458913002706 0.19124675607903743 0.08475033036255676 -0.02306080711479757 0.030084309813772317 -0.14920178706732865 -0.05324378357408991 0.05286974301147461 0.03480230678862882 -0.03846656706419806 0.1736509404756733 -0.13162362694824384 -0.09280001662514827 -0.01646362699954313 -0.05233706313478344 -0.07231089536722742 -0.07928485376140519 0.00035279586756109695 -0.11131002686424896 0.0743513291479483 -0.02094713350143946 0.10149677903069534 -0.06328466242000531 -0.0818441302242384 -0.03619944843689609 0.05767444901725796 0.012235531150492723 -0.03868668153405367 0.012786595552277475 -0.11814408833955031 -0.009152083421474451 0.09321074671890982 -0.000576660876849448 0.12025961765627878 -0.2157500076830709 0.11356797650808555 -0.07922626002505077 0.17890899785775133 -0.1332138098528879 0.07124116836640378 -0.04109470079319219 0.003486221357486769 0.007489552028458806 -0.038270241848001534 -0.020173605353574674 0.11441518104311099 0.2677155672228752 0.08508371234186286 0.04535362302684954 0.12353782102415414 0.1383464740588484 -0.0671055551255584 -0.015207771403077244 0.1823227767173743 0.29342053272663315 0.14512755308550235 -0.05954042668142645 0.2498468409319012 0.10756861491880336 -0.032516034809511 -0.04311888718685424 -0.12181460576479868 -0.01558841380744014 0.1380094971694199 0.13243599256652772 -0.004673090323553699 0.08947493208282593 -0.031825596773877425 0.16061823174787238 0.10629726142717602 -0.07880412531423435 -0.01427999377716876 0.22852717408855802 0.036172990896114754 -0.020851479471090412 0.07274988330265102 0.04829743467857221 -0.010438815731067884 0.05731400609529568 0.25999044802347965 -0.02270978547924701 0.08065495390308941 0.027217806551807687 0.07983684069298917 0.022624227124993897 -0.008277993996417305 0.058696407675990936 -0.007104459022490341 -0.07060279557303395 0.13249203562771053 0.03695741814783206 -0.057031792887916585 0.20083653046283684 -0.09217797324063436 0.15685637883655582 -0.03218151776459558 0.020993920475967105 -0.0630767000072823 -0.022787032384570586 0.13687962464020909 -0.053066919757137634 0.00027618098434733113 -0.06922417769688688 -0.06653619811079585 0.1152436550995189 0.07156899883091637 0.026227299247903388 0.0960350303787391 -0.033377360015174114 0.06851850156186183 0.07620911813212398 0.14807247002145577 0.09098938024689279 0.13763550268953165 0.19892976861757505 0.06116562084343548 -0.008472242468681244 -0.10992740116740848 0.12952414224099126 -0.06622327984150732 -0.26679859519751203 -0.12478918544032129 -0.15023095424002778 0.03198082838232156 0.10956096137486965 -0.03203414420615242 0.1105574331345127 -0.02999513269955248 -0.0834384621710725 0.2783321175773939 0.05996336056921269 0.01340649637031312 -0.02902666646277531 -0.03278764358234769 -0.08064758716351585 -0.056410928313856606 0.024521006771926916 0.033750230624241345 -0.22348526013440792 0.11257644494608035 0.05899895208445758 -0.10628719028755766 -0.10301418311872153 0.040427958660718084 0.11654268223844008 -0.11043336015179932 -0.026739908349194996 -0.03305557056996505 0.09901420060507501 0.11130273899533023 -0.0045500910211384105 0.007023704901664651 0.17111914129920086 0.009804457441869578 0.07342251688126623 -0.08246216900431945 -0.005281627833386703 0.16424063436367642 0.01164449598429601 0.10480599368323008 0.16725889919117962 -0.0045402872558649955 0.06407995334253495 0.050432875442473137 0.03381152184071825 0.1266225899951767 0.05742150391656807 0.06721057693871799 -0.0365477708695245 -0.1754767826091738 0.08343515473308592 0.048169432372877616 0.12357017046853729 -0.11051623508222681 0.004520872236490278 0.12447518811062118 -0.10256481443713963 -0.005288862266465553 0.09280551276141773 0.132383857225118 -0.06879631468783187 -0.05384271813419046 0.0033647254040466757 -0.11632957762807017 0.0215248752612413 -0.15061080868458834 -0.3006068559927861 -0.15103246564224448 0.029820004480394492 0.059606022898214525 -0.030528447860303447 0.038328859534493866 -0.07460193228972828 -0.04351108474022757 0.04074457518767631 0.16345642968274945 -0.09246222188183245 -0.122289829734785 0.1336651988017026 0.20967982830118884 -0.07741481120754698 0.13977280752418622 -0.06002679904161882 -0.1352113744749529 0.06196830167824015 -0.03206872317405823 0.12749163493527652 -0.045950918023149843 -0.05163044795184565 0.018170291340514406 -0.005359151741400019 0.2139802692620363 0.17681323446102232 -0.004205678809400797 -0.030272555364553422 -0.06983999260375781 0.1460925620667857 -0.19820413490770514 0.02512463746482922 -0.038377772398294735 0.06960917772488091 0.18728250949606667 -0.05441057344693337 -0.07575772562767843 -0.0027734279941967893 0.06266878985525619 -0.06085376454059226 0.023597098500998986 -0.016679061629286566 -0.030464146260815537 -0.052652739245352076 0.033718920042605266 -0.03327558804723232 0.024938959941032988 0.02808217410298453 0.08289059023069102 0.11215887586659636 -0.06241245522718324 -0.12520005170542275 -0.04517665367235823 0.12793000594681642 -0.02811466241737681 -0.02975742453369881 -0.04295018521883226 -0.12113500834698068 0.1216330266510341 0.20622308353789268 -0.14229570812001385 0.015576159509523974 -0.11260488424381963 -0.0048037361305405075 -0.031125690906928363 0.07423180600471474 0.16583705406652482 0.034986826761171076 -0.00698013481998592 -0.07183370140937038 -0.01581299554150058 -0.013355598837062123 0.023528595852654398 -0.032816354427774336 -0.11554871889055432 0.013115617322503876 0.0340657715305066 0.010057585805492764 0.15411329598283846 -0.029565609673879684 0.11227875277358346 -0.04356458597710711 0.13117522126643194 0.02776043394585221 -0.06107569085660866 0.05339170876402486 -0.045049536466670564 0.13014469262678324 0.0023520958377734927 0.12697225492430353 0.12375377451992664 0.06068581802302297 0.13146298305840465 0.07949148964641303 -0.18124341382013218 0.14883440582456534 -0.15717390059295094 0.02491151235576541 0.04837330281665691 -0.07009291178909961 0.17998304441181923 -0.010805522268052797 -0.1224265668735557 0.018664223289229714 0.1243781253669674 -0.13197310528931377 -0.06017507656239594 -0.09869500225363727 0.05476345280332154 -0.017615433944299676 0.14609940582088043 -0.05976076994133326 0.08723450586887277 0.1579168305027559 -0.12021744191311577 0.0787174671540293 -0.000945647155930736 -0.06495345520299727 0.05042753467073196 -0.0360010800012975 -0.029978617779859613 -0.07318186997300148 -0.028228957118196504 0.17940457759551853 -0.11967228014329778 0.012999636556608676 0.088727959661929 0.1242439754047087 0.02186100508242569 0.13084155641088885 0.10117062910599978 -0.08625760950470154 0.09732346725197177 -0.04238167837314475 -0.0724370142010438 -0.005398914006652323 -0.06814513433930859 0.04949333971740952 0.08031759995860326 0.09037323670655338 0.007977725806459487 0.0077700481404759545 -0.042649187657140306 -0.076282148605245 -0.0363554979864117 -0.014852195968381037 0.06583241911397471 0.07842627036327206 -0.04365021674237968 -0.06472143609243669 0.1374938649255409 0.15221158635967544 -0.00583852162672646 -0.06082229124341473 -0.18705024361174577 0.14284340310476046 0.21636326223287763 -0.005320068733467654 -0.05517802960177053 0.001757996870994933 -0.18874924204111998 -0.021322869561641793 0.055780784122676355 -0.015588599485315073 -0.015564748986812288 -0.08413934318686667 -0.0843240178792372 0.08689011150756423 0.08001530198451691 -0.1131014850925234 -0.1223534585942515 -0.05171271765571767 0.01748117861132792 -0.015531787825769255 0.046611514271424556 -0.06877513038496112 0.012496315410660479 0.036180177821130484 0.10876059974020502 0.08374783328603012 -0.04210685756505925 0.005008511287062566 0.02909060976788235 0.10050523096619579 0.11086674912474292 0.01005247232990207 -0.019282863939533927 -0.012749708431986336 0.11655969044531898 -0.03832614528206379 -0.041897608817882015 0.08517776924816968 -0.0599374372059955 -0.04249264383122611 0.0765196320191887 -0.18187494008830377 0.016210689814523373 0.03445470656274718 0.21140750288763738 0.1319649973429832 -0.2141709327286892 0.06802266265455095 0.08830198262084449 0.1772304771491752 -0.044283102374693906 0.11597279380872669 -0.04979480619822938 0.0526574698449983 -0.021057694519063405 -0.06878026982156399 0.09075845889694398 -0.09355342433597008 -0.008700197130428277 -0.025100863090777147 0.18095265353200268 -0.10854394238332477 -0.05186991679036318 -0.06464562238882292 0.12595519299122004 -0.021427179941306215 0.06803786663199714 -0.15708898908260602 -0.016098123338638897 0.06339493692211033 -0.1245519027266383 0.13929664287058546 -0.0715415029663737 0.1145835624480534 0.003851471344172508 0.07897319728959629 0.1584556494118642 0.11995858959261332 -0.0726624465515941 0.011616398085107713 0.0723568083653099 -0.06868367617926147 -0.02255635266834482 -0.07933478006434826 -0.00469946786322942 -0.12017528831280302 0.0491483563863936 0.12201245154065515 0.12328256448995308 -0.11027543442520824 -0.03935996476930673 -0.14640294762673423 0.06193855496354458 0.04536708155060727 -0.05187844328112247 0.017003342117027066 -0.013398364256208951 0.0796927983561255 0.0004012839258545338 0.0324616996371952 -0.027754645968812264 0.07130194817928065 0.1595829159830305 0.05248798373134085 0.08039134678473772 0.03098329783438189 -0.0785368428013092 0.006080356217876584 0.006802006009880911 -0.056271772469197 0.09100488206232693 0.10316631220899447 -0.12136790818099515 -0.007858460595859987 -0.11408241011410006 -0.09237385038448356 0.00034671550132784354 0.045052161663887605 -0.1347934875916925 0.3047637643076748 0.08212898670915474 -0.15228499407256604 -0.025617182481984944 -0.012633780093652298 0.02890796114097445 -0.05096040834145343 0.04123721988739344 0.1757853977735799 -0.057866815523695776 0.03641660005533949 0.0746199239584991 0.09762374224336545 0.01956056841993122 0.10410193974439612 0.18994518914214645 0.23782100227493133 -0.16329232552225456 0.020313657816810188 -0.06523408930891575 0.12003578159939332 0.07251157324692474 -0.04732641738620055 0.024540454005703212 0.0022862508108784964 -0.04317874419409023 0.1253378951488209 0.15220805842507087 0.0808907623017819 -0.1251269337318737 -0.1275305633624247 -0.04105969611346674 0.1111686159922928 -0.06352355027472331 0.044482629326732 0.07294265361596931 -0.06600867633171469 -0.21356857785031985 0.08502490852899103 -0.03528453418529991 0.05348694921751029 -0.10553390114553884 0.32337625654374 -0.011177844576208264 0.012124542064099963 -0.04635434155706588 0.18917363678655574 -0.0567458105889298 0.040837796270436016 -0.08143972239191184 0.09149675359492991 0.04303042154337253 -0.044591626038590605 0.03957759274516174 -0.1337874220511815 0.04130208915381317 -0.04966969138545409 -0.06827474462565859 -0.11611838612920608 -0.09087700513874854 -0.059601672825834194 -0.03435513957186558 0.19182533024722476 -0.06879544451887894 -0.008142363237900482 -0.15864511900143582 0.11923429043538641 -0.04124751232340638 0.012147490343963743 -0.0354809736402557 -0.13409265724557876 0.11865632607600123 0.13726219228696485 -0.06283149053833675 0.042468922993341825 0.01610055025149001 -0.13358072604375038 -0.11302000597637134 -0.003693087949545777 0.02002364403224347 -0.07308602056833281 0.12690515857824955 -0.0695101329177151 -0.027705128862631434 -0.21965277859632676 -0.07805476264805729 0.024577234024658823 0.12476928792466054 -0.058997858989592124 0.04067093847340207 0.1617637613592794 -0.0705257790077481 -0.10284357833166387 -0.0381112603243362 0.000514326907558796 0.012393174344901284 0.15533163074015569 -0.0879600729565604 -0.00232687255507762 -0.014064890600754805 0.0656135959316471 -0.00022444690094751635 0.1243893360673853 -0.03917671254418266 -0.18996040888722138 0.11988358176083659 0.1289924154210234 0.07978115757314269 -0.17056937219775423 -0.18547973233344148 -0.05806449789853834 0.02772475927352124 0.023873600624278152 -0.08615148573677937 0.15839467173913058 0.16906090848307476 -0.07917972197686748 -0.04434480030194575 -0.016777435965136884 -0.029572689167943284 -0.15227001948353172 -0.0033148952638109015 0.008003221339124735 -0.0766262061697655 -0.07435083190042402 -0.009511493879156362 -0.05129179594855096 -0.021806031131790932 0.20913568245555164 -0.24044696132293894 0.12289755169239214 0.008861214991798884 0.12914154212566656 -0.05698747341694444 -0.18723467263379456 0.06790145431509267 0.053005538280428664 -0.03823719995594464 0.06641456806585319 0.03113471866248814 0.25311112435491195 0.04751763737820571 -0.0489607084428883 -0.04429582876849752 0.011461917474263141 0.13625978408651035 -0.006254311063540781 -0.04781114108061807 0.17008319843014588 0.1303336992568933 0.09136481427183275 0.05595347683331035 0.15618157118455367 0.0338765052103377 -0.062421221104807655 0.07202617320325985 0.10441108938405375 0.054526640426121945 -0.18619084214513978 -0.15017873732517167 0.023297409466114385 0.13544516909602405 0.008168676330179179 -0.07438502658910601 0.05998706151737682 -0.059838296958507654 -0.016012401335251284 -0.035957774449784465 0.1896724308798799 0.05069371769819605 -0.049492806971420215 0.1655912827115592 -0.10881582669927578 -0.14114129030136052 0.01070651137211018 -0.006153071861958815 -0.05142602907041637 0.1380347728004684 0.06378156236945838 0.1991852886784385 0.09364904342017291 -0.16861242046341463 -0.005520904882519317 0.022991500567944585 0.027659369271149616 0.14076468825968066 0.08270639310557612 0.031384121178527194 0.19652013480014396 0.2999054293017699 0.09495200990491166 -0.012157309729057467 0.07558432431385131 -0.017840517817734186 -0.00520114519195245 -0.01152696810703833 -0.07193534987879907 -0.013867857701163474 -0.10357344658157103 0.06462400054385202 -0.045835865306952966 0.0481072524958018 -0.0013022653761808425 -0.07989156574092966 0.18050915148274893 0.010598511268526569 0.15505597637152188 -0.015348532747349394 0.09311209513758657 0.1290565631143428 0.12393771799111891 -0.043161398238423736 0.11194924569820178 -0.06977685312124995 0.05003879945533636 -0.15639831819127967 0.20115405253147897 0.015282630034326145 0.05683267419586606 -0.12101023154620419 0.15580034884081134 0.056196258391145254 -0.010006420918852186 -0.022063600043230228 -0.2030933814670529 -0.0013108388307536839 0.004216360082557216 0.053092180935389595 0.10618110706512432 -0.03269423901584279 0.12642731943996624 -0.034663504333055 -0.09482701536053126 -0.04488661232893335 -0.05940984619866292 0.0915167524509494 -0.10362986095101491 -0.07882356011536479 0.0379905956910983 0.043950281709537055 0.037300322592250974 0.12804636887462006 -0.0952382838164303 -0.007548328459006687 0.10576755933652492 0.06051315106503657 0.0985423117262252 0.045946046886100114 -0.060287188576719664 -0.1294395162012428 0.008108577456819284 -0.11457894156547503 -0.10106695397918793 0.0756339402051116 0.10645566479788192 0.07259025854023976 0.12057403912469061 -0.015553544499973336 0.012497070313333207 0.09783900409865157 0.050470293891852425 -0.01723253844070402 -0.04957978992805222 0.04090643989719738 0.1290851084473272 0.033083115184850714 0.022080363292824118 0.10067062784805789 -0.08775477385902052 0.09749722769540192 0.018140833899110108 0.05245351634955037 0.05573970182863705 -0.11939496018019513 -0.055079578646913006 0.13896145396652854 -0.0847199273195415 0.03626074837477804 -0.069092166780281 0.052453581351908925 -0.03083869788488546 0.005532944685419723 -0.0023520293924623047 -0.09540242015398728 0.11250092614041116 0.03434744708486584 0.051493564450283795 -0.10761256099277773 0.007116969710529493 -0.019296670221201188 0.10554959972235735 0.019665716689545452 -0.04489014324155678 -0.017686681701127156 -0.044722562295280745 0.10983027238226083 -0.07916759045748316 -0.0702027454104935 0.11319420540107603 0.09968656644466296 -0.18250717551854037 -0.03959013739704266 0.05667830452056223 -0.20677986157868897 -0.030749717737384403 0.07306694398359108 -0.07190709818011158 0.04787981765988362 0.05890707415010165 0.04018236694128307 -0.051106345231031684 -0.05070366637169669 -0.0019214769215006803 -0.008267545870113625 -0.112046536620874 0.03461074335209453 -0.028978401918954063 0.11314683840896331 -0.062008817347213696 0.13315707641656974 -0.10824429859256188 0.1569227952944528 0.12561136194602418 0.10779390710398928 -0.0428888186360952 0.05250657097536828 -0.06981729466421437 -0.08658866652120112 -0.10422372785103244 0.0012695779557650834 -0.007269500127374807 0.14248290615951703 -0.09601753198229442 -0.002377734583978187 -0.1331133244441462 0.05215323875053024 -0.10251448963006657 -0.06464380133171628 -0.06936949536346382 0.024547149224327276 -0.008725926109251887 0.2108830001370189 -0.16565367904800718 0.3369237406447713 0.05453455251638756 -0.0427601641996029 0.2639392021507197 -0.10910254922902743 -0.006791649278500719 0.30148295380320034 0.03966020408675952 0.0812408551764881 -0.06356585166833072 -0.010284593825029303 0.019897800015625668 -0.16574842183383612 0.1606040272678455 -0.06296881148348732 -0.007906464038504474 0.02175051003755751 0.1435232129397323 -0.02563688949141494 0.011971976206550338 0.018225266860779268 -0.10209414724514199 -0.04541708603561839 -0.19722392667493147 -0.0029475539565368626 -0.04615998989998478 -0.09786566847955631 -0.04519310708961383 0.09539556707998433 -0.07182100722132098 -0.058966019581688615 0.047961652353322566 -0.019188140602778816 0.04272810915775176 0.031568456372012464 0.08979023800250986 0.04297149573931021 0.06628157151461189 -0.10943715239873562 0.09119291185686727 0.14211253776351002 0.01769296387485537 -0.07375733152523134 -0.034975275525817834 -0.0012868085750731184 -0.07756637148133899 -0.17921284429984224 -0.011867115881409438 0.12027913927401686 -0.017711135462640026 0.1387492656967241 -0.07817026472491953 -0.18271207645402163 -0.11529171409934956 -0.03985681547544843 0.005868338110471379 -0.16556077677134934 -0.1007025983442853 -0.14269367156458126 0.18751822472759885 0.09263670467749374 -0.07451354721648193 -0.04741372488815996 -0.0961663824662695 -0.03184793083931431 -0.08824997923004733 -0.11608150620722343 0.12347404101379572 -0.09886331843620688 0.08700103052603442 -0.017894661006058344 0.04377549060222798 -0.06679957503540769 -0.03168373326696161 0.03384393927460025 0.0990889556396674 0.14770724055921422 -0.0863677366641683 -0.05085612255481947 -0.21248993276807887 -0.02114590105153227 0.12387527242825216 -0.07191505896202306 0.03964570256822063 0.08477786307117018 -0.14469713775102333 -0.10150571670323473 -0.23277795356348283 -0.12151905975177948 0.0837643525947406 0.1801688274718457 0.12645002816655912 0.16256979501983945 0.003090627270255366 -0.15197686558199824 0.028335164954499604 -0.008602321949442696 0.06660877418786085 -0.012542418425974793 0.06741728340468052 -0.037077674784837825 0.008716353887043993 0.10910523383222265 -0.003613634402478056 -0.13507972568582133 0.07222824377585764 0.0032279623995192584 0.09622228254304271 0.05900137860860038 -0.10484303433045199 0.06676727139143901 -0.02948847337240117 0.13537063905652086 0.0979931477401324 -0.1418567016505412 0.0163696367083273 0.03222106577904463 0.06748214718069413 -0.05964802777965397 -0.05652027967110561 0.09195523185595313 -0.06731363992357377 -0.15630697010449007 0.11387737137868306 -0.034748149715567375 0.008705282176114604 -0.1392503982982217 0.16881515775363296 -0.04439486930862162 0.004537275160170382 -0.04657690493052436 0.03682170321387469 -0.10687152627220844 -0.058565762458060326 0.09141189487014843 0.04872494086218711 -0.034796758716448724 0.2142885864244048 -0.19508147793018749 0.018961246653748202 -0.09468260947411941 -0.06792023481393812 -0.0375451218948521 0.05537653840144371 0.08015824229746715 0.0008365449157467252 -0.14210444874903272 -0.03260332280504501 -0.09488394780486727 0.173847389320919 0.11497616709578612 0.07382201078052893 -0.3129674763691389 0.04574918738224744 0.060387965143453404 0.021503656711123944 0.0662544937533168 -0.24992320137938293 0.12393124501728557 -0.13858556244124023 0.016832174255248834 -0.06841387165778166 -0.010184491425330388 0.07669857808115607 -0.12464605837049061 -0.03990267818739457 -0.08678732157332433 -0.01422114417721075 0.03249619116496434 -0.11407751066256258 0.11181652409091929 -0.23151565329473617 0.1663726254614942 0.025328313986340018 -0.060968529777237566 0.04006671498942063 -0.06802282497919697 0.08001457199033996 -0.049835012035630954 0.07135890803702186 0.016443604476804746 -0.11423403201850096 -0.012000726197817165 -0.20405979274457287 -0.10598962319050399 0.1430420753779962 -0.06841815577317427 -0.24693237060555812 -0.1081515222474892 0.07870080832747249 -0.07410109453504193 -0.034426295521742506 -0.0016235200472309364 -0.02191715555000622 0.19335138817374553 -0.10769103514224969 -0.2168523042318331 -0.06205217200530438 0.1252570408772408 0.07068819075605483 -0.02540643381720834 0.08353576299636407 0.007117850235395587 0.1468273286749898 0.09933747195831402 -0.04808180896890967 0.20335709299248747 0.07645649474071603 0.06722318917454016 -0.036803255092215124 0.12421455535486789 -0.1340340489404792 -0.01262492692102432 0.16933829589131444 -0.09872662917979545 0.08829539898984735 0.13581538866368975 0.022711383633369813 0.035680898584470044 0.13584723562120618 -0.16817734400911732 0.10769779036311806 0.09171839325154049 -0.2590537174710512 -0.060098773277654866 0.2319112025576618 -0.06198825889539804 -0.04730256280037502 0.08835184320827195 -0.10843114970776317 -0.06300892955851717 -0.14851095730045052 -0.2129082859704403 0.09327367651334798 -0.03418990764455923 0.11235896620985848 0.14882505119725561 0.046348691428104466 0.1985397572701273 -0.04413519227474685 0.013533379069605483 -0.10168090480318853 -0.10438130011976411 0.04777005347183435 -0.08300874402062777 -0.0724439573576573 -0.013896886319096403 0.06423697691851943 -0.17198398364719467 0.16236992806508682 -0.02546377975731596 -0.055625892222608775 -0.12102228873874041 0.07274862290842965 -0.15469132076550093 0.006030443296537457 -0.10143210911037215 0.06731838357253729 -0.005776717951179918 0.008335979541330585 0.1978648574570969 0.015472388084814636 0.22815633263853438 0.06321053997282626 -0.1363329848135725 0.07718435772893951 0.10728765942143607 0.08099263346684663 0.09080168029316737 -0.00647125389591814 0.05777179133462865 0.15083872256122288 -0.08241555074006873 -0.0022474989887510373 0.0014066214243791829 -0.008073225601674432 0.07407524461890747 -0.08140028755229169 -0.0878780510710435 -0.021169594106401846 -0.03856583361324311 0.04100037969089778 0.08067914062602621 -0.04595426343053518 -0.14500006141644847 0.01104283168939058 0.085211115641776 -0.006602953737838591 0.08646066079823764 -0.09212698902882605 0.07425416257349444 0.024431553274711634 -0.15906636704058916 -0.13122915826589077 0.004392723665553734 -0.16448171910688927 0.05394572399266967 -0.0700996895178062 -0.065071131501918 -0.010775537861240404 0.035473579900475914 -0.04216712646912139 -0.052141369650327264 0.009748777519320323 0.21768185896163203 -0.031004882008353878 0.17202001463087285 -0.19651092647029964 -0.2362796628577776 -0.18387308240429254 -0.13324288532340087 0.04244959828380041 -0.11384459202062683 -0.014585568220486672 0.04254610577811616 0.045052799459508304 -0.15395876652339657 -0.10283809685573155 0.20019703539849124 -0.10256471998768693 -0.12965620554466362 -0.028681121622577924 0.03767489215098178 0.00943100400163008 0.12110269587346864 0.056026156071770083 -0.04321216302127676 0.03962902995700539 -0.050717972195216204 0.07311437607219634 0.03880564747502747 -0.06915980970619678 0.11702122332016618 -0.05695144987231193 0.014541315483729073 0.06642646081351794 0.02039186943950336 -0.015535124135854885 -0.048805294173997246 0.04613285354010024 -0.044616079536931905 0.025573195146843513 0.0367568592366857 -0.1436416008015175 -0.08958677271338497 0.07590611363309178 0.03416592434208332 -0.062851182563607 -0.01653197835825606 0.06968805485403608 -0.1608921057224908 -0.05611267175821758 -0.10998647020324638 0.018631586321608128 0.051748390739020905 -0.03413017910880797 -0.030153094616684434 -0.04587388635610216 -0.1404699754977131 -0.02993525586736525 -0.11611389720537421 -0.031041000660678577 -0.021342803025313117 -0.17926264090999558 0.026162959905340778 0.057104102903488226 -0.21014634138812685 -0.0319762386461384 0.1119325833088957 0.11470848263903016 0.03764759304924166 0.03878889434455813 0.1170196183404743 -0.18340319012520415 0.03159033628716339 0.14963889968108182 0.0343342145269894 0.037798755619412545 