0.034970664256554616 0.00666778153493492 -0.01639024116381834 -0.031201845451946337 0.03087936304744367 -0.06953316506362156 0.11060769799968324 -0.03288311021630556 0.13644414446730435 -0.051836126857737586 -0.03978763855765365 -0.04401131099337999 -0.059681124014402724 0.027587138052470296 0.17940156226333331 -0.005956722864831536 -0.14732994124173768 0.06868640180447329 -0.21873596797719067 -0.20677438681796456 -0.08623154193137239 0.12054301621002382 -0.061595137195758744 0.0015681867374923786 0.16538719820756748 0.11681197882577075 -0.20348141162691596 0.017078935578680756 -0.24279353749303512 0.0994295097137976 -0.08622543402850263 0.036947967004739755 0.08044295079661877 -0.013908602192227974 0.14814220947622855 -0.12863378257198294 0.16387298413732973 -0.03537273345177306 0.003576441579575624 0.04534301656475908 0.18978194641388232 -0.07894980467990781 0.21176195892998823 0.11482421883015761 -0.1696997806447102 -0.09945871716052265 -0.04368505246625224 -0.02775520045725964 -0.04115230473709347 -0.07242435054928324 0.09308927394377423 -0.025710878208270976 0.11451321440363434 -0.07016946066917913 -0.10229994904276057 0.21350001623119455 -0.029421785648903645 -0.0662932206398936 -0.017919073405004315 0.06631263683909958 0.016718012426472233 -0.2149858642316382 -0.10285957025063659 -0.06731255209811733 -0.06279133894637466 -0.06311097302783074 -0.08238864045566031 -0.07341873698837387 0.028879925308700746 0.30749920871537795 0.01647452228191187 -0.18354480558879832 -0.22877241444033602 -0.13052646806247833 0.025081118199645293 -0.08656831211237061 0.2081407919899954 0.02874709268135349 0.025170147612134416 0.23473919759530404 -0.1122166456617739 -0.011960355632559568 0.014372942153133839 -0.009671356387353648 0.06280615293284066 -0.08811833872647339 -0.09083886481905762 -0.05541413890766809 -0.022992896560531093 0.13263400629699748 0.025073331206024625 -0.10313841901270895 -0.1161111536653151 0.004836266866202227 0.017584820478975326 0.09883720646090975 0.036240314661292156 0.09423472706557855 -0.07454375711611806 -0.20722797560639947 0.08260377951624219 -0.0680910708434756 0.09230418416845093 -0.06022698385102866 0.035370065198281696 -0.025865626249179926 0.025456914552902866 -0.11287190646108698 0.040400029873245064 0.13419524170310698 -0.04848431103800813 0.13579580872754451 -0.1537470370367378 -0.06281173482195157 0.013414329799253215 -0.013255096556159177 -0.0005129871269384484 -0.030530741591579286 -0.01849987959473223 0.0984461476287456 -0.05313591384967416 0.10740285359506536 0.0695514914568094 -0.21811699837120382 0.012464810480941639 -0.034161014792515314 0.08351221864646997 -0.18174192903914366 0.049298197209875806 0.08263449842324976 0.09139880334946084 0.1106763272660057 -0.2705697330672221 -0.05784059351272423 0.1809763010206271 0.019463220465961724 0.05269412038837195 -0.07710467988576658 -0.056956525972715825 0.11445937284982335 0.08803273543635856 0.10763074677852463 -0.14387094353307728 0.004195605125749889 0.09285224701255401 -0.09408584104766919 -0.005617217656707291 0.0466573976709648 -0.3059418666771567 0.03309731361411319 -0.07753718967470691 -0.11794906405537489 -0.031134340386658733 -0.0046470070929407895 -0.024681789420716846 0.031082327107263687 -0.035145930148630815 0.008136710834297718 0.1761727401215723 0.002338286643703604 -0.06670765851137345 0.04438341130637699 -0.014296412373038825 0.051672759424563224 0.0020150360106576245 -0.04540045467273704 0.1026551204516746 0.020982659594295124 -0.050205622400646834 0.19125029120970932 -0.02680126091850023 -0.04264848072657137 -0.11962020241917411 -0.01741544267462668 0.02859626716638193 -0.04793373053555183 0.162416709870655 -0.032933556557175045 0.1884598017345095 -0.04177428407376123 0.17326627937427297 0.11408721858676617 -0.06299647934757217 -0.08619548529429077 0.18458617642899658 0.006146154372785135 -0.07153811928930452 0.1293557722971504 0.003842893955174942 -0.15102691669091883 -0.00836361611375244 -0.028120384530986926 -0.1279895700756488 0.24101875815294416 -0.01252048926267997 -0.10554633965306418 -0.06408598334106852 0.014904669235220666 0.1484350558193422 -0.1303130041821307 -0.09404443735230668 -0.11086900061107641 0.08722155002222932 -0.10608472031254038 -0.06595789765968856 0.08007698008408014 -0.03937686382884645 -0.13599889376287375 -0.08029074422282334 0.060712507791736176 -0.15182085673168758 -0.10109539563868107 -0.011618717630932243 -0.10087500030392008 0.05734453513751125 0.053113651523764606 0.01822903693620693 -0.08340224932912904 0.07241035200259589 0.04771903138931802 -0.06414394962223391 -0.09618363366248346 0.015164847588154493 -0.052691921766753594 -0.06303298142464324 0.009918524306432731 0.019638221585043632 -0.07330858919701637 0.15999265197944046 -0.08402463268312117 -0.021507905837880342 -0.06423777809157737 -0.015676307652314033 0.03000291996398203 0.10653254993631907 -0.17540792014400616 -0.10095192802156042 -0.08729669833704373 -0.1268025223906504 -0.06509436793806661 0.07560355799722321 0.0014001714609640109 0.08725873484463406 0.058366072341479995 0.030531083998232667 0.1755075528883625 0.1253710541447245 0.018250018780562927 0.19231877095714575 0.08120714685016678 -0.05348636275146279 0.03933829124767187 -0.012670436788389203 0.030668625214161867 0.03946948582864384 -0.13720656626418362 -0.08787462282246006 -0.13973899599178838 -0.1566858554662271 -0.07436387723913308 0.1993417402224813 0.06996921526514224 0.03585103241263204 0.11257691167710365 0.0480764213367893 -0.2679853390104666 0.22504897090451595 0.011514274531991308 0.00418803771652715 -0.02145780823677152 -0.10598775951763029 -0.050517047928068604 -0.054756954855421085 -0.2307065542142894 -0.12532287596032463 0.052341273264278856 -0.1976020198989119 -0.0815051812807176 0.11317119932633496 0.06593845006537401 0.12474325458793263 0.08029003792141513 -0.03610553626611473 -0.027825287196332656 -0.1618882379476316 0.16244715914381028 0.03198464780917217 -0.04149506059484313 -0.046664311340153156 0.04815954019538474 -0.06728216199166628 -0.09486912091968497 -0.18585662005447035 -0.03017107853682245 -0.1396172829019726 -0.14664160013252228 0.000840688214240938 -0.04303972510420962 0.07143288862804098 -0.041279059253288966 0.05180892930600395 0.0739685098936879 -0.017924509004094324 -0.11715036380002647 0.1020155540816607 -0.017878282260358234 0.03643663267486224 0.0781089061910033 -0.15116801441452024 -0.1561529455813975 0.09201565879492404 0.02916102406737861 0.043650809624608745 0.040244015391900735 0.0033871972648511065 -0.06406281931080728 -0.21236685172517583 -0.007930946782978506 -0.028629721773655376 0.11736519443880944 0.20245100610509148 0.2003149384442836 0.003083795911693802 0.09797361177630658 -0.0689368784661903 0.07523964560551413 0.03288036372896524 -0.07134512421972102 -0.024424437549237107 0.04190073514006909 0.001977741237635324 0.09779790806200579 -0.02480744867650964 0.1989478196498441 0.0702456138463826 -0.1377540123217455 -0.04044229364893852 0.021861896542828652 0.08540078407671065 -0.1620971101503511 -0.0010969138623772854 -0.1615492921363634 0.12550356818139383 -0.15250690361212055 -0.08621356613944214 0.15940779379655937 -0.2303070289917636 -0.010767344533398374 0.009188710129103135 -0.0992620338268824 -0.013450006438228856 -0.07522892397102993 -0.05248790276597355 -0.07232990274156786 -0.15507955058180867 0.034606850655266266 -0.005670941864287943 0.15160484804818886 -0.013712951619897176 0.06843675595222318 0.1436003534384202 0.06773667830959805 0.11315496716867429 -0.09936573890772833 -0.09162266135140629 0.14757413153932106 0.0819226538824327 0.02271415849052872 -0.07587350943446423 0.02821276045286887 -0.06561257492576221 -0.14266843346731217 0.02046466246440118 -0.15178883918805028 -0.016420902953037515 0.14129142513360288 0.11065192752991682 -0.04090103902408176 0.06038716919022868 -0.2342193039086857 0.05607250560263716 -0.1244831742781085 -0.17540656353006778 -0.034539941172811 -0.02374216280558857 -0.20135920471646732 0.04362584643107009 -0.05511997024728137 0.07776294549646455 0.026450900360954134 0.05517359830190344 -0.10842932821480221 -0.04628417804719291 -0.11915521733152575 -0.052358744401880125 -0.1370279732538424 -0.1449567174472965 0.0521242341761744 -0.034500819923201455 -0.0023274985191665248 -0.008052896221583462 0.026662627423541065 0.11748084388424328 0.01221767055197589 -0.0015951998699504086 0.11015775230591313 0.14040785311093493 -0.02990955221411261 0.03694545308101298 -0.0673414793011186 -0.11218322903650549 -0.06660462504536035 0.07587724661612157 0.002767510385192136 -0.09405514367107426 0.06127936660359598 0.11471524769959879 0.10143941534561603 -0.12013852856117853 0.07246891766353586 0.08500391433630639 0.19922405303611845 -0.0977688267709164 -0.11625233951901343 0.02524376870167437 -0.09700655728870601 0.06159874674346946 0.0007903791644462293 0.14088928693090905 0.03263684022877059 -0.13460813179059367 0.06833651658585986 0.01196721963528647 0.14508986454246384 0.06693133931353826 0.029504107265888042 0.18619920848079896 -0.053002410148550144 0.06961163296644506 -0.06645598501201626 -0.024179704423808988 -0.06719867786978255 -0.07975047255336448 -0.006673366759240195 -0.01648128037819811 0.018380575410033306 0.05819444855041365 -0.04472679639492102 -0.31882662668551176 0.05553754639413542 0.051054338308233305 0.04484996189452908 -0.05688791685124174 0.22952289123030695 -0.14463295733679665 0.008616862952196493 0.00551175369467892 -0.12386828275625841 0.1096574202309225 0.14044676754526428 -0.09789449213164617 0.033091453166142114 0.1514732854712926 0.15716217508071295 -0.1222647691400622 -0.03930566169872358 0.09593185114821806 -0.08579902563824704 -0.11682953732191113 0.06120732337019576 -0.07617189730123847 0.06821995050957752 -0.03535073629286108 -0.07901698229558357 0.1794094592360692 0.03446358572020583 0.1856698963850305 -0.13369415128881676 0.14698573823844313 0.010560515513343813 -0.1086099994893216 0.01748329745060986 -0.18814339266795713 -0.08673851572272469 0.06031391888789322 -0.011931227604767117 -0.07170156742310646 0.050304302518383484 0.2637454282886571 -0.017241841256228987 -0.2430517425475642 0.16610305567654898 0.08596038465078995 0.07353598375193318 -0.051244806084283105 -0.030543774052018448 -0.08109109867397567 0.1234501041838541 -0.05519593548026644 0.14232153460735467 -0.03624442372998627 -0.05189617204890878 -0.02958434530111699 0.05948236067228019 -0.0877545737086873 0.07637084229505701 0.0024486221247629184 -0.059043095037556725 -0.06680139676383066 0.05243546041267835 0.13217952156756071 0.04205630750985434 0.005709794121370511 -0.11082339897152349 0.020853965053719087 0.12148485370618506 0.1174468037375972 -0.1241059312192165 -0.08391736755955595 -0.04452050451034017 0.05990396064277209 0.051031807665540954 -0.16521897486706338 -0.17377464837711643 0.055783559340944505 0.15354476175142406 0.13651596980715233 0.010470548560785671 0.0012304738211311433 -0.08476289527391186 -0.33385564291558945 -0.09804423984884093 0.08961808874997239 0.18385511297763454 0.03809537956730787 -0.06042907793197663 -0.05492906811756855 -0.2711487120108748 0.15724235448205728 0.17692027363914037 -0.11104550282737949 -0.015307857986576356 -0.09921353224264853 -0.06224614691573691 0.005012051217624581 -0.05503312073739469 -0.08329582041463443 0.011236101455805999 -0.014061400598673876 -0.0999839677693983 0.13238008789126063 0.03989910554937457 0.044125501009232404 -0.06189550139937087 -0.14266262900189292 0.14957456183404425 0.05476548014605209 0.022489250395422235 0.10116559587672005 -0.12209302674127971 -0.056738580607210466 0.030951806071016254 0.06711374711103493 -0.022409508941448587 -0.10846072350884095 0.03421083270710692 0.005435881441217687 0.0248727383146379 0.19640300559688428 -0.02362853730009204 0.15926639524631842 -0.18211053838360036 0.07594392829303445 0.03746341951784671 0.11737322887572044 0.010072859888275734 0.03148941000707066 -0.09132940122932164 0.015346236830341923 0.0793058625458856 0.16016374975242254 0.09672376267706806 0.05586545587276429 -0.03141748119331893 -0.03445066799910143 -0.03428504004322971 -0.19812724646125118 -0.05910403005070695 -0.27921877883529117 0.06105686408064827 -0.05257729454090343 -0.2207178224183255 -0.17039017936521828 -0.1027636110537507 -0.015550281158398833 -0.11224800434887068 0.05596070908741527 0.05946415632855987 -0.13536000321944275 0.06600496506722763 -0.1521283350257142 0.03995019402732042 -0.02859645731373871 -0.12507414955791252 0.007245846252269372 -0.036125151143153955 0.08923865175843276 0.09416061438424775 0.11641361940083433 -0.1304827122756862 0.006383261875590686 0.15488185560939624 0.02236482200738411 -0.02752785226002017 -0.07057749148662425 0.013355774039375618 0.07795939681548662 -0.01247777757080366 0.14003063628338563 0.028437275512473555 -0.04278287092215948 -0.10641682957785413 0.06484741857079974 -0.06284850010301056 -0.015217891944662918 0.13537090271727498 -0.0885139678511828 0.1336707308358078 -0.00038477110200208544 0.01539424385454013 0.023746013085666918 0.0268799120325069 -0.10659975643703497 0.015361662368767202 0.05453212171918396 -0.15618466502486522 0.0416847192219012 0.033590963337590776 -0.16024753595541966 0.06908314352770989 0.12188498351224752 -0.05523130374492589 0.06826689060305573 -0.00999476931997704 0.091933808984011 0.05947216822933202 -0.1522307701314864 -0.21439898088334114 -0.0012897224118551742 -0.0351997231258858 -0.23702982671546008 -0.0067515854157059315 0.011722668187179458 0.06581218251824744 0.014304046297456713 -0.10063463180534907 -0.1055670047938871 0.11022056574239177 -0.1300838451615199 0.07379541741029473 0.23654724833079507 0.042727423224679144 0.07291046565743262 -0.11516120780753547 -0.11481856840821308 -0.06306322807145863 0.025498280202473213 0.002819739702799612 -0.003319901428379036 -0.0836483616325986 -0.035202346836490664 0.05837729137224941 -0.11174279319189206 0.04152018027526899 0.10066020849620938 0.20692872197249948 -0.063531267245423 -0.03931278703058855 -0.09727960617389762 0.09500285561618738 -0.025737471352808947 -0.06938951072624024 -0.11904222575022068 0.05532697555967341 0.04967485824983951 0.05552628791765268 0.04416427926330297 -0.15450297036771354 0.11398452547103442 -0.004147054015210114 0.13404047837984367 -0.09350428344020761 0.05427062078490842 0.08294102640818753 -0.09907558192084527 0.0532522912710257 0.014458131030169786 0.13015195345610572 -0.0037001334625474665 0.15228905258400754 -0.03291601010173165 -0.10690226505701261 0.041652926904542836 -0.09209484511827436 0.03986263416148903 -0.2035247861777041 -0.06577894580063015 -0.022500226910863164 0.008457694070836698 0.07046277056340829 -0.019685071938192376 0.08568397846326575 0.10626530359638053 -0.025342625423737133 -0.15296365059093472 -0.04544925902457497 -0.07134787695695793 0.01672251210141302 0.16078539412766457 -0.20041169726671237 -0.00543717129508705 0.01840434255286728 0.06557703958965844 -0.1576481904032297 0.06292175241507889 -0.049951098898451465 -0.05118384381994689 -0.15099837656314608 0.11790024052145201 -0.05317275996693525 -0.016620909600151123 0.039048463912173946 0.22935006321903506 -0.11663518691833114 0.011342444648728923 0.1291078164776097 -0.051619164756701474 -0.0676459348327524 -0.0001396772838814018 -0.0862003222658758 0.0991612547306615 0.19800996827090986 -0.05781740230888388 0.09177379651859147 0.09713810642685133 -0.05003460570388756 0.04033498867403378 0.04000449597217691 0.09443034434342196 0.09459768476420993 -0.03853199909314551 0.13509037763643403 -0.0006511613875747062 -0.18037310388041727 -0.052996901947671385 -0.04887258146099972 -0.0813533821588337 0.054930148644032006 0.015227204272609318 0.04589529976297104 0.005810765179160807 0.16166667035545718 0.05732579056660247 0.12324631245851621 -0.09207620824024132 -0.04595137182817926 -0.10273796004862655 0.06895777362142079 -0.17239116327308737 -0.08949260230126158 -0.05614576967870516 0.07756416151355121 0.18259322737611738 -0.004070768895947328 0.09884740225693474 0.09476477249919275 0.10507927563147008 -0.07519487676244274 -0.014119075818553026 -0.05725463187839041 0.023232137511590856 -0.01403255419543948 0.038312202393192586 -0.012836278752570013
-0.010980521498011452 -0.0018126517906999773 -0.010114616875954508 0.006635942375688572 -0.005595865988214839 0.007315240874373677 -0.005959041823402345 -0.02808303122510826 0.013840178220741626 -0.0005013497717539802 0.014674611312512456 -0.013872340491369746 -0.010921267074451986 0.0023675098468186767 -0.007582624693093979 0.005851681097194955 -0.004082490223111017 0.002754806128946941 0.004659790783378677 -0.0031213627642340124 0.01328464747198395 -0.001121709436129704 -0.01056605426956321 0.012644227122038174 7.954730473116175e-05 -0.00879300117994133 0.006985346444295565 0.015064719545791696 0.0028502795283685644 0.009245786378303589 -0.007880202127819879 0.0120986636024101 -0.004764738408238546 0.004191068361376074 -0.021927949032596906 -0.005812660260971923 -0.0207367731008872 -0.0020225727552887506 -0.002943211995349215 0.03102459845260647 0.017612592773311557 -0.005936840569410831 0.0035991736978357248 0.008827790040775826 0.006917761302690533 -0.000827076526738907 -0.013488885762515087 0.007238516570489452 0.003291111951544205 -0.009629641071811341 -0.0110709890126739 -0.009163417094001224 0.009252501938234677 0.009461615296988541 -0.00713703900215083 -0.015104028348312983 0.007827606305517688 -0.01244803185275084 0.008382320316282967 -0.021113313263407704 0.002017266467389451 -0.0016077784044098745 0.013434840886856156 0.02226119609535669 -0.004687149534422984 0.00834963258280998 0.00043756454137338795 0.006190987677347064 0.00018576844183394343 -0.008009374802207559 -0.0034780760016113765 0.011913431933526314 -0.0011248744247986551 0.0014368240427721133 -0.016391104787065475 -0.005913777995600923 -0.00903873935846238 0.010266268562339071 -0.004881331260817259 -0.007261187105307862 0.00472873752896792 0.005020363422596389 0.005473020190411491 0.005724431370137443 0.00708038682801896 0.02683872622968743 -0.007247239056030125 0.01463582481900829 -0.01416505987586993 -0.011723745765332494 -0.003114188747040686 0.008088527629201647 0.00636105268830946 -0.010256889654561322 -0.0030282459104585785 -0.00789780184952966 0.009017556689783735 0.014306285510776864 -0.0008411373478934453 0.0006642294887027908 -0.009078280210450713 0.010422074114809908 -0.0074746350390097315 0.00563252547104703 0.015199670315817296 -0.0009068173038839448 -0.008791889535581344 0.022691091520535677 -0.00968169401343241 0.0071081780525000735 0.005454843580732699 0.009221779638652347 -0.00810084342216554 0.0001869428348170442 -0.014331387499499115 -0.020026706602900846 0.025270695845424934 -0.00044026594835576714 -0.00704128724162449 0.005595847642884736 0.010583945841061879 -0.006831929586061035 0.0013025285275655258 0.0022471418056204035 -0.007541922080469229 -0.004029356863500343 -0.005930413302719864 0.0013684214805920153 -0.011674081036295931 -0.013638898840099264 0.01688991856666216 0.01464515045643165 0.0015784720200071492 0.011522301903145332 0.010511119538783363 0.010318874683139268 -0.0003093005704604209 -0.009691343704872337 -0.0007474119939105886 0.0007048988465135963 0.0037915174640700323 0.010200736571898475 0.016139198392288227 0.0065799723258923165 0.007098802777668967 -0.009213616341541903 0.001102714627863633 -0.004639673304854259 0.005227841265009044 0.01299031561330243 0.00945383620183741 -0.0019090819369471318 0.0015594962657918064 0.010383135299109643 -0.009518227563562874 0.014743624922241728 0.020159232988908024 -0.001894481389185656 -0.005933906372247048 -0.010537760785199824 0.006511508806613712 -0.009354096240181168 0.005185952381979432 -0.0005105673584126342 -0.0040119852720621975 0.005136600776083754 0.004813743497837915 -0.00044193547982312716 -0.009170859551282093 0.00045905455636058697 0.01608096562730692 0.0002244209236560488 0.002248193471119682 0.01274769754241008 0.004579737296823525 -0.0053394352938681035 -0.006286311200773256 -0.0005802495209549993 0.017905450304163045 0.005238896715411091 -0.012078349048970191 -0.007506327774583474 -0.015377754611932333 -0.0017983022241249513 -0.007912628563657695 -0.01207595292731174 0.0012066306176692174 -0.0015833084557207188 -0.0007402301433490314 -0.017427558088471046 -0.004646632138846605 -0.0062721272839388765 0.00859999350997536 -0.010469038854710235 0.014192557092423317 -0.011689303308989598 0.0037334699665939304 -0.011321283457228343 -0.020832154787561313 -0.014459335344589009 0.0012706015159780662 0.0013361479003551797 -0.016627822693480742 -0.007135086117751657 0.0015214126423417679 0.007000541486705477 -0.008601241841891337 0.01461207347239251 -0.002759865151977163 -0.013773048803956852 -0.0028797304008730683 -0.0038559622824293495 0.0022783131876984875 -0.007023556320464471 -0.011648953522394824 -0.007376243381253645 0.01546076688490547 0.00633052015745984 0.008225742258723386 -0.0015998936951705422 -0.004251099645851998 0.0033328495928818774 -0.010032329124642074 0.005578821550828699 -0.009470994931745138 0.0019942627722869 -0.004569553753372821 -0.00604638978119719 0.0010492288624635974 0.013153901066189607 0.009966718268776431 0.028842367796571976 0.0010641808166710212 -0.0035481134876908975 -0.006244000907447175 0.001416862810995712 0.020336905741965252 0.003672661980667468 0.006295625524491514 -0.0008605707284019448 -0.0046462403358416 0.015916949183642524 0.008009486276954856 -0.017107126217759342 -0.010573397534945739 -0.001416314912810228 -0.01695789218675262 -0.0033734302537640273 0.022655263095006282 0.01763882186262639 -0.0006855116901383221 -0.008518966747754686 0.01674082495755874 0.0017399301852540753 -0.013126462765028171 0.018846451948234474 0.005478208363015261 0.008300730702090444 0.004712761121031769 -0.01089862268821718 0.0034378598965742703 -0.009311120205884567 -0.016253068430405023 0.021109262019218176 0.003715419725875007 0.0032243600183473153 0.015572783834053283 0.01515214652768449 0.013795529605218093 -0.011286956222539913 0.013972116842361625 0.0075075917415111685 0.012702754367697154 -0.006671803335770729 -0.007477747628584306 0.00876317825527461 0.0024125046548430667 0.000688885050316003 -0.0032977214690522857 0.016120948406851483 -0.013583931287591545 0.0018650260256044746 -0.004602759029442895 0.009806594833924692 -0.011838545925523207 -0.006210035153584616 0.0005556972268963412 0.010567793277585377 0.00744675018862552 0.0034304449129430132 -0.007732444491530039 0.00823473122148121 -0.012407577308140707 -0.01015887359948893 -0.009686190894594132 0.006730655903735653 -0.00774400930171255 0.0008633173113721591 -0.022198847846846715 0.0035680486425828735 -0.010861655309826022 0.012455647467577928 -0.0004159708415781933 -0.002467227725147344 -0.0035659981725988527 -0.003876896871528784 0.01637984246293362 0.022922942403924066 -0.0038545952946048845 0.0010278433886524506 -0.015044311002329143 -0.0030305729980077277 0.008095184052808131 0.01422937649799527 0.009434639116991836 0.008935049535076109 -0.013137097963182425 -0.009497399527420984 0.006079429410220752 -0.01053320183034276 0.016466836487428183 -0.0032332960802843986 0.008735943632924357 -0.004577506689563598 -0.012788833916377057 0.0076080233581407525 0.0028278602381274897 0.025966173433077055 -0.01631315165986849 -0.015890908630403294 0.0029127710088024017 0.003217207039931841 -0.004541919728627279 -0.0006168781073728859 0.008499240334114424 0.005775592549088984 0.01024828549576749 -0.006685450112050413 0.01354028552033411 -0.008390163389877102 -0.01193002499279491 0.011088291419229575 -0.010031344283882334 0.007295365730633198 0.00221816311271044 0.0032425714031562676 -0.0011525828440978945 -0.0009852951035752638 0.0176908701782969 -0.013585940607291661 0.0028878096492688577 0.014612839088106353 -0.01772585500604244 -0.017942525296603586 -0.004884835423351069 0.0016931543981204323 0.009113108737869203 0.024409106559227862 -0.023140502962740356 -0.014093376893077856 0.0022722501416168463 -0.014883835281773634 -0.02192403063250782 -0.005287714360418705 0.01260334594358037 0.0032497935882229807 0.008641095095096916 -0.008508480145993078 0.007125648533673261 0.006943246062347439 -0.008771286137794517 0.005744814029853356 0.011979907869736834 -0.008801559228618742 -0.0010875271511305012 -0.0074430235690763295 -0.013107629243913293 -0.008956621418832673 0.0028876281064701176 -0.006772962179909885 -0.011681500669479726 0.0038033582977971543 -0.005653284092020402 0.004687442769189323 0.007478495773792107 -0.009525451713008783 0.0020614959998089388 0.017140697687213127 -0.008788220143666285 0.016077679017328195 -3.255597892200909e-05 -0.003973768260126478 -0.005795633433330647 0.020213306725240368 -0.013680543801395112 -0.0028760933560870432 0.006560585282277798 -0.008794308965247596 -0.0003214494630561387 0.013672281950452603 -0.0114989683264075 0.02285115173909535 -0.0016287075234570323 -0.001536222004711711 -0.007033627098749103 0.0014167728833438344 -0.005185829487035749 -0.010077207784544642 -0.004147003738617019 0.010711191223237363 -0.008478160992718309 -0.003463572369035497 -0.0029976847483520704 0.024254402781054445 0.008473005062268254 0.018063324240073217 -0.015838791206796165 -0.006304078384668399 0.00044310619174370736 -0.006877917766512177 0.008220284967879403 0.00038380413275248713 0.00892146061534056 0.0009855411847876773 -0.021867557183774294 0.0070495438876912765 -0.024895253073818346 -0.02473738376306611 -0.0014453480102030417 -0.0011136666909359002 -0.027419943154904845 0.005645613267408748 -0.005845164715327332 0.0028622706359152992 -0.0026535615053947517 0.0061454502725835245 0.012008810490353766 0.008007075398994845 -0.0015632125256142965 -0.00948283049892647 0.00026168890525326546 0.004718822906922549 -0.015113591740995184 -0.005578179970520053 -0.0037373298045142145 -0.0072486083846406545 -0.003011749608176368 -0.007706864527271978 0.0019197835423417665 0.011607855348877448 -0.002668993625002822 0.001045590852326526 -0.0001391611547381531 -0.0073117674473634695 0.0010857130906981834 -0.016029166191507405 0.005066150624662316 0.00023526815129656803 -0.006716593264829258 0.007982434137285516 0.0064905805463219566 -0.015698672815097858 -0.004961351883669193 -0.0016223683369008684 -0.0016541043168508624 0.020261927523660645 0.01016636033911 0.012104331022751134 0.004574121984446726 0.0021688239131882553 0.020590220842295878 0.0023325444716205445 0.0007204957142759663 -0.010174835124317936 -0.004227881078546765 -0.015382721332538058 -0.00987847124828144 0.00634776758118813 -0.0013264193734124348 0.008177800460722154 -0.010092683142970422 0.0005277988478878425 0.0017902811627171049 -0.008700907410607089 0.007531224544863477 0.006328028650082626 -0.00060213367702554 0.002535136445082997 0.023643810138671704 -0.004779771927542042 -0.012610068016259959 -0.002564695207427044 0.0025635699875669565 0.0012507485192379522 -0.011887646615924348 0.012284029650261971 0.015672113726664643 -0.002893437705118799 0.0013869670712520004 0.009628328852297014 0.018602377165308923 0.001250838139921658 -0.0011445242706854552 -0.00991412681130736 -0.0010379990472442525 0.011774318109813078 -0.01335000622999225 -0.003824029304810592 -0.008523800401987853 0.008698736797483972 0.017895927509276596 0.004272758224004765 -0.012693586643050894 0.004826961332931271 0.004747788804211524 -0.007055314116961114 -0.009059214650971878 -0.009110067373243894 0.0004808138500842044 0.0046452122703311925 0.01696878604377945 0.005660888542917351 -0.0003331252464497983 -0.0013438392155223028 0.004259583140165435 0.0019758760362607085 0.0040282999273001455 -0.003200803696700709 -0.004889049080505921 -0.011508643380741663 0.010087796851012387 -0.0063757949909683835 -0.0098821990642641 0.023341625175937363 0.0065406389868724844 -0.003212286190082195 -0.001948445349358856 0.005538963446183674 0.005000888184350698 0.0039514245205531495 -0.007379005309814024 -0.01314466351385234 -0.005984533898723771 -0.005757350322349543 0.011704378604350201 0.0039194499612901805 -0.00860810378002582 0.0011791916723184058 0.011765296477302185 -0.0068402571915504775 0.0012463615349739517 0.003033320473965858 0.008683109240089176 -0.01677765324394926 -0.013778373975356115 -0.00011945405454458497 -0.02208289659683904 0.0012458215578708474 0.004772321249704554 -0.010462635460358992 -0.017790832934794477 -0.006822712826041542 -0.006954029122523298 0.0036153861429988514 0.003259194061946393 -0.0009791798516017348 -0.0014299800655449002 -0.009752710171085395 0.011261670553928108 0.0004268122187767874 -0.011376048222665214 -0.008286695710130474 0.011853738782791768 0.004057105867917579 0.018052801642586488 0.009847379710671988 -0.020224029637538183 0.008867899364973428 -0.0013623842392292823 0.007207307576348872 0.006271970456223205 0.018891258430349982 -0.008500337905148548 0.00966231282888103 0.013488898983768476 0.0045746519819698465 0.03029510135345164 0.007673532746845385 -0.0038160030912272546 -0.002559176345121352 -0.010149369079080232 0.012437466873381825 -0.0004428841179310789 0.004901061595483645 0.01347326467175978 -0.0008716551908535314 -0.005779784091379169 0.0019621208825896306 0.005609571721530529 0.028515177377327453 0.0020708893234607497 -0.00233887470813087 -0.0017186692626949746 0.004787584923759676 0.0005635014791055211 -0.00417084797075704 -0.009464491690849893 -0.011391342695376448 -0.012666671929303812 -0.014071650993954283 -0.003480689648063509 0.007797516220456862 0.004647154002954245 -0.011490116628787373 -0.008222763456866341 0.0048895548509240005 0.0035469088491758205 0.0016966867600547507 -0.0025577094398749217 -0.017631799446513833 0.0022563770109377056 -0.005768931512370397 -0.002201394021446681 0.015112767027116223 0.004667350976545544 0.007530099318890121 0.0069656648356930485 -0.02162444720968378 0.002371408048795578 0.007316609358620545 0.019907755200410757 -0.010063208623281188 0.0053890483505253965 0.0016071803376501229 -0.016875083923346523 -0.004452790296513478 0.004575154262817015 0.007591825824408847 -0.003193227836479855 0.0010471887571902527 -0.01576837432422135 -0.006228341630540188 -0.010721084807000323 0.0021716666125564804 0.004222758834372005 0.0181581361219711 -0.003409582152361423 -0.0032739219735351405 -0.010829138168945745 0.004388651012647679 -0.003244425663740469 0.0024245660624547887 0.012965983484716977 0.008352259620995601 -0.0013112387114152997 0.021844895299944996 -0.0006215274858761644 -0.015742817952713647 -0.005849816877951749 -0.0010926747192310706 0.015219060659674646 0.007801105143212695 -0.0007743670283465164 0.005973324833065171 -0.0011526969856732352 0.00028914759893071607 0.009439604169652055 -0.009129472185483775 -8.145271357322834e-05 0.004928088626465608 0.005038994972214598 0.015652918622286686 -0.006374311888124107 -0.009080366440959007 0.00988163444428996 -0.026906320783247947 -0.012214666914860511 0.0015069226020534858 0.004032512579210774 0.0025831412020784743 0.021237732979231476 -0.01135191937694063 -0.007864421252172462 -0.013296308469988215 0.003923019217059547 -0.013098283303382835 -0.022338464971688406 -0.0057617696179902145 0.008854355364134977 -0.0013512844638352344 0.0032533905374064736 -0.012256464836328931 0.015313136015489599 -0.0031605664526213485 -0.0037652348377244277 0.00026450840964221755 -0.005579475957516638 0.004710925147130297 -0.006083685065254143 -0.007129811512236642 0.007600402814270148 -0.009825473234641993 -0.011199601836486321 0.0219521705410902 -0.005039631141305149 -0.0019417708876820093 0.004352729410050194 -0.009975637710767737 0.014622212309202012 0.00046598248150041515 0.01874521020203569 -0.015423195359759547 -0.019556969398887746 0.00025131185624867525 0.0013212460304507904 -0.0011983305283235662 -0.00969683481551964 0.01262111202514318 -0.012940609151634226 0.013398102930084766 -0.0015570900328765922 -0.023932833879507433 0.00932802357613574 -0.0032211263491217852 -0.004662892333784522 0.02079759730517085 -0.013771008729138832 0.0015636583470720051 0.004309186909891347 -0.0019770687610076608 -0.005302914818301192 0.014720251505569501 0.0075563021725462975 0.0069810451245751306 0.012381489111307433 0.014508977866078443 0.002929451355466954 -0.004278238835381736 -0.01721188731817566 -0.003879342289824134 0.0015310387250936544 0.00820767704298369 0.017001446702451087 0.0016405243316892693 -0.006611356018767891 -0.005551448804235958 0.02000716882376119 0.011953179934485511 -0.019588837944523485 -0.01391539799929001 -0.008278241428068236 -0.016796279094692654 0.017436300428131303 0.005361937473857701 0.012433556391374986 -0.010167155964603282 -0.020092283245817782 0.010806128889174624 0.0045058957425382976 -0.01224591215801764 0.014612567759057442 0.002894004609750127 0.023915975888522185 0.005863416332201815 0.01014957172401387 -0.02839022921291872 0.0014101907160038536 0.003854947419235473 0.008649316740648436 0.02132734028075249 -0.00602143545237585 -0.004965939243856565 -0.002877177256153396 -0.0042573185024037605 0.006245067114574731 0.019833413474176276 0.014207897990106012 -0.0072814392917991844 0.009137627838710622 0.003945537636748769 -0.020683075987443737 -0.008626694030528735 0.007513249837279038 0.016326824192672364
0.06467719536287492 0.022968063374005858 -0.058192378069367216 -0.17450639816602848 0.053440436589722196 0.00866586979007004 -0.20926913799406177 -0.0978231169901039 -0.03511646207105816 0.03301968989765705 0.057917950400154246 -0.13589235371510175 -0.013822739515521992 -0.10386305561910879 0.049697568509213856 -0.03772695107183848 0.08193062926417305 0.10019025238761428 0.049021274128069926 0.0524289526742899 0.09898046364908078 0.09325463354548824 -0.017509736641167655 0.07998870767420549 0.13700674801007692 0.08150199594471734 0.01797017500667444 -0.050898517504460145 -0.08857980472954383 -0.06819139889149768 -0.06854856234898044 0.11513919102936314 -0.05052766236571752 0.03680957480963663 -0.04570202233780406 -0.03224309254868445 -0.06746169768535014 0.037854548764234185 0.06761298870306223 -0.04191755832504247 -0.00039944720816508113 0.06306449930624468 -0.0015503103885868437 0.055997006079514265 0.18030814274880277 -0.006479325665908149 -0.08459936993877291 0.0339836422127497 -0.027225408860444757 0.1630787023698899 -0.03896104251658556 0.038648411983792576 0.027060341584884236 -0.008373204730207563 0.0486430354154975 -0.0377063469751829 0.06991774839238332 -0.017761977153163414 0.19111777836015986 -0.07489052177679269 -0.15186692229085896 0.25327654145003675 0.25186711929421024 0.0634696751936312 0.0995936354870012 0.00989331804112867 -0.07487712247623575 0.008548549660324794 0.07524635060252231 -7.429304035692749e-05 0.15116328087844683 -0.08745812512873177 -0.018752786561943267 -0.002088153509618298 0.0787195420899981 0.032693340558892975 0.05139556114882683 0.07376116166337436 -0.07531387259343691 0.12011294046191362 -0.18237864979964646 0.14546402534858344 -0.21307578012466072 -0.10985606853736718 -0.05244187773773947 -0.016628696298820092 -0.23000796179961755 0.057102645971058054 -0.055028348229315065 -0.1163424651290807 -0.06286752878027062 0.015174586472010523 -0.009918767219238766 0.09217447228109432 -0.1016887150508592 0.010989461931600471 0.0908373706281305 0.02339246984724027 -0.06410717132801884 -0.16876882706225 0.06323519549606145 -0.014733176804054079 0.03130244243545868 -0.01201724816774619 0.055510086387095724 0.22943301799534144 0.03290061173337867 0.1060280023583009 -0.19041505446429455 -0.010616056308552222 -0.012523112988919857 -0.0968632732411586 -0.050437324522669046 0.11671079707746698 0.07862849218392164 -0.04436659243650055 0.23498212975543795 0.058100856235384996 -0.08483776355008173 0.08426541271116966 0.03318676662937454 0.014869333394145869 0.0509752220666298 -0.006116996743745047 0.03679302547509189 0.015750152433879814 -0.003240836823003089 -0.03752504022731267 0.060441460569801174 0.027186509115453852 0.06965859701641733 -0.03414731288922405 0.01689045655094425 0.021599870131163434 -0.12424216220225899 -0.18788480783477 0.0027124930792618773 0.11562225169977094 -0.07269673250181508 0.05637047542081167 0.1366742459835595 0.10028848075327927 0.039666502481399 -0.09663388777483872 -0.037066827672513604 0.08187088041124535 0.1292552349504251 0.06795583695744258 -0.054078462948029114 0.03135318337616702 -0.09989103440700453 -0.08199872573467702 0.0729023220576986 -0.10070486562514275 0.08436204308410529 -0.06615631519316886 0.12849616786741336 0.11327457496980595 0.08955536348580902 0.15322469330320368 -0.12530159193920515 0.06489811857626658 0.09596135572058583 -0.15842043840460612 0.08268905567472358 0.0019241621699605884 -0.023198121023373822 -0.15994435185834555 -0.007391262309030235 0.0602005735715567 -0.031405897671669174 -0.04113362715871881 -0.007968406200617164 0.059304036359277244 0.06829237199845721 -0.011110230999050428 0.11574127496785823 0.04536643484564698 0.25947813432896116 0.07304951629696113 0.07121504479731611 0.10255277380296338 -0.08464627158571857 0.11539499666707365 -0.2513632558519344 -0.08656078523391708 0.027106309382044783 -0.1839320299703902 0.1629694966301619 -0.21352295240530286 -0.08622690495639633 0.018255689378740014 0.20438023199695668 0.03515587953247236 -0.16997719400448433 -0.0018482230499607087 0.029565432713344067 0.006575554048142493 -0.12574460619629946 0.032608962013355655 0.1630862934239429 -0.09040805760857173 -0.021748945664613006 -0.08159293443456313 -0.0033448989294900346 0.020275917001086913 -0.0408529112238882 0.04516867099075096 0.09204125319091944 -0.05306694228917284 -0.11849937335166907 0.009424048836933695 -0.05313497033596199 0.02402364524944575 -0.2549483718490109 -0.017805625449818348 -0.21534488443649233 -0.007449409591523298 -0.04449868900612116 -0.026567471069922684 -0.11189399113871447 0.0571135711287958 -0.10800224332738828 0.2498215671027556 -0.02004228646788243 -0.004923699729458639 0.018556682257538745 0.08693875557939078 -0.025060302280768477 0.12463589978814209 0.010021250745604778 0.10469386152968195 0.18337795204859342 -0.09370111782000697 -0.05403102427458596 0.0559399212341275 0.007547023890524451 0.16238714283720726 0.05364468034469789 -0.08289035450588846 0.055426425026510975 -0.08922031930935782 -0.0430900397632375 0.07532025848903141 -0.12298711791548604 0.04342334512118417 -0.05350722320689911 0.030513751788115197 0.09124562444895916 -0.01732111042323351 -0.13220109732148236 0.19663609117073835 0.05928110479891227 -0.1438272754328133 0.13959057114131418 0.006865789119436949 0.055106042979892085 -0.03202611455985395 -0.04576078704359605 -0.0648015162356351 0.06429842271057475 0.15609882850542747 -0.11412880529130644 0.014106453869962007 0.14395824128622903 -0.14122286176270113 -0.03821124383599512 0.041686284409606277 -0.0641636707496035 -0.09818922096198558 -0.06883472661473526 -0.03570484971973616 -0.013591464330145004 -0.014707776213590833 -0.39472415787663967 0.07915123456580125 0.16427291326982527 -0.008166952005410654 0.1486573213316758 0.019562576198649304 0.012726260600408788 -0.02871805147879863 -0.041526712277429566 -0.1316292380625106 -0.10920485893243512 -0.10176001072978086 0.1441681670142064 0.004681380193060316 -0.14032278335054243 -0.04971069710184953 -0.013913129132559774 -0.08836739309376858 -0.048510411530591 -0.075192470855044 0.06535365444242802 0.07851458147407593 0.04158643748362997 0.15305077041740786 -0.02738581017242422 0.008372175821464286 -0.026855528036003006 0.12172181379489364 0.008277043373478128 -0.04160188296069483 0.06227427151670735 0.09724301498676566 0.03226370416668554 -0.02748215013906641 -0.003001527178907885 -0.11789752608018352 0.044579650905923224 0.146506455916454 0.09542901036823921 0.06272054216957375 -0.09403198788572531 0.06260780233346283 -0.15256384971599826 -0.1162050062661614 0.0821802539719687 0.013748490947351394 0.127949864161621 0.055925529304618665 0.0633759679125204 -0.01974273301766141 0.17806037413846004 -0.023283943994612373 -0.07148241280026926 0.06757220916003957 0.040489351525091706 0.07107141645803279 -0.09358046636201316 0.004108298221273486 -0.2389037562427616 -0.013593816236675247 -0.14135796162886347 0.06649011422902071 -0.11958580550711376 0.025087112961124328 -0.12534444471639616 0.02902032384522217 0.052748220129140246 -0.02024833968745541 -0.0702740916269804 -0.04990223432345539 0.07908554719817606 0.14579378773502813 0.0381957645441325 0.044983259832277106 0.003023998497733947 -0.007677673673691904 0.02066110658194557 -0.08528797128388374 0.03607217864012848 -0.12671874792613277 0.05496557730507593 0.02996885765723137 -0.183844571535282 -0.07240666627961355 -0.09331373583753004 -0.0034947038982391623 0.19932975990630492 0.21858230955998065 -0.06220195214602013 -0.03344944285934355 -0.12996584105555375 0.008496501274778925 0.02560543556956066 -0.09336276909661809 -0.09150788596562108 0.036865081409798287 -0.04581228086669136 -0.11547903944647817 -0.016044909482625356 -0.11146074242158475 -0.15163477893969798 0.09191789943698923 0.06853927298993755 -0.026525129505359377 0.009107935403727108 0.21925142379019671 -0.03873587207762251 0.041094013053323775 -0.03183067877295978 -0.06079139752499665 0.14877941602485487 0.015980572594735086 0.13635749490620397 -0.005770713985351126 -0.03959323568066545 -0.08969354793696563 0.12798183122303847 0.16348206429637363 -0.1897370799931379 0.0003616514342044132 0.02055306096911421 0.011240900442959282 -0.02739681035075184 -0.018983161494454514 -0.03610142297995675 -0.13779937311889018 0.05200780311161166 0.11211251967584432 -0.013673207707840758 0.08842183195804973 0.19681141078328973 -0.08188666849021943 0.06444591967788575 0.06038059576783284 0.05026616452729643 0.06541823616269307 -0.026332015600528887 0.04281644551091305 -0.0955654462884256 0.06700299397263076 -0.033316517752542324 -0.03867684177555284 -0.1078734306101614 0.08828106057132476 -0.06096876094449693 0.008839461075824633 -0.07805340673666829 0.06693703870790199 -0.03168743835813887 -0.07055288425734571 0.11900754023399678 -0.08587211574781999 0.007549059271211825 -0.0836609787714252 -0.003482804760473517 0.007707950534933968 -0.2613091616409956 0.12900751119900244 0.17154365556334478 0.07702791564550078 0.00765966749025335 -0.12405769739873472 -0.065522004752287 0.09877575519782465 -0.1539055851980546 -0.029844842034228415 -0.009858730744457712 -0.12535960564852422 0.006164316952877561 -0.09024565820218206 0.028192160494781446 0.15664839199499558 0.07484782192141849 -0.10357475747070712 0.023631712037269874 -0.04742132619198469 0.13272502693766736 -0.06906801447689273 -0.08423928825023318 -0.016130266574739476 -0.05415892985944747 -0.07902439117273331 -0.040552397237408076 0.08869422520809594 0.06994077461120718 0.03616681707210291 0.05194986139764147 -0.1142923358592007 -0.09320066135679822 0.12992985724121625 0.08666468263912135 -0.10917860716171397 0.13011162690526132 -0.10358698634780376 -0.23150734259016376 -0.1316316962355205 -0.11382434434799203 0.10511653411195485 0.04750802160988259 0.0914627695587918 0.1806756857873163 0.010500218841039553 -0.045547774281862706 -0.04219287375740199 0.11117375748207374 0.19674460670623517 0.08366253476856288 -0.14530683410022502 0.003720278719154295 0.09402359285876934 -0.056716838108899235 -0.07149630102204708 0.20365888903809534 0.1730986253697618 -0.11583874010780111 0.17993068149362837 -0.06392937036892828 0.18797160486430806 -0.08339637028320246 -0.0831728600596462 0.10509637102125466 -0.002219566475095272 0.12099076884543299 -0.1052121736587189 -0.12859252216459788 -0.12032257771829374 -0.052504146027827533 0.07915100073850775 -0.055941930001391305 -0.012198595970422749 -0.035309740268797525 -0.03478860436612887 0.20986790330645297 -0.055224638500351676 -0.013629330937899474 0.01775032072214732 0.04939373481997747 -0.09824557663866276 0.08165387831141575 0.09711214620136442 0.07811087785295968 -0.0748241002111087 -0.07875221165689643 0.16767766504791687 0.013332678176234439 -0.05246501682307099 -0.10811315680013828 -0.07859929082260761 -0.05098062947451182 0.07311224033173201 -0.18355646407980902 0.11497909932880235 0.1780638371969758 -0.15887183570662156 0.10110459733677832 0.0235633383428305 0.11237348655452935 0.10140125990687832 -0.08728294377986485 0.1407176947644845 -0.031284919812081896 -0.031399991356869994 -0.03582122323637043 0.11457921084123839 -0.15632212610621612 -0.002807202614553684 0.022767384515764114 -0.03367898097809595 0.04809215422080152 0.03356171428327446 0.1503604870927306 0.19341844134518477 -0.15834288693253232 0.005655408782918049 0.03767717170202038 0.03714746478765246 -0.03478771662540615 -0.055510633872882735 -0.10620296619791497 0.17933761342385157 0.1424169391488485 0.13393239483242494 0.11175543013407914 0.06217432064277247 -0.08876496228881317 -0.04235708130309109 0.11503679102858105 -0.0198041545198556 0.15964258709115758 0.1321725435683167 0.07456776126882231 0.010018515976031652 0.060266045014203656 -0.03414248942403483 -0.17734952534440182 -0.04719644514297153 -0.1160635002847074 -0.015779736016282745 0.21722595029216865 0.09103021171590851 0.1024218770738631 -0.024503379377662636 -0.18806713677598025 -0.14945799806930005 -0.0867760817952504 0.026378308671226137 -0.018825716023557322 0.04371821480573367 -0.21405755949322203 0.05940353560919715 0.031530143301651596 -0.1482044546058228 0.08530865626242667 -0.02407322285337866 0.03345139527029579 0.26339580701491117 -0.08727385993450681 -0.02773473533398723 -0.05224133638509255 0.027591532122823156 0.05537239876877877 0.08331960252851964 -0.18602451143505447 -0.010231572233105207 -0.05342531681805828 0.1738074780399379 0.267370268078822 0.053566708923018964 0.10622035304803835 0.0631107037732867 0.0023177986132712543 0.1258436235668932 -0.181303197570239 -0.08505492137676444 0.19048258308553068 0.0723002749893513 0.07534324168703996 -0.11580512218944579 -0.03896809890563593 0.05996301603960952 0.053965930742706364 -0.16988760141811818 -0.08616891300090007 -0.0712579682918886 0.14078225109012638 -0.019558588898982605 -0.12870071891385312 -0.03818585226650381 -0.011665685943679466 -0.027034775929399766 -0.0011521699993686614 -0.05944084644089583 0.04183623840992977 0.09655614193739445 0.10421646258051595 -0.2141582129775322 -0.08517116226668348 -0.05255847510391365 0.09131048204151886 -0.048732309074641184 -0.12412296168661109 0.11740698125410824 -0.1683902363677952 0.0041441762488120025 -0.09757694050879702 -0.04571793457519508 0.06957017247405861 -0.12606145259530374 0.11124916786602716 0.11929222774999179 0.016691241499415102 -0.005513452252565349 -0.06792036907377906 0.08855757743473966 -0.06447298271981311 -0.13313801682006787 0.09936438853221996 -0.049757892965366424 0.00010207389946356401 0.0735667336889473 0.05210738279216685 0.015541875226737849 0.11957179581854396 -0.05397465172759657 -0.007496452961795268 -0.13373598455968744 0.078944345122302 0.10017330695031665 -0.11683678053227177 -0.15169239700109188 0.07873415610925819 -0.2020104333781592 -0.028202423838358106 -0.09918751220589428 0.04294879320312291 0.08502410238789286 -0.032315693975434295 -0.11902073813227959 -0.09324280305006521 -0.2571357357997999 -0.11330604426071245 -0.08901717396523527 -0.10896454279708165 0.039456498694207545 -0.04528045708897126 0.031426420770929976 0.04908438926313474 0.03355131298415561 -0.05629242369400472 -0.005468662530630767 0.01332660360387947 0.1095730801137633 0.08214665056284232 -0.014295320282459582 -0.08881366187755442 -0.019442455742566804 -0.17046176478906347 -0.024933805567920186 -0.14443851602716345 0.016191927693743814 -0.09320670022796296 -0.000540245693772076 -0.016626811494185326 -0.11244976369738693 -0.037710403873215934 0.20609832228236236 -0.05732973959736484 0.04909887099838116 0.03899875794426896 0.03722977780140994 -0.024380936590619615 -0.08915382385682571 0.20488274144030882 -0.042751150072252886 -0.09483626122810658 0.14438063268535054 -0.021336448279202985 0.12740965466287354 0.10529294247592019 0.03126082680011599 0.018067309381157134 0.08565517681696394 -0.10126387136580005 -0.2040309495508971 0.06901953780259366 -0.0631837948010787 0.001061134819818703 0.019273580329309033 0.08506570673063747 0.06367706736841336 0.11342582691517188 0.012747847578119663 -0.057623897650007895 -0.18586674866083416 0.1082199794349308 0.08681988398434336 -0.005508070094338023 -0.06145973771332449 0.19454516449666026 0.04882908767868611 0.18359513553125203 -0.09454526271951653 -0.0767918965999643 -0.21887706083254715 0.03463217042761425 -0.20134419042827054 0.24117464515822282 0.08472434429472538 0.14327330197237528 -0.12776726236924532 0.08814721345802748 -0.007827304355334198 -0.014132894649912952 -0.009745274413104143 -0.031054695652354053 -0.07448050161448062 0.03103639464640962 -0.010145932258562073 0.14715535823871007 -0.08418638577690876 -0.05365540489813817 0.054327870536160186 -0.07086454418423475 0.14135562355097941 0.009942382017870528 0.014084222373922494 -0.04086802046290163 0.15561828767716634 0.23664295162343438 0.009869772446897731 -0.02618620908598056 -0.053487822507035127 -0.025971991252997203 -0.1288379343923266 0.08187758760816242 0.11629048292595642 0.17477283517048195 0.02067559457224517 -0.13051716300108468 0.0021428615293697627 0.04722546543654108 -0.07233323643470656 -0.10758486029729519 0.01952350693372577 -0.05503116479535399 -0.10239792096326433 -0.14619843995611825 -0.10173132853499148 -0.1744000858329639 0.016337665834607613 -0.012447802184759507 -0.07499898657806059 0.07607856794494132 -0.057087091495522484 0.03571751341272213 0.027446265621757553 -0.019044435186910777 -0.09002305273206578 -0.09943765697458092 0.04561946505209607 0.005422460879530888 -0.18393974684791797 -0.14598612125333182 -0.04986335598817257 -0.0466121530681835 0.07397552399305417 -0.05905354155915953 0.21271374557231634 0.08797521161499758 -0.03902270019671663 -0.03196624368638845 -0.14720019539141643 0.07526621088112719 -0.07150792506132621 -0.08644228431416746 -0.09873695906248918 0.05987956716077199 0.02964513106242342 -0.1256666687689661 0.012837189140562496 0.08833367139943395 -0.14671086766181407 -0.05288016429335944 -0.07123334984907485 0.04616698496112252 -0.04560471050955001 0.22034136827864728 -0.010668358254904692 -0.012283662719862991 -0.07429931151676622 -0.08019644572024617 0.007859804176392796 0.22038237713200862 -0.03556705022130872 0.052862180468615336 0.06843801392893942 -0.058433625910277634 0.06340571389824994 0.11660590001554927 -0.0021973593761341705 -0.025256942886252683 0.03420758987129249 -0.1340110921295185 -0.08181764747121259 -0.18759288671534693 -0.052220812782569064 -0.1554655181976113 -0.009271174487371841 0.10945621685950267 0.117877671901517 0.08637948792342788 0.0008221701260372077 0.24239114746698048 -0.014713396565101337 -0.11060412748576624 0.07173879252628332 -0.00670123682413221 -0.14715505983750024 0.04490658767952371 0.048103558181300514 -0.050164831627979245 0.13710708833559165 -0.1422824154383123 -0.1369970773480508 -0.07429842300578077 -0.09467602948310382 0.08251598407106017 -0.0370880314415191 -0.07018201354723036 -0.014333598423981306 0.21827674487591334 0.06928123505397013 0.058903567456273606 0.06853030961410216 -0.13627570998711327 0.10567084314324475 0.01762502132932233 -0.12603464774605883 0.07957773770888954 0.03711672529343099 0.07312793927790669 0.002839294520742023 -0.006570597066241356 0.14025137962531986 0.020062348256455455 0.01600884274205582 -0.09144359409068899 0.04883257685368307 -0.05781744256148923 -0.08107098695213183 0.024478612422185728 0.0870696390482541 0.11123648827125164 0.04037269208038773 -0.10442727537757933 0.03445003389639568 -0.016635418373681873 0.01563580330444128 0.00013576669374679506 -0.027914823239573495 0.07520092478761325 -0.027606002783030815 0.006563779893299464 -0.097471896999597 -0.11940127345765542 0.051357151714832086 -0.20910807147363145 -0.15408339793840906 -0.18694321187887947 0.013904253274676258 -0.014571605887623152 -0.11302881070854863 0.2052957510731955 0.052414106973095516 0.036781345661420065 0.04283012145051869 0.022144636189977696 0.0707491139060187 0.09115805573427176 0.2343265124900272 -0.0685586382576115 -0.07080079730056586 0.0025355222747621095 -0.0830459390874707 -0.10329732297600476 0.048772815080470766 -0.14636250594440972 -0.01687662323952005 -0.005420154310505886 -0.1463595563155259 0.054477518882021216 -0.08006472688244559 -0.008689785825430287 -0.05403302809159842 0.02105737498598136 -0.0009614129798259341 -0.04753967199398029 -0.06278438838773287 0.05457989541305719 0.03134594508806047 -0.05539881473091233 0.1501494215534832 0.05544693792833972 -0.08458854657238439 0.05635375311478667 0.0009827990211568776 -0.001378609819148814 0.044414203465449116 -0.03713070816842628 -0.17835681118104402 -0.02017208089114301 0.07060991806399737 -0.01652208223905986 0.07106100274926586 -0.2400035594558718 -0.073726858527021 -0.023939137356311816 0.14363067776455343 -0.04907503881047349 0.09432231062780104 -0.055569017070149246 -0.126639357360264 -0.08828846879237863 0.04693853139772392 0.05408448583059778 -0.058503003646523576 -0.09103533865444963 0.08165608496188546 -0.04935985346891224 -0.05354225851567434 0.030382832596766773 0.14812902001661296 0.06283206651052535 -0.17558862020163243 -0.06588650028630197 0.05991651500599581 0.04784276409686712 0.17223056280196228 0.1500896690939427 0.03705223434404443 -0.02211596036876507 -0.09423269035330424 0.006782192253022457 -0.033800820884831065 0.05368696502043669 0.053593750442135435 0.0975905543062395 0.03176877659671249 -0.006251095689284806 0.00055110104459487 -0.05181649513853893 -0.03383850858170036 -0.02493320976403405 0.056331087576070325 0.20849098231248253 0.02589141115807853 0.1959395905968351 0.056915812797406165 0.0034734420352269912 0.1736713764614545 -0.08848430516297004 0.0804698830056452 -0.05844603497829516 -0.12140181995928706 0.007266141504221908 0.013263307407276553 0.08652402331504169 0.11437866313349837 0.03395972619793979 0.11878472429288571 -0.13751687780199767 -0.0037890664402310827 0.17804721571192025 -0.1300900934632182 -0.10220605516733197 -0.10305677010188921 -0.14312671063776583 0.20262988858505349 -0.013490520889962146 -0.020996434967609136 0.006751826986162698 0.1652450039448395 -0.23167147844293004 -0.014692763815160147 -0.018074045132794925 0.0995105022493743 0.01633152968906683 0.16514097862589933 -0.02459482718596136 0.020374368606588245 -0.11806745219352449 -0.02180997256621688 0.10127416432366763 -0.12748656428709432 0.08418546187948697 0.08279114286259387 -0.14834634773141095 -0.121230989567706 -0.08283200188557181 0.13824654488825072 0.04599258843740834 0.13491771774192993 0.04243624496220138 -0.027472834160269338 -0.08641626469081747 0.03145761807888007 0.03748626325765689 0.0011040902528273828 -0.0791522075707731 -0.05108557626025826 0.00037532578082156526 0.04443101799874477 0.06182030235964334 0.13334236380865064 -0.0449797633093305 0.14232287915255634 -0.009163573615726886 -0.03497325636019597 0.16630675152738367 0.11153487459753285 -0.13164282034439934 0.07206427867645417 0.07118718903675131 0.07387088474542015 0.09412697367282309 0.03993356471423163 0.15622965877824527 0.14116599474109698 0.0617024012709591 0.03580987442573451 0.01624063235898731 -0.05996617433121435 -0.03043214996781128 -0.07934382499041763 0.029729356047280907 0.007437330530889144 -0.20146321264122524 0.029525618670186982 0.05023861719652692 -0.036452477916708456 0.028444638385134426 -0.10160438806314916 -0.043768037131878566 -0.06425072746214844 0.10032114863745249 -0.14220435970950773 0.11027431517051718 0.0642181303504971 0.15545118590399798 -0.03341061120770472 -0.08402991606813498 -0.16762145361847516 0.08052565069690484 0.0023112152688048635 -0.0015524854966420714 0.02867834593087219 -0.003996101743051498 0.16757789268128898 -0.11457795626334603 -0.18850970964210437 0.024505907796078554 -0.15928475700150535 -0.1311473762385313 -0.017101873855927735 0.09141133262636537 0.028690016753505042 0.13895128053877598 0.024916429496283928 0.040346735155274704 -0.07789582227994876 0.1096604455476411 -0.10456964933588137 -0.0013117435400752263 -0.000788373766746821 -0.07457302086698743 0.04034907156552688 0.15924939205037036 -0.05295660254109503 0.019635167826018683 0.08412801140332919 0.050442668823455224 -0.060701011603278676 -0.06291509187607833 0.08148581452580103 -0.10412729264818515 0.018491109540616463 -0.11669970435960039 -0.13367519230094446 0.22233698661124765 0.12626523607329945 -0.049589638855712395 -0.06286026218266283 0.1761397643246558 0.008332673872896285 -0.10771169086829839 -0.043797307958566636 0.1094445021129604 0.2203511777517075 0.15588200348013723 0.04179648156862831 0.07514000313693057 -0.15612434314599 0.09516135666301163 0.09960888409843585 0.09882133187937281 0.022232906311668455 0.06145161003511438 0.04744426733412297 0.028219166709632693 0.05029084225987094 -0.012763912715680354 -0.10493544538767553 -0.030782248079148256 0.0019967904491817704 -0.10637538483243683 -0.04742892510457168 -0.09640285633256995 -0.06247918644653528 0.03368918685175351 -0.1780276888828127 0.16009569668595836 0.0742955017996602 0.059818690991623215 0.08341149824004156 -0.0493817882048175 0.026136436092345425 -0.013333026314696057 -0.21273253098787154 0.20347687127023303 -0.0751603675532569 0.008291865897240373 -0.12123948460557483 0.1363208072798221 -0.05717281066324884 0.006967565991033215 0.010108400340947638 0.0342804325180512 -0.10699280142213259 0.05983061641910347 0.10531346587775431 -0.09014753074218405 -0.009118040048808026 -0.06957726718593514 0.12638350055545555 0.03714747067420847 -0.032560213913578745 0.23121190741611558 0.003534357884792202 -0.06205956684330674 0.07152061463558766 -0.0026991200842393843 0.1239246851113782 0.03141435692779526 -0.05041086345682322 -0.12425660402921003 0.034566277618932516 -0.10568056040810453 -0.13070387743370715 -0.09168959395724453 0.16267534798588992 0.02107568434339409 -0.10845475644753441 0.006769415794723304 -0.03577551105343209 0.12097891037179505 -0.007595014073583938 -0.19377717101122224 -0.04799881080910475 0.017320028544256506 -0.07213495394658628 0.16802688691240006 0.01484766231343336 -0.027274930588403124 -0.09875335789301727 -0.04208446072487931 0.12845323781646165 -0.08595656210023762 -0.060260927122133864 -0.03836288584066931 0.11990025546059518 0.015263912465019168 0.0027674366319541395 0.09009166311904747 0.09742017693340627 -0.1299891596807162 0.06017564381272437 -0.06837168823309496 0.06745644816264894 0.1563196403483554 -0.0701719454603574 -0.025681906090774868 0.005201365064597054 0.055598991367341456 0.0791792242820262 0.24635027060932363 0.0987890332857928 0.0336983392053595 0.01814907338856067 -0.2684554019508778 -0.03948786426985283 0.04635730410745101 -0.07844764759499014 0.10686599328217135 -0.052353085990185004 -0.2699921498471839 -0.16225693932864435 0.18155808988440694 -0.28380574117737867 0.0449266198261244 0.10740700040586866 0.0035222236542647423 -0.13069698375091973 -0.07771848033928 0.03034635083352212 0.04592336041157903 0.006638142552049761 0.04288211400510915 -0.1294372711398165 -0.11191502257400215 -0.03209333074957637 0.003081885082394319 0.05960269591221202 -0.2011336166273293 -0.12540391262186998 -0.07600013475562363 -0.05461503592875608 0.07856417547146603 -0.028591418480715343 0.01096708429776684 0.06529658625145446 -0.16796739066943614 0.026047796147908874 0.05293491321327783 0.05636677807739297 0.08659545751332445 0.023976608930304674 0.12671338378260272 0.090539631461836 -0.07702882987380932 -0.07336883871960712 0.028402753492576458 -0.00013397324099122907 0.013186913307107945 -0.21115772962783264 -0.1997640315046167 -0.08362460336498644 0.12157018188654986 -0.08665261532625308 0.021924521785192372 0.09411638048989043 0.03745842022870692 0.013603192868131943 -0.02694217756694456 0.06488329925634544 -0.040635033451905445 -0.02026673571357554 -0.04200076720179526 -0.11194372105291588 0.20835493520886614 -0.0029857368797337773 -0.19961129309911257 0.22693815593562736 0.20443754078802687 0.07248502704522117 -0.020368751023459607 0.1363430089697748 0.0644543133869682 0.05841416365990488 0.0044767027656313395 -0.06016766023139081 -0.11904109291458509 0.14440587568649563 -0.027823341489142728 0.010652089928411271 -0.04278205891970462 0.056052234185676585 0.239028761445106 0.04963125695449423 -0.09772297982678303 0.0014189597157827 -0.008909500474251007 0.0171536474939388 -0.014769845778720743 -0.166883853493756 -0.04476438793132793 0.010286991614105866 -0.11166117458259761 -0.00010161797639762347 -0.057237697439944495 0.024123162151289755 0.15825085963889396 0.0578890507579847 -0.030917864662847145 -0.06660508620299953 -0.020206029855477457 0.11208275189545622 -0.015601737022724157 0.009548950765916255 0.06197653584349567 0.08401854357368505 -0.07679760487000171 -0.18461053464315347 -0.07911266963775548 -0.011356764167483756 -0.10235374868942207 0.0704156983503251 -0.13737953281461782 0.19742976127570752 -0.2725039599030661 0.07247736588583717 -0.020753937517153726 0.16929807414950043 0.031518391803672205 0.018133956725020193 -0.10910543739997329 0.06428197712951024 0.18014344388713482 -0.042111664567773176 -0.05659559846017236 -0.12230812334836572 0.16881595665786864 0.12430779129746312 -0.026608311848554014 -0.05697702158063635 0.044488470330092435 0.06993261469179902 -0.09954713550520149 0.007589424038203646 -0.02618203061270442 -0.03756409479832727 0.1656031509034512 -0.009116990057782584 -0.0037469640879251734 0.02158676893912006 -0.10723211736436099 -0.07023899595902666 -0.007903514946395058 -0.2535202703638877 -0.013238100692811049 0.11701366914438656 0.10996324365754295 0.08548023947451443 -0.0635869628572852 0.04287869932399543 -0.14494459935692566 0.16220520363788998 -0.08536705875786593 -0.05727975370994982 -0.26810562412143363 0.08653503501670463 0.11967608590505294 0.10863557238926207 0.0064831424983827395 -0.21765577891644092 0.0451564672947155 -0.04889461471546151 0.04963036112643008 0.03536973419468213 -0.006324247603944333 0.034055116288082554 -0.11065536117837523 -0.13645065968066294 0.12122094569254194 -0.07677666343557137 0.0711950045674599 0.0078015285260832415 0.03799322969336752 0.09788830204059902 -0.13768227211030745 -0.26841062683107725 0.09893028058347654 -0.2151085607931635 -0.015539935649035856 0.014688162694545037 -0.11080387838703887 0.06777419955078735 0.03687375500205783 0.008873149706773433 -0.1000681681206845 -0.010994426355461634 0.2521847040427383 -0.07514986196288415 0.07663795373130952 -0.011030675313846638 -0.16479350636177456 0.22408850887144968 -0.1531991823059535 -0.09079464717327913 0.08694242514956897 -0.10352983026711016 0.011381444459146803 -0.11318366311735217 -0.03978540932311455 0.1191288515334923 0.11055933379946671 0.00755877662546807 -0.17218530867367807 -0.08198454866106572 -0.09548839481970543 0.07666058027733597 -0.08788074714902577 0.029442806656803655 0.1379326494560079 0.023053650215902877 0.021839309200015616 0.06859999445650258 -0.12282402450801844 0.05426681193273639 -0.08349476519298646 0.12619819853439707 -0.1985286918001665 -0.1618104800114936 -0.08812276192682324 -0.18510260360980474 0.17306343742939248 -0.03941860842793786 -0.004258073836080132 -0.06703290256388764 -0.009821133704213964 0.030566507478243837 -0.17547504212371118 0.15242518270403327 -0.16916097825817208 -0.06986016165458567 0.06127425376979845 -0.055462584055786364 0.04741132377575711 -0.1513724943176923 0.06600895434929886 -0.02273563762259648 0.10181291605072666 0.013415443871941917 0.11247055847091494 0.16666613544200098 0.1120704617509609 -0.1402619188605556 -0.19314970319062624 0.10745657066759345 0.10873186999877749 -0.0007559162357403906 0.1677643987254714 0.13302464160195027 -0.1222121538602346 -0.03660546548060103 0.1762682179452643 -0.08067594484725012 -0.19477438889307383 0.04459096380631473 0.11509292882466685 -0.08106083390833096 0.11418434067749514 0.11539895995241203 0.021499138136734448 0.059222427449550565 0.05343677861870545 -0.03960188507761212 0.07634136384312899 -0.13561806736249393 -0.054483216500940145 0.017475736196652405 -0.15524144198363576 -0.09198957639514747 -0.022953969630305767 0.031002173464582894 -0.2572132294578424 -0.06987269130761238 0.16607239133321813 0.11426630291444452 0.047875107030600474 0.08864453871569772 0.04588835536738975 0.07398849691209382 0.06536196860054787 0.013633921371178404 -0.01956481904726653 0.03228825647511773 -0.14722380373330837 -0.10732599612540425 -0.08452175056290838 -0.015858422098058482 -0.16819845320577365 -0.005949866976843917 -0.05273231847291176 -0.0387536120189515 0.009945660884917941 -0.013758620421795644 0.20506634074659752 0.10238555368323134 0.04259156970745913 -0.05690008208483601 -0.01876057251664699 0.12455043787234281 -0.10333396521853255 0.09377855965336036 0.14194779139304708 0.04882633708840811 0.03652722107645581 -0.1328687071826265 -0.05039841642416473 0.009924355633869826 0.03000636587164866 -0.08213851479381626 0.027378382132702894 -0.2141647871319196 0.08032345263271365 0.017410615728338186 -0.04484035004780721 -0.0636751391670681 0.07189635182289279 0.03707859918093682 -0.06936554066764418 -0.11818860675811428 -0.07209243601289589 -0.005892986251881274 0.05471155483298842 0.005009735377926148 0.017755906635238034 -0.046195810962384384 0.10619231953795538 0.021069331018396843 0.12741306080373901 0.019894659674289078 0.15194270734817786 -0.029395348966828855 -0.1321281122892171 -0.12567735246640965 -0.05457239234201554 0.0499392572978024 -0.035737347751029186 0.044039273264241896 0.0018258340843922331 0.054772676233390875 -0.01809350555784544 0.05044857910630497 0.2620160319090384 -0.06941596902833015 0.03000749436927028 -0.0396230415223412 -0.06678337735069853 -0.06357649537339871 0.03939846338134288 -0.27236471523763467 0.05123573883560893 -0.018168307679169243 0.012571269525907966 0.06391024071149408 0.0162279588685337 0.05202245547745957 0.053029549061110286 -0.04291859335676206 -0.12866773862009484 -0.017588379108921234 0.006380656292308195 -0.09471663613162226 0.11957371232637846 0.006207233671316417 0.16869986907353093 -0.050505610890534604 -0.043363811229520925 -0.039994141031378196 -0.015876560819909027 0.10518721854083955 0.008765892414885046 0.09318839784266095 -0.014472827052849104 0.10837723446205579 -0.06339729695111353 0.12440353953710603 0.16638745187405946 0.012329232219275893 -0.01411376106409842 0.011668538197315803 -0.15795426914945532 0.03146220119348967 0.05061238822598934 -0.011460858060485154 0.16046507402883578 0.017250667823885353 0.04034736976596845 0.07284166844984709 -0.04515454696026287 0.11071907998330642 0.057925692563688375 0.006899852894392284 0.15120836376306465 0.05464180667843535 0.010159103544758567 0.02516389015103617 0.04556071685957564 -0.07016333600249042 0.18809594312247094 0.04157056009390406 -0.028223324284222917 -0.06423253819805849 0.07524923482432913 -0.03358465352321151 0.0957292142050791 0.15410117359352565 0.14081868655428567 0.1774795707561164 0.04176746596202015 -0.03405240485174032 -0.019093611988443768 0.06250385616896592 0.12102072634215556 0.0669513093260779 -0.04308247912674555 0.08070270318575146 -0.09848801756903941 -0.06181433257373407 0.03955589135030545 0.05919600386087317 0.07590000215145226 -0.03417556239895296 0.17704890251733985 0.03016106524542953 -0.013050908154733549 -0.10334415133496326 -0.09755117435497983 0.09736641134785251 0.053222434559253594 -0.04104385498348373 0.09287623262981817 -0.06661183786872633 -0.05142910197504167 0.16986822285891431 0.0572498987673445 0.10424481046632071 -0.0742271113193383 0.10141522776197773 0.1633635891403922 0.0853144647062415 0.25396474515650524 -0.00985361997519753 0.14502751203406813 -0.008813924245127471 -0.020388459586504322 -0.11194328195434158 -0.03732179194251851 0.08395278903696564 -0.08152640544301946 0.05495758323802579 -0.10407059934485519 0.050104798085994724 -0.04047277457332548 0.0760105469794193 -0.12881495411377616 0.033446925938792546 0.08864897835480533 -0.02839815165305196 0.011279334727480465 0.10556479199676981 0.0548714926399026 -0.010337572537387056 0.0834565584492036 -0.1289570702738077 0.07137479912068184 0.22800984561086765 0.06963490368323166 0.031220653264757574 -0.010264053691236247 0.16293364472529598 -0.01575813741470327 0.0759332732586184 -0.0002713157933918669 -0.18971941799257125 0.09342197024117296 0.10152883656938418 0.1737158404005242 -0.11706482468480532 0.024016706385856512 -0.03188018234965792 0.09500669283794261 0.07079560773776113 -0.013863597178792627 0.05501821226062204 0.12326094945481872 0.04016806452803234 0.023520927796226398 0.04640186587782505 -0.02312455213788193 0.09939833339916716 0.18893361402022749 -0.03622034217175251 0.11224461441507598 -0.2411511538614198 0.08854057866760817 0.02009653462741931 0.0957492771779171 9.584949466755033e-05 0.05986038946031449 -0.0955159232627143 0.21867953856781416 -0.06107935138312249 -0.22031498479887943 0.06742396828647279 -0.052567963315969 0.07224469748630417 0.16446821336603176 0.05523439045486791 0.14445304476244875 0.1606117961887506 0.06950670053225497 -0.105869076029186 0.06759977873914735 -0.04718050534624831 -0.05401471217051254 0.19797651551969922 0.05116105956406695 -0.1158789167978785 0.08922596571477133 0.27338612554128566 -0.0019010639952327401 0.1078767586244742 -0.03356131349619637 -0.14611653005188963 0.027168107465855337 0.0929529480321089 0.02483690908608314 0.10723935646537415 0.015184262087561675 -0.015629923522176938 0.04485531892488011 -0.1766637947288668 -0.005450239974264176 -0.00604557377884443 -0.12846415870266414 -0.07854539907264847 0.0836624979009179 -0.09290938533663236 0.112454050896682 0.07932989077364523 0.06654122731670888 -0.032053525163621956 -0.05926385219300595 -0.028283115614227316 0.10752887025420776 0.032472622967041884 0.05642226856111129 0.10718250930219977 0.21654686878624546 -0.14550067261065514 -0.26250673670826097 -0.02008500022428853 0.22013173338840805 0.001266092520938863 -0.007270663900364805 -0.18950305529417866 0.017854174838245303 -0.09650793595008349 0.009428086842383106 -0.08364031282598608 -0.01051920485820809 0.050875911571246095 -0.026050821946931542 0.09137619260403093 -0.31348673883699285 -0.004395857343344 0.0062891579630758206 -0.1045639093038693 0.08704941446785648 0.056091200898174744 0.2877535735108131 0.17696846291004217 0.08801507000856688 0.041369307314806904 -0.10614117958484263 -0.017021596544873865 0.17103801815629494 0.04119050063736714 0.13684594611235718 -0.10909725532538016 -0.017270344224013717 0.15027566764737957 0.18069681122907152 0.061605397760711535 0.053847524838177584 0.0602785517313395 -0.05447895520908373 0.1279380257808573 0.0595777007217911 0.10800909520812028 0.05113438003183235 -0.06294869165155942 -0.007093094002597238 0.03915807417752697 0.24823401070200649 -0.06153872827683742 0.14142320695525312 -0.1510394643259067 -0.12907856361042536 -0.08597738090087764 0.1770324259687731 -0.12645069332493636 0.10258101536422357 0.06232045248212499 0.08868538052350959 -0.1009313595789135 -0.12789786017653626 0.07000657346506636 0.02483404850882459 0.054451500831774094 -0.02216814248007877 0.02145515691586981 -0.012922623457623133 -0.12333413127386893 0.02941502562749204 -0.0686885554214636 0.0787480724479689 -0.07981915488235534 0.0875928469129836 -0.12649478645413584 0.013716761981442133 0.09390393156602354 0.12098160561851949 0.06430430470248497 -0.0403408029004867 0.04613393192306121 0.16978333599955148 0.17688036454173242 0.12086797056166641 0.047833142520513565 0.17728338454585835 -0.05188024149560818 -0.038112559901610055 0.06651469177789564 -0.06671230593112422 0.18281156362170706 -0.052844618614926515 -0.0013110716266662057 0.0019127103861268401 -0.019519663620151912 -0.08394643223894549 0.13385176345815647 -0.07092823410351938 0.03192449443447905 0.023115935829160845 0.02390103091732282 0.02577622173276526 0.12531243631961655 -0.02450410019564146 0.1223692726170532 0.1969023883426604 -0.06324045034208327 -0.1942760610323688 0.10219826607392828 0.04562636518347703 0.10159580610725776 0.035223042340327824 0.15348796214469423 -0.000495708479396256 -0.11164561978966855 0.019584097540554988 0.12799996671076974 -0.14243363533282455 -0.07400989926540524 -0.11182329225637068 -0.002470326407303666 0.06889158888883079 0.07737696797105012 0.11889521055243041 -0.11693962635762978 -0.0581836123451512 0.004744580710779514 0.014246089205484022 -0.029789792279906708 0.26679775507878306 0.02679977889078993 0.05338151235620745 -0.13386655964626296 -0.12306848352792148 0.014497605276157453 -0.011255325075762448 0.07917341725011807 -0.07798117288155439 0.08792263889253327 0.0015648097653657121 0.018944594038102846 -0.07171861965640453 -0.11542708350344928 -0.008605972557825678 0.04116612077004519 -0.036177693894392834 -0.007989462942123769 -0.03132399729718982 -0.10790257424476546 -0.061484185560305736 0.040329027191864396 -0.08123316466825753 -0.1042812199702724 0.19549619244366936 -0.054522821477917593 -0.018633325912133427 0.13164820490339302 -0.038354599951726034 -0.2753731255946324 0.0790595326776157 0.020757918359109756 0.050684287825527516 0.09177928411672698 -0.11968066230730157 -0.12573932629395881 -0.11077824078873615 0.03318482373680337 0.0789781564460908 0.03624188942238234 0.06857926247002175 -0.14622006833087503 -0.0339992285447193 0.04366983643906943 0.06230630759125805 0.02169122834455642 0.10314865592505564 0.1321972189525843 0.1845989003846579 0.07256141178314876 0.37346832313815104 0.052622843989645444 0.006707382017252073 -0.06458480810508867 -0.15079167745996122 -0.12705059435981722 0.030868450183274047 0.043664738750051016 0.11302365737834028 0.05342469551676271 -0.018108231567321706 -0.059546905591776285 -0.16655602430939728 -0.013854580528335143 -0.005976362516093254 0.04230204858748361 0.14501205797980116 0.11177782113504901 -0.17681587735762144 0.06330144068110612 -0.14789128361497678 -0.08890808024725529 -0.08044356608478409 -0.06800135028963962 0.108882544512619 -0.07450713626865108 0.006994059628714026 0.11662895793923679 -0.12730645684209146 0.09983767636145176 -0.09307933795721711 -0.14024305607147733 0.0956295354384699 0.15121831474571865 0.042677748248254224 0.13964715184432896 0.010179346554841977 -0.01675320497497081 0.03548536401840082 -0.0055008724451699985 0.12643977310911755 0.16875372746579134 -0.06711273926191168 0.014621075404755842 0.017125434672825623 -0.12586053717071885 -0.032329516073598796 -0.07872972946840645 -0.24584261150814052 -0.18268123202266015 0.28867180897142714 -0.007582157165593111 -0.09020850139850757 0.17452914485868845 -0.011818144478439568 0.02866531588240845 0.07075214044933545 -0.02257120429170274 0.04836031745681813 0.10430697345216486 -0.05337046164769013 -0.019444736842830424 -0.20125556666287528 -0.008406739886561106 0.14201103195726913 -0.011200547111495141 -0.0837575160390891 0.0718193261810789 0.20013434660013837 0.09422917746401599 -0.04921909357149926 0.06049615760683867 -0.09188618643898995 0.1674819705514427 -0.1452587443771481 0.09433198530766049 -0.012711771886204265 0.1072657783072513 -0.1820370699237866 -0.0361773849954804 -0.15086557984828328 0.04329493723789448 0.18070099680522347 -0.01811625155142009 0.11978734179419785 0.08523798469157885 0.07498825820577953 -0.06034046673582202 0.06494121452494857 0.08303664727448622 -0.1314427241849741 -0.07259789922967343 0.14150749753162287 -0.1397651623918497 -0.010481528764719309 -0.06370521467197941 -0.13478354819613161 0.06737414008097224 0.13509217752706512 0.10445579149061406 -0.05296100795389512 0.20437866098847282 -0.039951920407689606 0.20702095221096314 0.07967588995359019 -0.1092031716864416 -0.07804880825584394 -0.05203043139264953 -0.07037826237231289 0.03585914581216469 -0.021558932968409734 -0.06710950795397101 -0.017362115119415676 -0.0894701800331352 -0.07388035237040635 0.1186690799313668 -0.05987777265018071 0.034330185916145256 0.04759913139164418 0.2983125662035802 0.0810261941446002 0.01996156313984313 -0.03257317899012567 0.012428577556667826 -0.049061930026090717 0.17626250116567127 -0.029682852235755165 -0.16603620743039627 0.0700831504819143 0.010954554418125583 -0.003990467010893661 0.015172679271096149 -0.042373063373527295 -0.11356080937502852 0.12657068051407355 -0.08108210564921949 0.1516933492153697 0.03740731381546409 0.10265100809590087 0.153803718179305 -0.007661283226865344 -0.08315530335831636 -0.06203522669609216 0.1433044232519818 0.043773079601627525 0.12465096630505057 0.17006318891281902 0.13144242185232674 -0.12207468700190052 -0.16283184136021683 0.059771118009792616 0.15304525066231717 -0.006147745888587982 -0.11785638865449133 0.02299127365506511 0.2588554694554207 -0.25496867537244616 0.0867996463624527 -0.006512391499678642 0.03288165204282918 0.19980952486177608 -0.04575397589421806 0.00760201490444222 0.06445011706698657 -0.09816529184833399 0.045716793669112285 -0.09135974701842857 -0.03306556380243286 -0.01844181811274375 0.07410079492401685 -0.052328400081315236 -0.012612235950892219 -0.07761422834905271 -0.14845433149383344 -0.010965682428473216 -0.08776460038237796 0.05160222847501294 0.13007098848196952 -0.0930189022451372 -0.04188780800970976 -0.019634772409098875 0.002760955776820071 -0.00966927590412561 -0.020036097762823023 -0.03863030144552509 0.0730144931323723 -0.17100757201450942 -0.03550785138389455 0.07301925321700158 -0.11182090622851297 -0.06952955302379227 0.003234979886467223 0.04801236435172355 0.10861362905802904 0.09281656121228027 -0.03166766049606705 -0.10899494933972448 -0.004589208326631858 -0.03379986321788599 -0.02645228768371569 -0.042133494821502 -0.0008766239125521976 -0.06418478307865955 0.08425196287107364 0.10470449737437994 0.0676848486598713 -0.12131052805045987 0.12307409763502411 0.16230406726571914 0.04117546763978053 -0.024437245580633468 -0.09186713307899146 -0.13736204771355462 -0.18135899870939928 0.003569126199298438 0.015573132443085568 -0.036205479635622186 -0.025061737745798694 -0.032119062201797825 0.03457008897342278 -0.08875914968986753 0.17990240491880272 0.0325506077858767 0.005052664922812979 0.05756600160508354 0.06681940217347322 -0.11536162515552544 0.0708978638039663 0.008743019128834777 -0.12119833495706248 -0.09579584536008 0.15150004434840525 0.062378766592530416 -0.006005919500732058 0.07180259572168686 -0.1939788633523189 0.14510713299831612 0.004713869409981428 0.2026772860253155 -0.05530998262973144 0.0218114573485157 0.06488745618575564 -0.05815549880760156 -0.22560049734815735 0.16494141283632935 0.023555182721987807 0.1308716225626599 0.023655936751610426 -0.0007795866865552957 0.005939876728463608 0.19454347953933523 -0.07210165573952403 -0.026195875139576056 -0.08752388457613543 0.14216109678189734 0.051181141613218 -0.02094054122094382 -0.08094036621700353 0.0972053506509 -0.02845946523339594 0.10967609308838427 -0.027143535612618494 0.0934416514143054 -0.08100940839191034 0.007942564618512941 -0.04999211185142842 0.04221628147396249 0.22538465542378608 -0.002051604648257596 0.22839245475794864 0.06247857394985515 0.0593340554250416 -0.06364785793578019 0.05474190116279123 -0.06346089272176612 0.08172936718065207 0.11018674950087641 0.05214628790861195 -0.09623042589965687 -0.10349731436144656 -0.19896629413954517 0.027174821683846932 -0.0664931232742413 0.11560556763766201 0.12045553587479647 0.03353202794609034 -0.04933735926119434 -0.06097203928041826 -0.07776695019879697 0.05370081333878699 0.11874775471444811 -0.046822094289722255 -0.041889549472492654 -0.001429562584925045 -0.08931646695671977 0.03874327391305421 0.0888727516526961 -0.05490384356432356 -0.03462176756404474 -0.0013301002498659574 -0.08307207114931843 0.06893231102879663 -0.008594579607503742 -0.09204536579454133 -0.11874463628652802 -0.031183111708387702 -0.14626263567552242 -0.10448443783786646 -0.0843927805858592 -0.003796767198531564 -0.1811367069362733 0.09122312030144808 0.06964695441466282 0.0922751811360545 -0.043221789426984764 0.045070973343284415 -0.12072457214197105 0.006684088451064088 0.06785438428775446 0.0022038492900664885 0.13624527083766033 -0.002719472744423843 0.13250671666955055 -0.22857650914468927 -0.08845561066486285 -0.11290685504787018 -0.010460373214150463 -0.010349099609369257 -0.15987729522579203 -0.07460743053484534 0.010772969834981164 0.005659122078927102 -0.013712032833478162 -0.1372855579939988 -0.014865042174367913 -0.24883224719929484 0.058396996051154074 0.2368183724814639 0.0271148452025982 -0.13839783487210003 0.10521318234769578 -0.12615402750261454 -0.08512033519058651 -0.02004634088548957 -0.26093377693312836 0.03535609001458699 -0.05237522283302311 0.017387898677407053 0.0015296289872793274 -0.15645379636239606 -0.011854742960274308 -0.05212512336220073 0.0047736460422703264 -0.028125274009607758 0.017278446395390477 -0.02142746713348222 -0.012979294879195937 -0.023133709563033625 0.06096657837263272 0.07551736751374839 -0.29290700386509705 0.06162857846154196 -0.054366710983104846 0.08348384557073814 0.08492490059149009 -0.011435980355367902 -0.0414125242084288 -0.07324578062945579 0.25586848759320163 0.05272751996049671 -0.10410705377678134 0.006749297035708383 0.057591381552415936 -0.057786739667806654 0.04504588472547897 0.10046230913289278 -0.02616939269561336 -0.025609603470583685 0.16186296183354 0.0978648543175736 0.05438100388405059 0.06687252802423516 0.09903967778681137 -0.11402526132863121 -0.024439250933501945 0.042459489456854016 -0.10567723142779029 0.03705647755520267 -0.04174687446027178 0.04602431227430836 0.18739594401988918 0.16207308166583081 0.03804435271674177 0.2367092552259324 -0.09067529850375457 0.028069401604404322 -0.10291199255923054 -0.016867992683664818 0.03648850920513397 -0.04897848295228223 -0.20098515279190476 -0.08370570228938529 0.2435681022901147 0.07093896456682514 0.11674933850683913 0.046649782633929465 -0.06032686794163059 0.03149646591607446 0.09195328606453436 -0.08524376711249222 0.1909844106351477 -0.09798614727517704 0.0535804604105343 -0.11902008738222007 -0.19301456861441488 -0.09252528199414058 -0.04255725614953703 -0.012118128678700919 0.20368275576924239 -0.21034378250049265 -0.08735201823023295 -0.04960328030666177 -0.0018419908953258434 0.07083150791193046 -0.014433056529272742 0.002630840747405163 -0.024148872780468837 0.08350780494878479 0.007804628305512391 -0.003479720323106983 -0.04701792430935871 0.18253404942005821 0.005178980901503847 -0.1451481294700588 -0.09449413101235377 0.08162044941812527 0.08215482881272963 -0.08871891433844187 -0.09026013394281483 0.09979350841164164 -0.16869421225170844 -0.16675950868293432 0.03736870832380273 0.09892976176769717 -0.015397934796886673 0.03549343535975938 -0.024896905449155196 0.062327441055409855 -0.030156456355043246 0.00844395177722303 -0.12363653967663352 0.1479994981913703 0.25281153361863085 -0.08635575507128425 0.15066898922757938 -0.12179841441125808 -0.03727555089157546 -0.0037275377553105016 0.22861869274319596 0.003929701347017493 -0.03342880205416185 -0.10866350842187858 0.04413343892668915 -0.10373857163533784 0.020720159869496314 -0.07818997182596425 -0.0873235056049171 0.12578877647852332 -0.017750283372810104 -0.1673977926805022 0.044037653610608754 0.05915951461098194 -0.1564050187841336 0.15562486843753096 0.09640228916976473 -0.005110848445080198 1.790249782577672e-05 -0.029429136561620058 0.037639423319798554 0.024372955789990058 0.12644099883669266 0.02447448610498134 -0.13278562781779568 0.15854685114344635 -0.07559270641488844 -0.046500001562249406 -0.09386380142809733 0.14823563089264324 -0.11623633526261398 0.023382773448404278 0.10481423706946232 0.195787481898327 -0.11723040724931906 -0.08027830687587598 0.07575125681505875 0.028878107958048273 0.014680465716680345 -0.06186357620276568 -0.09463901884733261 -0.025003116977658172 0.08673686234483752 0.09375195879118861 0.11520909840840834 -0.16932868930225292 0.007374493276635551 -0.018456440066267923 0.021450297222601885 -0.10208030641420059 0.05679536237009109 -0.00727922229230898 0.0174428451015243 -0.01788964978478789 0.2507912308553392 -0.0503463585591281 -0.03304568930476354 0.07065652827993757 0.09816310103918952 -0.05697182450090039 -0.027069101424633434 0.03590897541503732 0.07620934526240575 -0.14055687180213297 -0.05627383833237852 -0.062446177277597416 0.026584688312103127 0.06674401934397114 -0.13004353101912092 -0.02980604016631788 0.10305607639633821 0.06940557457012654 -0.12666813586644968 -0.04265753203925857 -0.07612954374198239 -0.07499935922914204 -0.041917237588258764 0.07048213794776363 0.08232925803221774 -0.13677569518169427 -0.016727466768596922 -0.015489996595544989 -0.2775624351120607 0.07505008982882014 -0.13931234528699343 -0.05205817282857981 -0.1327376361170937 -0.10893154396613262 -0.033128009465201363 0.13531647569077304 -0.05371166100323882 -0.04244549577961992 -0.04324233675479671 0.09013140439609742 0.07924237648808548 -0.008142533443296105 -0.08646026605456131 0.14148704496907544 -0.06641619991897649 -0.17049714970498292 -0.02085264085392861 0.024448146369400462 0.024649345333706295 -0.009664787315259714 -0.04456795479763053 -0.005880327715278002 -0.04410168168006794 0.033379143856290205 -0.1237917329601698 0.04725532300185818 -0.15262762473662272 0.11257296872751926 -0.10292171074810813 -0.09938156332923925 -0.07627905128336551 -0.11067947113375341 -0.06795395587360442 -0.10651793788474039 0.05637418759063393 -0.016098832706603766 -0.16926027910465216 0.07247794855224567 0.05758760261322315 0.07342018715896424 0.229969790933356 0.20593963991808836 0.1544334215309801 0.11746399689180385 -0.018147450667253356 -0.02683005485230431 -0.015737324246298468 -0.08360142868086733 -0.06867426694252392 0.07212319459744007 0.09568851275388046 0.20529928617276866 -0.05851038502568993 0.03460924281328385 0.08782150755072234 -0.01700716912181719 0.04342158306255095 0.05790251400885285 -0.0031263832564615945 0.0025165175403577935 -0.053516520734759106 -0.17830400215589431 0.11782491526588845 0.09138223256706053 -0.12806021540917759 0.08362043228847585 0.03953461189097854 0.00870391780569219 -0.17694030011960576 0.05157675748957499 0.05451292524955289 -0.17001164063796217 0.0010385788424586387 0.07800151087312261 0.19646706970780628 0.12479015790244405 0.052820978616125246 -0.008061969289825985 -0.09585308581659516 -0.1439800059068398 -0.05688010449526504 0.06875110847470794 -0.06694003050652972 -0.06668828359332571 0.03562488985789146 -0.00955174063470569 -0.0048150723564949925 -0.016160801165363517 -0.024033034483616714 -0.026653104741225137 0.06365254502813435 -0.13524964756131308 0.03558388700586776 -0.07309571395210566 0.14254040041883376 -0.12832638586244818 0.16476170894528977 -0.009432684744792762 0.04777930729685281 0.1091618641857515 0.019223492367829068 -0.13090489235200226 0.13417676554168184 0.08830339040867133 -0.0002052339988705412 -0.10888305002181278 0.08943886058519059 -0.11056147939541362 0.08303005116087292 0.08801315856382892 0.012702089728891931 0.04740487160953494 0.17081625077689863 0.025767470461837073 -0.06591881363584048 -0.09117513164738933 0.05953625279561067 0.03897581194350428 0.23686353551825637 0.04777288143387956 0.08500416998923828 0.10544129542166754 0.026436926596755457 0.10358353163369224 -0.08983275999482684 0.09750891424907035 -0.04363954913245469 0.05361931668461142 0.07199196410368999 0.038841044057520945 0.13788246661640516 -0.15278314347324767 -0.15403332965919775 0.11615417235420616 0.0016568962540859584 0.08345076961967461 0.013677746894432208 0.04597922682177012 -0.02744511195372162 -0.018206281040606818 0.0683743469773642 0.2094724803503243 -0.04908198532390782 0.129797516671521 -0.02473431279408645 0.1513121981192259 -0.09277480433714978 0.14596031805088405 0.044484071824181834 0.047223671654055444 -0.07833202681590658 -0.10243817234591518 0.14619740965112224 -0.10420894276380825 -0.0763075116869906 0.04813156948006796 -0.1655391756546837 0.16277508596408488 0.012576140799657189 -0.13738282949159772 -0.1348271139865027 -0.15829485159241485 0.12700758466798093 -0.02818356955294607 -0.011441479553043721 0.19354145901406372 -0.02113940985580989 -0.0038884595694811913 -0.004844453031328307 -0.07869307881820689 0.030138328502640307 0.013821670341856563 -0.1682581281352253 -0.04650934938480808 0.06509810297624725 0.12666663599611067 0.06621304870849633 0.2501231122453213 -0.023902917533772296 -0.023116294226018 0.04357080677829093 -0.0022403017901494685 0.22559526233551247 -0.08916887751710462 -0.007553278690320747 -0.23856130302190665 0.04771424650512292 -0.10608357122313197 -0.05357160432355925 0.039232951891369244 0.015308190148069462 0.026961805956653054 -0.029021275657342763 -0.1139674668025082 -0.047184768979003186 0.002774864117951042 0.24482934599098224 -0.129504920192226 -0.161053445550107 0.06298461646915429 0.012319772311757293 -0.05080152645160268 -0.044701604740474736 -0.11012996316321602 -0.1580800429179981 0.10599740891537415 0.04395477008839401 -0.053914002396475764 0.08939323534500526 -0.15661491597793611 0.053228385964381834 0.04830693963546534 -0.10690227664280115 0.18606042813018062 0.11401913971389234 -0.06666460539315687 0.010402033574611681 0.10650433654600541 0.20262355741161772 -0.04991476217937034 0.06443466671646428 0.09681367453259344 0.11874539422212894 -0.001068725058226066 0.06899831066109922 0.0603809286422162 -0.03357148487236839 -0.04588966790874377 -0.033598476983662515 -0.0786532088638698 0.19325842783936603 0.005832366396170891 0.14155835528954225 -0.02618295771234595 -0.2153352310091336 0.02598425537908055 -0.04307200321553379 -0.0008314878974684349 -0.008809968263854792 0.05505285519184072 -0.06601127566203424 0.0819849202652268 0.10057913667771182 0.0628165232408279 0.02667162408862994 0.01893184626224969 -0.06885032011513925 0.08718867885942076 -0.0880977708939569 0.04157140212442989 -0.13112228123708414 -0.05762894788097232 -0.0067766280786912166 -0.1074221263358726 0.03381245548175514 -0.059813911208423096 0.03791239696554508 -0.028297592373836607 0.04068902623006126 -0.07921817717172645 0.026370112988323872 0.11381373148115993 -0.0510776453918269 -0.11980488304634379 -0.008393024539056751 -0.03278869566100999 -0.10989534522356027 0.09319372129855544 0.09332554997821596 0.16387779834478072 -0.04181385399848883 0.15939819589908688 -0.04979555180605173 -0.006091128731191504 0.0719517649535803 0.15599167802334357 -0.12073548002430039 0.005142141277163373 -0.07187023365393362 0.04365498079359219 -0.030647924843252655 -0.06030953577952607 0.022626249189372522 -0.08737797622693076 0.041792948956158094 -0.008672765236075755 0.0953353058223217 0.09826589946957723 -0.0909826408703107 0.10226320419699955 0.007450624327294849 -0.048258951806536846 -0.081460038544926 -0.01596681270768187 -0.10311176568842112 -0.07676595245978057 0.015988843704824958 0.07612241279400521 -0.018652562654828765 -0.12374209972405839 0.023338073811804725 0.12577030782067186 -0.1016387984333256 0.06836118678004084 0.019577590186829034 0.13132514464969014 -0.13719084161923378 0.16466029607659466 -0.02294494042265291 0.1355430192999631 -0.0030385722305793176 0.011068542871928256 0.20515954924032462 -0.0006714916944726613 0.04718518865798126 -0.1854878434980367 0.06176770151729996 0.12118249189420281 0.09657760118609841 -0.0464730942811081 -0.23604631629528566 0.07580966287799146 -0.12185346252847576 0.25955261652099043 -0.046579366550073005 0.0612746847638787 0.11034687764972873 -0.007746396179578408 0.01723953475241116 -0.02404864001125477 -0.0652053802843248 0.07780377891056084 0.06684297362194522 -0.011837128366371909 -0.1008213455050087 0.10062648301750185 0.03037341178972777 -0.14274611025768522 0.040156125732666026 -0.012777168920403318 -0.052121454103198205 0.1749178332358188 0.09611291368432726 0.04567889716667565 -0.2575988899122623 0.1467282782104717 -0.09028416560584146 0.06120467075902936 0.014581088639485519 -0.15194341388901608 -0.2189598467625767 0.023559687080626942 0.0404208100988187 0.06665916838968286 0.12398149138554036 0.1976799346148792 0.03960927110553955 0.022740145712527693 -0.02375508018428907 0.0872941555081374 0.0034205858048487288 0.18679262122957635 0.03518713072801095 0.061205681907095175 -0.014118392175270581 -0.0030156248620501064 -0.035087720464031 -0.04268832210881055 -0.016938577184818674 -0.028155948852938553 -0.13524821856372837 0.04840333394024931 -0.06014729919832032 -0.060075007497397324 -0.1477887965078141 -0.05984501006308731 0.14372517655445288 0.050707822810958675 -0.17970782614744674 0.014905774644524469 -0.012235371158195493 -0.033745066200953376 -0.1870676060113207 -0.10864304158315918 0.048009438142268566 0.02254962799319572 0.10934773760792851 -0.22001486378386217 -0.10344369457395013 -0.12321626924920653 -0.1956053817284745 0.06076629979270447 -0.06268549668211572 -0.061862327618049336 -0.3100470734268453 -0.008594501000842946 -0.20581356174678814 -0.06132219236895716 -0.07901410139540617 -0.0549040401464541 0.06180735807249593 0.07388271187595268 0.08463225118406756 0.008962769648966333 -0.05148179713738211 0.055199652790692916 0.08817554983202872 -0.026520598047041027 0.2809651698891608 0.04815951202523234 0.04947021759337228 0.004401161645291568 -0.06682757340023694 0.0012331272393075283 -0.044742634220327336 -0.0047736245555501785 0.06377606490370824 -0.016979646358426824 -0.14944393166325529 -0.022277820420519158 -0.07804062819931464 -0.03749995847815947 0.12421398291179625 -0.0074921746293508396 0.0597931293308759 0.13798727431477215 -0.1816021538396144 0.07665896857759005 -0.08962347120731744 0.16752695515508456 -0.1373587230845006 0.044471568563000406 0.036886479526197946 0.0072229976998278945 0.04007584185718593 -0.02314718098453125 0.0070161145735664066 -0.09067651662983336 -0.04218988040459259 0.007581479675354049 0.06737556046640557 0.2199020779851833 -0.07423816681599217 -0.07765628936294772 0.027740108462497484 -0.024409174549285307 0.12348024489041456 -0.0948570337930853 -0.05887054638033948 -0.1124319132675598 -0.19914380224097875 -0.05339263607455409 0.2553923716338149 0.018904696720827223 -0.0015969485483753514 -0.19619931498629667 -0.15430082719681582 -0.16001245822240265 -0.06927285570517991 0.0857105096132728 -0.023673686182960372 -0.03906963314935247 0.024253712916092334 0.007047643494007031 -0.1406468526706294 0.0469255574495271 0.19493436910119963 -0.058135730641523484 -0.022380796431861395 0.01499448073331478 0.1622336179578862 0.12988226931258595 0.11592787736109146 -0.18504067537386815 -0.037770514306089784 -0.07179913255847119 -0.0620963372284602 0.09287974173889477 0.04996181370728489 0.1306349245379575 0.15041026856278586 0.20311255710578607 -0.00881597675274922 0.0029129375323548768 0.024370476930916037 -0.05144104238427319 0.006370915186960154 0.004482532482932952 0.008134179773035828 0.2312890657776163 0.058908414764736086 0.12027686220227278 0.024625239513193332 0.13686549812059975 -0.09632432819878503 0.072586267659256 -0.09118210235723484 -0.06414797442016854 0.03247632536320009 0.08877439524275221 -0.12108719021098056 -0.08794255463718224 -0.10010304060253483 -0.11341366118648107 0.0814234560224069 -0.015291043394395187 -0.14406323939427862 0.039211111372291205 -0.2239347239128513 -0.02925507913453733 0.017642181811418557 0.07666554121059353 -0.16253300881315025 0.10070163569989089 0.16591098838926754 -0.01933684008506052 0.015155470894496892 0.12486767865567819 0.19433464379074533 0.056999995086875595 -0.03543442230730531 -0.0036322724065456454 0.05115781806066216 -0.12501561909975478 0.030487833948837865 -0.00449280438784648 0.01215973403505814 -0.11946519215289023 -0.21376247812083948 0.17807097711231876 -0.02469577613166327 -0.023634585425750424 -0.016217664675292308 0.04326666653736913 -0.05912933078704119 0.07598186432791844 -0.020882436549767444 -0.06902890652796094 0.03212526989359888 -0.08879492302867922 0.03633034584175641 0.021187931761369398 0.058275377374847316 0.2567141150125273 0.11488650954628922 0.050392536599220564 -0.08858557485251543 -0.02966923982348263 0.00036702981518219643 0.06347716966570087 -0.23858336772274047 0.015123382009505913 0.015682963199889738 0.06781873878881664 0.14711291054090805 0.020662972096032028 -0.048761381640171866 0.15603878736065227 0.037648161516429586 -0.09217431394987008 0.04451518280758313 -0.07592048314020866 -0.08524727174553637 0.002794367507701225 0.09692352280458091 -0.12556823004564815 -0.01831480956155895 0.011980990925163821 0.06051396295719609 0.07481993116874072 -0.17199165715976059 -0.03349816025611304 0.002520973881418697 -0.06859170434750922 0.11564288644409515 -0.15133541286001856 0.029970087924678777 0.07582724755541942 0.18420506601923153 0.07612864344340334 -0.12085889526813653 0.06335504031600628 0.05861403828259078 -0.08328330483652947 0.23133712323288036 -0.07170092290806594 0.009736872623111204 -0.000761370425260424 0.02409415771350411 0.08471139097044057 -0.14139264864362971 0.029671006072301307 0.12424541717113795 0.08059196725433805 0.022761406922020888 0.10627563649284373 -0.0677618191766239 -0.07633812078851941 0.14265907230023356 0.1074570629671966 0.0015249102906346363 0.0373006977864499 0.10562384872168072 0.04051087881131521 0.1274730963314485 -0.1180138955874467 -0.19794661156463245 -0.10231476121974982 -0.05922893540631688 0.05564508681808157 0.04167072663153952 0.010153969973173247 -0.09081873355927518 0.03757527886140264 0.0845237956063225 0.07155914618542307 -0.011220846603020772 -0.0879113810595627 0.07848682986873698 0.03774712626124522 -0.046688205591342895 -0.07119633855534682 0.0525149222704055 0.025845893158786364 0.04701612296050725 -0.06402291973658203 -0.01741000591393047 0.1986647942795476 0.007300310183865866 0.216016804775714 0.16591582591995435 0.06813984628257548 -0.06518301546187104 0.0239979220340949 0.011554346657356664 -0.004048748965107478 -0.030075443743825966 0.04570004734132211 -0.010767140903953493 0.09505007892387658 0.0890910649762602 0.11421976966811273 -0.12587119647408457 -0.012986051019400745 -0.07762607536729738 -0.08191271096940142 0.2500948686223619 -0.052229238758603684 -0.09261019720471286 0.11641490136862294 -0.04040354173815242 -0.29841248061995285 0.062242065865946584 -0.07628039887667985 -0.12833181724299217 0.10815179746432554 0.08793366233554309 -0.016846964998719773 0.012490011095847457 -0.06057062718740611 0.06368105058359116 -0.12308770126935388 -0.01855652409919363 0.04376646913027578 -0.2052735741935526 0.10543726261765514 0.05988341839178834 -0.018387669199282503 -0.1170322344847568 -0.16298586249047747 -0.05462522973532386 -0.08626898512546215 -0.09179910640232976 -0.043964364320316356 -0.1195862673276642 -0.04487982867823579 -0.018379641634563206 0.06135048443993924 0.018505509085380033 -0.04124316055096576 -0.16044257834003098 -0.13741915409157993 0.018259584703143514 -0.05701929216762565 -0.09787334512940445 -0.09410569928820144 -0.04506734106564234 0.13095755333706355 -0.019076924431792493 0.13836498249512857 -0.05985116993289885 0.03512263681012858 -0.12173298268957475 0.12847306770576125 -0.1740233761601407 -0.08647289813252002 -0.16674640801910923 0.0911332635136039 -0.32284457576188913 -0.12944222591742632 -0.0560012146030025 0.07006045981687105 0.007033253061232305 0.050301526941560225 0.005792086805257963 -0.11678305078673988 -0.029138848220335464 -0.06310322003439271 0.012852944413112938 -0.07128397714440733 -0.002790002525922611 0.14156464487536888 0.1690943823428442 -0.021992925194265014 0.14937348245817947 0.014039934571846508 0.03982026502936275 0.07146360809884347 0.2190090228954781 -0.00034093499942398035 0.011467374744610037 0.028845436150777788 -0.11731849017972706 -0.05275133783708779 0.07777172647392523 0.02675137910113589 0.04644725732195589 -0.16087341601704425 -0.11930209086498567 0.130239832460598 0.018926256796758228 0.1508376314699159 -0.07699645913524912 -0.03822814317719818 0.20113727538619908 0.04039364675245386 0.0013082147364155332 -0.10954382998994364 0.02438498921192693 -0.001785241540828131 -0.07633908578349306 0.038375290999593456 0.15134833907977932 0.29445169838647106 0.1321601785087293 -0.014742207354473217 0.059374433582766936 -0.020069405260674165 -0.24939368785276694 