0.06508548944112749 -0.047370599391624565 0.045770091674162634 -0.09472846166657306 -0.11580026629736864 -0.06153674254178341 -0.005770785755328511 0.050405473137660486 0.04551299560983746 -0.0009525499547106026 -0.13828243856444544 -0.11981653400950865 0.04102801552402395 -0.1180434848357042 0.11553669498707797 -0.003421957160175317 0.06004980513631918 -0.21897142739508513 0.16579994900164896 0.16714532005800964 -0.004718550333930094 -0.1437127180378027 0.20460120634657117 -0.16197081831605764 -0.11684181540024381 0.21449797068414408 -0.022778613857671673 0.1579769633075387 0.011962485259286547 -0.20702538543712667 -0.04207694099849601 0.041874550338720166 0.012309735320160713 0.044784749706879956 -0.07910404188909774 0.03369880335545878 -0.04816217067234352 0.12111372077002863 0.15795043942970546 0.11596234812474844 0.041795862405372856 -0.0207548790775911 0.003692422223758963 -0.19512958213773657 -0.1442635557165575 -0.03447238196388419 -0.034815698045887876 0.04155839268486275 0.05320895208122567 -0.14531716941638567 -0.12437720518465761 0.0024021316089230544 -0.02794579589225671 0.11721858002474261 0.11394663023367853 0.050804809153844 -0.08261028710696887 0.11622454971106395 0.10369758707686896 -0.058526324861181526 -0.092780698559252 -0.18500611336343298 0.062160214504614036 0.040132639523547904 0.12292424672431267 0.06028730957398069 0.13297089609255547 0.00591799572620384 -0.09091395277155619 -0.2724873665206232 0.09741196947124157 -0.1248015529666505 -0.091091976454988 -0.034935342165233994 0.033282808995056895 0.034839140315319574 -0.007769401742555294 -0.20034992585578087 -0.17774372921087814 -0.07631327045084103 -0.004048158592796917 -0.0732121800196805 0.0730128360636073 0.1428080824413019 -0.022034160143935343 0.051343201706756006 -0.023230956567772566 -0.006298800955567778 0.029232158415274365 -0.03732420144769986 -0.022078681674389755 0.08271757568377144 -0.06889757847659841 -0.012919315368695564 0.08700059151114241 0.05459466286128443 -0.06583169988100589 0.01700012356101002 0.058190964186272065 -0.06266001649608116 -0.035203928386025096 -0.0008383222542819876 0.012107477989781984 -0.08699286242136639 0.004850727524047225 0.17843444536370917 -0.06364060576565941 -0.05648994616599769 -0.06615674832499698 0.08207299209937352 0.07041493890086098 -0.10896488127928038 -0.09692869231629028 -0.03432656961321306 0.04969566320604941 -0.1575167953524126 -0.1864429049307282 0.004010844736258008 -0.034832349147171114 -0.11004393964820854 -0.012241325936584127 -0.1127662829888318 0.058209367420226234 -0.06428114178603539 -0.013554466268116606 0.03129598604395812 0.05740621425522583 0.0859077620577022 -0.03744206004033368 -0.16495428126735776 0.07529445309730758 0.09860692538188527 -0.04375949029641143 -0.09020095444646575 0.1487222068208717 -0.18004320671278085 -0.1867092828799405 -0.05323271033934083 -0.00881787630949839 0.007898174492487805 -0.061125065000556214 -0.07560147244753773 -0.08595271622948308 0.006257270794692464 0.12498903267139219 0.09793422805057937 -0.20587569821061502 -0.011374252135417474 -0.07699882033375449 -0.004772317112391326 0.019515455725896268 0.08628516603902026 0.04287900069705444 -0.039633407502666584 -0.06483168793772662 0.072880893830149 -0.05639011013728791 0.08596332464589185 0.09174167901788194 -0.030909513594641322 0.02532073113658383 0.04397720120501571 -0.15181324413465844 -0.14132495895066952 -0.0013066831633450169 -0.009261209325037717 -0.015055368292613645 0.06645636562545168 -0.16246197382376826 0.08183270754501587 -0.04240736960959586 0.012283413683933273 -0.022559055030483405 -0.07283551387806524 0.021143720469183436 0.04238350397248237 0.041940970048746355 -0.047731024803523 -0.15673428763856023 -0.004722720847648228 0.05205385362873584 0.11766251968592419 0.0030998947790043013 0.13944609779388717 -0.015040110440841853 -0.035984554073475714 -0.03959354757337742 0.1902406611362496 -0.007086374044231303 0.10186054100714806 -0.1340470039096273 0.017631325711153247 0.05255476483897349 0.10649912143421687 0.05562731883333492 -0.06372212159480903 -0.11128240172013143 -0.01510985129221277 -0.05501300345100149 0.027784421875761956 -0.0638450805276187 0.043877550504671715 0.2455085812975334 0.07801214643261903 0.03764726519739042 0.07481829432992244 0.029716063789888048 -0.07438710428765143 0.03999983171000662 0.006002813326962263 0.12785390505268038 0.04492090191511042 0.06002447838063568 0.11862318726285022 0.040089654800294534 -0.10893371048028944 0.013536932088335377 -0.004142578383471825 0.06003754898861141 -0.03617928663975946 0.06199200091373019 0.025892260850229366 -0.020472804799575715 0.011422417747430557 0.015432180983194597 0.04012743250188746 0.08357599178245935 -0.07769648120579933 0.15073946245339412 0.1466428980865248 -0.08628860545105971 -0.06875714469623906 -0.01726470807065924 -0.0807708836990536 0.1557182701567308 0.15826369644951144 -0.09923222431575891 0.023407657576746406 -0.001394357709525907 -0.0020915111976362757 0.13077981896405583 -0.011688775570315361 0.10766841484914212 0.05647426344123019 -0.08304936933146212 -0.07763763671614309 0.047842415425202456 -0.05954127847490755 -0.20333630847362857 0.04399616361539729 0.13247359716974272 -0.10874593783204256 0.07409323343104453 -0.0433265256372825 -0.018523464485855273 -0.14112565500657018 0.053330053348829336 0.08063525853145859 -0.015027178121395127 -0.031762497925476786 0.01959074982483803 0.008722525977395004 0.0006434379055031394 -0.09587343837382466 0.014083858622992183 0.06797543061947105 -0.03443688595313226 -0.01169095885053644 -0.13793257007050339 0.06761387571162855 0.06390848176326802 0.07111528368786939 0.022447960236579953 0.01530624051559813 0.009542976712216763 0.10942966973036494 0.14157218526324802 0.09426642018077969 0.0840596545071326 0.08197684645501674 0.2051032569586349 -0.026797125960848885 -0.01907812034842745 -0.08761793708686798 0.12104041175102165 -0.1037800745928676 -0.025491038295723457 0.09174822023966646 0.021878174646156556 -0.016537783593329698 -0.12636468314130875 -0.04668329902663307 -0.009639997985875523 -0.049963259122219154 0.060626486433725216 0.06307463240213 -0.12303193236358481 0.046101683673475086 0.09699613215076897 0.00599834877246473 -0.06789576200523788 0.09881879915443062 0.09932494040191082 0.1818707434376189 0.013364190225138054 -0.02729008359324736 0.05979767165198784 0.030402249015976674 0.16666000027053193 0.07540632376672819 0.0016978711186510188 -0.0005148432313782322 0.052080957078987924 -0.03789962770990121 -0.16445676673178322 -0.09143179163150905 -0.01612534391898182 0.025240012383155437 -0.008493770232549555 -0.12323461408969867 0.22953741227259128 -0.09287163649196156 -0.023927574520083327 -0.02908900206086808 0.019805437483635058 -0.12790043721368155 -0.0895558169717387 -0.055754835534735994 -0.03297485466316157 -0.2187339121039541 -0.048168025023808965 0.045223550062853904 -0.03187996186086755 0.006387927273800011 -0.07994248139129419 0.03589792838688891 0.07657248342280079 -0.053349937174851925 0.10706848964260188 0.04374377062985258 -0.0007067592660492526 -0.06775330307447401 -0.061080688770135505 -0.04403976298005316 0.16488671048471756 -0.1797872063465863 -0.14027342733638692 0.06418753884596994 0.06362620484813943 0.10368733417403127 0.1276842189847514 0.23287025458714267 -0.05008285744640432 0.24034289151763974 0.06284887074941868 0.05362077426161101 -0.018703559894539225 0.033655568819599364 0.17339975407816194 -0.004589859423302512 0.10970278317528687 0.013737066588680503 0.20171809923606127 0.11897186256908761 0.008921679301352027 -0.006121714636299269 0.067210318885955 -0.02362220515967926 -0.04091743573320747 -0.09584099610301094 0.018219947949378732 0.0361673697462985 0.12372152225618499 0.06595612723232051 0.03630554849734443 0.007271578345077117 -0.19309181676392362 -0.1882721055908676 0.0034537495103086424 0.2383005147184888 -0.013636270681526752 -0.06755863063004386 -0.06629432509598616 0.024807047635283005 -0.134524539568574 -0.20403982456680422 0.08015632337276608 -0.1484210146513257 -0.13407031246972656 -0.0660377842476812 -0.1505312642877623 0.23190246502726009 -0.094724900071325 0.0002142659845512585 -0.1323866827345552 0.018541065954178683 -0.002248734937570537 0.07796975841763075 0.0035963359983157365 -0.0028989068171012215 0.11770414769134648 0.05337579169657341 0.16170398521290166 -0.009357428502228118 -0.15767949943547133 0.10334729668166649 -0.10490011560180966 -0.14512014404854676 0.03489386704548191 -0.007874874435808548 -0.10006257254567641 -0.023179342107499435 0.09476379155847903 0.04582417509502721 0.1591611310739779 0.03360832348020359 0.04840447027831257 0.15101122123185393 0.05231104826406951 0.16216414398966164 0.05707626410571305 0.0019358758702346978 0.06579204320349555 -0.12824862261986822 0.1518299761575977 -0.035225327772256 0.011051883465971087 -0.13727937695500567 0.09552179652753774 0.22571020596363867 0.010804570840177826 0.024352042909936474 0.06303918462749157 -0.08325855255281225 0.07459602272979685 0.03327040775415405 0.08994931017837532 -0.1769578407061954 -0.0324900850823651 0.16143517115260506 -0.19133595297696435 -0.010664433652102063 -0.0767579737602816 0.18877448761811044 -0.010589458603069195 -0.05787123958188474 0.0032609970956208865 -0.05698092463468882 0.0778687929361343 0.08591395598629217 -0.10050581227888614 -0.03902500620612568 0.12675369185039617 0.11753979925708005 0.014300756546081034 0.054506554523468156 0.05709743233230642 0.07570351034442623 0.028416831105259485 -0.07897418366605861 -0.024661561190952076 -0.05094406728646089 -0.11972719965713896 0.016868495231253926 -0.12117425672895939 0.021912602522507815 -0.1104046865279446 0.04152630197071458 0.0016492107362552245 0.261667700911531 -0.0750335436563875 0.012805147199576865 0.0813658082005106 0.10776010619796955 -0.10381996289829767 -0.06589542837929682 -0.05507268041479873 0.10561202992621882 0.03910509715414118 -0.03594726113773959 -0.14887951098929939 -0.08884176366155412 -0.2938456597188881 -0.24541152408714614 0.07036140775574012 0.13789084031494764 0.07646147406921862 0.0796147950008168 -0.1433047405704237 0.08911859949384376 -0.14301377916098176 -0.15264983877651403 -0.07953852346583656 -0.1860478015025927 0.24121593135519637 -0.13601822138063216 -0.0810761506285478 0.007104890822482471 0.05027125005111164 0.034088258742748685 0.04297208203942219 0.050960849493059804 0.08066541260104215 0.0503363093631734 -0.018577081473481836 -0.10763957160967462 0.06200642211087344 0.016675682246432937 -0.15856062012645267 -0.02215457419896355 -0.1582431237781475 -0.1049800172704079 -0.06845447622861495 -0.052355515187820806 0.035789639324067334 0.08406661589331829 0.3398846199136718 -0.05032878604781184 -0.09489459799479502 -0.03282624280533975 0.05434422350849203 0.011584504870593594 -0.12789061009810795 -0.06902472060227541 0.009203410474048936 0.16202657772453113 -0.07044375377416373 0.1029069030982937 0.08002765634823725 -0.16588491885680418 -0.2512517364414914 0.1542016292869821 0.07477267080431237 -0.00030611663401676617 -0.08733617581133861 0.02657623673534311 0.035286194237614615 0.016028804298785036 0.09070692791519291 -0.04891588259197464 -0.020830125838024016 0.07059873820959221 -0.05110740307898565 -0.09077552461221017 0.013547297803336883 0.12575683226854714 -0.04239332405355649 -0.14348177377416232 -0.06507035774718029 -0.11933160903663993 -0.14009113609591967 -0.04523654802438089 0.0479994940723287 0.0424019888478989 -0.0040873022508029315 0.16498098952471196 0.010736723599507073 -0.12752518066989513 0.07008439478787278 -0.18308149373867366 -0.032544018941289166 0.0859696080974147 -0.13524129398246068 0.2453497836052995 -0.045984385802600704 0.09771920952901551 0.08485705544030317 0.20195099067388075 -0.0013262772912915107 -0.12567063411649895 -0.11815625720149206 -0.1927492552453716 0.022278479543534332 -0.16182225606587064 -0.010871367071168508 0.1384642924360974 -0.07581587158962877 -0.010194431473977776 -0.19534562476859785 -0.17357109742042137 -0.09863461449465342 -0.009991188476166889 -0.19034773479056466 -0.00648853116022364 0.043026524581972814 -0.0761068516565784 -0.039575925968503435 -0.18310466634429343 0.003388748378548155 0.15105279040820063 -0.029536127821755742 -0.05914849187956799 -0.09850896056822697 0.05819355897687574 -0.13693811141530646 -0.039264874454486294 0.034232357719322544 0.07099087884377595 0.04435335082409675 0.006028523318699268 0.14883916285394577 0.14534762065232862 -0.16720988064581424 0.10048847804675368 5.601446149982906e-05 0.02759255000398447 0.020722835403870446 -0.1441603984724752 -0.13788219318538683 -0.1249766752775058 -0.022230274429685806 -0.11341399346267472 -0.10323314922579706 0.09007560860319144 0.11192694781977781 -0.07194994783305085 0.05529802882970956 0.06531877758772621 -0.10430155923348833 0.10032039183193323 0.01438070386479696 -0.04030581655477202 0.12200356751307394 0.034275900366746805 0.08660954597490977 -0.023071302874779626 0.09989926897047197 -0.07787600786499488 -0.13076904922469398 -0.01681773854151736 -0.08359168547850485 -0.29959415904080805 -0.11023128725575584 -0.215999266338426 -0.09918352725906965 -0.06711993329785798 0.2218868428929715 -0.08118745093660275 -0.22314903569255315 -0.02610882656670087 0.0996520960041731 -0.12029341980257387 -0.03556082809748891 0.16861970230737988 0.07626172913557613 0.1095175342914294 -0.09581708703059628 0.05608012600042705 -0.012418567827094697 -0.018963590666923588 -0.14579281214197914 -0.003920128959328916 -0.1519475187884608 -0.17303262588261772 0.03679595655412809 -0.08262400110591703 0.24761249038259284 0.05312474960767245 0.059400131377509935 -0.07736581117225338 -0.05593303738632802 -0.1122449780895386 -0.10062917846937308 -0.015715513203532965 0.10067810286525414 0.028995247914205526 0.10712781286101261 0.08058501616869611 0.020201329182231272 0.0014776394972428432 0.009121113111866405 0.053648806556300714 -0.025959063818309272 0.10970704301155608 0.006621476189103182 0.016188159072971296 -0.006493048626976173 0.11040960046982347 0.14863125861320636 0.08768254510677001 0.029691113673201243 -0.04678130711228296 -0.1502348294180632 0.09315965349119382 -0.12371014332823227 0.017669769883867165 0.02548556235075728 -0.018354942765753387 -0.07428555918310413 0.04931962674374352 -0.00582988981219616 0.05064760143692132 0.11475302290323977 0.02429417537576874 -0.16481205452249703 0.010471529998127234 -0.014184349777369458 -0.06216537730870297 0.11118604897604363 -0.13765283310160195 0.13020691799055437 0.055675745143449196 0.2260256304740759 -0.07284298378073616 0.027153729280135527 -0.03752563526964767 -0.09326650759837304 -0.04713999103656027 -0.2269043533051273 -0.10711144000662819 -0.14241008690071397 -0.008231493719640949 0.16549292829082152 0.03219004992958074 -0.005703902636225212 0.054038004256817054 -0.11129691018156884 -0.08957864298071015 -0.008543023781719557 0.04697360031540788 -0.012138428581735451 -0.06886806654867104 0.01614103607751951 -0.09963521188352066 0.04433227560924072 0.08916581555515468 0.047261128621383215 -0.1336204022469557 -0.15555371518619449 0.13039788443979655 -0.0015609466192472207 0.07473004012696131 0.10473519757418058 0.09132222053388478 -0.019050787356188148 0.013193309999325782 0.029807366812917804 0.054354800928811814 -0.10189493113377096 -0.003916100296387086 -0.04173749079161686 -0.028361096961065004 0.08450456225337336 0.031269920173447 0.1905678502524365 0.1158084008728151 0.03542803470236504 0.05945664402601711 -0.2464650407572564 -0.11238105765479289 -0.0006022503546152842 0.1663506804207881 0.11052476426759483 -0.0898866047235219 -0.13742387550540375 -0.14480655902495318 -0.15147523285254702 0.1371583401311458 0.12316764883661063 0.05360886204726657 -0.03592091641708314 0.05227341281961241 -0.12433352369638061 -0.018216285822490016 -0.02419511049882809 -0.040618650791931915 -0.0012369171407697246 -0.07202159074679475 0.07687858263696257 -0.005365112428141542 -0.009681802144869064 0.04899159588314782 -0.12974274273305964 -0.03385426432143618 0.04478839520916355 0.04454844051674145 -0.01725501276293892 0.025900500937892024 0.1564020223820174 -0.031866380103770714 0.06845090747583202 -0.14729788449844264 -0.007919944315956535 0.17076819142924665
0.018616882078638868 0.015329184186745186 -0.008089943281064367 -0.005842517493098727 -0.007145483343928183 -0.02369088696052265 -0.0037272905851392806 -0.01266571416777199 0.005413940538180094 0.011842588344638147 -0.016296029150265304 -0.0007722571248216989 -0.014660992446914552 0.007611440861178064 0.012908965687397602 -0.0015590636889622415 0.0014771208335430902 -0.0039054348381343303 0.00015820923503165443 0.01884263126879755 0.011380729654612485 -0.006711233381455219 0.011493448313061799 0.020323549433871192 0.008586570168144313 0.0046123563881917615 -0.0018362290111858205 -0.0029668062182813893 0.008394833177679929 -0.014216714856607238 0.001174743707341836 -0.002637086973190864 0.004240241469446444 -0.014567204775324973 -0.010935688122340666 0.009920480786908683 0.0037285748762769543 0.006160827796915357 0.0094947822551554 0.0018752973949367872 0.0036733910258648335 -0.020274388446941124 -0.002889860906409249 -0.005853551523775675 0.00687463642466441 0.012718181746344653 0.006829619340941326 0.005894976234897695 0.0033612391292764518 -0.002809616401029314 0.010888848865801192 -0.010792233767976882 -0.017892288371731735 -0.0049472992177062945 -0.01209333006225456 -0.002875928283647847 0.003934822223369801 -0.006065784875992545 -0.013314919453820781 0.01232548964417499 0.002326964038204983 -0.007867274055874937 -0.004398231804308648 -0.015626827706066507 0.004091432770204687 0.0015412277163989628 -0.0049758148722860674 -0.01897873289933549 -0.0009270456042275587 0.01242117835386348 0.004905395760037285 -0.006294064793468008 -0.005949065503183799 -0.007956914181036725 -0.0008518971061675957 0.006279133325784866 -0.009020253124003577 -0.0013833693694723993 0.0059187720391909076 -0.005959080214863613 0.008037096193124803 -0.008977096290289198 -0.01033016530034673 0.01779615676656915 0.00423522816417869 -0.0031733320624920723 -0.00267191050320721 -0.0021485838872387334 -0.016113069621583487 -0.01972120428960898 -0.00537792289692148 0.0011118714202949704 -0.00143235717322148 -0.009852129179594967 0.013873199531693225 0.0018739119798384816 -0.013080438927023983 0.0017920740603132657 0.013884343301054362 0.002631046719230184 -0.007448462031387269 -0.014396805406463795 0.003311477280632855 0.006069959926446703 0.01886432638326578 -0.011081252930484798 -0.0024321486447041853 0.010476142880782262 -0.003323195332729038 0.007935257906689187 -0.008866246245341098 0.023509789214391247 0.015899203359010947 -0.0003534267911051875 -0.006391392399126287 0.003106377067035523 -0.009677770753711745 -0.0036243512802388808 -0.0029910117622365426 -0.015181419104693695 0.002526267842057996 -0.0017503253205837883 0.0086911446527035 0.0028707842518245793 0.004476311082967317 -0.0028027263786125616 -0.009944775830929687 -0.011645887836140916 -0.010558322341364348 0.0014174440742544428 -0.01289602481761438 0.012662965065870087 -0.0074538565871721165 0.003473221282481874 0.006088665156260062 0.0016460707341438303 0.002735028370158918 0.0001148460549582858 -0.001480649950468068 -0.017669971512113487 0.01183211287757206 0.0039859931765033425 0.015044689138035632 0.012275163251693227 -0.00016598574500217893 0.0031890148442775697 -0.007982702861140875 0.009867042561516616 0.000766964898538566 -0.009397543482852109 0.017461374337735782 0.011194437738975889 -0.0017230679043817867 0.020541769689132724 -0.007279558366317383 -0.0013715308651445696 -0.022509019805811055 0.012616723742485394 -0.014196470913909756 -0.0008399806310037865 0.010254592840374306 0.01455182817212583 0.002332934487264232 -0.004280506472959325 0.009383146245163702 -0.0004388138435278563 -0.005706547269956294 0.001121403388667256 0.0018944314981670708 0.019118187887527432 0.008236832365340037 0.011179940445999344 -0.012870593290019708 0.006691317682481459 -0.004544001558621669 -0.002610383278674525 -0.009768106750418701 -0.002967112982959679 0.000536869413591585 -0.013141167866381554 -0.022676720044490003 0.0015500395091165835 0.009385362125761128 0.006444725287410132 -0.013102805173196166 0.00016474099425747 0.008353118546560593 0.009499012548375404 -0.002886660287968095 -0.0034289949759818005 0.014418552068371544 -0.010660942228951678 -0.004278919939939086 0.006846009607052617 -0.00037860148688030805 0.0144541653980492 -0.00799989038646359 0.002902971121808817 0.029452381401270048 -0.013796514392777038 0.018265742339919615 0.006505381246027908 0.014312312374387362 0.005180855783477151 0.00043725397542532707 -0.01515884488479949 0.004152442086643667 0.013812935184598736 0.010193991939347362 -0.0028897362869222377 0.02406979997883507 0.00043252097462108613 -0.006814774801814828 -0.01583188383424611 0.014976651993545543 0.011087221097941137 0.007693506383284572 0.004321666205597018 -0.01626245993025428 0.0073389351022485816 -0.005734300670487396 -0.005896460214388066 0.002337131731134702 -0.0010287763657281905 -0.000585080247843054 -0.005464172116124845 -0.012072921523200972 0.018349084745201718 0.009130886774110912 -0.007509752933427677 -0.005914021041570996 -0.0019023176540887462 0.009460620378736179 0.006223034385249163 -0.00042105491973907 0.0005131361123022112 0.009901295290220453 0.0001315299936093933 0.0009382134334578938 -0.005888843414980546 0.0009647290231547119 -0.012207652790011646 0.005005144199991402 0.004232844192975536 -0.01361050467483704 0.008452359004910679 -0.008469020534283597 0.001204212559792022 1.0773636838159413e-06 -0.019633893178832997 0.013835948994093085 -0.013956078181013711 0.0075192563013093796 0.005090445485232507 -0.005163921998758577 -0.010518622479992424 -0.0016680940344481396 0.006128493437833444 0.017314940116357737 -0.010661309346787457 -0.001880315727690569 -0.010489647247368297 0.00012201326216131564 0.00867350272630026 0.0012945202498041526 0.018440267256761594 -0.022473921984006648 -0.0017643834274295648 -0.017259897055220783 0.0009887098572209606 0.006841885255506245 -0.0028788634691840525 -0.0017712061026133885 0.006493617460178068 -0.0016178225262559263 0.00012591747014370483 -0.012122669481396595 0.008548769540516607 0.01792620948560312 -9.764852485298431e-05 -0.0021282239379131628 0.004967925941356384 0.0027767978519583985 -0.004640803240088977 0.008154340031410955 0.015554702808415902 0.008535159074134775 0.004190902087989238 0.011650344689929029 -0.001688348213989524 -0.014116049063732048 0.0006552271295121742 0.0041977550669292886 -0.0037161158880625535 -0.00102172205587913 -0.004269477271907098 -0.012514340266119034 0.0069627432001270785 -0.020952539675930942 0.007551921917011316 0.0018989362065250377 0.012011744418999474 -0.0021797829201140972 -0.003539957032623079 0.0005970818595859495 -0.004431940576888671 0.008023111246681184 -0.010406739581906221 0.007379558772448304 -0.002761725668675336 -0.0036452353447192186 -0.008655828926455332 0.020473043414851743 -0.006103784719867999 0.004078316208013823 -0.012270080046072097 0.009042371699670844 -0.003341404454951168 0.007418752347452124 0.00824515113002134 0.015623933372873192 0.012669925279978131 -0.001713148610139264 -0.00611630727634225 -0.01869209921727584 -0.007320637102515134 -0.008408607797129776 -0.014099709295627528 -0.018214749044111633 0.0027601636866199193 -0.007612892294298567 -0.00895344215652693 -0.007167997434817434 0.0014053572674529353 0.0021291861173147646 0.010836483156929045 0.004986914153767001 0.003247395600839645 0.01927896803258967 0.005476862403641879 0.007837121662919303 0.0042186811514646925 0.02195946055317663 -0.007884870938375723 -0.008689682349360276 -0.009088227864972842 0.00550630693986865 0.01605000062069535 0.009705855557180986 -0.018654950447636175 -0.009498633802673233 0.006329177241125965 0.0035442014250839857 0.012229991386344508 -0.009362775915061659 0.0035233633239944596 -0.0033931246484585967 -0.004624496004196642 -0.00026079530927940983 0.003718184794400435 -0.008579958451732497 -0.00684767940841388 -0.002185542227970824 -0.009804456672807757 -0.003314013176374709 -0.016075211016726494 -0.020712198591971598 0.009789642909911746 -0.0037201532240304066 0.011815148031074793 0.017288138263740052 -0.0046674873562841685 0.008158391849617723 -0.0011168711703933476 -0.0064935924266394905 -0.001999401871011818 0.009990747980658032 0.003737462366829907 -0.011176026197919839 -0.003896768420158056 -0.001470836419908552 -0.026425047134387696 -0.019065313736982753 -0.003951098085136859 0.024834459940717236 -0.001048143035526032 0.014025378374491445 -0.006048844052207272 -0.0030425538476547796 -0.005886704568553217 -0.0065608070901653015 -0.005894390476607704 -0.0034158097005055382 -0.019575583779906272 -0.008177332617155421 0.002559917793050061 0.0023764363411811263 -0.014728977010863993 0.009658507620795906 -0.007580707633177493 -0.033945937154548106 0.009950823344859982 0.004319445234897595 -0.007938392306261522 -0.0014402500719657835 0.0006083365240525741 -0.007295214232359791 0.005968055676129791 -0.003151074878802009 -0.029286737082443774 -0.009053763547207324 -0.0014071388563324568 -0.0038393737962288646 0.00989783257718859 -0.009467872923835616 -0.004137650906886319 -0.00897241991038006 0.014366049256617055 -0.010832481972503347 0.005730125497029776 -0.003646169826755522 -0.014947886902110193 0.007685585732673607 -0.001481793850806998 0.019491096755732625 -0.0012307404187100377 -0.0028058471315016774 0.0008202691478189222 -0.009429179920965402 0.018631035567602865 -0.009607021153617317 -0.006745795547980242 -0.0060162400439177435 0.0040939839499187745 0.0054637222707964676 -0.000954650833165404 -0.017899603041608394 -0.005981538868680748 -0.019408957483087907 -0.008940649943391608 0.008729948058349086 -0.005069015282255028 0.0015916481339810144 -0.01564415758485374 0.0018379275404579514 0.0030081952231860963 -0.015617630990809758 0.00505127952259582 0.011501530933103181 -0.006701741551266817 -0.012284996659724073 -0.010560835305330198 -0.012483151252843765 -0.00134861125217861 0.002413334810690285 0.004369619939442014 0.013211040062359562 -0.010029075026283547 0.012031545523629521 0.007249671824671863 0.01292945797385249 0.007047561010178782 -0.0056298025051126615 0.0024670428375825355 0.004437378041959718 0.0093760426246378 -0.009339107339118214 -0.0007347693174350979 0.002372283974895319 -0.01340725151415308 0.0022680640698398763 0.00015846401149705575 0.01581703985143575 0.011095965838628744 -0.0023356062141786575 0.006845516716699187 0.0015135219932916758 -0.01802126542885328 0.013334331574930634 0.008153954539447388 0.004737626699111919 0.01314823790003562 -0.016585203998846672 0.0018633455137904073 -0.014919348294425917 0.0032284951874619805 -0.010179102089267216 -0.007391864225540575 0.004226596634862905 0.011996381118682651 0.01736631401743302 0.004936162781000572 -0.010128427057862113 0.0036056586061178637 0.010251984808298753 0.005924122840186959 -0.0011907255137210892 0.00019818328163451489 0.011451577088842521 0.010597227030295895 -0.0005691357203357737 -0.006819394500738139 -0.0064310733814739365 -0.009391426339080158 -0.005298023111954867 -0.012566281986494843 0.0006463295034868211 -0.007566454391837097 0.01390880068528182 -0.009493666474494905 0.0047750065853105 -0.01114127791831093 0.004020361982047415 0.0065320323853528955 0.01149786496876218 0.002818417216739741 -0.016801657602627956 0.0004321619395700052 0.005241169896470831 -0.0027159439551663056 -0.010655656292288063 0.02329241689998857 -0.003335858676294503 -0.002639376492095849 -0.0025024088572343102 0.01899989224056483 -0.008323122078374302 0.019760843094968342 -0.00021723271814538437 0.00894070169916376 -0.0038585301672598134 -0.0029696768139644966 -0.010548230255465495 0.0007021788974704086 -0.008718157206164518 -0.007036119411446082 -0.002567939035418374 0.0037300381591240345 -0.010107997024560875 -0.02016948138002967 -0.011109453086345474 -0.001343989960755709 0.008245002049820326 0.0028728837372344104 -0.011799614682451744 -0.000471828988787493 -0.01319353574573295 -0.006655102596751266 0.001262853804145345 0.0009343733928008261 0.0001125340834193112 -0.0046719794492127075 0.012972525105114364 -0.005097444743971491 -0.0062178996283766145 0.008510623305024351 0.00573165005157906 -0.007871716832183132 0.012906638201726158 -0.003844728028499595 0.0074361115689893014 0.01033297921487865 0.0016610535610650044 -0.009187047777311231 0.020882474821094652 -0.0018338542218090859 0.0033871309684798414 0.012021124002700466 0.004515224067083282 0.0016118391640024812 -0.0011697778242284007 0.004496212039956162 -0.0018288515600366007 0.0072758745060441336 -0.009842104846061274 -0.0020190724949287787 0.007786899562784996 -0.008272044011898834 -0.004682404563703157 0.007197271649480206 -0.01618518089623288 -0.032772212462905626 -0.0016664133569015659 0.00239912504555606 0.002278936345086095 0.017876076892359222 0.0097338967839365 0.004118077711674638 0.0022157301856529153 0.012363888720602527 7.475120672859437e-05 0.012649076981179359 0.0038551298161767678 -0.0020407240939351976 0.007688468297556298 -0.009732821589402741 -0.0013683294749663245 -0.01606805496156826 -0.0005852818039723322 0.002656079527549585 0.004127577649984565 -0.0005097351840653447 0.0010246974463328493 -0.008765386890997736 -0.0013062346016927582 -0.0029434468047497657 -0.008557557413502566 0.0011994996298915399 -0.0102649817635367 0.006950476211918444 -0.017417418755817652 -0.010440224313797606 0.014428890914407404 -0.009566395555601785 0.009550204051900138 -0.005524956344163643 -0.0167486884514896 -0.009009062918754756 -0.009508183804980008 0.017048522814599926 -0.004170102556478457 0.0019125570667996859 0.01351314033771903 -0.0044045643538630904 0.016060368781510043 -0.0004724126995360403 0.006048753104400459 -0.006763918870889089 -0.0034583728683977373 -0.0023401646674926424 0.0022874854862908827 0.0066949146688210495 -0.00011950229045733645 -0.007649312984828716 0.011115652379513181 0.0015906724183324906 -0.0073573028079095505 0.012271817676606605 -8.807798173890415e-05 -0.01143491525955937 -0.017630528407035075 0.008025513730875263 0.004923264358040423 -0.006988989848017321 0.001567127296888425 0.0021337962378987925 -0.005889979290478096 -0.003015139856260391 0.009767070944380275 -0.003565690439323679 0.006919170674020247 0.002512006755399807 0.0070449989177087955 0.005802169737129339 0.013848139036042777 0.012404313420630132 -0.004394854422450569 -0.010469593377189437 0.014533283870687887 -0.007352251744591929 -0.005843768222821062 -0.004892197451503576 0.01694434074505226 -0.021301164413379814 -0.001278628106229747 -0.01697291898775461 -0.0049333590064870834 0.013607659799502701 -0.008431555665534472 -0.004428574413805893 0.0018285961174667035 -0.007666129305943874 -0.0018892133970249522 -0.01683158809284859 -0.015635343574159324 -0.023284624286657462 0.001799591775849604 0.0011329129149155747 -0.012302414920673918 -0.009656034347152287 0.010924389085967465 0.005768492047128242 0.00537837592397607 0.008825518315664924 -0.0011565211993388453 -0.017683920201209655 0.02873410422655998 0.01479119071479091 -0.004896395405445162 -0.00115864007343429 -0.007979419194124473 0.0018083131366582298 -0.010552629502806932 0.012123042724456164 0.022864206598235487 -0.013458267974012502 0.0019922637300410755 0.019776719072977504 -0.00476141146646455 0.002230343690505856 0.001254855203417446 0.014000778349833999 -0.014044899661883922 -0.005521088525829276 0.007784585175269629 -0.0033548136899136573 0.004945637876309481 0.003990576897177357 -0.009557607950363804 0.0009555039497773024 -0.005011866542227969 -0.00805616512509073 0.0001273447327461243 -0.008226549261760661 -0.002732291046865088 0.003101712412781616 -0.009019467363036288 -0.01405374322123977 0.0006664347061668223 0.0079736792112956 0.009194063920549694 0.0063805352730128065 -0.004656324548581247 -0.006274767333562465 -0.0040381891649445695 -0.010548093081693338 -0.0016293462799653908 -0.009558271956135563 -0.0021435982027560104 -0.004352897680519456 0.02110416445974329 -0.01216486552268021 -0.011271078823191784 -0.01192455587083692 -0.003862363999727276 0.00826254732268096 0.0176818256389171 -0.018612936026467634 0.013081730212188903 0.004553450158351825 -0.012189633226726327 0.015161867813386291 -0.018079487003208636 -0.008047352129400139 -0.013852696311159188 -0.008638296350299423 -0.011982445896631977 -0.0006262713591492483 -0.008838643113866241 -0.008500940667536514 -0.0022902081206802065 0.017571806189295686 -0.010835240794531532 -0.004624698574772715 0.026913931233381372 -0.013137554440631955 0.0009452637096313153 0.016126232105374595 0.019964738013710393 0.004929605730025796 0.006731306554788894 0.004198918503501946 -0.00042333214710008776 0.00557771950597324 0.0073618636514269755 0.017035691806175736 0.0008214835350345158 -0.017573639649911696 0.0006955007579198606 -0.004651553112061467 0.0016579692511156975 0.0030270183094730334 0.004074750754591908 -0.0038215135826315484 -0.007864514753769036 -0.010799337724710645 -0.011652276295374504 0.00469119002230061 0.008217365576640857 -0.004448773160581203 0.008387691773197852 0.007267468300479379 -0.012338318317712534 -0.007149257557143046
-0.10982303022174587 0.2318152851318191 0.04803027064788398 0.11469049830020187 -0.06471494895330496 0.09751369821639175 0.030582680888372134 0.05854769775133539 -0.09310729654403178 -0.14500920716754423 -0.09436773993566407 0.08892960627457025 -0.03849524142152129 0.033162881718434824 -0.05718324990559399 -0.11690058812296758 0.0426975841444369 0.10399133264908388 -0.06023388988463243 -0.03141305355955894 0.024130893677376482 -0.0010293766375841097 0.09227728795930822 -0.12500183119046354 0.05607472769274664 0.008504261684727935 -0.1186642362433409 -0.18066707476146077 -0.021582877952510657 -0.12246583867010304 -0.12887356179402953 -0.20142323945624516 -0.05324304485152323 0.11716366709177782 0.049190122845659275 0.005466941002502721 0.1381769834793452 0.054414992214693716 0.06724884365295763 -0.0020249862372265473 0.004679198430951788 -0.006805421066872279 -0.23310622505868353 0.10953008357905847 -0.04859104106840308 0.021382698632534544 0.04522065515128283 0.10659058186237973 0.11257553890554682 -0.007763620332187032 0.1971645367766406 0.14770335926216618 -0.09061584446918229 -0.026974024431771767 -0.08520821119795641 0.10154322737011033 0.10933043087113166 -0.011564174408474693 0.15605325326072006 0.03114740367827137 0.013460812469313372 0.04514245268317188 -0.22162453895079914 -0.11324386505674996 -0.14151183879654683 -0.023426247664985283 0.03949793165344759 -0.0646270993956972 -0.015988211843421654 0.12310276260971754 -0.11370388909553703 -0.12267532041712909 -0.04213003630272683 -0.06621896657010505 -0.22016070410182392 -0.01899560122042761 -0.18102751590509508 -0.02744391877272952 -0.006099919217558431 0.006679879385850802 0.048442591975375315 0.13559640380049315 -0.0633836119520434 -0.3274125942981775 -0.1868376991219014 -0.06568058572741495 -0.052050666185973586 -0.1334158612117077 -0.14637017520025342 -0.059869229056170085 0.031912242444625455 -0.0028716115512755574 0.029163043850810505 0.11866987260261821 0.04337680650633966 -0.12090892003049047 0.02617365546317713 -0.004515343403632189 0.049863816068922165 0.01072582723587428 -0.006195438261825487 -0.03307796546960711 0.03347631338853991 -0.02177241853845061 -0.1548123707985117 0.042843110579118944 0.05710540175445022 -0.1209344441741015 0.027769003542560285 -0.18025391665187182 -0.0841738748593166 0.03932206725593247 0.08063219847783104 0.03948358045127077 -0.05209364482926531 -0.12983935985406414 -0.09901539672050531 -0.06297653500757454 -0.036015194949055376 -0.0838906034928429 -0.2323807665259738 0.05241045758023705 0.030907322337480538 -0.06540751791578814 0.027384886840468244 0.013328918695974482 0.021682622353724344 -0.039410525391375614 0.043878663915485824 0.0975769104628466 -0.013676449597120308 -0.12546742908515807 0.036960465117680426 0.2721661643312241 0.028994179342922078 -0.02013506325264359 0.027286615883190906 0.020685624107520992 0.048596367755564564 -0.03755683104262181 0.06650247805330997 0.068537201888654 0.02561423724060465 -0.17422794878561387 -0.038234320392682423 -0.1144227615005806 0.060716664449739624 -0.11291097793966397 0.038886465164897806 -0.12955271059124798 0.15550560885880724 -0.0005899604283135802 -0.005895006194406947 -0.16843137353617862 0.002966171439564266 -0.06588648742625249 -0.0599121506390682 0.08563965840698808 0.04877420740990303 0.1527163622122661 0.016958421919584847 0.10758984999867362 0.03369396829505606 0.03705802985960356 0.05712130275591392 0.016667410679485302 -0.03692603872858214 -0.2016950590683139 -0.06585443562212288 0.03026150712729205 0.03317203882970067 -0.10465402115194174 -0.024154266776875235 0.13641179677328108 -0.040876943675447676 -0.0015387386470290046 -0.0015492658282860935 -0.05933239410807814 0.19199321037128012 0.10266975006468362 -0.011225501036087873 0.24030769254638548 -0.16146181130731713 -0.04210894485999441 -0.22429421822458967 0.017713604573921474 -0.045149608778779896 -0.03892482712637622 0.03101610558640274 0.043943514535202816 0.17904443206148044 -0.04315071089173393 -0.028996613615794163 -0.11941120447913474 -0.018359901502790096 0.08218890152733446 0.04262282957181597 0.10705355706647728 -0.10141399437859001 -0.0765347234028362 0.058740753310691944 0.05490054742198557 0.2517282173291559 -0.06656238352409498 0.04310609050362375 0.07085294523748945 -0.08922534104564035 -0.11617251452691091 0.07481765802701644 0.12964443898532313 -0.06421489590967976 -0.041124168469753114 -0.10312474284900469 0.08147262697212605 0.025251299604155415 -0.09766625899315179 -0.017711047534411595 0.028768721046066557 0.01653029536603633 0.0070660932820100775 0.12159811164257277 0.17348270499176777 -0.037787642614618304 0.06637820958310475 -0.04741559272309709 0.08942319565045853 0.07785307440525752 0.04132385672590711 0.02400297001297256 0.09125926224701733 0.04865197656072357 0.07322964815858002 0.3357832712483602 -0.04780513162328469 -0.07065184559295158 0.07070272264935593 0.1032871614684225 -0.0859266025033612 0.034501241018920166 -0.10899250633838971 0.00025598306800101215 0.012305289220223895 0.06343400273292105 0.11462154432853508 0.10179797396111968 -0.06182535567753156 0.07616874619648761 -0.07744624987792034 -0.12956295343407023 -0.1610444483475191 -0.01680064395963872 0.01942902787435824 0.011143026785738181 -3.0424390676349587e-05 0.053825752691179556 -0.18158904510890714 0.02324787537707899 0.09468290144191327 -0.045739756740795626 -0.139746341580958 -0.07659368251697461 -0.03926434615350655 0.031132262503452156 0.015493523776659412 0.1333096430604986 -0.057068267623642165 -0.07030398784594072 -0.11419504575841846 -0.09383771444804481 0.042289499121150535 0.06089143437364217 0.0017811535576231648 -0.10195747520536981 -0.13626384321123802 0.01649496548604577 -0.12699141978817635 -0.12580396969380447 0.11995413377038672 0.046842279922837515 0.13653827259231816 -0.13597590192626077 0.0650691373696882 -0.029154476106966167 -0.1564890348900445 0.2606294835902211 0.04371881034129027 -0.07460710247783206 0.14440523616259066 0.17920175192767887 0.034212121304179846 0.06736165111333449 0.1822869898425178 -0.04185672902404329 0.02621989072808854 0.04969917566841948 -0.0975692550199791 -0.09226830779244363 0.15851658137843122 0.1915322549568716 -0.070792054465744 0.1030931985919769 -0.008050953665762455 0.0024345020162911783 0.018328341088298734 0.07449374188478279 0.2084238973347356 -0.07062168592461592 0.22902604101293728 -0.0339999849349014 0.19328620644141065 0.08758249766206089 -0.037635631160758666 0.030785893444728176 -0.003903119008581421 0.23461837209062672 0.001975826263174721 -0.06660385582535648 0.10745974184452507 -0.07534400494564628 -0.018170652500625793 0.011725082083015547 -0.31017652409388125 0.006098982053124604 0.07034834394780397 0.18670657818500877 0.0345829091943978 0.017662974576986998 0.016237347020501093 -0.0917724130364901 -0.12336138188442938 -0.05035836118595618 0.11488585769840871 -0.0876413933107732 -0.018417812984568127 -0.0675449096979993 0.023877005654022895 0.018532928293604686 0.12598421395154377 0.003534547939605898 0.027115952124725905 -0.06827992331191189 -0.005384232694116732 0.02059961162210283 -0.025943363269020355 0.08723729523948007 0.006950956283489307 0.2734969953430253 0.057520041578838825 0.03678290019098606 -0.09924378429847537 -0.1303457878727884 -0.10516279085038897 -0.12925709063056265 0.09745200969223004 -0.026930236304000797 0.04870707641259793 0.13543895477416512 0.08231999554930834 0.005183839073221533 0.012078654021898018 -0.09973184870686849 -0.006932796545008019 -0.002151042132633658 -0.13374281933619533 -0.09029390018945427 0.07857535021407273 -0.07806783471826725 0.027185546117953197 -0.08705982820499843 0.07140300974579317 0.010210819915257501 0.02186524870838196 -0.13788106276610038 -0.011050374742809567 0.08887069118789637 0.1168919892609791 0.1446397121843934 -0.16736507775617038 0.1102013007619131 0.14678172290886166 0.0024936741566958134 0.06887786631608844 -0.15019485821748776 -0.09645682861413454 0.07255542955796948 -0.08060279369947783 0.01443182059709153 0.03881003744057765 0.02157684045950071 0.11442374117521396 -0.10487005436807481 0.0063576297032603354 -0.014352509003062246 0.027807783765872916 0.03337441874468821 -0.054264742718911456 -0.06065731446570605 0.015994134409692266 0.03700817819600293 -0.05196414718556708 0.011634855821125329 0.04687962039148894 0.19277175519910875 0.11197981962377698 0.1339009429204583 -0.01965945918922342 0.033970446779197916 0.18162989776134936 -0.175034498286431 0.04694971695583553 0.10451752440208105 -0.08814352846225153 0.022633143804337872 0.02198001156630077 -0.007198903244251001 0.11310611086998731 -0.07972220762970204 -0.19936398758877305 -0.04530152695130282 0.10086605753347666 0.006507095519062358 0.17509716506774808 0.09882066009274457 0.13054287647884555 0.12935579661326593 0.019410936862020303 0.08033545771383066 0.005752353263526124 -0.028918757525806464 -0.09942988745938014 -0.01391656095200542 0.05156406471576897 0.024640709169857996 -0.17760167406255087 -0.21172403339877094 0.07513279488899322 -0.1334205040489275 -0.14264890962137858 0.06867901585298164 -0.02635378312328809 -0.0737537270320115 0.058496695970245975 -0.033939908695127884 -0.031169855660986148 -0.059119386860313546 0.056958587084277056 0.056416149302886444 -0.1053401582262374 -0.024739955619012943 -0.06559495065523493 0.18201016761802294 -0.053147262154692426 -0.008404270034633508 -0.15823864580353741 -0.09503565364946427 -0.055851147543156836 -0.02011464084098179 0.07077333034365929 -0.030428660714691195 0.04953063756891572 -0.012295917597670047 -0.03410755604726861 -0.07413615720372721 -0.0766435065811292 -0.09502329965278714 0.000623587841165884 -0.031754769872429894 0.011350640714253225 -0.09861879732985436 -0.04205890537519327 0.05491044317557897 0.05237707510346837 0.014160933707009165 0.1819629293518087 0.16758349231817235 -0.008239675757222486 0.012435627358553825 -0.05254011101653886 -0.020297540263450188 0.0647835296476498 0.04666514912673738 0.12413113454220456 -0.0530099482984623 0.159394036148444 -0.025703187720030777 0.1325316966860341 0.03305516437164855 0.12892988958016058 -0.12228610798443097 -0.008623126053130207 0.06342893120078129 0.04312028900933143 0.0071203503327194285 0.02655292187538432 0.004863977554359734 0.03878627541699173 0.0791888935137694 0.023617898024762617 -0.0252560249647632 -0.014323608734607621 -0.07002878002407353 -0.08765091805392604 0.17801474778794937 0.019680763929418265 -0.0787380219396183 -0.003465530362837165 -0.08435873157250115 -0.09553157437263367 -0.09688937688192843 -0.09080437815980254 -0.05385931725861193 0.050305445069555456 0.08377393759977061 -0.16167979351232184 -0.016956457459610955 -0.11723713716092385 0.005769030753626584 0.01478356450628253 -0.09963630315820739 0.047783745390726495 -0.04748256721932418 -0.0025601312901988665 -0.15881351604075855 -0.18877111653970258 -0.06920583267691223 -0.027982686823915793 -0.03781181787987803 -0.17941589447882073 -0.040834001511863414 0.08977694406299166 -0.054024070118055184 0.21699465957042227 0.020016221001918338 -0.04564793626975492 -0.01903192802101786 -0.03638850339610268 0.006617359629351223 0.11905342808445431 0.13938289939377188 -0.0038684354222456654 0.26483020021813997 0.01273749408551948 -0.12194009920043174 0.042985504307544435 -0.047661585819686436 0.17714300056523866 -0.05420438227856429 0.07346301939229319 0.03910897446242172 0.26951455164931987 -0.017981143558014116 0.002270610608409603 0.06368020842766281 0.11722547277247676 0.1620636980831219 0.11901206631229115 0.03116311021514764 -0.0006098261869738133 -0.07249770114144884 0.04610382430268034 -0.0944616582882649 0.026858318489419396 -0.0982848179332551 0.07495758211458894 -0.054031275474563906 -0.010540098432226702 0.01986751579230227 0.02964263319738446 0.2163602713593557 -0.03449854381500235 -0.13444438945242448 0.03852847925846784 0.015252881853645366 -0.04894370043370958 0.017246754666192052 -0.13931850379500657 0.04407645515432023 0.07154892335649772 -0.10558430093213693 0.08447422063160125 -0.015042354314534238 0.005842464958323416 0.09778446162351662 -0.25887102629806924 -0.10239830007785461 -0.1352214467715558 -0.031635308993184015 0.12500870388062957 0.05168591371416306 -0.03150939731061247 -0.033222417544085815 -0.00037219389476488056 0.011452120769374536 0.03414295619839376 -0.08327494913781215 0.07220455927040689 -0.07294510594233503 0.06588321733410044 -0.015170094297561167 -0.08769523912586209 0.04151299823939085 0.014593442980211856 -0.015611826136124928 -0.022585529359607833 0.0288652994277669 -0.037805910394147886 -0.09043842206272071 0.017766366414144624 0.08379592413286263 0.10630004206810766 0.05096576047521844 0.004771917434074872 0.044544654057203634 0.02831131882786203 -0.1994224179946823 0.15623863401677704 -0.12650004291821454 -0.12591343534336907 -0.06272226916648628 0.02911420392129781 0.11878657916266011 -0.017261155130592076 -0.12464513873563433 0.16749832281209287 0.021565399122161665 -0.15265449587245236 0.08282781668217908 0.03293043533306722 -0.03241536981668923 0.06486636070548754 -0.1552321466707364 0.07767741091107966 -0.010848278569278062 0.09211221027571587 0.06702398969373517 -0.12119848190029679 0.08592819148764841 -0.038744157165194346 -0.011626132980522683 0.1574900907719667 0.16602129046979366 -0.018499615140093854 -0.0726905776890062 0.06980011954350065 -0.008001916575218808 0.03763837713823555 -0.08284786844615742 -0.1503478215660083 0.0767840831942035 0.021596607274171616 0.1292241745825891 -0.02689452694320663 -0.00379112010168679 -0.022294414255801382 -0.09264546298816563 0.051953059494992716 -0.1415618886204836 -0.06495613399637977 -0.07539633628908973 0.006731679812640182 0.14696652293391002 0.042050170055670764 -0.07963043173088585 -0.034818373914008854 -0.12572148912414183 -0.014218014720027242 -0.04869875665825397 0.10745336789501564 0.1182778837565024 0.1538193220284113 -0.035240521188815536 -0.11357623752173228 -0.10331223047930123 0.09226943212971635 0.10987415799412625 0.16265296339753024 -0.06498814335773578 0.006447488720092229 0.007556410177791611 0.03420417539149004 0.003562164631256029 0.12755468580052287 0.10075841558690021 0.03920120911404834 0.01409686430260703 0.0033029253155992073 -0.13392327394500947 -0.04300094791406703 -0.04436843879657108 0.14628211697580876 0.007538947931275632 0.020937296632360033 0.023670334250261837 0.14935621003451283 -0.09867915477432912 0.08732080301158089 -0.10324573413110345 0.014749089456782685 0.0034380260128407387 0.1077284526640577 -0.036030486976144104 -0.024981132085277323 0.05087452485154632 -0.004149033198880196 0.0747214755205729 0.05091828826141147 -0.06481149101943041 0.018950748467109473 0.17823239156790552 -0.01641313929848393 0.07557815696981367 -0.04516007234754573 -0.140762747956109 -0.13785848416688914 -0.052105403810794176 -0.12028032134333844 -0.11551435857772664 -0.02041319641946047 0.11643910511436475 0.06334749140646584 -0.03187128544021676 0.028613356432266805 -0.00413997883648136 -0.06098512119661858 -0.06354968713205965 -0.215583260804463 0.032775058983169236 0.19472914563851543 -0.10508801199596815 0.07942910555302056 0.1127388065160758 0.023863247079564713 0.13882911939860032 0.1398487642667853 0.11922776047297323 -0.06833384113351239 0.022283025188996025 -0.04461811488423484 0.07054721181298246 -0.13807238593547116 -0.016245770008395548 0.1598797838939077 0.05615023988663835 -0.1730632313204084 -0.007949413778805824 -0.06199998361132916 0.1408380705801856 0.015710150964439253 0.09548171416463264 0.016919685428650362 -0.038526317204743664 -0.23526202096673252 -0.05724702067489996 0.014140637956058463 -0.04623659616998829 -0.1576910286062475 -0.007029084079250453 0.1420418066208827 0.12478611207996301 -0.17621188673829188 -0.09731382716203776 -0.04461788844239144 0.08731122870803923 0.1426968528017545 0.057143473873925495 -0.23564303211556478 0.2587209464819542 0.07005400594112254 -0.05115752914651982 0.0753477240061558 0.07059218530475361 -0.15153872778975253 -0.022161291198575874 -0.07172212977005289 -0.16914282822434532 0.024192235323682386 0.20352382356449714 0.10148358484185173 -0.007814265068839227 -0.07337708089422522 0.19490568996307076 0.0627568851185275 0.11412902405583228 0.044477255935423274 0.023796009282840255 0.07691313707359863 0.12310444247777033 0.06820838710276002 -0.05573842046117544 -0.07809208542098535 0.02862530285083381 -0.014632649434201159 0.15342768263873519 0.10654888069205189 -0.12677614420090946 0.1990368987864803 -0.11574344983894153 0.16137067121268187 -0.016697905225838184 0.051911650594768446 0.16060402463549323 -0.2202964506566222 0.09653497226656242 -0.05120247048175313 -0.027380890927842638 0.05443119189167127 0.042251338176991476 0.007494709084503565 0.039169446010182275 -0.08844320559712589 0.24368316332602202 0.07503280022201543 0.14870965103086034 0.08782117937569428 -0.12803682313019094 -0.07830039532065547 0.041065810210573504 0.1628848655993921 -0.18889922481462618 -0.011409103140645692 0.05127358291428336 0.009483750232686144 0.07880908181878488 0.07840119959223056 -0.12792688941095512 -0.012692306950148445 0.27863950842648083 -0.004779190210678121 -0.037279219842185574 -0.11891409260818797 -0.1634314380620865 -0.13540331774977268 0.07100420496007376 -0.17288983033512723 -0.027391969736839984 -0.06454583977496808 -0.10122619152193103 0.034520860838060906 0.06934699243882864 -0.08756315942816414 0.019831251129265964 -0.12111498383595676 -0.29933292101774456 0.0024192111268363167 -0.06820121451269276 -0.024514206986273022 -0.31433778692698733 0.06632318705733949 -0.10012597147024352 0.028151004350462416 0.15502786704017998 0.06716347640470922 -0.0020471853233272126 -0.07718655533611553 -0.08786771564960591 -0.013919508570862386 0.06540773363288689 0.13064671223279795 -0.02235013892305395 0.07690795241989715 0.1424047539764466 0.0802950923251149 -0.01441354796844155 0.0754313503453571 0.03358294550815623 0.13090757969002983 0.042803984137691355 -0.10097952166787989 0.030195501287096298 0.039173590251813044 0.012767105800383234 -0.10738742353288774 -0.09156312126438147 0.09922956947349983 0.08721246308511882 -0.16922804999765903 -0.042628543491113016 -0.022774852512530065 -0.13845160286704727 0.10411848585731935 0.14804886928792313 0.028071774605373623 0.07524870605926479 0.07206119043789043 -0.05251670273493582 0.004648973220635441 0.09779180765428727 0.08578017627874339 0.09289819708799688 0.09248719607298926 -0.1022642080732915 -0.10339579030318383 0.03134374844667869 -0.12367759476756172 -0.06447900990342315 0.08861985440862706 -0.14194860657019043 0.05324941700020253 0.18466720337489745 -0.05613961340406336 -0.10739296899931329 -0.09748183690579558 -0.11594368982601518 0.016960542963475485 -0.11631813372076184 0.01194026111182234 0.020643516534616886 0.011274365819236193 0.027253494446870516 0.11979592272415053 -0.0730744280233373 -0.04787762809156028 -0.18503093244840993 0.025309092607957454 -0.05738016935259486 -0.0063822352511547185 0.13349415753841937 -0.06535630095171861 -0.07855037672415753 0.047000336445562736 0.04925117204985807 -0.2237916176288642 -0.0899672915455745 -0.05972838428198842 0.07717619112887862 -0.1473419028163374 0.01509188252685099 0.056754297023173035 -0.03459313385279009 0.0008148116306738721 0.1149279499617923 0.009230635408049824 0.0459774027261937 0.12118697870990551 -0.04662247737343315 -0.028020453160623616 0.048966769016069896 -0.0992493962565959 0.03327833865007068 -0.011685471599246182 0.21611758811230639 -0.2568097322284471 0.030229601422828947 -0.025016218399412753 -0.13315567186123775 0.0394157758202791 0.06862129054047546 0.026402497023526116 0.03163253726566273 0.09404818995586549 0.12056235670437718 -0.04505706496594396 0.06726415107122354 -0.1444677853678112 0.09676701636012655 0.0029903535059786343 -0.10830898975141183 -0.01189155944627261 0.010401253782410403 0.028638848591214818 0.05186376749400446 -0.10205945506702126 -0.09602377703632738 0.04612422975928772 -0.10010501366802046 0.13221773601124892 -0.13448699970108324 -0.11832596830139251 0.09872330175866599 -0.03235722652067648 0.0953053075873968 -0.2523409646043184 -0.06346510988396244 -0.06960799130986776 -0.10703292855063518 -0.029563987907176188 -0.08519069015863573 0.018150771858929975 -0.12237062736704454 0.06677156711188065 -0.02759272301773599 -0.11495479628298831 -0.05147782866997918 -0.040069021563817704 -0.15376015174819407 -0.04729148941429827 0.16338255925162634 0.04205896349494166 -0.07026285575378742 -0.07174569186998851 0.12089718806765934 0.11915147747984721 0.08841867412038953 0.034292858892293325 0.13770757784682713 -0.05039282952204435 -0.1240481170319544 0.02629927071943644 -0.13368924110860436 -0.25871921450390845 0.16895796134138427 -0.08201753969803258 -0.1607742144871645 -0.009735374561961416 0.12466192138403462 -0.04232995685914102 -0.08577979683947189 -0.1211074199007747 -0.06638788877680564 0.006684514241279369 0.1865805152340471 0.05864731132885297 0.011626108828695102 0.0572373910348978 -0.1574290205292628 -0.0659590501184621 0.10746805408098188 0.05456334171174848 0.06413297169140186 0.11209486618764374 0.07307913901487537 -0.08978348083346013 2.927194720561917e-05 -0.07447634639263169 -0.14755329040120024 0.04261980046765115 0.22787053432424575 0.1362041330645168 0.10558704606042657 0.1342980482143157 -0.13903413853232588 0.08685746791586353 -0.17837240301415536 0.060274110005282114 -0.04681942186758049 -0.07624547015695468 0.12150024542043125 0.0004372230657860281 0.05190312241688267 0.02043868995537123 0.027776094717604605 -0.019024358962607478 0.053352160145847614 0.2091814373109525 -0.06640689609103707 0.024734612631054108 -0.05217857105480175 -0.12948408375543927 -0.03610708031204911 0.13290245531523262 0.06279364147414179 -0.17417131467231692 0.06834245940546096 -0.09045499600863399 -0.1096422122381346 0.14119743351881453 -0.029393815466858847 0.07125826148592111 -0.0596015761716945 0.1551752995256981 0.05819492622878169 0.06036186522542527 -0.004340924178936107 -0.0967370213609711 -0.02744763169481113 0.06352630419352491 -0.08173021143553338 0.04554760584311482 0.07792048608019228 -0.11763136214583975 -0.02279947089459786 0.08591348531696587 -0.1106780069532403 0.08772215930837196 -0.03594189592951464 -0.07698756255265284 0.017852110021077346 0.08859210241231669 0.10251744877479811 0.09316978710259477 -0.06815978714431717 -0.025735657974545707 0.07460915502449883 0.1092171594560581 -0.1388714853823408 0.12308633427200132 0.0940601228198074 0.0233769913672973 0.08566010667376142 -0.04568074543793543 -0.22363561885748498 0.0357570414294275 -0.06296898030742153 0.026350934167341515 -0.02383587013332704 -0.01367725033027833 0.050324981849256 -0.04190167359298476 0.1616089017179943 -0.003334132651924612 -0.11468479671689892 0.055344524398867036 0.01561577720020481 -0.09021477988261968 0.06468595510387418 -0.07352980197359159 -0.11295196159650858 0.03027257244053568 0.024921255716052877 0.034465331421857925 0.05768055824456869 0.009647844505218483 -0.16265368765684776 -0.009874322051863262 -0.08718599049944901 -0.022464233581734685 -0.15165495354366287 0.017619358096541263 0.03309657428930018 -0.054914534859257964 0.05209875131176244 -0.03387656060247439 -0.040765427558336016 0.041668353895744366 -0.06355192387183081 -0.09339040789866862 -0.12837412555034824 -0.0451169511113964 0.11110550293991665 -0.007567899778881024 0.09661245843043424 0.06055089994544674 0.04297195115574442 0.034979305976281426 0.06949282902367279 0.21984659359412026 -0.017609532453933527 0.027149414820108055 0.03690183117289278 -0.181829325071776 0.07088149112750744 0.3062198150136245 0.08379348899861704 0.09814720775328986 -0.05269629523783001 -0.02177966250545325 -0.011951054654161014 -0.20502659137630402 -0.05853666613794933 0.0130550100678026 0.07751459790025499 -0.20505616727619208 0.026531802753148422 0.027748645934139702 -0.15908214316141553 -0.09571213441638501 -0.14747371191297254 -0.010079756342139808 -0.05578255298624541 -0.06299383978865786 -0.02095296642072188 -0.07288446250308978 0.13645568346014436 0.022652478572590302 -0.12621636342926246 0.13779661121067324 0.050490428804474345 -0.03057574466232105 -0.0050842893106117166 0.12387034738331691 -0.07752527734989222 -0.08100062131051089 -0.019969231117210613 0.04758574296989027 0.015358212947452696 -0.1861022872730257 0.14465771143857492 0.1152635373244226 -0.06858711064216821 -0.001565797719655228 0.17561976244374794 0.027977412451890775 0.0868259832007099 -0.09949629888277481 -0.2534636897937152 0.10886483369324688 0.08465426832636204 0.06855232187445233 -0.15601226729884465 -0.04810324332094979 -0.07245266622985862 -0.1832824110589116 -0.13657184405378334 -0.06728591814481595 0.020852873136257055 0.00922608969219234 -0.07111821953392873 0.008415117723609407 0.03566462348216131 0.2555296399990378 -0.032200544138094644 -0.02974245900311746 0.06479590897631499 0.022933998144690167 0.11779108221804775 -0.009016895576433728 0.08519818402897567 -0.19016270694233375 -0.11810448917443168 0.0546081235920305 0.09516380647979196 -0.11519888426163435 0.0354746052286937 -0.2000828898018996 0.2919890349773689 0.02273053103542464 -0.0010290185709320681 -0.038225330381491125 -0.05456183189843881 -0.14990779982687993 -0.054412181479687675 -0.15013358410339805 0.020573223191360762 -0.011927310795549277 0.0854014938576117 -0.20000183466866192 0.1297448413860859 0.11858789557960012 -0.11127385236551722 0.014633275748250199 -0.24956850709064426 -0.12646798557774375 0.051943579397168975 0.19958817101706372 -0.026688095377762906 0.12886433289819468 -0.08627636213908486 -0.011956857819247201 -0.07710981434241825 0.0535703968315292 0.10101980224126549 0.17233850328365968 -0.13535635798405926 0.00526772403790477 -0.11598230511129753 -0.031229184312966757 -0.004108061032021716 -0.12621458654274417 -0.05154502838587565 0.11842922954192227 -0.010691843278377617 0.019590057608494957 0.009601716325817914 -0.03204721984452554 -0.048680080521241 -0.17690875418778565 -0.10385116826993715 0.017180260820349156 0.03408162651478989 -0.09563414371468504 -0.13737474244443404 -0.08765123586233689 -0.04266462423133586 0.05018226400443495 0.04694675332780843 0.04978047773970164 -0.05094571646560428 -0.07589855381205358 -0.08812530173315246 -0.045132123652775226 -0.12661484063195985 0.06534283549522293 0.06917243021292953 -0.0660598988738916 -0.0927368808556384 0.04308770062912527 -0.11008601243110716 0.02228759973900906 -0.04453370162138816 -0.06835179011246195 -0.003944190353600668 0.11613364845265922 0.05801092835290763 -0.13295076968664235 0.02238181939428883 0.20557573348028943 0.14158497567492379 0.009567921979989529 0.03954444386537813 0.11650579508205348 0.16195329953198975 0.03919320933048806 0.10779597738187287 0.10587133565790144 0.04070771347762448 0.13641503241538408 0.06021893571631257 -0.05648466218361155 -0.07607526002575439 -0.030670942258995144 0.14552899191160093 0.04096565227243254 0.11333408559564974 -0.16935911690739874 0.09458525137270062 -0.05411795174030156 0.07027696771003719 -0.0014473472721399329 -0.05362026789405535 -0.025746078431847518 0.21596376279378143 -0.004737410489741127 0.21146520703962482 0.022152612314675073 0.25422481989262313 0.01863041771011299 0.17341606117084504 0.016455258409288135 0.09900693964508471 0.08245024270280621 0.10069592704805125 -0.12795071500613803 -0.004630047860803842 0.04020649481626865 0.0615587012446319 0.12649564359232257 0.05067682130305305 0.11291664569066907 -0.02823619136888296 -0.20303134477987117 0.29773807605457736 0.016158060163704475 -0.0331009603473389 -0.05236022013828755 -0.14348941455612582 -0.0834032222876877 -0.03612539303585575 0.009543165847716768 0.031290258739438206 -0.1287972574114044 0.05061532999803594 -0.06517418223800342 0.05075190932349862 -0.07500618531514913 -0.007931778572656515 0.13598438996107629 0.11165219774356064 0.010971100778032025 0.06999825292674451 -0.12672185230332184 -0.01673617452207131 -0.0014756435126995458 -0.05181859649294136 -0.08675131581495761 -0.045794320383599665 0.10936164155680875 -0.07712017578169122 -0.024921147837107808 -0.01052746850233659 -0.011966778919925525 0.11831199624967248 -0.041976961547540215 -0.12873029276482156 -0.05850047371240775 0.017134113414127093 -0.0038379655953860313 -0.04728199536802389 -0.10725163846554063 -0.16429005316213394 -0.13454972441930232 0.06889850748848912 -0.20961248054112006 -0.0362065255713221 0.06135625612163513 -0.16826479480710357 -0.04695347840130607 0.053352053470548395 0.09213425702815377 0.07333489627256846 -0.06596059217792982 -0.09243136019609487 -0.16551127052973236 0.1210995477983242 0.027345183091426487 0.1715215578476051 -0.06090290397610705 0.026790722183276793 -0.08473349311973184 0.04141115004332116 0.04010845919958684 0.0577684110332783 -0.11340384057157177 0.01177483409918577 -0.0056244525467330185 0.015204523054233558 -0.19054517861948198 -0.0065428215999632985 0.12524200582923606 0.06172919362851166 -0.11811703562610781 -0.011794401653787982 0.1080931182858668 0.050215387599331564 0.03727082707706531 -0.1769812676435691 -0.06982383402004126 0.2543302257664827 0.06089614600875392 -0.07457628184918412 0.0852464444726208 -0.041191727896722 -0.004913778544172613 0.015387258708608763 0.01063105485985437 0.04887620348256131 -0.08036852289085859 -0.03293262358444703 -0.17042167873912298 0.17333499289449755 -0.020690533519825707 0.08624946945734684 -0.16864664520672826 -0.002550775499322275 0.010168303561466733 -0.016900706717265932 -0.09107586328337136 0.018633449588279085 -0.07139607805439664 -0.04117754900405308 -0.027800312358086103 0.035960080443576126 0.126671904320034 -0.08936356948086055 0.03683383715449076 0.0496863560709793 0.07925318415101815 -0.17565325324335568 0.05585781641829379 -0.14357049437210312 -0.06812858462573901 0.07578340756003817 -0.024818445697886063 0.0732942704151206 0.15488984573944053 0.019827944990395942 -0.02430453115309798 0.17006966979534044 0.020870860909009248 -0.11060110100143022 0.11006034066580321 0.055864394173746904 0.056716528996041876 0.00618843703390056 -0.023803338988265574 -0.10852258565244077 -0.06348626781554531 0.161518962151471 -0.08726888604816321 0.015350252773330597 0.08274589001635138 0.15658265816228614 0.14078814483021784 -0.025099289961187862 0.015157818029725835 -0.12700976997825325 -0.16854501768284247 -0.045273224660414536 0.01867670900431492 0.010358601372950435 -0.11979141040280057 -0.06610644537653645 0.0930348418867185 0.07440334995651794 0.013683228383328219 -0.07664454368587754 0.0028754153816079116 -0.08136858435729807 0.142209321531056 0.1804295730951992 0.03927730733625735 -0.07036225738417082 0.09342599691363877 -0.006630157730861085 0.08915569829346527 0.0725144818992488 -0.2824451854818687 0.06843556649776597 -0.10015261989365953 0.023743061165250445 0.05930059285234706 -0.017705512743006763 0.02235384404106778 0.02359529987789606 0.07680606545938404 -0.0031693850295785855 0.02961865313244344 -0.014871311100102404 0.12381171607888833 0.21116468106745984 0.13686482017840462 0.14628723825998566 -0.04084019505533279 0.010997935734353126 -0.005344916334958786 0.27736058279272197 -0.017687230418710502 -0.058657242793373365 0.10769997267830013 -0.04270010151804523 -0.06594227852315299 -0.037339662310873885 -0.12087669440722897 0.15172834389298978 0.08364606095204226 -0.06893696456426406 0.22515241223415286 0.15244371347232702 -0.07228083620277173 0.14089865497561063 -0.10302871608172318 0.11251807012374002 -0.13597890098805024 0.018057072862889382 0.035537894703156304 0.023440233039255975 -0.053111990384319095 -0.18459198005086813 -0.05905553921975564 -0.16457698197722476 0.12291106897897901 -0.08160724377233196 -0.0667713548865769 0.1793133122759312 -0.09004891285111923 0.003996905071710172 0.028490046440795985 -0.06915877293730513 -0.044342832380739085 0.17503258547960532 0.0019742167717434513 0.05461851175086342 0.15584530875032815 0.032023091577253915 0.07327623710588475 0.07625566136914715 0.19543816283857857 -0.11044372281064968 -0.04560786515658354 -0.08069469961929077 0.036358989065203594 0.08628844373847386 -0.061881936442012425 0.1770857501440627 -0.09787042769198434 -0.038209084791714115 -0.06521605813774582 -0.1977004173922489 0.10228508780817014 0.15259314160944729 0.06988541832057331 -0.173797501874598 0.0010001972443321465 0.06512018146837513 -0.030147997166886775 -0.13649935853839326 -0.010280209797219707 -0.06816896951575364 0.05025488259275619 -0.1404497850127785 0.11500547284029775 0.016540358027262086 -0.05309541730671147 -0.02989388979707101 -0.022193643578676144 0.01347819700588339 -0.04304056618836984 -0.17385426561716605 0.04889483145385662 -0.19986026860377554 -0.15290023349751952 0.004886095049119796 0.10568513078576662 0.008328561285516706 -0.024277299481418612 -0.10302358427918666 -0.010047520165730323 -0.03633557806538029 -0.1163487894669086 -0.11758243898363169 0.17405221859067482 -0.06862672621153382 0.11019089778588594 -0.16739718867488437 -0.04021535786940502 0.08990039229750735 -0.025113828080400004 -0.06789816217015249 -0.04460082307161584 -0.04629129265122698 0.06854943224678971 -0.1632308616634631 0.04504790682185456 0.0527582342096464 -0.08076243475787342 -0.10657410839141424 0.023682512062186623 0.14841340522346835 -0.022809313281173544 -0.13672280668211093 -0.04680660857155623 -0.01568626025526228 -0.09186871939881305 0.09439443346414367 0.00980677145916699 -0.07511490572826193 0.0356614507854053 0.04761294206988004 -0.1781317446039395 -0.019688281000570376 0.018098410618938267 0.12805875573951764 0.0752526931326057 0.004230638714118962 0.18289762632706533 -0.014316066617038844 -0.07960248998585437 -0.00971218757432293 -0.04687319740640957 0.09928218658060958 -0.12074413559925357 0.022586582074028486 0.03805719401743154 0.02457794499259396 0.1147868435964159 0.15712400682420283 -0.02827766675612317 0.0018947498627574695 0.0637022417374183 -0.15248103917394867 -0.03760047961068684 -0.07546306637966678 0.04449336331718938 0.0356774275965878 0.08327175622373942 -0.0059029292158362424 -0.08923789533119819 0.10450303288324428 -0.0803517793798855 0.049033409075812454 0.1699681632555435 -0.19440149650562483 -0.06570244475024803 0.08334146286999487 7.590546341970757e-05 0.09162819464510505 -0.042177290236679 -0.10468919603054322 -0.04432237342835506 0.18542718957212725 -0.05611611941918372 0.10196747212240513 -0.06783094847050662 0.056884084830867626 0.2576597835467512 0.04158657893187192 0.031825265980323265 -0.07359621044313451 0.04543357723011168 0.02350609348233436 0.022128267793606902 0.1936806016945715 -0.021697278053416 0.07485025880839273 0.1230516733884467 -0.05156418204102563 0.060844567484383834 0.05713342410860504 -0.11583253677818867 -0.012372792563240231 -0.09409364727168058 0.01933718030261324 -0.04178404887567082 -0.11016556828592497 -0.004201666911847916 -0.020141257113681386 0.10189260641584443 -0.05998541809406428 -0.11071374880304331 0.18554036224404835 -0.024575604074262753 -0.15064874174203718 0.0038631546966682315 0.00718242793832412 0.006207123240368979 0.005428914865677601 -0.025967354497041104 -0.07103315527690428 -0.01577437107537365 0.0152064348074843 -0.08572370733449447 -0.07852394401791218 0.1360537658599775 0.030580045249491053 0.044189700157358326 -0.14354367540069257 0.01891972046113683 0.11462951781179945 0.0375977860186076 0.10832777300420339 -0.021867860627881947 -0.15890189565304091 0.05049454955511423 0.18783317716284192 0.195957597500467 -0.014572208599505554 0.17406771521071607 -0.01717996245959746 -0.040077096214483555 -0.08573052202985848 -0.041879577701756 -0.045382294451057195 0.10960745686080303 0.016544379890286398 0.05042174772284291 0.03969202036700752 0.0433426839429723 -0.007559407435860208 0.06318345243891459 0.1020187370973832 0.08536270163443888 -0.10820020168797721 0.09552627256841352 -0.090619968991547 0.08949630122143191 0.13355580614183862 -0.013431268589841065 -0.06751046520450868 -0.06965619917844555 0.05038512082955517 -0.11650315204148139 0.06748667780395239 -0.0005665189792661148 -0.08560772403555436 0.2264792602844404 -0.0874851515159765 0.08277228002548602 0.011787957125251169 -0.009701984063659843 0.25717944053657105 -0.02016190378425244 0.06920714879966688 -0.05521210979905786 -0.046599266837323544 0.1475344662584817 -0.13732031149779228 -0.008845038273916181 0.09369367650201231 0.11169514989883375 -0.19011462969122503 -0.0042992161167085445 -0.0021199274814483553 -0.32004171372219314 -0.0017731185720896744 0.05108812317257186 -0.01747620971812467 0.040551036093889874 0.11817549700002392 0.1708793250769165 -0.07021623950274723 -0.15186589584773905 0.14243044338282493 0.16197985202193213 0.09084675487591858 0.014497891107690543 -0.023316093329327648 0.0864288013168524 0.1687377161594487 0.002710506385256072 -0.047496713375802926 0.07554330943681681 -0.06930092985399486 -0.20512708381400677 0.002549123709714818 0.22331256954723216 -0.0049233123188183545 0.04477416500002456 -0.10586313623719262 0.2050083395322573 -0.1525741307204138 -0.027907497927260983 -0.11959190685740029 -0.035010755701281024 0.03114909660698575 0.07425797411144767 0.06268548676895172 0.040471924626586504 -0.10385143145912638 -0.1109242430501304 -0.03714087356980773 -0.22135416904664124 0.10567849866922199 0.10572793904310687 0.003376865748767699 -0.08791451563159308 -0.12116560918031791 0.06665209799771175 0.057224187126773206 -0.06826487964723171 0.11458196314100659 -0.0016731305176426324 0.02601442857693227 -0.09467324416215987 -0.14596968797384532 -0.013154126306384602 -0.025727193448833268 -0.05239063981033341 0.06436259765611432 -0.10244376299640684 -0.05948172266613101 0.02340475889565277 0.15319066137015236 0.011423854544980558 -0.1614424543675968 0.0012189204088707973 -0.08878715038526129 -0.1936325443296246 -0.1801155590590025 -0.09647642856522688 0.07135126139439593 -0.06786213170233128 0.04715222023948757 -0.06848065662606667 -0.05671290762162213 0.07569737476164598 0.05964968046310552 0.007895188715770548 0.0017606310313003923 -0.22425324202669755 0.004650174077014922 0.005421316212782053 0.0870734888882286 0.003718399156072633 -0.024688102588000964 0.015983792345534414 0.05679580555773119 0.11554167714310075 0.0046160341641714 -0.05854610076895139 0.1694784944253459 0.021027979271738606 0.06325636167701142 -0.012879537294648438 0.0009988985035621189 0.017497537562688778 -0.012528933465537835 0.08493334256410993 -0.08507531613783366 0.07429102163564064 0.041225592554351494 -0.00890021311199052 0.05685275487891554 -0.047926503242174116 -0.011316668677076968 0.10906226561675729 -0.16488826957311228 0.025225255805461692 0.05153931881030472 0.13746307073890443 -0.05327314691723159 0.10518794230800932 0.002157385270224335 0.05180597289235031 -0.03808864465352747 0.07983624288137352 0.15002510538618358 -0.04432727836897415 -0.061935394225253904 -0.12506248465599187 0.02776154943169323 -0.19905185729726 0.12346215746231254 -0.18137565518821364 -0.10476397079724138 -0.042124884121884615 0.11993585125027179 -0.21512610961663695 0.04182499046245092 0.03311247061909196 0.04087399529096679 0.025566742520555318 0.08823903045631887 -0.10184886487125407 -0.15121148608398027 0.03395805667130829 0.05384818193713215 0.1336686223929312 0.12433497622513522 -0.0399327121233565 -0.04423410474244943 -0.09360505897308853 -0.0831052027100749 0.05077731390273612 -0.10594193987338733 -0.03810058870681383 -0.11128583214381618 -0.010586105838864835 -0.05322553696703766 -0.023276304153207448 -0.014010147177130698 -0.23299301837802447 -0.08819397248200538 -0.06162599839124909 0.20279657395662812 0.21590625226922383 0.1298338862497139 -0.07352727720034721 -0.08218698208525349 0.127237601028433 0.01796661051238542 -0.02535407531533131 0.027851390232177985 0.0031879657009702663 -0.04387093334135257 -0.03641978503762031 0.004666203294161909 -0.06495240005651991 0.04728890524015228 -0.1265341437924658 0.054022477098220556 -0.13910455524019136 0.09634480804824563 0.05918100411039912 0.0821173392959041 -0.03906736056031777 0.13451769994081347 0.02056112687529343 -0.09462465117619208 0.17639063063025578 -0.16887182674653792 -0.0686764141126324 0.07426603195514882 0.08605175166322557 -0.06345756359988837 -0.025590600652170656 0.05855159257252455 -0.060738313581360774 -0.16803600857485793 -0.03419238824291249 0.0759507369120065 -0.1438052325253902 -0.16955991158537084 -0.1351935377678036 0.1540753652979095 -0.03967424052590738 0.04272366259928452 -0.06351915280047533 -0.22886027583074933 0.2003272020964436 0.01977689110829633 -0.06743555250294966 0.004203627168854846 -0.09498603677197749 -0.10063350242733873 -0.10614017883946249 0.06364272243040812 -0.07898978372746401 -0.09211087118653796 -0.01659073856748593 -0.11669691236988912 0.006378349031065929 0.19155599018011632 0.03674301013930453 0.0801328831401788 -0.06673171108762943 -0.14154926403920512 0.07992500853484118 0.03544458501771707 -0.04773787530571063 0.12000443688109813 -0.031221392171302084 -0.01745187962445065 -0.16822159055096852 -0.03457415230121798 0.005204028215293859 0.03508763465457055 0.01740104386740112 -0.06149019066937569 0.09149085661588444 0.012316019067052379 0.09044761844056468 0.1546936003727337 -0.05508011625253035 -0.03837700403744872 -0.10553676129848867 0.041361246460125775 0.011487250863270505 -0.06799239985145594 -0.16580085859339744 -0.004496758183087477 -0.022625928467346398 -0.10450628405656992 -0.09532058125959153 -0.08010560569240482 -0.08445486299835485 -0.08657234939683481 0.10187040421855714 -0.13794284284377958 0.022642799281287172 0.01048967412100446 -0.04342775917691587 0.10065680268200475 -0.05388333697288742 -0.16226808155649378 0.11651156391117364 -0.024393133645324607 0.04217994532364301 -0.0870381119779747 -0.058751613810543425 0.040078598120272035 0.24856218508112668 -0.050215363935101176 0.06869144900346165 -0.13931127583997982 -0.0802519405965669 -0.07637981437443192 -0.10292834982601198 -0.18513939330919 0.004414123723565541 0.04504142537678144 0.13007848844283787 -0.12774135481552404 -0.120533832255579 -0.03774308368731926 -0.022759192945294437 -0.1749384282207812 0.0839190640906455 0.0032782138033890713 0.16957668862803174 -0.23051801977747005 -0.12749674035906494 0.002391796849190266 0.1281929111829243 -0.021333986549759387 0.1719623999201753 0.06143258178273259 0.038270203586313875 0.19446464800002924 -0.06584851649715265 -0.0903302520950073 0.0694480383146143 -0.01326491158925199 -0.14388338196445724 0.02039623169286099 0.0613894314597522 -0.012163034239680699 -0.0034596389375111817 -0.02883414984087566 0.041608132896813484 -0.2081349245405061 0.03415501064562563 0.037830857137234976 -0.10561582902350945 0.06848913861675758 -0.028609579145224443 -0.05863861467768763 -0.025829139100768984 0.04948470056881729 -0.09522574485673727 0.10602430320926987 0.08656355453514893 0.024531559040950692 -0.012806739883732833 0.09236478510303897 0.035334033367457676 -0.10303901814008894 -0.06647834876272347 0.0015354964950125255 -0.03514436914270194 0.0043206404240584756 -0.024805268647282597 0.07044070697122382 -0.05281965804591452 -0.04984883474461206 0.04686549162344928 0.02925924285998305 -0.06279511231157323 0.041952967773462975 0.1204701452003725 -0.044159188070533206 0.0714881741236184 -0.0019660141886650357 0.23104820418822666 0.15854887454234273 -0.10410793448213017 -0.06729640627830182 -0.05735920259522738 0.10675902565056204 -0.19807490380458243 -0.052002035200221265 0.21108465360555345 0.08968362129613819 -0.05507699830414981 0.1440137024469877 -0.04965660732592407 0.10156296747120205 0.036722058025206006 0.13466084947115864 0.09860302387991132 0.10270032831958854 -0.04974125045891009 0.017384959220921918 0.008832560602253962 0.12771487223085085 -0.04174203096496176 0.20533329334840156 0.06402572722797092 -0.14471014569088586 0.00046463758042526184 0.20954020422177375 0.0054151095877215845 0.07189057229686731 -0.10880208049120521 -0.14783719233268006 -0.061288470395513946 -0.11986142346397606 0.07841297738701662 -0.10938213282242093 0.026243329636495477 -0.024111945636774292 -0.15246627321736567 -0.1008023421658033 -0.12041594166244551 0.08563979007516985 -0.024704199781135992 0.0687985650230455 0.12544306973503272 -0.08247868658871889 -0.07990589879095841 0.050129289566282674 0.03793930967832818 0.02964785508291954 -0.03366947315478446 -0.04406815667848417 0.27270790380639176 0.08342274105721664 -0.0884373823049267 -0.10294802727076723 0.1696859740495615 -0.02240955614601509 -0.09278378139541245 0.13553862284126392 -0.10244915891976039 0.01181640071851245 0.05413220505424922 -0.0026391983953865782 -0.0021690121427831105 0.10037095402298128 0.08382537013473439 0.07563398177034823 0.17444087806714903 0.14399865745937393 0.02476581188914414 -0.014391429259954382 -0.06112292321238663 -0.07127842018867464 0.020353703116837114 0.0298371933765678 -0.0007401284980595105 -0.010448418445052066 -0.038146105192170675 0.13911369162284418 0.033248186887915775 0.0536887515681844 -0.22284744657255673 -0.06113434901534358 0.02603630903324052 0.0473964869577494 -0.06818800173370626 0.07563987223717061 -0.14207053935108582 0.13026866582263757 -0.16630450762387086 0.010625519083040819 -0.02405463567441479 0.0844047453930556 0.01086139286310156 0.11340008762591013 -0.056386344539846686 0.053997529880912165 0.1992719035271059 -0.088549907634286 0.04446862501368934 -0.1511566577949101 -0.039529810072120315 0.025627258559150084 -0.08010390038614693 -0.20017962050950117 0.0775392927891307 -0.10453674092818568 -0.13373629329506528 0.0839733191300696 0.11110403144937345 0.012867685605326808 -0.020198745358347415 0.23203867577676182 0.10874991281238887 -0.03918539134339759 0.07534210447209386 0.004003382280531405 -0.1500037194865095 0.07813650567337507 -0.19706314834601682 0.03117442354718135 0.0010087177945365764 -0.09410412788780369 -0.027098496527196404 -0.019794246647794434 -0.12928801387878391 -0.09319971244986797 -0.007185046251042225 -0.005704677737157721 -0.008501631803020528 0.14087949042889464 0.01393695465994057 0.1528780583708397 -0.1905618836328741 0.17948341047960592 -0.06431102965256867 -0.10772214879990953 0.11365020790107556 -0.06078381677987816 0.12828070934813432 -0.025575128824782058 -0.06997159663437662 0.09039095119875007 -0.020905991377566897 -0.01963280164168768 -0.1430100359763184 0.0520802811525826 0.12994005740836553 -0.040737809207602164 -0.04978324501471606 0.036032156776712676 -0.04244969485883831 0.14265325818192012 -0.021999835482175926 -0.003459662139139831 -0.018385371144747704 0.07956026311605305 -0.06166869242770617 0.02928497339107263 -0.0866505966980793 0.09309547356708761 0.019638864054653662 -0.07096342781444785 0.09019304410820439 0.03770687296199154 0.01025236760510786 -0.06595061619657029 0.10433744416842716 -0.011141149480465991 0.14635539770983588 -0.06566661391303168 -0.07229335032216128 -0.058359606860895086 -0.1206429393502078 0.04442243348861066 0.004154019663864738 -0.04157811262153479 -0.06408635991381192 -0.18479057840298405 -0.10841294700921585 -0.037762095817366136 -0.04636800395626333 -0.14033519682473525 -0.03947998611848739 -0.015162059758357388 -0.06335184914314394 -0.023552168481690564 -0.10566954312990441 0.13761418877427375 0.09454967737658451 -0.006416956745566818 0.004064799998742478 0.04731061412111815 0.08811580502220523 0.10126360912136559 0.01869172535223907 0.007346480686883335 -0.15861018676861321 -0.0421935188856754 0.0330356140745505 0.02712914555521728 0.11483468363059322 -0.02605418779933903 -0.02737453491460824 0.024951598188357484 0.18937999764687416 0.07338707164671467 0.07909146556797468 -0.10423120909532822 -0.01555010065440553 0.04193607841439083 -0.00219224255198103 0.09123668679220544 0.00509934693014506 -0.08560561014139743 -0.03630332869276082 -0.07657589539423906 -0.006054314883825421 -0.004259963731551946 -0.0038525500465044172 0.10756084518364774 0.015524291908047593 -0.01539994205883159 -0.0030493077747582894 -0.12768833080877692 -0.10532395333600168 0.10596254769164432 -0.17419885989546222 0.05123141601405215 -0.07571707134761901 0.14058067746339672 0.14908460717344266 -0.0037683754432303552 -0.06413262902715702 -0.02073725042166086 0.08957714931540486 -0.03193575723135403 -0.14690253859191166 0.06722417149273426 0.1907680368230326 0.20301983760142303 -0.03539915983305068 -0.12083245432695401 -0.061145211906774403 0.08070531397435854 0.004630601020351515 -0.01615163333628508 0.17218650644832845 0.05303077675282561 -0.06366839666851716 0.04365593428811244 -0.05551134815699455 -0.09275268170986767 0.06457502115574433 0.004286219833384267 0.10266392529570745 -0.046349242223018616 -0.035071631801594116 -0.1213722394537655 -0.02237253312796197 0.01587615621829326 0.07978285927263686 0.00946156607362162 0.10462385883895667 0.0014883516003125748 -0.12567520676434 -0.014068054194190053 -0.010471512517551363 0.028235143967895553 0.002178341563965063 -0.07836906801374835 0.06431778201336168 0.049067047918322525 -0.019115386815158862 -0.046266170145548506 -0.2025926833638377 0.07826104176854635 -0.14207412473543654 -0.13096686887968753 0.1782164489726451 -0.04037736239489054 0.07456541842276306 0.00578764177672372 0.049320560433919636 0.0006906325188745357 -0.15050497539528684 0.02461884504467613 0.09458772051615924 0.05281542212197678 0.18919841351862735 -0.07333364387766414 0.032250062956403286 0.041877994107136864 0.0652147993201582 0.07170319864421454 -0.11264641703410472 0.045406091803534394 -0.057501177345120676 0.10985298636104399 -0.05894564178459158 0.0676612640193671 0.09874186254646433 -0.07131864828109093 0.005187980172083641 0.0907227947520068 -0.13310569028930552 -0.20274707754582452 0.1455170013068213 -0.08100993388327636 -0.04288528948202153 -0.0899628759086129 0.07897626890915596 -0.1100248659469591 -0.1159341502059414 -0.14275645041273494 -0.03112044440819754 0.06049422715189664 0.10968693105253927 0.008669215408999955 -0.004967775610890894 0.06415379879802367 -0.0543389484257431 0.04176800217255431 -0.09473362581097435 0.1203009370427874 0.03763647354076797 -0.02385652990372276 0.029116647326410505 -0.04891280736856967 -0.07317308033519843 0.14593685685059632 -0.17401611007790127 0.0421524570192005 -0.03211763429751315 0.19397487996265658 0.020873099108287944 -0.09831272397366234 0.22349058634049032 -0.11412091676626507 0.011325335226205664 -0.05354275336813252 -0.01894393139326602 -0.04941450653303869 0.11193857171770925 -0.09884751103455044 -0.023633193707976938 0.058343221706564787 0.009642942420263255 0.08322994271794561 -0.02090960621022691 0.09617693498711231 -0.08720321900302372 0.022548231744789992 0.10928163113936584 0.07200080719442319 -0.09056256846313229 -0.07301503535671476 0.10585225069504688 0.1076397215660715 -0.07782225291215265 0.04889066085985986 0.04824854905547103 -0.06772868394535395 -0.07915261691011095 0.10457516151103266 -0.0112399106665028 0.024835354312316163 -0.07488964351460389 -0.05196840998507192 0.07412103987171845 -0.12171491335802363 0.12739428972980718 0.025187484535921744 0.09987095854312322 0.06381303377113191 0.13891737265134393 -0.0249623937467099 0.028470797218900855 -0.16424822967798222 0.04160006221611524 0.017177969345777033 -0.07447374584274043 -0.07091476720052652 -0.1686631522998736 -0.0648982749359162 0.11090385866733003 -0.05090803112187451 0.03397822410736848 -0.045777086461600336 0.1073927912012449 0.131847955645228 0.0588940803806577 -0.08950619642827279 0.11267050075124699 -0.05531316411317997 -0.11037988647661459 0.0829558798001879 -0.0978786008029752 0.0375388596877715 -0.026463212408531955 0.13819247272600224 -0.010696817349349904 0.039168080899204975 0.021141973637404672 0.1205117527309712 -0.012501367965456974 0.09462804960771624 0.09853624315631382 -0.07609649802763715 0.02731939248601711 0.1541723253327517 0.0974698625211673 0.061901075797909516 0.034309188431230965 -0.14145031198767963 -0.0831469821493831 -0.011348196152659546 -0.017132192650542027 -0.009080265387404267 -0.01680942686804803 -0.03721928515348372 -0.3011214641793151 0.15057886240457927 -0.017636476391447897 0.05951400808982773 -0.005173338474004419 -0.17890891427793482 -0.015291872303598075 -0.014187353013522605 -0.0645379062622598 0.01582323828170681 -0.15900812326870417 -0.22840670203884592 -0.04805344284375791 -0.12845788995080729 0.03972790476685916 0.044686620264940816 -0.04429639984117963 -0.07775826525377383 -0.017206917441195128 -0.05880961968219577 0.12915579352806855 0.10421134659915975 -0.055476687702768215 -0.032680384772719416 0.13773816173416614 0.09389750055619327 0.16413124085247852 -0.04752751460496816 0.06625146125111361 -0.07286281669992957 0.05084147002881577 0.07926360408149424 0.21560683268240013 -0.017376603499683008 0.04866201554486785 -0.14559431252416294 0.0626925612698089 0.2053691743752596 -0.027982130342157845 0.0012471955932544317 0.09978411211943765 -0.09007768040822456 0.03196777143179506 0.11142859271109164 -0.050750946904381956 0.05363383032627587 0.005086001475835006 0.040275790625472686 0.02272458920854019 -0.030445647104411014 -0.07128050416687683 0.02384299338058962 -0.018502665874031966 0.18131088858437347 0.09895284333651781 0.0028211696831745028 -0.009044470072765758 0.09254305704145684 -0.17170975137054134 -0.012098645248807256 0.2185430068430596 0.07614717592096643 0.07828078544763752 0.08042648952609252 -0.17747941594006586 -0.050871378001032724 0.05843136471219186 -0.05973865621418446 0.15768076551889088 0.033916167680817316 -0.04583247962168916 -0.08524526094030614 -0.007368384557758481 0.20808918742881136 0.1422202924265902 -0.11441583519165305 0.05469774429116721 0.07050981301811769 -0.029354491590081504 0.04733785869988879 -0.009993471575846609 -0.04891328361911872 0.047389815358207986 0.04228496020711431 -0.11361599213604086 0.006351974864425836 0.0905275036594214 -0.08223437319720911 0.09256473381727863 0.06312689542569899 -0.04291070683287943 0.11211675335701415 0.03440285355785751 -0.050296065196981585 -0.1537060901362891 -0.05452339448980189 0.1273811765557071 -0.0683250539333461 0.08059286682367246 -0.0041438192366384605 -0.005746592456988287 -0.03967571367281932 0.028894497124074818 0.07401712782095511 0.04045733676353379 0.09878018972971747 0.11681590355275645 0.051293381008509824 0.019415193297773116 -0.005810809388010492 0.020838630140765837 0.05523015556266637 -0.16378688432188804 -0.09803501240081476 -0.14629172922397624 -0.15146015916647732 0.007638272731611644 0.0035955963540967293 0.18623530454746973 -0.03955705035035088 -0.032422287594735616 0.021229500555744997 -0.09879949886549942 0.01623734383852633 0.04890032773113009 0.13388191905539087 0.05024770237600883 -0.017058363485642453 -0.02767101704474644 -0.023258069954795367 0.051239302101530944 0.09372842910747711 0.09169480296331824 0.03835807054312341 -0.0018844777908024403 -0.11288528564158183 0.07079945652735663 -0.013320765954214726 -0.1501723338998536 0.021079004664491318 -0.19955311313189256 0.1661348158624954 -0.029080415941240004 0.1284453508669108 -0.13441276077681197 0.1228421335534154 -0.0540764212026181 0.068425938582303 0.09238294851733056 0.2286746231400229 -0.02513696084591957 -0.04288066652802669 0.03632804790757537 0.1224735754937153 -0.09225501186706558 0.07970305568358088 0.006110930364380034 0.02468316837117366 0.1339924701249404 -0.05731967655881038 0.10182498092556533 0.24104920466386998 0.06365847095903515 0.02725441011212064 -0.025178849339119652 0.26014326343678085 0.1278549326932183 0.057681841805311704 -0.11643503980982163 -0.010011961180984368 -0.040704382004899974 0.11191815190338263 -0.054917509902110626 0.18793354067741005 -0.0314962771034407 -0.21141258631437368 -0.1294789770605643 0.07231967726651743 0.08281354883193581 -0.07094964101185809 0.09675606366815935 0.03557166242648291 -0.12116683923768234 0.07850648029050274 -0.0015908158272596171 0.039774013719069426 -0.07266990282701188 -0.12997860916228265 0.16893611507618922 -0.1393276737823895 0.14284710414629026 0.12672027356803336 -0.17127465059815622 0.1481621668572251 -0.009862470079630781 -0.05881118224052023 0.08779775146137032 0.20864152671536682 0.04575457679138823 -0.11605249721944345 -0.051194847660395025 0.08537175652582307 0.115137068779599 -0.08264143152395666 0.2049382370607049 0.09160476502818424 0.10873657968382709 0.0060589826550769745 0.0456215541340695 0.037973269514192214 -0.04982105267223923 0.03715427573074052 0.15062979892906275 -0.0687192261339638 0.048170837778648126 -0.03667419212721406 0.14154322471584446 -0.0568893517982595 0.10514869614378802 -0.03752301300275158 0.20268425384412622 -0.06459159401263169 0.12048037287551006 -0.08220909715647559 0.08300911961010615 -0.08516684452636102 0.0191476036176789 0.08412121081428431 0.08716332420667061 -0.14853995118885804 -0.2091444407449023 0.15439234398095417 -0.1328652253578606 0.13463321023432823 -0.041791838134574835 -0.08175104142171859 0.04454295020130077 -0.009910873594471131 0.057186370755984255 -0.011987364899078314 0.00634617837396642 0.012074636270693903 0.05972913967063788 -0.08797179979165988 -0.06882970895467715 0.07039099852544307 -0.08172753847288165 -0.024497151430076115 0.09482128576495097 0.006174201791704217 0.05273667038258866 -0.06979120283386876 -0.0815394066359433 0.000890130685431396 0.008745493774134847 0.02158139629398759 -0.10041975352439426 -0.1906099516740495 -0.011032153772425793 0.20033122215806876 0.225040962617404 -0.0388878879198422 -0.07411527260282433 0.12829685143088573 -0.1648360336279879 0.18715429854392598 -0.007706369271009721 0.11629345192906416 0.04856395220452703 0.04965011457105435 -0.07796476349107462 0.0076913959336488945 0.15652910709742587 -0.02230249632592182 0.0486666814817742 -0.002678729198840264 -0.155441299280147 -0.010928536732338878 0.1188916078664581 0.002188212400075163 0.04156795538250566 -0.020245983483255 0.08623766542579078 0.024931171666232543 0.04251407775614123 0.044602028726317626 0.06014605782777571 0.1312486362228651 0.08795052129920436 0.050622299160200994 0.06783457065771613 -0.07734653865313545 0.03208838693834322 0.04164779494125605 -0.07209403882386489 0.14788088368223962 -0.1105594172302216 0.1454669308178052 -0.04167604215715172 0.013787122289435863 0.03551639632823643 0.028972841533975655 -0.14768476614259107 -0.0018104899035450072 -0.04242070304924936 -0.04719820778674759 -0.07140884963777754 0.03432242838717438 -0.050271416284610446 0.03426116724542597 0.05329966753427519 0.11052901277391042 0.1440538439979824 -0.024513008181745587 0.05868509275029851 0.06006055746537782 0.016863579092947764 0.013843249329804555 0.00654860620682748 0.2740025107180882 -0.007411645633674761 -0.011650653552454206 0.1557779471029024 0.07305687421093894 -0.21937734301356118 -0.010738457297415805 0.02728398825569602 0.13036519387056408 0.007656485161068675 -0.13106253865674997 -0.02978991565306832 0.07343838432689836 0.10345502074820673 0.07798014714137518 0.10764581425708257 -0.004995038414908403 0.10797182222952162 0.0032219138365086556 0.08501659914549622 -0.002932106457871009 -0.019769960077299007 0.09678413846534913 0.09479620363015434 0.05981338231938616 -0.15989411331539202 -0.07652232120489323 0.0576189219006418 -0.0794128433272559 -0.08059413446173422 -0.0818826375185731 0.03135223745607509 0.005580629637724062 0.09057041899102959 0.06517376209307578 -0.026480803863453257 -0.009231000320444284 0.12480541366740765 0.045822641295094946 -0.08407496357522788 0.17389428121403966 0.060495304578669015 0.061594742518336375 0.11674467956760157 -0.06593677999777822 0.038318477984361846 -0.08590844744270584 -0.04850992078479493 -0.10527992192559348 0.07608653038952455 0.06583664754686692 0.03792113744954044 -0.03963702160667019 0.09971107683004968 0.08927494541124585 0.011654041215644366 0.05670167274697718 -0.0005424215776654617 -0.01569740095533896 -0.0011800376565692713 0.16161778764447257 0.05422793791462796 0.018197239201051527 0.09211029560056702 0.04453181108761355 0.03835636449859784 0.07122904826240053 -0.10807241060472471 -0.028623424185258314 0.08080156219940664 0.175151103601324 0.08693001418248422 0.03228345550605345 -0.07478772807559267 0.04701841049861532 -0.004028602977405821 -0.09197925407425679 -0.04563822491795288 -0.14405529824305696 0.04547162706254852 -0.1257196752588401 0.02104223811273571 -0.09304727284138388 0.06006133724399781 -0.06442733123248096 -0.012115090906575796 -0.06703701016571673 -0.13226796755246517 0.08124172630027106 -0.028385131189177407 -0.06083630817900154 0.03657092746571696 0.17394630824298155 -0.014852460866823654 0.06122229349901085 0.12729056365321584 -0.08141133008368931 -0.0721235263430053 0.05640870407763067 -0.02935970425244606 0.11182379496013753 0.06461224704170238 0.046447877824978716 0.02660940142351755 -0.10896233058707466 0.08195474628055804 0.06550351496796672 0.19228738849477917 0.033125294028629 0.09581260652184352 -0.034401400251556885 -0.039008636783815366 0.10490182380960296 -0.00456769695982076 0.1050948495522013 -0.15585841643605117 -0.15637792133450196 0.17965509040240976 -0.01921353836330319 0.037688833475273714 0.06529883971291636 -0.11617533794842883 -0.14286458356023335 -0.10725931115064108 -0.03546044909843325 0.08003351283586545 -0.06919730148042103 -0.05433673562695122 0.025426719181016424 0.03839222121317045 -0.1568943283721385 0.0751151910144409 -0.05107163130191369 -0.11507598823477863 -0.06532927463756714 0.3614339324792401 -0.009913244283640946 -0.13865825644646973 0.0564842496468537 0.10208798055406791 -0.004102497234152863 -0.00521146217839292 0.040670296924888945 0.02568913253880624 0.09478379097164863 -0.25558215825167097 0.03666350946731788 -0.05160169920204952 -0.07450781548917561 -0.07896104957674953 0.09249887128437148 0.17120468025117255 -0.028228466488928797 0.019295477960018122 -0.05636276056510691 0.04704453016330804 -0.009640748728926158 0.07947998385341944 0.09799775498375894 0.006649875030980363 0.19959103195902508 0.11154031568903336 0.0333201457172976 0.04829062429926488 0.2388051981024067 0.07977418366112084 0.015006797238975642 -0.04644509826646936 -0.06458352537265123 0.11977931190001125 0.08162767372395363 -0.11468286517547968 -0.004445389597407675 0.06576199223455413 -0.097778171209206 -0.15806579758234554 0.1622814706927639 -0.03511667686976918 -0.01601341578931314 -0.003566358141474623 0.049285289606136755 -0.0566688314786658 -0.04040856803282477 -0.141638000464862 0.046709187175432765 0.1731540150859498 -0.026800726037400743 -0.0818514944282348 -0.04043991335850293 -0.053857006648298664 -0.08171763028432501 0.08956161936710122 -0.16570502314104382 0.07242867911038266 -0.09623340672544228 0.06459774521214466 0.014956303119847338 -0.07838989663783298 0.0784004839622006 0.022531870815819224 -0.06003941220093797 0.08759422571059561 -0.03359718446636367 -0.04419321596286611 0.0355133941610899 0.08420150071226334 -0.03841599843057399 0.05177155528335104 0.07764905664696116 0.07435772262956493 0.07562162813493156 0.037211714321355525 0.018977709522834566 -0.029329518996279166 0.05014588398983294 -0.009032192442953845 0.21447537523672136 -0.12893599178199672 -0.08563822280698204 0.051391332090067625 0.022478082132947035 0.024187701338158115 -0.06365017551708556 0.012268341543899134 0.06914166105392959 0.004466962050163178 0.020985019270676766 -0.04835984130361207 0.09773114411208883 0.10561686118561629 0.025096689904990293 -0.11963450611557987 0.04466901416233177 0.09910270467111294 -0.06337803538930524 0.0927693716060548 -0.11661575962892054 -0.03988231674817654 0.21226754834570036 0.05887193470307394 0.06274758689219717 0.05915167744886414 0.09766962627347978 -0.005975570055509838 -0.10003538389402021 0.0898226462539777 0.22054888309459086 -0.13606556041533513 0.03773658438229206 -0.009612008871811992 0.09557192090506729 -0.129478251707395 -0.13257858921158833 0.12154857938259371 0.08675552437138095 0.04331063045246831 0.0954753199707523 0.08182587518374068 0.06543530410663514 -0.011797514164395447 -0.11695970356539219 0.06220039098197259 -0.026590206686321855 -0.008178852826890444 0.029553128487743763 -0.061594875740317204 0.01825600568236055 0.02354423138675858 0.07602235702136623 0.17265713989267947 0.16488190830538607 -0.018509285701689103 -0.12439057035840058 0.08063064436939117 0.06810014671036049 0.08992812868129116 0.06931110600424199 0.09939684121306838 0.0478125488169009 -0.05106936305525031 -0.06546113275933829 -0.03190371147333146 -0.03885791179778281 -0.05881718746489762 0.036643114974878876 0.12134603444096499 0.07282378196510265 0.04881640891991769 -0.06989084788381175 -0.11165591398026438 -0.05094450942750732 0.016525637927070055 0.22679271276088794 -0.03957902846713131 0.1586329192571991 -0.03075119097981545 0.06541158956981762 0.08338086649746733 0.06656034113963526 0.01420858948616669 -0.06442375317711499 0.0007881754515648493 0.03549811185652967 -0.13836895789521658 0.13021493108044163 -0.025157040331469503 0.1125196883667237 0.09978275908834126 -0.051615457613934844 -0.050946574582352716 -0.2694277410369714 0.03275140159107951 -0.0679509367198308 0.11675054033887142 0.14142698949697377 0.027036119523711016 -0.07018880656445553 -0.06992999760329344 -0.10837623404361152 -0.08716643678012594 0.03952378216735826 -0.020734990375741703 -0.06352068076857452 -0.01565183621316198 0.09089828464437723 -0.016453963126355636 0.05143984885564692 -0.018406976152928273 0.014110028145384462 0.10096189337277409 0.0012262475134697938 0.09274738760313068 0.10733191226278363 -0.08825027176246693 0.14142554136439736 0.1708319545850954 -0.06798329787069685 0.07127868884016504 0.01622897327129712 0.06178357293314062 -0.20680394475437167 0.049346490053929125 0.11068014379630613 -0.11778923683475849 -0.18038140935333616 -0.08885645103047234 0.03180843330197428 -0.12454285368164517 0.07968806496594616 -0.03564646661060613 -0.03306745525461798 -0.19344736398557955 -0.027512329597015828 0.01756805084630234 0.05823505836922341 -0.03595117104482368 0.0004105459906487189 0.12385807571932445 0.08902649607756193 0.07778939404745584 0.030459985695459255 0.004098558369102357 -0.13836970620386074 0.07456110239702587 -0.007286668698034038 0.033827302023278924 -0.09329516805103477 0.10044956194449386 0.12979725404970285 0.12319507841513577 -0.09609889703805026 -0.11907794900921538 -0.009995032837904238 0.09778641425990249 -0.12566247435594144 -0.04300422758351156 -0.04183542051353315 0.10406882486703767 -0.07627342782253177 -0.050649906841944835 -0.1012474779587106 -0.2771773669444137 0.18632418939170983 -0.0303682964335662 -0.10802333975174325 0.09236202718624444 0.041591352774833744 0.05161315484390549 0.044798253524668805 -0.17296524523733264 -0.01267453028418789 -0.032239247125167014 0.03906977030091301 -0.016862645193877306 0.03513980432788252 0.0735512113199126 0.0346360932985495 0.020591897850690474 -0.16037179125937298 -0.030239772646161622 -0.010749613792884354 0.004219238357370047 0.10881899761405397 -0.046169669206774074 0.19131558743962238 0.12154331794848 -0.09877100513435892 