0.014727977037625371 -0.0694350695713882 -0.08785150417653409 0.10073960560853892 -0.038635986130655775 -0.0692041969782327 -0.11348497217353798 0.018211445737343505 -0.09816191018583728 -0.1435633774422365 -0.1115901379967716 0.10324293996852228 0.014571341164507992 0.028547440639746013 0.12141664226580545 0.16014128789234044 0.13101533042779254 -0.0386317697938683 0.01932924748690146 0.0370432347427595 0.2298526184044457 0.02854846406027163 -0.016034573864940536 0.1360716808210036 -0.1122814609668237 0.02980860928354497 0.07921173258429474 0.07277692031195372 0.1385720322074453 -0.14088368664196246 -0.08538623464393423 0.11628228957905849 0.009603958608568525 0.008395067778377374 0.09332754647792192 0.06356753615479664 0.007391081144844089 0.09370804552341168 0.03127740313315996 0.13477153423604715 -0.04418932287650387 0.04035575806134794 0.048143954331898574 -0.050844396170530964 -0.05662220381304827 0.05831100087371958 -0.26232345571642324 -0.06059950340618845 0.14668491530976982 -0.12468557528762225 -0.16698547758946225 0.04200534332980493 0.13305927210884969 0.04636423858699872 -0.046148318468201555 0.34404557875216657 0.015579187062948495 -0.1799583620713584 0.012383352073903744 0.0686942706264686 0.008524863733306104 0.12752926821812074 -0.06558376689952336 -0.04311195070296445 0.04102393606086216 -0.11325691900985804 0.09942954455288794 -0.0313688809453779 -0.1956734723110794 -0.0862180853168739 -0.01591145108580455 0.12099638815137699 -0.2192481654944504 -0.2358755085744226 -0.011943711548782345 0.027319442426618653 -0.039574801102809976 0.08950007606958571 0.04488234187262177 0.08475423505607943 0.029200727234562636 0.03280144010528988 -0.01777097936294769 -0.03200616391636618 0.0573636998957927 0.05518266493260411 0.06948919552378363 0.30440130524770714 -0.09602179595697534 0.05213929978940543 -0.0825546098559954 0.08367079411331538 -0.14806955985445427 -0.11878058886732566 0.11338244952007447 0.0391873734675264 0.016407441361526536 -0.062212678608326716 0.1206987785054557 -0.10942775790803932 0.0010024589876160286 -0.006928956315421006 -0.04704850599035718 -0.009420528497128811 0.22112847402084232 0.01729808070945714 0.036157196886300494 -0.12434171839447766 -0.061338120981543925 0.20021195482795695 0.006691971433751588 0.052350431761609834 -0.05448546727526731 -0.10598132483028296 -0.10464426022917435 -0.032875914899075646 0.0774246306267471 -0.027612140171828826 0.04136592957756771 -0.11610696340797533 0.028021968352064996 -0.07297726352893247 0.06225358258828972 0.1294474956436284 -0.04404668489460034 -0.022989493172484107 0.1823009851914938 0.07266800585363646 0.1813983940410317 -0.07163083815623784 0.0607490672354592 0.04449111359518988 0.06924239325590398 -0.15683873540801896 -0.0036024221871272127 -0.12566606917891954 0.10875106584614776 0.08519404642234563 0.10789280552279512 0.09989260588311488 0.029613286953701606 -0.10988670979319058 -0.05473359056412437 0.1195830503585833 -0.21462875571181464 -0.01853523471540516 -0.22967087183835555 -0.07148316552517213 -0.18677858746798937 -0.01735859688696687 0.008660935447825254 -0.019958287129788914 -0.17433152965416865 0.07392063327954246 0.14148656667913564 0.06023117128782473 0.02305666139825588 0.061645156704884824 -0.12872154490979307 -0.11061679168214951 -0.05311016977926302 -0.053964403952354 0.056485653822003414 -0.016923065378486202 0.0022890211335000184 0.14891397324702021 -0.16696602971143182 -0.06932019760858575 0.03725008392499781 0.002961954755464407 -0.004128195849817995 0.08799494463707422 0.020008998709284038 -0.2282798083360517 -0.03965160461375774 -0.123663068285295 0.04025823210869209 -0.09265746197702632 -0.06134891924165479 0.0763258365108207 -0.0824801532135575 0.07977710869882121 0.005601207670321597 -0.06601446394821885 -0.1822886969684482 -0.10909235118127812 -0.13816236486534464 0.05611409366016358 0.10802906847172676 0.013589395285120466 -0.04861235825707595 0.0901386531302671 -0.05081251295906 0.11496498118879171 0.02898312141616363 -0.05347101405133059 0.04506691180492011 0.13318182500568285 -0.020091743572948018 -0.04339629453909824 0.11649099564743276 0.043610288338640404 -0.0284248622752948 0.11034043568146563 -0.1309360816747718 -0.03532305370286966 0.11719420873322497 -0.07789623481712514 -0.05552655386452199 0.03963335956863295 0.02533819000815999 0.09920801725046403 -0.033739002570097376 0.14442643088899637 0.04666684534100593 0.18633228347973282 0.19564125847153985 0.15616048765333612 -0.011589473230344444 0.14137556504180676 0.016833759943781206 0.04837005582420452 0.19753201735418668 -0.03378573502261986 0.023943573923971864 -0.03006458431880027 -0.21681595874999204 0.0029159319420222936 -0.026191135746754402 0.0633252919204221 0.1602569507183511 -0.017606408972219028 0.07690251357580821 0.1545237565300851 0.06420750940389489 0.11487405081239194 -0.0562768718025449 0.2383813811882273 0.05187822483847679 -0.15275171250216615 0.15391113664484277 0.20301178520428154 0.017719427296298076 0.060893792793686355 0.12594589994824806 -0.09813193861066571 -0.03672674825305363 0.08733923240447393 -0.04229821883694985 0.19785648689405666 -0.0214547668822185 0.07194031137321798 0.02245349566801812 -0.08657381697639467 -0.00931218907317633 -0.013582282046923785 0.14155063977607132 0.04439039012718103 -0.04717277450783326 0.047009896843657466 -0.013829297855108922 0.10457618460801366 0.00010096639329750693 0.0019545464602966317 0.0005619049597143502 0.15696624470178897 -0.03396439702266464 -0.02376171510320779 -0.026479854718857127 -0.037806933210530136 -0.19316680353315488 -0.0772145364698415 -0.15582493755823443 -0.12800174146991922 0.036016836631422376 0.06424492712219425 0.028308713856558795 0.13534625920310817 -0.16121273012379014 0.006254611671820877 -0.036040792159309915 -0.1300148930771612 -0.0120897470870624 -0.11774547695177368 0.017198372846113866 -0.05827819730007599 0.1262733070489309 0.07965868036040169 0.015698087773161357 -0.03937720871848328 -0.12165970213485988 0.13212730165186615 0.1564063283647511 -0.015678849192295386 0.07579691687063021 0.08584199676190055 -0.12042561171532318 -0.057029576611716586 -0.005890438888109427 0.06717854690102736 0.03536765159645957 0.05789764080542218 -0.02635624043458308 0.05829707363858755 -0.08525892643790393 -0.004722329832082243 0.1280792236079982 0.13153368633997425 -0.04258544956213352 0.11870146766821742 -0.09495410965289225 0.17511860834886683 0.027478931192514617 0.02470712893842634 -0.08672047268900655 -0.04113934880396859 -0.016842578803487114 -0.004846870978157 0.09781631522223526 -0.13425936490938198 -0.1543903071921252 -0.05423449083151212 0.023952809496744686 0.06329402173758067 0.025821170970804098 -0.07327983342775397 0.05468854982686586 -0.0022259947715043684 -0.04943982673563421 0.055129203728996004 -0.16177020991059238 -0.15180751808662074 -0.10799356008874349 0.17877716486641126 -0.1315448114028385 0.06433536900050224 -0.16373069286302744 0.004680711383512148 -0.04005706985280069 0.2040873938580502 -0.06046084373758706 -0.019313539448035853 0.02888746893768687 0.11701861475809726 -0.1158649856611322 -0.11295138992673555 -0.03863536478474039 0.16182899871315037 -0.025854175680910193 0.01133904454877944 0.11911484643255368 -0.11350084004525313 -0.12084711788439956 -0.040129821008078125 -0.10720963883992096 0.06717999311251828 -0.18114762853122662 0.12675404585452252 0.01953189682530379 0.061970688007485036 -0.023981061455055477 -0.14242889057794225 0.20123844980511688 -0.173407049528192 0.013326374471873384 -0.10250844500537358 -0.042134477460554313 -0.013408621256572092 -0.08880541650316724 -0.12006143100279165 0.15308595498974928 -0.10019185894644989 0.14156210521006932 0.06144091871639749 -0.04926245792513528 -0.16723601512145894 0.06617239902557118 -0.09202079246871483 -0.09117166964790657 0.017020811616961392 0.13646205105677361 0.06315712792955035 0.027996780211028607 0.13736751686190618 0.12831888923328172 0.025940746147841465 -0.04124238799334882 0.0995838269450016 -0.10112731107260312 0.019148063843878644 0.09800494878713556 -0.13044065117725856 0.12293188215006277 0.03954954597221835 0.18299972999597436 -0.0850902649547159 0.06897159711337379 0.05498848808347906 -0.12134086248490028 0.08014582691083777 0.09484996371267204 -0.13433604290505155 -0.038515427360329556 0.09050596622467216 -0.07081047694477323 0.11202204539915182 0.1531772983591269 -0.03513822920801057 0.026318165272958 -0.14870612415755502 -0.051586576680641975 0.16509076795682223 -0.04897651627792296 -0.017401665463680143 -0.001633253293447681 -0.014987224395589442 0.1228300121389915 -0.10635948481878657 0.002255048797169217 0.10848741191930217 -0.04793189052826525 -0.11276610296794076 -0.025880578366413404 0.08893743245752515 0.10607613870073976 0.02721084710363867 0.13036975930509984 -0.04999656885348025 0.06631557033260306 0.015730501796950937 0.048148295864564594 -0.0746917072504532 -0.15331435395771476 -0.12524705743812312 -0.0352288411134677 -0.0035841197268551444 0.17929670139890388 -0.17159205546857825 -0.07352083001576526 0.03906694966976588 -0.11531488097256093 0.22369095156873278 -0.049429473226201934 0.006539683139353024 0.12450597849126557 0.011927778643309095 0.12125239070077938 -0.055713516640635764 0.0873342609934229 -0.00429833483336181 0.03849584451809515 -0.003502867847344163 -0.015153790961472888 0.12109138638910429 -0.0071296024993724415 0.0084556160022774 -0.06787609651667265 -0.02508521386377969 0.1269519180744533 -0.013987198245030585 0.058754540891743645 0.1253944516397458 0.0012097058353370206 0.13391157346310345 0.066360694526007 0.028638771900125305 0.09622662401056548 0.043206639596889126 -0.11696899191315964 0.20888341542490335 0.01932478758673851 -0.11970777961468285 -0.057703967052367515 0.03611756043416116 -0.07598029531672561 0.11974348254419631 0.050212181819097736 -0.12435317494265681 -0.0011972637665929767 -0.0023132682420441584 0.16373683447688617 -0.0709802352821891 -0.1664528671045962 0.12301092209995877 -0.1178579073109412 -0.18832197544312534 -0.03165939462436558 0.07665611376345999 -0.035688534825516094 0.01675562128477556 0.04051006091278019 -0.12302204044162263 -0.0464179126587711 0.07755755301551456 -0.19581967683231508 -0.024458217295521084 -0.02157086616084694 -0.08310457928489824 -0.06374056928402429 -0.09264741079590913 0.05129264970172355 0.004580156515914005 0.15072318610933422 0.0073675181895708685 0.07824544041101844 -0.2139864599566789 0.012361994147417867 -0.11468726594550481 0.007750070090879104 0.18622057843447673 0.03835502176482489 0.001901521453809652 0.10473119213386886 0.0981701697992348 -0.21915482786978424 -0.06235251631107357 -0.20402106444460896 0.14839307062053406 -0.011849054722663092 0.02281462486365859 -0.010556145220098349 -0.13908475759190672 0.03244625144559835 0.049686196022538154 -0.11988991604261186 -0.15130864061855315 0.029140668542555093 0.04226461432549769 -0.12107590106868182 0.09462720362781586 -0.09679666843068459 -0.08513969048168213 -0.029082862125425192 -0.022448418178445218 0.07376609563062066 -0.09592610485581726 -0.07367046284142126 0.14869727756936071 0.09229332997837272 0.08591334842210421 -0.1440682426974705 0.03475285695445348 -0.08652764168419118 0.034642792123092486 -0.0464962904649345 0.09471895429659677 -0.036599953671094844 0.012489274628094228 0.033564013385919966 0.1635884132659668 -0.1341381671290785 -0.14379536882745 -0.03108151198665306 -0.025241009001809908 -0.18616283123165714 -0.02885571052619857 0.020870626515615394 -0.0029709894969268385 0.06501088150381543 0.09203403842531534 -0.002109936742512051 -0.006513110640054315 -0.08745170593430336 -0.09076885628792665 0.12205858714717006 -0.10643981594994145 -0.08648410535255008 0.04849929514598995 -0.07885738190811636 0.0375278750073135 0.08893240856586924 0.08256402432061574 -0.06156850125293861 -0.08351889921735195 0.010842777645377059 0.012439423248457017 0.10463505707852505 0.01914981164530137 0.08316639925352984 -0.043772273990628496 -0.03808464745077828 0.018943977655591856 0.011961188341197703 -0.03440199120104184 0.005384366687500221 0.023692350102933118 -0.0054927453324704716 -0.0006128068453928572 0.09241094603770306 -0.11064416841609136 -0.16594050257652387 -0.03965321972552076 -0.09782932504208723 -0.07339669888214283 -0.08361762344719027 -0.09603035220976393 0.07558054836226857 0.11935430830981941 0.018586309901032202 0.029710607183711227 -0.007319841041740768 0.14566126216504266 -0.0705454521300559 0.1278786540434045 0.017157899193570053 -0.08227847841255903 -0.015408290842199496 -0.018769511303180376 0.052992871627895025 0.16019496885452983 -0.022299864372492262 0.2839347894005697 0.03897239913406249 -0.1411951676784677 0.04666263915814827 -0.07300108660351316 0.16909217623869932 0.03158315837043681 -0.04690878754326999 -0.015746082764397745 -0.16543796918689868 0.04703921871932119 -0.04367564685847117 0.17377593847579065 0.009616600590962102 -0.0164403270060686 0.020016630475156876 0.06174991288470915 0.15089452822052085 0.00939566417362593 0.041403871352022364 -0.07174100241867408 0.04702210023093338 -0.12112679905366348 0.1377885245704503 0.10979607389459206 -0.016181242250722407 -0.0845454511066987 0.10078229885307047 0.045733314478399636 -0.004633766578608193 0.12492143585302318 -0.01641700230379578 -0.1816737344507795 -0.048421494383231796 0.027980937330443198 -0.05811757974293166 0.15146527478401894 -0.12516948237452694 0.0953886185303951 -0.02399545077132384 -0.036906563263495826 -0.03417817852655857 0.04032898612213822 -0.13314963295623802 0.013937285073765666 -0.14199107917646878 0.11984622963900698 -0.015447183985438043 -0.14269400574543764 0.0025589758195667285 0.0303317273666439 0.07045217922749511 -0.03543442982637161 0.12406816673160291 0.03560616015288563 0.016194231009762104 -0.20901784404805818 0.11281164326778137 0.06143219902433561 0.09956915087134843 0.16398364040661872 -0.06480757099326916 0.11080034456873994 -0.0816136340007449 -0.057893345978260596 0.04714766807649973 -0.14739981148464573 0.10960706711782667 0.098364224475539 0.04761049791386319 -0.06972721938174552 -0.15403196256442722 -0.008266061244749719 -0.007975920737825996 -0.05712060374193664 0.1470888521295959 0.18951075064252332 0.01421943985224935 0.14668894936937638 -0.19609907979428842 -0.018834216360164437 -0.01767948407988328 -0.0030047008602960856 0.1599498693388657 -0.009255985639121542 0.09993258785545515 -0.1261063623694932 0.08743626781794273 -0.0002091264461358839 -0.06153932442035851 -0.09334906777927073 0.11664191489314205 -0.04494897455735386 -0.11913462691486876 0.06318083795868046 0.1580999072397486 -0.2105193350936376 -0.031701157119319735 -0.1727073478555173 -0.027662885178596098 0.15029919447006002 -0.03364355133362288 0.18635886644534636 0.0019069240771096192 -0.09634582485404725 0.03444754604034079 0.06208309096746664 0.08421111680411908 0.04045944954632241 -0.07190108160749108 0.16357002894776995 0.10678071629942376 0.19391076239867633 0.005288290892360027 -0.038205453385236975 -0.05712214724709194 -0.02963328037930271 0.12444956924020795 0.2829180165486359 0.04111617513744066 0.12449437929660728 -0.15025326730293972 -0.04026084105346998 -0.11514467880264621 -0.037910559230777144 0.05268549196573215 -0.05236067210937352 -0.055002809019729204 0.08626201480042109 -0.08017450737845913 -0.021643667378416262 -0.24669384685711637 0.08187527240326498 -0.1346176466996518 0.003044702514347611 -0.2117333264035228 0.1211656405688399 0.03142561440798735 -0.1362071537012955 -0.09854299900887531 0.04417266575588932 0.008367431432602086 -0.01372455396711248 -0.003680867491909515 0.03831605372180277 -0.005335502102606578 0.1453864455872564 0.10041076818734783 0.12787064623203517 0.0874177699741573 -0.074811444033109 -0.04936200576404288 0.11543617268638139 -0.08947244492065823 -0.1054967028086748 0.1177868436574726 -0.1257679984095747 -0.23382987879347827 -0.03799844281963303 0.10846298547620173 0.03636016140592682 -0.03958995532935413 -0.01568761358342562 -0.01010194867150334 0.011464119175340175 -0.09186583669445934 0.03511996024899351 -0.17987700552034647 -0.03442629760849258 0.12051982359773494 0.0002366474756509915 -0.11870110034239341 0.24668518090536196
-0.012816513852519534 -0.013273643065938909 0.002415327909785116 0.0012151068729192268 -0.019288687980022694 -0.0002922622407713298 -0.001927161829963323 -0.004463907470220393 0.016164601978876134 -0.016174181960747658 -0.00801784289106774 0.003960600019990549 0.02117655908616425 -0.014310452532173753 -0.01862574327564096 -0.005516710714854948 -0.0006580823308219115 0.0025944498135638838 -0.014110983706424548 -0.013875131504461109 0.0019477763832562792 0.0035511099720634837 0.0015916643200230144 -0.00017334871280768018 0.002293770257394659 0.0017879194484892512 -0.005899364134578276 0.0037677018867876733 0.012748165291798086 -0.013659443076789077 -0.009643410755585316 -0.0087880862060972 -0.008949981765867827 0.01980002994572963 -0.003634688153854342 -0.015181127333566524 0.007489224212853038 -0.010755146339119882 -0.007454645388524788 0.0035211640264244232 -0.009254133853750256 0.0035407547251009343 -0.01581302144802647 -0.0010140875407743499 -0.016743759760556504 0.01960128047940517 -0.007501511859243926 -0.004500149232479694 -0.01257216949004413 -0.0010275942963480814 -0.0022542273931812095 -0.0075796075705477 0.0009440705234492157 0.0049184312313898994 -0.005867433935678737 -0.0006947747240929265 -0.008343780634575469 -0.002521716857269239 -0.0007455308903688276 -0.007257160304688278 -0.00394042305742563 0.001290295401997143 -0.0058044385857876244 0.026041200695985027 -0.0354065076270619 0.006470288187142328 -0.010272218964848645 0.009655167528077203 0.00950800719756258 0.004052356342320017 -0.005477398437595844 0.012045212587195262 -0.0025732366114306886 -0.004373890896559147 -0.005821549916703773 0.004862554513098803 0.010506724449772081 -0.009789050455039094 0.011104257989006152 0.0068183388145305395 0.012848701613411662 0.011292660737796435 0.01211917608948174 -0.009186260376340901 -0.020495465718053493 -0.002794004852751412 -0.03372040725033541 -0.00688645155013585 -0.011956557649196873 0.010334294567220976 0.004900967704705739 0.014977599453904169 -0.006002852056945858 0.010668416559885105 -0.007159990477064746 0.005889571977324502 0.01723836902514748 -0.004511410247997638 0.0028607746553680723 -0.011781144088920755 -0.0014301214691717665 0.009795335100698856 -0.010397140965587071 -0.0012069104970434542 -0.0024532183724033396 -0.0063255175961110235 0.0026892082791468708 0.0005221318826659254 -0.021830576034406485 0.002574373483282464 0.00869752790678561 -0.013581749825135771 0.004976708547165941 0.02529899173207332 0.008481468780888882 0.00851641656547873 -0.010944793650615856 0.01169430717083056 0.006246113327111667 -0.00248168818106723 -0.014609152079339249 -0.009322581130596917 0.005971277346393531 -0.008035360557951607 0.0012351528670257884 0.0012103474914291338 0.0007234248093899297 -0.016671881931382828 -0.002191767321241005 0.012198239163132157 0.005150877725322613 -0.0031347906888172113 -0.006286856023713646 0.009008701004418251 0.000797998677184862 -0.00353032307578199 0.0033054098449506733 0.014432749074285827 7.156342189060401e-05 0.001761574244492914 0.007728747242884919 0.0083886897844926 0.004537026184314542 0.009147543436334237 0.006091471689449708 0.007899884682830576 0.00888827766515117 0.0030579331715699216 0.002591940617263432 0.0019349774748117867 0.006630401034340637 0.012249427210723633 0.003806996880195138 -0.0003735599257001007 -0.017414751084281394 0.006541908855147881 -0.006389064763683835 0.006136638133722494 -0.0034127599272863983 -0.005720088213502068 -0.005291333894137998 0.013125691059799254 0.022940262108829823 -0.00016762662409377957 -0.0012947641399204339 0.012904876993372045 -0.0021407431634613426 0.018832357032271513 0.0077639981638936055 -0.014264494515237008 0.013997088506772873 -0.0020086321397775114 0.004391212983740071 -0.006951508239888091 0.0007027577338941928 0.010345493682426583 0.0018598613495870687 0.010175799203674318 -0.005721199440698278 -0.022092078364026674 -0.004665014106805749 0.012207093714634947 0.0036799729526480742 -0.014571952182511208 0.0148258326190066 -0.0032101072960425327 -0.015399862206969647 -0.011416080549696856 -0.007607038801468924 0.015185713581928547 0.0005080926372063153 -0.007850248426369848 -0.011569388511834238 -0.003307114278903656 0.002134671316411218 -0.00433771031333415 0.0017648161481649154 -0.002690910418367896 -0.0023494795739105977 0.016736791751647394 0.0028426640120184595 0.0004833513265780053 -0.012752778345005551 -0.010924056374128903 -0.01802342588529802 -0.005442061563406359 0.006523468341621521 0.0020287822775994268 -0.008051491004415207 -0.005807871957175576 0.003872190473813428 0.002942570289711255 -0.004021856984163301 -0.0008552391011321924 -0.005719113960601973 -0.0006024351521522578 0.008243344868028583 0.01958365039164024 -0.008814577495750887 0.0018909100304323756 -0.014724705204100939 0.006144390247620633 0.0029620726301910895 -0.003471626857240648 0.009688923690346686 -0.006614844569032049 -0.009129466936566308 0.007308089118449183 0.009767901997192298 0.00632618497459055 0.0026501863589725827 0.011157705740084485 0.010094338505567657 0.0006296006137406858 -0.009557173091926573 -0.0015201720763465306 0.011937991972693934 -0.008908739022565256 0.006296282928786586 -0.017104362229958005 0.008709670172051794 0.002185446571454714 -0.015393334848998757 -0.0003722988791085798 0.0071465522921948434 0.001945647628215528 -0.009437052849357986 -0.008067099901084665 0.004357645489276334 0.010771186940455143 0.006374951446273801 -0.010914328819181748 0.0029438770491375882 -0.0043970356404225705 -0.0014453159483047307 0.002752349758324293 -0.023363124500889624 -0.015679942217318218 -0.001779376118292491 0.0029927453118061727 0.015354298859314932 0.00601844167824503 -0.007538285938590846 0.0029210783468121217 0.011187034427964716 0.006303832600744118 0.005043608847054202 -0.012145463139757607 0.019685912982022446 0.0028355502926893667 0.012744203782192607 0.013728981947383425 0.016124652522246406 -0.018168527464118293 -0.01082597768337647 -0.0017786516506664368 0.00589544571634064 0.002293273900686165 -0.004753765053325738 -0.010151124048813109 -0.010375804964427715 -0.011053855834532727 0.0042167602116609275 0.0044082343331153465 -0.002096682298898986 0.00906197701715762 -0.019005765282502775 0.005046116745982475 0.005045354839985829 -0.021462378451032806 -0.00538687180216198 0.005260182677715109 -0.010653792395475434 0.008481936766976264 -0.0016851201040195534 -0.0034200043303485184 0.014721556008533063 1.9514376040361772e-05 0.001235503947863227 -0.002879409671124513 -0.006909984882855205 0.0037391553211357583 0.00853854230312989 0.019255739858740795 0.005346055469856935 -0.011206251559888785 -0.012141926559528147 0.030607382521735983 0.0018649180622453733 -0.007525671924672856 0.014098323240866349 0.0012658448253990032 -0.005136048070712365 -0.007471365376983035 0.0004307957552272422 0.004928052930000544 8.854572987094046e-05 0.0064909281356388595 -0.002966969716866047 0.0023870000188167084 -0.006124783729601486 0.001590312074600825 0.002307483898081644 0.007563506316892331 -0.007189768667329866 0.01838919861117438 0.0027600581730398855 0.017873715002373565 -0.0007183825284777052 -0.013333114060101441 -0.004662379631749551 -0.00014028498173041036 0.01608736836695209 -0.017837128994941023 0.009617548132497373 0.013306097845527928 -0.006340593919829807 0.00016986143413603161 0.008330475432311291 0.014952675916944888 -0.004244106631920463 0.017438686927027155 0.027609189962849397 -0.01397249993157295 -0.00032109043135448496 0.004184797608033735 0.011026076912796246 0.0020564980767634592 -0.0030151662836756564 -0.005421420706020594 0.0025777960259475204 -0.0008695952786237428 -0.0033586159527562495 -0.009830179745781159 0.0210542321140197 0.013001832908317086 0.00032415981569525366 0.007472377662382789 0.019468244854288354 -0.010056162126652633 0.00283356419015794 0.022685094937095918 0.006600949603975857 -0.009607760338001474 0.006857454682089399 0.01062742267243335 0.006677596925567508 -0.0076078474152597875 -0.00980867140475891 -0.012937107507769002 0.0029844521432490024 -0.00024991519912274116 -0.019415879435515024 0.003050860405369282 -0.016775138085979406 -0.0010931155123084756 0.005121571843009858 -0.01846177491490564 -0.009519595559571421 -0.005158409663272182 -0.006967586332609886 0.012848058367830874 0.009920271383724363 0.0045331712038023265 0.0002386762561676428 -0.008873789567831879 0.005058186309755202 -0.009633592915030768 -0.01279915985939701 -0.005109672245215992 -0.0009804250659549336 0.00868017918348728 -0.016866048445664503 -0.02253819905121741 -0.007071979182650575 -0.01059254142465758 -0.011602315169024999 -0.012431547885120088 -0.004920329844215512 0.015756196319885136 -0.003368827394999331 0.0118487374541884 -0.006949709080724709 -0.004608101561256988 0.0036295706909290778 0.008617886565507864 0.005942075078333799 0.007408107017702165 0.004554424961146151 0.0009088404001011109 -0.009877693476345274 -0.021228535409781788 -0.009120061344785005 0.007184888111644499 -0.007005812032693208 -0.0036659659321960796 -0.0019587249779159876 -0.008290514971108479 -0.01107090125150667 -0.015140087541601857 -0.010527281547035885 -0.006272710297040711 0.0060967925072107415 -0.0011212099780771093 -0.006828708197192386 0.0037543192081360365 0.006716305112632298 -0.001676192382832091 -0.005201180415984732 0.00798825513744371 0.01083825308346731 0.012160427812051185 -0.005656180715878132 0.008383886503982672 -0.0023687465076863835 0.012678197592830745 -0.011495867829691427 -0.012738143015938092 0.011833107939254562 0.004301620979040732 0.007939033948708839 0.012663419134222179 0.008699949777077396 0.008572786422304773 -0.003948357484077672 -0.0039902415409135686 -0.003810817858337773 0.009128173907444257 -0.0007482076852615745 -0.013113946440789878 0.013106897086854726 -0.011213499947842827 0.00428018507919136 0.012948279121059687 0.0028358322333361338 -0.00042864212129067674 0.0023165973376026495 -0.003624695426210278 0.0008398058974457471 0.002049285534907662 -0.01194909988447618 0.0008370777351953237 0.0066589656545972585 -0.008925433223685606 0.00010972364813778007 0.027667594544300924 -0.010413153482971607 -0.013941471517815497 0.0004069196462672299 -0.002135498927732688 0.008741143063643238 0.006229471197143342 0.019835172355844585 0.0016034039246816962 -0.0025539866867056063 0.003318367707097204 0.0031204405121720213 -0.0038208881448291107 -0.013123386809660045 2.6783906865156412e-05 -0.0005334348150663011 0.0029361888623495444 0.010486521947627154 0.007784016767528454 -0.0025468776990521694 0.008118940405885143 0.014350658111299151 -0.0016367422205153367 0.013919374998516768 -0.0028895945591318195 0.017105740780862085 -0.0011450750531293245 0.015216946774515449 0.0012820136137478852 0.006976087816159147 0.009863384364488706 -0.011696366888781326 -8.416527989492231e-05 -0.009047423025706445 0.0009411669486911759 -0.015333279221566248 0.00691584732653827 0.0012818775075082432 -0.011448526822413896 0.0037714752935833766 -0.00635453601666425 0.002396709913252757 -0.015587283219387148 0.006879702277610188 -0.00660421177036442 -0.004895642608217341 -0.007336000732348856 -0.014653851650740403 -0.005936025479291103 0.0072568874424484555 0.0017401825898572083 -0.006936979145550447 0.005887046812072538 -0.009024504169608935 -0.0065727137034518185 0.003109054987301172 0.005307707019088458 0.011905942394105546 0.002331582342265596 -0.01317400636751218 -0.006962613960829447 -0.0037146982251570794 0.001799452486750402 0.005548595113283708 0.00780680705718942 0.021425793969154786 -0.007502198963448442 0.00383844994512035 -0.000656806476488324 -0.005779939784092313 0.0021521902661402353 0.0019974809740496554 0.023405627228551204 -0.015190788923931456 6.8970990744607e-05 0.004503512156681763 -0.0034570445044708516 8.341535578715771e-05 0.005456995036552187 -0.007675613709576697 -1.7225771036550686e-05 0.002264028549612116 0.005603364316004142 -0.0014484418735878418 0.005884266629454745 0.0006517215613241148 0.021641029667087044 -0.0014688616953842629 0.0033630747862375882 -0.005147421547572119 0.004913114190287873 -0.01949891087116667 0.004414299154419707 0.00010945809076642867 0.005484967691566982 0.010963790591685167 0.008424615612824524 -0.006266235035454591 0.026148739718523283 -7.548329188835696e-05 -0.002141291934478565 -0.00785525437628013 0.013220480483489236 -0.015797809970849664 -0.01370257058994925 0.0007955867744606533 0.0017286225659067687 0.006059660590545179 -0.010029297255614111 0.010206745880677244 0.004568047564050464 0.015985617484942125 0.018293915990189202 0.0014457788812463292 -0.00830122164106928 -0.006348618884454631 0.005370175324848335 0.0023503964552378373 -0.0062334589968431045 0.0076978890150299515 -0.016013350436609227 -0.024407396118445654 -0.00865586302950491 0.020392423867465977 -0.007091134734289444 0.005392372936352489 -0.010817868258234574 0.007442476418267265 0.005351777594461362 -0.012603135922759353 -0.008369095744657228 0.013412830909622062 -0.01942256907677735 0.015563659635726654 -0.012990435718500278 -0.001829591430570325 0.00333791117384309 0.01859683041838288 0.006024425648837876 0.003579101814553624 0.012077289424272108 0.005794954169497271 0.015090338903702087 -0.0015638538533895797 0.0013181166832586613 -0.007877992552417737 0.004406522809307999 0.018553986573268455 0.001135860453587346 0.003015332286504136 -0.0017141135083669377 -0.003560862837158636 0.009104920175031495 -0.005787426905113714 -0.013139695766090401 -0.02314264839291657 -0.0031557027520849783 0.0018010983939922582 0.011105172622888515 -0.012347908579291189 -0.006783989441510466 -0.020201178104621253 -0.017668028861996535 -0.019006167928806023 -0.0006156711179142546 -0.008199604203628705 -0.0011592500782460335 -0.00695548918998299 -0.0032256952358968387 -0.017319545561225436 -0.007107599081251274 -0.0031150821351602267 0.004154713391603508 -0.019962138951010185 -0.0022441302774875316 -0.012533922137971614 -0.002535472068948425 -0.02218802449600286 0.012228454878744091 0.005571323326766317 -0.0024670198498978313 -0.00800637134952568 0.01760828712410388 0.0039435303006729655 0.002371893974204456 0.0011061282213355777 -0.00041697384460701086 -0.00020520933425450218 0.005470832671588856 -0.005020608979854909 -0.0014247424198264027 0.012478865239709553 0.005815475183337919 0.003142935476866996 0.01763134506315508 0.01571511709539453 -0.014135795401415753 -0.00020968586989913667 0.0037186916672416687 -0.003491198161790492 0.022676437545485168 0.00605243987406195 -0.004382755532614684 0.01318226117695486 -0.006156179816705678 -0.0018938068265493592 0.011741849976100541 0.0024657897142446785 0.0012289771008570705 0.00020728126281865873 0.007059817971277379 -0.0012023377413393078 0.006005599812442209 -0.011763330154281874 0.000472425364785185 0.007651033201007477 -0.021806727568353314 -0.00814340854245947 -0.006546281627351717 0.001229669266043189 -0.008733259138593855 -0.0026928147131147525 0.007854352076442667 0.015392591776964604 -0.011418629904776855 0.013435587922402308 0.00022285233464270943 -0.0014524448005598595 -0.0032690487170547924 -0.005267097549048016 -0.007966164944591445 0.005395299287078024 -0.007056812211516559 -0.012873516425647427 0.0013047578741200488 0.009125641071971908 -0.001218172717043249 -0.005898293955068066 0.009122749800627048 -0.017457939361455184 0.00556746041060339 0.0002411510887064456 0.010829245043187883 0.0022643504817692985 -0.005978457506701826 0.007912551003736988 0.00625818295261975 0.016373560088786196 -0.011230134485025167 -7.996596260425703e-05 -0.006526498110415589 -0.0022505249518300296 0.0033588283776011603 -0.01303544620201333 -0.01621688920017092 0.006593797084844087 0.009139791877348815 0.00901094261322644 0.007481901485589987 -0.014685630767297843 -0.02023728793654116 0.01438840990892074 -0.002100183722005139 -0.0014667546785516084 -0.004787909631581056 -0.0017761944716213399 0.006007339139941411 0.011677963743608256 0.02216108074783697 -0.01294871828037271 0.006425914078731229 -0.007555609966256605 0.005976905140473822 0.017903598829310207 -0.002832162971716032 0.02532465377089895 0.0009142208904115222 0.00904200617181771 0.02090785919496226 -0.01668705986283194 -0.005985261929588428 0.009629555586356215 -0.005525903118877758 -0.016311631849913914 0.010609921700925 0.005634035179008011 0.0005552130484172622 -0.002599089503780922 0.0051956529233656915 -0.012418007374600895 -0.0019921588694310167 0.007964291373120906 -0.015013138459358064 0.0060926556139920965 0.002383559471409751 0.0032645293558405926 -0.0004656851707077079 -0.007021167481009676 -0.012957999724226678 0.0031393482978538324 0.023404115113689405 -0.003915791842743931 0.0006596394033631708 0.016116174251712495 0.006418251144012652 -0.0026376134730366637 -0.005246400477415968 0.008086459364085485 -0.006321246888982334 -0.007115965315580029 -0.0072653366523564205 -0.011961943651574472 -0.0119597285330805 0.003351897351179088 -0.015537909015350316 0.005114497025720715 0.00024703983689938606 -0.004321082489763288 0.005143358243089934
-0.1032732343046435 0.12073346767219192 -0.19243392127041858 0.1027270906290686 -0.12019779303723305 -0.08586095878907478 -0.06483767749196181 0.02401195994877956 -0.04178955279270733 -0.15285528619194302 -0.06907534447549381 0.14329177203467788 -0.17482994172960303 0.14240334283833792 0.03671639535871945 0.2257725388993221 0.02647548896732817 0.053015257156604934 -0.10459852333053075 0.11186907505092163 -0.18168378822017708 0.04260872458380822 -0.001033467896736379 0.1204724741063646 -0.12930845415241302 -0.012537645883716485 -0.07896130774277345 0.004322172796398158 0.07959445746563072 -0.1021099083939871 0.005189012825387473 0.09396917460997399 0.02359031316661387 0.16060942081912213 -0.03069807878466121 0.14632201217085314 -0.12256437872093454 0.005426961799971585 0.054676441270938174 -0.04180163278682475 0.20497571372027681 0.15241076331551737 -0.07231799921571949 -0.11337793781695375 -0.006735383114469594 0.020364521108552608 -0.08942231698832231 0.05795243902534186 -0.06511095613042812 -0.0014211613195004448 0.016254270669264523 -0.11629861465762284 -0.029467130378961672 -0.00684208764018597 -0.13466003715624766 0.02648466632554467 -0.14885167062659932 0.007736483270582714 0.019281356266526925 -0.0682756541657362 0.04283051784278911 -0.020493500959716228 -0.14012514204744836 0.013332382623157694 -0.0669921306622485 0.09572938327252194 0.05383078149238812 0.15740221830717288 -0.02144644761999408 0.08531460039900493 -0.2678117856102366 -0.05916175963066595 -0.09584204296294085 0.04921382016771508 -0.022443852633080286 0.1179175598541097 -0.1184012267634439 -0.08018043518443396 0.04826650795534334 0.08547270460621975 0.0979093081886643 -0.03842509802769713 -0.04054726562444932 0.10110014233839394 -0.06530947562430395 -0.15732469670986593 -0.0034111957242682744 -0.02886352096876446 -0.14247070256552577 -0.03976037179077545 -0.08963512947038353 -0.05542079542168543 -0.02089579105171579 -0.04591465810400003 -0.09896533154609018 -0.07444047704929473 0.14697039765193584 0.07961491313561227 0.007831438862184908 -0.1306377562195432 0.14621555155004734 0.23669045697896737 0.19643310966499616 -0.06331015031732899 -0.05978856595736642 -0.10761442891845871 -0.0330528917137672 -0.026839996915203168 -0.05281152524532738 0.04893128220663282 -0.1141622148537061 0.02160323832342294 -0.12938191246819353 -0.14058833349032535 -0.050978107496713373 -0.17607848305998455 0.3415240524332545 -0.028922365293519128 0.07565056882121986 -0.10065076952742123 0.062243024090219 0.09539725491148754 -0.17391414175227124 0.05190660090357448 -0.1053180410540382 0.040750421906946575 0.036181182987896195 0.037860364392010445 0.11200759044033218 -0.04157065551768188 0.02154197051619146 -0.06398695839194041 -0.014749556898151002 -0.21344242101231467 -0.03565651400946623 -0.005840292423789228 -0.04587890713081684 -0.06623576538480942 -0.04346461153900064 -0.11189844534606445 -0.13893729523439807 -0.03265698031956138 -0.11196195254931422 0.028346006072834003 -0.04222293385097863 -0.04051457431039267 0.07474094965900711 0.1835068939157041 -0.010856339354007039 -0.0629095629023702 0.12208156834034417 0.14998549227866032 -0.07016992662312013 0.0005474238219191124 -0.08680600980410458 0.022597268930778996 -0.14964555758588086 -0.13989322823305084 0.13858249068998071 0.1143755600941172 0.09391994096574346 -0.06897738461085547 0.05353483774656714 0.08128362719620887 -0.09631549625146883 0.0804602058892446 -0.014176750721094443 0.016999667838160388 -0.12816338657345383 -0.05931435558503539 -0.09515400048215006 0.1669820507425888 0.010879275373875981 0.14268892341875028 0.02818219316071914 -0.020944814441270686 0.022247985665555615 -0.06813835171950332 0.030679094944509815 -0.13303330024359045 -0.009118930472328028 0.030916848392491446 0.13725977740451106 -0.1066301753588215 -0.09496837806906043 -0.1348467036811041 -0.0019365864544671147 0.1352848219489307 0.15872109648331298 -0.017898800099967357 -0.1504811574779542 -0.08258994887107779 -0.11050197952792208 0.05146907141666568 -0.14974558272409128 -0.0592109917313062 0.05521859821837181 -0.09621264048326848 0.06355089792464673 0.00900653429115903 -0.14783000278685102 -0.025075098432723826 -0.07987449316034027 -0.12370301839106389 -0.057423922454288304 -0.008856153811507794 0.05157861044176605 -0.0857809464588419 0.04734869151939896 -0.028488881819122257 -0.16993213684498362 -0.149678080190338 -0.10596314841348627 -0.12659760075065163 -0.017562405480235483 0.07516525667861494 -0.2367760938848911 0.12527806282291515 -0.0902588019666384 0.006506756416963498 -0.05629089664756603 -0.10320255012993854 -0.02137070775775575 -0.02436179265157216 0.09626152539904488 -0.027762905813398044 -0.11172522978742748 0.023714109197075034 0.15093718917032603 -0.019338078418516157 0.05471782128444688 -0.0873246517970925 -0.06327148172324268 -0.13740286605898983 0.2302775915550531 0.11129907750250549 0.03573153871321339 0.1227330339929267 -0.016244779560311704 -0.13006302512657353 0.01876441054357398 -0.08628684432803699 0.031290376187802595 0.024352857946662174 -0.029315384430301756 0.07003615788460557 0.013986355302338813 -0.05491974852348699 0.12049514042462445 -0.053925052398358354 0.07170693546477803 0.07801035967903473 0.09741298833533688 -0.03711133733205464 0.02630622660038173 -0.08960344427136131 -0.07195265389300454 0.06758021898708431 -0.011897002040953116 -0.07197814611959963 -0.12055103673411827 0.132457501981215 0.050642123464996094 0.01498463849464157 -0.08854597955204611 0.028639364154440815 0.08561165709506248 -0.08651648112084574 -0.02758804155253039 0.09988557856275838 -0.14950651225846937 -0.06480088062090432 -0.054024977424054516 -0.08344339013081614 0.07323083283534476 -0.027350637100240556 -0.26490659692132196 0.09407585761150304 0.10468425781326117 -0.05722798618080199 0.08488502008576049 0.02171711248415944 -0.06672287818946475 -0.1135563820770661 0.017238171553882492 0.11093396615998267 0.11078214226307798 -0.053159807610502735 -0.07732702738366198 -0.14339385600190646 0.09775164803834828 0.13414798056852467 -0.14990251112054218 0.04515557859108559 0.07913961131382419 0.13236672495221508 -0.05426412402224815 0.07513181697011354 -0.10563781088392057 -0.10368189522536898 0.07995721174099783 0.008440380818022656 0.01937000555023033 0.00016713826044187005 -0.03748979441011497 0.009456979475530378 0.11527501037959485 0.13557052173700787 0.04467708623549287 0.15503964806507745 -0.12548036193531434 0.09009066537973437 0.07631879714939474 0.20926245917033606 0.07493499702404295 0.23209396497920945 -0.05834424904553146 -0.07266730502496382 0.07627113630685531 0.04086625083673159 -0.02984613759882296 -0.00014278761958029667 -0.07932255517699542 0.030775443886192695 0.06422233031552434 -0.009922219346402706 0.18686836110355 0.004777298744330298 0.09173654756946621 -0.0007716637269021496 0.07948386257154236 0.0056356962423765086 0.060936079239990934 0.05348562339933019 0.016864472663528196 0.06376709581456642 0.09762342704771748 -0.05406287352337305 0.16403337478819943 -0.11324466265865506 -0.13743264299427393 -0.10106560125731365 -0.09265802976866494 0.06537459417084195 -0.07135041134594192 -0.01709789185112999 0.09742120461818428 -0.033131665581692456 -0.2607644901108264 0.002552377307708651 0.1610627133930042 -0.032483708355922396 0.15055525892015198 0.023438057192857666 0.03220236617981089 -0.16204871763547843 0.04990271291111627 0.07208989702874594 0.015178486537885044 0.17831346113272972 -0.043783927840696645 0.09057313508193136 -0.05003030878809864 -0.07207550905385594 0.024736606616954426 -0.04866487653935608 0.037791507340601084 0.0526531727247401 0.07610075595838255 -0.026341683846900273 0.09813623480100024 0.055260463765953484 0.12985285584886833 0.004909289926749278 0.149083322103497 0.05199742082754952 -0.1100045360657518 0.12137385833086985 -0.07329754602042675 0.15324010280100225 0.03412215789684674 -0.026267356712482752 -0.15481751527451026 0.022455138479844695 -0.10535792716940265 0.08379106110350468 -0.005692462070035016 -0.033337957989180975 -0.01376231475894078 -0.08401310588473494 0.22518374622044612 -0.04654852829103605 -0.07991717173568201 -0.11780632176064283 0.04046432767697139 -0.055685777225898216 -0.09444856227600161 -0.03507953715869652 0.08585051787960307 -0.00015888362538547078 -0.036585548059929786 -0.007715572198203669 -0.0899869682463989 -0.04149080726655152 0.013498357105685975 -0.04521428086232364 -0.11415104193545542 -0.04647133405427751 0.1439894927266804 0.0831519150978117 0.19007567580318208 0.10477604161903835 0.09679866325772105 0.012658838388238246 0.02897604405418938 0.011340938835756768 0.008145626696876586 -0.1290241637838129 -0.08704997491306928 -0.019077575855522427 0.09879868295210643 -0.07215218580071286 0.028403038057467845 0.017715762680823387 -0.1167201922842357 0.016054789174638803 -0.04229326394912821 -0.02447174250665463 -0.03699808987023839 -0.03821411179933439 0.021045406002934964 -0.16055477932088574 0.1009064394809871 0.033712689121244824 -0.04055016677912603 0.06811447383125324 0.06861245372733457 0.022557405510187808 0.10452857394099192 -0.10465657538727535 0.1137780727898012 0.057439839449045196 0.2375568670853735 0.0991050792157846 0.11040500100146895 -0.1137033801578258 0.13139139569252883 -0.0019246506316063635 0.190117612991599 -0.2700563245268747 0.09498196151040496 0.20182624982267172 0.09290093845332442 0.13874808425472185 0.033535762711596966 0.05918178608761767 -0.10783720530374892 -0.008052125874132805 -0.0378214909277186 0.30681853751280913 -0.012243738467419982 -0.02725243602738518 0.026228848334860045 0.23313932848369712 0.031158666000149 0.011999103660488014 0.02221309265425666 0.009680306908178076 -0.049256484681001605 0.08894019855232284 -0.09386447192206923 0.2240740115563121 0.0278980670300794 -0.12199385270545623 0.012048422429855118 0.022501269611617334 0.22801612472148103 -0.06818466296437847 0.103661740783199 0.053927173479961246 -0.023809455558548003 0.06893527065545868 0.0368150129452314 0.010283328731591207 0.10065298835409506 0.02407794643984743 -0.058486371627185174 0.0386685981277074 -0.028246599707664265 -0.14169923285231922 0.025428296402903356 0.12503642992159636 0.020801532057293792 -0.0493773319404156 -0.04982072919970801 0.078731678033508 0.05377197986477942 0.018106149347411532 -0.010970756527105779 0.08531516526217461 0.06438891676299002 -0.09995268855949363 0.024244476605927944 -0.11101538615956283 -0.03356662267070485 0.023804124159317513 0.18046357802214824 -0.011791621731267335 0.017483168483517633 -0.012407754924244025 0.005514424865402869 0.028035672058870937 -0.022409602169093133 0.07895217866500286 -0.12983199942077797 0.006589371474917022 0.14801005351209212 -0.08960783582785495 0.18971858757855467 -0.04901939883677621 0.03986280490989346 -0.18462962380061254 0.016122377914025446 -0.13794953950063332 -0.022751954928785914 0.04044992587729089 0.02485941400862851 -0.038099393923859325 0.1386452516036139 0.07980118951156064 -0.04809664548497928 -0.012105543575980171 -0.1888517003535087 0.151295189512245 -0.13708462538530483 -0.017138151904370878 0.036620535154856 0.06618884370906454 -0.05262468894877669 0.15238212536387952 0.19058515280637703 -0.19418400192658436 0.053593175491320616 -0.08100311719835526 -0.027412427495987036 0.015156393629120428 0.10440367848420737 -0.15989372124690812 0.03083292658325671 0.18524892490399103 0.03715560343242391 -0.17681228423262874 0.05813345881643424 0.06359555282398531 -0.13796903934345442 0.04013138288885303 -0.041557277511053474 -0.0457933721453263 -0.025501450909210813 0.08373594635014363 0.009055094298461054 -0.10242021560294821 0.031799700388960794 -0.02222054455479496 -0.11117453896416726 0.2064368828822657 -0.0493055793087129 0.03796913385264391 0.031006131046181842 -0.06227663400254765 0.09664879734402204 0.0021161703327733025 0.06885338619817429 0.12421889858297203 -0.03156110200231926 0.1996389574435274 -0.10627336019522285 -0.02731131248952804 0.05328969676030219 0.09373184575432017 0.18849251719166404 -0.04425536180842946 -0.17878457397848382 -0.07038713883900552 0.00433106847831297 -0.062333882587956496 0.17995604863611864 0.0438808712372917 -0.04151551899320741 0.12613312618757608 -0.07599975452939899 0.1622457912938797 -0.07793158088580773 -0.1619627923121885 0.17778281979468508 0.040460580172149985 0.1156509466958988 -0.014288146903672803 0.2868899334965465 -0.08737676026088381 -0.047750883768462246 0.09748505472371223 -0.002862185462590555 0.07101053019148722 0.06168886350375238 -0.1555133532150327 -0.15673432856117997 0.0368537257208287 0.06121036644422998 -0.0023189363554521236 0.08499083830816574 0.0012504202705920604 0.044465774181761515 -0.09677386689128481 -0.05209463765317725 -0.0016952263725738554 -0.09095435045210727 -0.015251219280185266 0.009839618584262 -0.053036625274169365 0.11443530247910379 0.026711680054856236 0.10941281972242717 0.10775928431138156 -0.13891078019669445 -0.11078883385861964 -0.037392080731907744 0.07119434341484636 -0.08545584832425612 0.012513823113533731 -0.06844862828076571 -0.20737682314292297 -0.17088092833505386 -0.21683412098527602 0.08646750926568203 0.09297997589157159 -0.270899488246095 -0.1266148012920118 0.046818504981686986 -0.11191006324345067 -0.14752274881884375 -0.10089381198284626 0.09714105421624408 0.010178020973019727 -0.07523491355207565 -0.01820169261958506 0.10551323002574295 0.06623607156317098 -0.19181729270614292 -0.04007734986705805 -0.2433869931505866 0.017782819386352622 0.26613901224345365 0.02506092063437292 0.09749938393098419 -0.08397787265940287 0.009772518259900895 -0.11867308326936309 -0.10088475908818095 0.0706422419366948 -0.218730524233056 -0.020896350783168826 -0.19366385012720275 0.01225321967944339 -0.1084572915688597 0.043746337711466535 0.07673666291381263 -0.10855452141872246 -0.021006443756722327 0.13027684614290605 0.09526524708898342 -0.01968268095602334 0.16479662014962568 -0.06644022833978684 -0.09957782530703564 -0.11636143349589846 -0.23100873321809787 -0.04761898223553469 0.06497121992896741 -0.05695315033583337 0.05402226025477254 -0.10568045766071503 0.02954576322393406 -0.22235415780986667 -0.06273596712308685 -0.11606184642732434 -0.04049797236624033 -0.10757345445521178 -0.0852327942994049 -0.017929366469449256 0.046077139691800106 0.07264366880042732 -0.03612691055558952 -0.09584304422672192 -0.13420623285231442 -0.1715273793546852 -0.16993537795373448 -0.07440064117550806 -0.14685074842488988 0.06508248598074082 0.05685920496435984 -0.026493436845411677 -0.09070437599143903 -0.09084969646351664 -0.25969790087692624 0.11575811726726344 0.002887364429745404 -0.06623361508472728 -0.0822362474652909 -0.15485518369488066 0.14951945716649423 0.02842401744422663 0.04096995033506653 0.11056190666349941 0.03160258966381644 0.167990740697886 -0.02962245870176768 0.015451596973522946 -0.07219042237289726 -0.361212792809474 -0.05823401297766909 -0.008576363884590191 -0.07028987704321768 -0.011681645126842402 -0.11254137492014052 -0.06363725235662596 -0.03296555160292302 -0.17516995247122555 0.009643401525154407 -0.07585926654471839 -0.01903228989723422 0.04472553999042229 -0.1714539698150907 0.0059922613336994964 0.20391735999228458 0.10003019199229862 -0.054710070213010054 0.08300949854298305 -0.04077616613608052 0.18589701167059644 0.24665215878199903 -0.08484163119667953 -0.045726233028880785 -0.04982114736445315 0.11100340046912928 -0.03491451494932106 -0.05730565988147212 0.06414194624457746 0.1570022961149634 -0.0011983864573092314 0.11163393587975294 0.02696200674965015 0.08483211953918852 0.06399017074615782 0.16396827522265398 0.049970857899542594 0.01835135215833328 -0.17181110778098838 -0.01080633692238272 -0.0908343461593075 0.025659325762892215 -0.21639740603241367 -0.11757203476992725 -0.1324321302740815 -0.05256277736938719 0.07483398489138086 0.010335752362271935 0.050528354119186436 0.09023415645069523 0.10475489167836871 0.20880093279482842 0.1270670223300205 -0.027804041866353015 -0.017919399181063514 0.07134596905669885 0.0747301882692717 -0.12360092467928956 -0.05040974950415909 -0.21313688221378685 -0.08361405365758127 0.1326374266208358 -0.14880877801937356 0.07825392023800216 -0.04702048399373958 -0.09351205058144936 0.009794535154889176 -0.09752978994521298 -0.007342376820015891 0.14671553691186903 -0.055030841582867425 0.1167201836917087 -0.010763040502729186 0.21814044660712364 0.08535536893589281 0.08611773302810619 0.13534329447811258 -0.061070500956585665 0.07542456030983224 -0.047357760147088576 -0.006513376621988685 -0.1478659987682635 -0.21521045268090883 -0.11603794218550452 0.058946188607959166 0.011153937939662673 0.044836252142086905 0.12493299322645762 0.1583527376500562 -0.04799892019627228 0.14096067577155358 0.04077907638971581 0.12750236138246998 0.04809775697614128 -0.08514905250776686 -0.07283188012078103 -0.14893728299924672 0.0711704976995896 -0.04085809956059631 -0.2635029380956531 0.11170996792025048 -0.047650555760929685 0.2113401062830654 -0.10430383309380102 0.03344983163639624 0.19011779010014954 -0.24288779562862453 0.20220661269744175 -0.09672751635826028 -0.11819244288638503 0.20759154323306556 -0.02212225432847649 0.06857209420658156 0.036951614731734674 0.05868425890550743 0.09465235718988314 0.0028296952039026284 0.05770764174542761 -0.03541540998756007 -0.017020644588454432 -0.08420622154160087 0.10485863044128457 0.029454714835326967 0.13542100723419018 0.08121537270801496 0.11963039371366962 0.060786335429455746 0.015611381008238985 -0.1302051833017969 0.026022209568336084 0.06193622232836202 0.1613237523112525 0.1316705613007562 0.18346070054962207 0.1575377333525751 -0.1334740362091585 0.07919058475063873 0.11396832042395055 -0.07579095056434924 0.1043702504556233 0.10736498667381104 0.08250099365110602 0.03068665944395876 0.12458318755146998 0.08713296939035921 -0.019305080954506563 0.12952352706532907 -0.032427311536195914 -0.011695626911012625 0.03427852623161826 -0.0902065020879662 0.15328540016860112 0.142292407187628 -0.035289275270324244 0.07224771853650098 0.18930125440043008 -0.0498433109090697 0.08194010258026134 0.13400583937143726 0.05346938877160026 0.027227165463153964 0.2164789699945265 0.012577586049738318 0.08505330204797365 -0.06433252672613526 -0.06663706619448853 0.09451428089674023 -0.0009581804021884979 0.23974598363304084 0.15080205334116578 -0.02846805851780815 -0.09074437435725469 0.09642123977502387 -0.11317927700979871 0.2456679419667335 0.1574675400673812 0.06187313086099951 0.057730857219429534 0.060044434978064956 0.27172851409060206 -0.014363050021443053 0.03277928317921075 0.05903303545255023 0.15328863248932248 0.20897811769197722 -0.07010243499372536 -0.009720835632644285 -0.04662392760701661 0.06381130179499855 -0.028455494980343866 6.110072097962736e-06 -0.038221725184360206 0.18978442238160467 -0.018166164845438808 0.04332662122195353 -0.014720225553233721 -0.1971885428853052 0.06907607902244642 -0.23921691642322837 0.024214139131301472 -0.11241200501995258 0.026650830963537472 0.10249928965287601 -0.07147340109129233 0.12854099575699104 0.12626411846657515 -0.03232608435937513 0.0679388019313199 0.015499801800365939 0.045583687270950184 0.020977033310831197 0.11286567555496002 0.006425691983679334 -0.08523348321431813 -0.06665263678020297 0.10634146009554785 0.05428523605055574 0.22875408561292424 0.06019574390202154 0.021768890242479008 0.10918016226759633 0.04343179429569257 0.18061192814325872 -0.13509036342629438 -0.18595383051156067 0.005044386808392942 -0.04792101517818362 -0.01866478101256946 0.00872903811803551 0.03128343625948256 -0.14209411914310552 0.06768161238468602 0.010237451995072575 -0.04391280810330513 -0.10956646020703521 0.02577313240607351 -0.07549575340612015 0.13971626135951984 0.107642697230146 0.001488245793904422 -0.018900742859175104 0.1560220595765751 -0.16951629750012004 -0.11912048678315161 0.030629127557038362 0.07060959497741313 0.07335494813850574 -0.08515630326027192 0.09694519338484696 0.09921116612062164 -0.11383953994457209 0.09858531091957316 -0.1364349874817016 -0.19806988722889438 -0.19082467756436738 -0.0026954311638102894 0.0016929261984880131 0.0061190594711756025 -0.04711283834240916 -0.09021969420890874 -0.08570681910656767 0.14870776166564526 0.0498721816769841 0.06349478151002402 0.06040725091729758 -0.10238917853836062 0.09816878259259286 -0.05273251929678642 0.12505770434164726 0.08300559867622374 0.03593602260147418 -0.003255244826964795 -0.052899068015607516 0.02380541199272646 0.05011769733883554 -0.02963404978246467 0.05310077236693213 -0.01993370800281217 0.14094072596691418 -0.21026798793512577 0.00025522024391118705 -0.022166016291907096 -0.18792157576281704 -0.11731169045709208 -0.05595536628170964 -0.027189893231278423 -0.008548061436251394 0.014879721767887726 0.1672277307527261 -0.010848838654945276 0.11124099237774226 0.21618735520517188 0.032694426623634996 -0.04002173068993849 0.0696642041017464 -0.0899617959634519 -0.04999815363716355 -0.006597704588140946 0.05526533606956192 -0.10133508505188449 0.07743860837423787 0.043419369848542506 0.12195806011952082 0.0037120560139383254 -0.01226783726862057 0.03050357088846613 -0.012754889705108085 0.12783085547301562 0.046567216143327754 -0.15526322069860338 -0.040839478687345894 -0.09696721993818891 0.02929528215156281 -0.11058825076643979 0.12988102968118206 0.17609819480626615 -0.006415775465145947 -0.17331334027513762 -0.10229708731242541 -0.13667583636653466 -0.008139834749143275 -0.028888656286934863 -0.06993719611543736 -0.010860817050020026 -0.01136119374251992 -0.049607556544079744 -0.013722377124027085 0.10213793213689804 0.173683500500792 0.0438913768483032 0.13146926388746585 -0.07102558847915967 -0.03708247179966158 0.2104946181703719 0.13996607187806584 0.18432193125145574 0.030781990221355714 0.011385597831851862 -0.1007120610986232 -0.2482617279035816 -0.08436550734489652 0.04288861551017197 0.02037345219983799 -0.08421741300434685 -0.1345151564703695 0.06871308586284766 -0.12853823455253588 -0.028411683510075857 -0.0151042100861353 0.01608307129631047 -0.05111418323770131 0.005552536189650405 -0.10875681968450497 -0.016553105380271407 0.05608073845279568 -0.09653333821405409 0.09871833296331638 -0.03365578368732347 0.08207386702251566 0.01838986522883429 -0.020161631466828304 -0.18553957222780035 0.026779716765176424 0.10891013574877537 0.22291847002349713 0.020148445269563567 -0.12915912340682145 -0.14088816413688057 -0.01929228484769984 -0.13673122872246324 0.13984834595280676 0.08142171973402246 -0.050912734000039706 -0.018362526934139076 0.05067089239842565 0.07567416844730865 -0.08813476952643387 -0.006396319450625985 -0.26039059940446974 0.10949497828523995 -0.11592584828888507 -0.32232640150823 -0.1622965866086779 -0.006707534062358165 0.042896261198465395 0.045112676578773436 -0.010668696220114264 0.1349932050591873 -0.05165984868969856 0.1899724518032508 0.12772950247527304 0.18456171810393798 0.07636130181321697 0.15246601779645144 -0.13714329259744532 -0.26876049916316147 -0.11406266075352042 -0.08397776759976283 0.16058318318036138 0.03812909607449149 0.09161929937369793 -0.03376970914982201 -0.09977794754343433 0.05541801378305773 0.07768071443929547 0.03430683788100599 -0.04896723107646136 -0.00905069421259923 -0.23863764381236938 -0.02976545237822115 -0.13562927974890066 0.10057522660054251 0.14732644823714072 0.06026926963906964 0.01103229277725988 -0.004371970773089221 0.10979726453612361 -0.12062912370290568 0.094151336357076 0.12596398388633073 0.12265845031283727 0.06965948556079819 0.006658099494547564 -0.2725100780658445 0.09758296214748624 -0.04619807727284177 -0.12747100937428713 0.0003061167294401716 -0.004778145158398696 0.11808183857293003 -0.08475966292229842 0.032087302541524615 0.008096725063741999 -0.2027143680086303 -0.1051728042519689 -0.07330333289499787 -0.2084058787208106 -0.16710968464577264 0.14181374553239737 -0.0008367708451372281 0.08242557378783921 0.08512777158093515 0.25991559336539133 0.04957846196649825 0.10083600585938263 0.08630399450865987 0.04564313683727919 -0.017850014124834317 -0.050865790061146436 0.20503787713056593 -0.11334242645060108 -0.12736829507776748 -0.0948701145580881 -0.1807621827238402 0.06233899625050741 0.0686856215196195 0.1644506977488938 -0.09589362956679294 0.30916245767735784 -0.139411634715472 -0.021061030300069165 -0.19150268794639683 -0.008458737883604123 -0.2284087423753534 -0.06524224603093504 0.018209132566470426 0.13521454853275872 0.21776130870686866 0.14997181301532075 0.008978623803425727 0.07670605968254804 0.1107117062095744 -0.04116953014240522 0.15911408736478774 0.04425794676853041 0.10911869087642095 0.20807827768361634 -0.15496769546160316 -0.016151099277859293 -0.19535614486663633 -0.23925578112163254 -0.13413030684105942 -0.06979243092425577 0.06367741494826344 -0.00800252590026985 -0.17392352968190644 -0.11976629903638647 -0.016174041095570607 -0.02989195474126003 -0.07885947907707469 -0.31993516942463124 -0.2360707844491761 -0.3542823874624411 -0.03985623358432499 -0.013080780815332267 0.2392936826577498 0.2458207251232235 -0.0398928508170447 -0.1778098300453528 0.16330911279162835 0.06065759670741698 -0.027455125600197167 0.15297042296406735 0.10687685179644667 0.10099459844628701 0.0842226812164931 0.013833950534942853 -0.1613826129121793 0.017575918295473506 -0.17958283984249168 -0.036731123047714996 0.054555004409801704 0.0825629976025809 -0.01599708849559041 -0.078137039590545 0.05166963072336072 0.32086131156200404 -0.01605801662491942 -0.17547755343230867 -0.19848127487357176 -0.22640113481054058 -0.04855514640119714 0.1020184210416403 0.21090979727365894 0.10084523067391603 -0.09920832991309296 -0.023483344632014257 0.1731661633886643 -0.0915853521917038 0.20725930147906305 0.0035774495936603343 0.15517714524079118 0.08261034016196682 0.0868525216980192 -0.15143564396190445 -0.17806491708041305 -0.11593530940801755 -0.020185515837702003 0.06865761394088575 0.18187678498639098 0.09977988196963809 0.048623342563323645 0.11346786321361015 0.029634624550397164 0.05261562625368987 -0.08544884191218079 -0.14993134144463105 -0.3783384565804592 0.012650500013847916 -0.024058795300453822 0.14723046664769546 0.10642774804242394 0.0456280763382691 -0.05735732151427559 -0.05303691883429656 0.07569238986307252 -0.039539259364645515 0.05852770887100524 0.11278002196807718 0.045828448869371013 0.1426084571267976 -0.14098117797321977 -0.25241050310075547 -0.11633825227812056 -0.05683668139898458 -0.17114563061665583 0.19336293338167077 0.16649795090790795 -0.033789305512088676 0.07387070588790405 0.06299605042714197 0.045206540863369636 -0.07037423703414077 0.10875784712492369 -0.19447323404867214 -0.12749311714913333 -0.03727641886985643 -0.11926186574433151 0.19012973370719585 0.07153362713078712 -0.0038929231812680097 0.26271679841513446 0.07719128895521317 -0.05814660520630182 -0.009886300194178604 -0.02515492249495402 0.10087389431685838 0.12821367974483275 -0.03623908109912835 0.00816038653951761 -0.16536027822389138 -0.18787543397503392 -0.09487871824030478 0.029885382883738036 0.13599352426428524 -0.05242153408547074 -0.0013543527765471962 -0.17030957847087305 -0.0027796126130561986 -0.014181196659736358 -0.0040168994587920885 0.024462794495531105 -0.06612368812538419 -0.05673339172935071 -0.08142860640070247 -0.05013263986480264 0.13046976931666984 0.045456300814398685 -0.07439307433589286 -0.13200004364865978 0.1189846299764343 -0.02780921069686368 -0.019594866401996407 0.03334128768119152 0.045646330653927 0.11671861390816719 0.06347936681456613 0.05878606411172167 -0.09725119357803093 -0.08498643574986801 0.041085039324845966 -0.01517470029031456 0.05620069535258912 0.10430142376113534 0.029583591531816195 -0.130944282286022 -0.16057630782379173 0.15121675873644616 -0.019809691075081494 -0.08412413810565317 -0.04605289842438939 -0.1783010841829535 -0.036781012330580495 0.007304676554195914 0.1294626298426405 -0.010154433764079812 0.16813117374490344 0.06473257401034485 0.02361319685614106 -0.09066382545511627 -0.013096957733499195 0.12927823869719066 -0.05509014223213637 0.15308755885363454 -0.006334937402763311 -0.031859665382051414 0.0639571167418634 0.024024074496498137 -0.020183199377902212 0.05938185998591068 -0.04946950120934766 0.1520904161620486 0.09192881120112498 0.009513612702197262 0.09582711155631539 0.012021510768629062 -0.03941742557719656 0.02432220023534998 -0.12838494055792973 -0.06943130964582545 -0.1755550104600498 -0.10886942787885179 -0.019988946260755053 0.2864262249961094 -0.03752456158586066 -0.11543557197465093 -0.12060753356069426 0.12772190322412502 0.10438054089533876 0.03141636156748488 0.1633778003421163 0.14735177478645975 0.07680118033312501 -0.055494484392906246 0.07978653777716099 -0.10391805623264935 0.09118936189416445 -0.10386911618625284 0.010448216103363855 0.029642213674069967 0.2478289799473772 0.13546524656962108 -0.030001461100228017 0.12737697605817982 -0.05923587616083399 0.02695354470349287 0.01253488764998269 -0.05563185761270067 0.12200809435880483 -0.1862480629793091 -0.24822040612302607 0.06978012278238034 0.21703970879388929 0.12404000936267154 0.10370231482251692 0.10449328112295218 0.07369195625904736 0.013617008336813629 -0.02920023445012437 0.1155778944647368 0.012113112342744559 0.12735899184878272 0.12602558988515047 0.025572232972601083 -0.058553076767599375 -0.1558124870327823 -0.0182149890114443 -0.04378033596621939 -0.19048413142889334 0.13519911438558324 -0.02164462261453467 0.0025457828470309765 0.10889274127303616 0.04258564638245248 -0.26465362602615344 -0.025304680900830816 -0.023869109039926128 -0.24419925417928884 -0.17742329897174644 -0.08805657632162181 0.028111154106437594 0.15806537866684742 -0.05555252868455461 -0.04448617061675671 -0.06777507043392443 0.05732802510849964 -0.053872118236344954 -0.06727948260632442 -0.13101469374013602 -0.04913090332768378 -0.14920037619205379 0.015510154900465761 0.005961012685719442 0.17614453546409414 0.007337515310422271 -0.03149579881923101 0.12636030059514458 0.08379676377916143 0.2542602935409806 0.1807253542172181 0.12517215648401245 -0.10867691627058863 -0.029562270304487555 -0.05277720883347534 0.009332181351682862 -0.0779590659954622 -0.15728175625966062 0.025517684586489925 -0.24376937469150664 0.01965453409110136 0.166471130600645 -0.01447348669421651 0.18693585379678704 -0.09204301808035542 -0.08894504051587121 -0.0506142146665226 0.057410910659655076 -0.07680474665305047 -0.18577990312209924 -0.0682654868820357 0.1317161781032081 0.10608687261002431 0.1909200038850282 0.055050890015365055 -0.1692264875943195 0.0007969186924529822 0.018194139823915954 0.12674695735598718 0.10739569000361225 0.08883484233693502 0.007150889628040411 -0.02485753314296719 0.2688764613356099 -0.1447092686817914 0.09421388940685378 0.030373195848281635 -0.11913132010283099 -0.007215745808883639 -0.10644201505558068 -0.01306422981762511 0.07838262564911794 0.06538864684228674 -0.0774072651503558 0.05077769464914287 0.06152928392394585 0.04268137021720286 -0.05749748292802204 0.02195349508955391 -0.03725160410553127 0.005322925538244798 0.07984817745182547 0.06653322388039672 -0.11143360604888543 0.007216048032937741 0.10512278117313374 0.13041253352251664 0.10675216153976207 0.037747467461797114 0.050439704691246125 0.00771437999579461 -0.2292281542554202 0.13442099749739092 -0.05125529555829607 0.11279755177946395 -0.14318667132490695 -0.046758226408618 -0.20005379203807316 0.02849787345645511 0.0624619640022358 0.05398306389186711 0.11506963588347392 -0.25210599052522514 0.23357130391968656 0.06125449880268883 0.003001576941216277 -0.03368279847885853 0.14887377139946684 0.10255230794385485 0.04773530273991193 -0.08656461620234021 0.0535606446585596 -0.034428751321008574 0.1192433734666786 0.20966237454242945 -0.09002743698531646 0.006388953025089098 -0.12010282521017326 -0.227034260237552 0.0294543756388776 -0.16878073127140691 0.04287572797799975 -0.11725479075980391 0.021442991368162603 0.0448122212110748 0.04446974283482777 0.0616022688972229 0.042892472375356205 0.08682166890526406 0.025362232208801006 0.03153079400729973 -0.01873028663569224 0.09152930425352396 -0.036616919713188006 -0.03485581351923198 -0.21786348674116296 -0.01895497005671227 0.003980531585786897 -0.0113746668530704 -0.08548029774495013 -0.05331089891763177 -0.09017602179944412 -0.05804563712661831 -0.06394895831927294 0.0634326153836962 0.09704856076385315 0.007987511064543807 0.013292651082322101 0.1471173030188665 0.11192573772685759 -0.06966159299907393 -0.04217812938020311 0.0016370639043208803 0.1376058524851961 0.12433284675912581 0.0663036413746978 -0.0823308786278257 -0.05766874924081457 -0.14808219621552285 0.06046111165818144 -0.05794409178369215 0.0054429214658232 0.07598984349580888 0.15469409988550814 0.04814798827171729 -0.07223219817881074 -0.06411972474566928 -0.15979969208662295 -0.012081078650305966 -0.08593265435682874 -0.10471538691722954 -0.047545179898405586 -0.0386744305724586 0.08841987306475502 -0.09999147693192681 -0.16729130065807252 -0.030218073955456327 0.04030172965541343 -0.20316296690653485 -0.10696457776052411 0.13649665309760226 -0.1923723483022088 0.0898580008920638 0.048132713931151275 -0.06260617777141037 0.10961577435458258 -0.08175839012766434 0.016001894576629767 -0.06580862937177924 -0.03475407818671009 -0.023526020642573434 0.08328601737941081 -0.02635360840254706 0.0055977902918842816 0.04279836562811535 0.04856399606013244 0.04129001439654002 -0.039212326079878596 -0.08098052993866925 0.16574028126566664 -0.03514352325545872 0.017577327529840155 0.18621462624808546 0.009442743005121814 0.0034633168378087427 0.10780359249802385 -0.12785533103527866 0.002349490791338093 0.1406543831476573 0.014010758227163763 0.04102353191293807 0.061182657122291255 0.10708896771469137 -0.01982919490253223 0.03203197720016948 0.08850847978973268 -0.08682321882017001 0.023284296575614042 0.052834221789293236 -0.10404510829052142 0.06709040512717171 0.03382469116460604 -0.1472403540031447 0.07717022702281923 -0.032230295358885996 -0.005255281689105446 0.04873446773668559 0.23921480579585971 -0.06551592367766587 -0.042408227071734195 -0.10567443658326281 -0.012628917090993902 -0.08679616215991343 -0.055574677228139135 0.07741515370334755 -0.10119126193935322 -0.010517331000980458 0.035000356397916335 -0.03940991368257952 -0.04276899276171006 -0.037858228718877465 0.15451134649750276 0.06448708329020908 -0.21982549106780738 -0.0620969282750055 -0.0005135586013943499 -0.03589094538169195 -0.09616233083591383 0.04984335271398197 -0.04038017872160364 -0.04757150139419695 0.045077426480405414 -0.008644982059612043 0.023187024188082266 -0.024234108456224868 0.013995939537554321 0.12847141638309506 0.04023173742622225 0.008288813735988096 -0.07108626874063367 -0.03348482251964688 0.031217688818900434 0.07109177889008651 -0.041475419013487516 0.15657095171474017 0.011176876600388543 0.15361616296487188 0.024412887883427794 -0.043090122489696396 0.0031020214405776156 -0.06660114381405084 -0.07775137323540972 -0.07371246503361926 0.039313110004418075 0.11419235412623722 0.08806584427032339 -0.09225030954604944 0.11037077160020889 -0.038425060373042524 0.06820355229879344 -0.017583053542491414 0.06576448134659986 -0.0645464908329958 0.016381886873024342 0.1403790818894339 0.08358421216085718 0.07430619677960602 -0.1550565832487524 0.10267645400103877 -0.07843673014311067 -0.07718298468137665 0.16514752439331823 0.054264857642310524 0.03880199928715779 -0.10065715368219176 0.21981716693218376 0.0935631110319281 0.08654142768006748 -0.06500792448477913 0.0011999539369618411 -0.030372367050039276 -0.12109859595551846 -0.11774769328775517 -0.0030772045149549646 0.013997193351606825 0.03900648030589485 -0.09292582640510184 0.04323687211734929 -0.08154490177922022 0.03247166119063876 -0.009929374666000239 0.10978539482403045 0.0024423494075771074 -0.06919348403541044 -0.013923081630177045 0.06556599527637888 -0.14585544508873774 -0.013297952301859303 -0.0044200101105847985 -0.029505445491925058 -0.041866070017468886 0.140394593844635 0.1897117515607985 0.21012065525887796 0.043286092769639066 0.09977860851934625 -0.02580755694533684 0.10391966067923913 0.09337012729299325 0.10324815938879393 0.01295783587615988 -0.0519226291514004 -0.07701143794664583 0.0435356472731016 -0.10657773794659046 -0.05269254055955696 -0.050973751119832524 0.14341513318702298 0.16654091694031095 -0.15910325186856641 -0.07342583029438947 0.05961706351755733 -0.24264947598724726 -0.0016357197579735352 -0.1325480075326213 0.03787682206313246 0.2771818812538702 0.0755407306448915 0.18004915127400517 -0.046367457532504756 0.04469421474893638 -0.11242036589470897 0.15987389837163152 0.028765505798152836 0.14560790087810296 -0.19433351851478015 -0.04696794249964431 0.08668853757532458 0.008506318899489001 0.08069767586010804 0.06863922101740577 -0.12608282985367247 -0.04626532188164254 -0.10073870926505335 0.06831067739047271 0.14809056672738743 0.16766600354689348 -0.05175755654110728 0.009141228365714847 -0.04254206117718757 -0.004657229638956893 0.1459360127476836 0.09108120668807468 0.02156469078088998 0.09389450629583593 0.07286003866476076 0.09667862715508876 0.01124651962601668 0.02215352877968079 -0.053005520913172954 -0.03588802085573057 -0.007056096955246603 0.0835407846290002 -0.08837109587256521 -0.10793522827822086 -0.08990210728954834 0.02950720048022218 -0.022337971693542163 -0.14702500832084345 0.1401130543100527 0.18235556985518736 0.03467129508134525 0.07001246145980879 -0.08796947353893746 0.12450597128878854 0.10065386795122566 -0.03790985480589051 0.07932214516763555 -0.18796015219431703 0.21082778825830698 0.2027259741492553 0.26166876893320734 0.15887733713323324 -0.051507474893845884 -0.08540426193906323 -0.09417609049617226 -0.07464701167957466 0.10047966465896946 -0.13290978707097725 -0.06283068753087637 -0.014706517143539552 -0.12958446853486824 -0.04319514804357499 0.11441350358635906 0.18252412099619142 -0.24095672846225044 -0.19557608857677244 -0.15423856409678538 -0.09435103423237796 -0.024568830069190726 -0.08703207809016023 -0.12695175208334042 -0.12073909520051672 -0.01114699612464052 -0.02291360243919474 0.09391496308305154 -0.05811447819869466 0.20134109681004417 0.13556759605058902 0.1907775901059272 -0.008287541696669723 -0.07547178807468051 -0.1244581866462826 -0.04351120033025927 -0.048519607109767285 -0.12980590751251478 0.11706884753308433 -0.058469219920752095 0.1179456798564445 -0.039876271595908626 0.06757068926339682 0.22501954973943827 -0.11508790805686567 -0.08332856190630446 -0.07339655952049148 0.0009676474551430778 -0.11365980064539785 -0.10387622470829155 0.02773372340852017 -0.02389233159262121 0.0011401998711854124 0.09651892999388144 -0.10612296094455412 0.04888498325743983 -0.09038318103249987 -0.10882877465524488 0.2421873624384604 -0.03437565173247014 -0.09763588092792425 0.016820672374661696 -0.014699247521723748 -0.003890600848105718 -0.13226129303655662 -0.0376977201529432 -0.015777021361108035 -0.0327985752002153 0.018155266601076657 -0.09588174416167025 0.03653199372255183 -0.0044801190688837636 0.06912347486518114 -0.2341998980500395 -0.21995962893423096 -0.014178043801327249 0.027438365580613217 0.030217279211436382 0.05917953189169122 -0.1764553046629755 -0.021090982036178336 0.0065041837644381865 -0.08038944442987386 0.1743214061152778 -0.034803566363265696 0.15478932540662274 0.2226867100106228 0.26415807167809746 0.04942400601910157 -0.051970860056957814 -0.04156104919338132 -0.1259979814791171 -0.053231466653221295 0.0062851814232494346 -0.08450891328526058 -0.1763867236560338 -0.025658370508582946 -0.0014544956081908764 0.05649025936170823 -0.09509267397533716 0.04240286535589648 0.026158075234222332 -0.1497262423588487 -0.23035758545299392 -0.003522618698659179 0.021785246583187385 0.11205316949656108 0.16491333904355387 -0.015328053551569899 -0.145676318345952 -0.058870736084275975 0.09834606700857514 0.03958680096505342 -0.007698688175729442 -0.012750079105573782 0.008267775674466958 -0.05515152377741851 -0.1877161005674855 -0.10160056542518187 -0.07797543973364025 0.0886958853343056 0.06560816612472056 0.03836560085530457 0.07193845331018221 -0.05114136649471185 -0.1132710659600665 0.11459406350389575 -0.039935517035348034 0.008635753559994672 0.09748482549945707 0.018298398715619193 -0.0123581836768163 -0.023370327924168485 0.035040188145241256 -0.02132544510645981 0.028319073750131568 0.023303349688828877 0.10024899729227243 -0.14178143588929593 0.1028364082623061 0.0008146263981134031 0.09022643466364277 0.08666717167471785 -0.01104076052156232 -0.01156309479907162 -0.14685575127587353 -0.1875730289040593 -0.0012798678971301766 0.0823682161897035 -0.13683179026233167 0.08206076271843604 -0.10643679942448306 -0.1465518939676409 -0.08950803866257839 -0.13169401784916326 0.07789147708890494 0.17719390558043463 -0.08326600951718667 -0.07599949977143906 -0.10895333512385127 -0.1102034623113054 -0.16505064368909658 0.012902632716328048 -0.006169499812017882 0.16171750683625435 0.11492498120658177 -0.017635841337000316 0.08063705250869521 0.024666507304017864 -0.06939279286158787 -0.10262815292695276 0.12809350820825124 -0.09032049115149386 -0.04308631835724468 0.09583098018051307 -0.08504360092192188 0.04324153308701348 0.16447377597200202 -0.02046180548842988 0.004970373806585671 -0.10889848121140513 -0.059532118830874045 0.12116173262277002 -0.01905707340162037 -0.04974960080791735 -0.020516959687472563 0.04981649687647265 0.0352235637099024 0.08632206725563478 -0.011805280246246214 -0.16316081980095498 -0.027236885184081815 -0.026386132305991503 -0.11351532947409193 -0.1282619192132306 -0.02953634345372372 0.019540986007517972 0.08018452198763382 -0.02264560700151959 0.07942681307656435 -0.014992364576050033 -0.15284184375865228 -0.0663066220951014 0.03171352283933321 -0.14475944049800413 -0.03501836038737267 -0.10675901176716734 -0.10458379899008063 -0.12668283266046285 -0.0625217580452437 -0.01928023788226144 -0.16689093739610433 0.12035053324915965 -0.008126989976291922 -0.04714141131264193 0.10137626918085772 -0.020858720890887007 0.05817266982432605 0.07601846515724729 -0.014523786858078917 0.007283446044833036 0.00463285641735244 -0.08832421754867208 0.052790554921508435 0.19458172863792061 -0.03154643970567103 0.060287381513841 -0.003194199623779207 -0.12322163436314187 -0.049104853631658826 0.033782764121063284 0.04734542861353124 -0.1533180291946783 0.09155830898125486 0.04217948361238988 0.11391705351740943 0.002639631310609533 0.17585667433163735 0.15472196864973897 -0.08611411859936106 -0.0554082102995271 0.046254990880535383 -0.11241016548763033 0.2178966192219426 0.13827896303799253 0.016834261536865014 -0.06274987099477322 0.17577532193280318 0.004306529771869496 0.03382828521422907 -0.1105787273979271 0.09109526372788969 0.05949903205117229 -0.13016360869187746 0.1649980072965567 0.012161430181442357 0.08145713763853064 0.08204516884063162 0.021644308524501117 -0.07724004644020623 -0.09769125784393475 0.04621162499298862 -0.01129886968684441 0.04478834340561611 0.06672230357161511 0.10392641629210347 0.09773975266892922 -0.08056179568991739 0.009294632415721302 0.027628438916400048 -0.03452878373875768 -0.0969017161375425 -0.04339372982109909 -0.024555961670606797 -0.05666046152324651 -0.1282022396873318 0.030649738485609618 0.06202071124785882 0.03304359670540522 -0.07289601970296614 0.1445715866047765 -0.0297251266126004 0.029745835435137653 0.044192464250208216 0.014297791397368823 -0.15186104782650844 -0.019862260486698206 -0.022986118654283662 0.004169369683805804 -0.13195229108774761 0.003525878035862459 0.09846185491627206 0.2845612290282964 0.15792907068297046 -0.1418788778575951 0.20199635305988833 0.04752346582888171 -0.025591144134929973 0.018705467899932108 -0.08826062876998966 0.048416180125566706 -0.046959384815319596 0.06099921589601177 -0.10213206741909826 0.0016205446226077486 -0.16092965204485848 0.06154555666582225 0.08693171312608527 -0.004389475441573573 0.07553984757041879 -0.19474048946734784 -0.04377784880736223 0.014803696444123476 -0.1331110850791134 0.036040100265595655 -0.10726415563246787 0.09373499808159824 -0.2480572290449076 0.0023884204021814804 -0.07741704994014596 0.10169609518173411 0.03549474365725665 0.006684526219401123 0.19507804062947937 0.12701125773463068 -0.00884315071476154 -0.17617393787467991 -0.13672483312785608 -0.0973891018628756 -0.02641863584785431 0.05764223846205133 -0.09002188490380529 0.03482729827698222 0.05196608715733034 0.11570604656596573 0.01776922118993638 -0.09460018688527147 0.0674509171260683 0.02440695575183412 0.12813189702344788 0.05455695017055183 -0.049800890684115806 0.05598668854098603 -0.13340494968168837 -0.024841496081961557 0.2235408242791088 0.05510192118066684 0.06384560544901895 0.08908661296628739 -0.10928195415930705 0.14470719140163288 -0.17856139762607762 -0.016679814345846443 0.011112604897158363 0.0876399378074369 0.025779164285655538 0.013761362847310535 -0.1229662114362608 0.030831117711027436 -0.004490349745800412 0.08282103152561135 -0.013607768305794944 -0.04709622833582362 -0.011504239186885404 -0.01903508322473706 -0.13982572225275433 0.044310015292262965 0.0163039239836413 -0.0022747118232173246 0.015456735180653849 -0.09216545958073749 0.06301701832601901 0.029231751564597834 0.14944223700559447 -0.028187274854801127 0.06458527788704554 0.1402928644043478 0.016135854125621938 -0.012807283754741607 -0.09085292464666993 -0.17297518128160772 -0.00831055206413643 0.0666007079394396 0.09219188219521753 0.036377038304443936 -0.25578258896060524 -0.16499743734631253 0.037215910587021526 0.06758601997032965 0.026150720855888192 -0.008674780862634533 -0.13194469528535974 -0.07290210033948981 -0.033884855227748915 0.04333637016092094 0.11406763282077372 -0.11438403199697615 -0.1560691976660631 -0.0706003560085189 0.19670374404291538 -0.10569488489578992 -0.08535949661756835 -0.12111159391467781 -0.09518033724071771 0.00286662422793428 0.13910830751403336 -0.014827571295161482 0.011024999378540632 0.10378895608669857 -0.026016156582783372 0.049600482449908265 -0.048446811045857095 0.10781768488910469 0.023284333613744126 -0.007939066190332059 -0.031589753722598174 0.07292237590051265 0.02996045739359941 0.05371346856981644 -0.04500815919034532 -0.008160074833782489 -0.03908303601642206 -0.06455727469118588 -0.07614242602392214 0.06212288795495637 -0.15550623482292186 0.025219511211489774 0.03252563109262075 -0.07426676626710527 -0.24102514099765227 0.009686357672037588 -0.023145341080432997 -0.13962462085975957 -0.11098376391765416 0.06582813634660223 0.07749199738854616 -0.023229763989195563 -0.08674716004255346 0.12140592636860781 0.08594668498104759 -0.026734746049917338 0.14588345225003083 0.1853368597285251 -0.1307580302186027 -0.039944222000692545 0.06492185528052696 0.11426225206347576 -0.02343334115765825 -0.04277800056923623 -0.04763840976804221 -0.12737020819145667 0.01002242801881811 -0.1405974940369694 0.13494406857772337 -0.10214179943359132 0.01658843735523562 -0.12171918643785885 0.0785296240619742 -0.02269799765998616 -0.022432248088055218 -0.021482632283517256 -0.01684884993832632 -0.1306889181259503 0.08868682521082037 -0.15754620510943423 0.015794162835165413 -0.05476844790780115 -0.06582111524145992 -0.00846331022022595 0.18875096193870797 0.07362077761482658 0.1025749964732566 -0.1064647849752112 0.05775832006467449 0.07442952811138501 -0.09555852088723499 -0.0792012928469071 0.01893390717954583 0.058635664755393675 -0.23915012234345828 0.034975476055756155 -0.08113486528639813 0.03662396430022323 0.012396118177954584 0.017445284669388772 0.13908156865328247 0.16260932880394466 -0.014883177917089195 0.09263650324764444 -0.04785043939526728 0.15770877217749746 -0.061786060030061214 -0.10070529936383571 -0.04038851605707149 -0.10853741569569755 0.010911487282034903 0.0465585105794993 -0.04392740230150561 0.006424642451529653 -0.05693834525221035 -0.14976120713196842 -0.04466081795095161 0.009338468910987878 -0.2794295700314557 0.028655118528750394 0.022520606437829573 -0.11771000164211926 -0.06079361189679286 0.0651451175381121 0.07781757636347174 0.0078047766868457515 -0.016241072928953916 0.03016387249253848 0.08516296483018838 -0.05408313629074359 -0.10695478618145648 -0.24108421929115292 -0.04720445784425685 0.26164204563976806 -0.010247050943553715 -0.0122554110417269 0.026904777872937984 0.17378335905236797 0.11590055441728983 0.07071634102815677 0.05918268869540169 0.07230188432275977 -0.04688795601833547 0.028706613298450454 -0.028270884624256618 0.05314913676586724 0.016183324201036083 0.05039550440752382 0.05740132226136073 -0.10163927488290847 -0.09295130252844087 -0.09214784162039265 0.0538207965714909 0.06804324096065095 0.08382328116819837 0.06881577183338046 0.0032918678606885634 0.013279276715257663 -0.11439683206165714 0.014564946530313495 0.03349080437053334 -0.005933736966977028 0.12224482032257177 -0.08947669914039745 0.028143394486385448 -0.028472227613311273 -0.07036393743382774 -0.068636851965396 0.0632788230045844 -0.12561905526710182 0.08434748819633585 -0.03902214655029446 -0.027242381674583937 0.027371000701807396 -0.22188084073572634 0.016062178938480116 0.12398914951214371 -0.11897428049397452 0.07653655500882883 0.07063530622587912 0.09507312116364801 -0.15812860200516368 -0.13845030664356564 -0.02540842148996631 -0.12148855490495232 -0.06630118843284269 -0.03738044898225873 -0.15515675963905434 -0.19906905520522913 -0.03125314675997548 0.01799134774111027 -0.04143413011401082 0.05985932725242095 -0.045904079716634884 -0.04703989674218113 0.0029893560952497554 -0.10896472869490399 -0.08536438051706903 -0.06367401844624705 0.011098812856727189 0.2358677559283277 -0.06101720889501533 0.20138625294903303 0.10710959666392504 -0.11672678705776256 0.16659163828513393 0.21629635980904857 0.0756375092576875 -0.022782626509643092 -0.030237416664340905 -0.15450538447270304 -0.013323038691755855 -0.122113824946958 0.21914788334002247 -0.14686600774207936 -0.05479493976264295 0.10150524977717959 0.10963096647829511 0.09501703942855359 -0.036766683428987416 0.16801407713972508 -0.07790789954679901 -0.02433907258760953 -0.032270707878 -0.05630409020895119 -0.055178693844117756 0.06479140887757616 0.2030031427795412 0.07925426822952322 -0.04312085319848643 0.06012896457139401 -0.0049137579388367734 0.031932621123259904 0.04281368842381144 -0.016103584811702088 0.06565660082952407 0.030853080291187683 0.021755228976446297 -0.034802078277569475 0.06888783767237416 0.15911522970378766 -0.07076839007546826 -0.09239801298318731 -0.036680600459003475 0.23488996743820925 0.1698907924936023 0.07278446255624049 0.07713640111014687 -0.0409090503240657 -0.10650147665568532 0.005100068784728783 0.02947282819381266 -0.13970856412315313 -0.03480103828386963 -0.0020273390488519585 -0.19233153258805216 -0.026579346386353245 -0.051340564538708736 -0.10620976115104254 0.006607331801489511 -0.06240259545279991 0.13521457776299436 -0.13678670265056167 0.08575782546711302 0.012909740856072981 -0.002256563836296931 0.17446566356829074 -0.02731138550907084 -0.05555539460555731 -0.0591831139102325 0.0260160326266698 0.08149023917728375 -0.10340620015399352 0.06601539396277838 0.05228575269034027 0.0398644136164245 0.11907584236257834 0.0011781177516323633 0.02494986760708959 0.09233666994463706 0.030790275289899912 0.032636667831601504 0.11794898228289616 0.035636940943512524 0.02319699375009868 -0.0608817289192091 0.1414690625659398 -0.06007845033036464 0.13523102880541377 0.023686126492326418 -0.02840770421316145 0.09206123379522148 0.04994686273842073 0.12640803917279897 -0.1768275921641235 -0.09160457101425672 -0.07903706991010913 -0.04806163123542048 0.031273783347335764 0.008986522729713627 0.03028677236573265 0.0456120276600757 -0.018932897936327735 -0.17128974296869925 0.13745201412591743 -0.09586291312799558 -0.011454858439282664 0.05607844489021535 -0.0642403699594622 0.12223563251186711 -0.20145373444263498 0.09729079336282088 -0.17006494487313945 0.13444456020581483 -0.030098362542991614 -0.04296752827318435 -0.03339903227841829 -0.013315725690579198 0.05293652737911726 0.05624918580419925 -0.020823821786619803 0.05387502742151388 -0.0760093199618898 0.1509733637920941 -0.07848599494405871 -0.04722968065191717 -0.17594181828294492 0.06835424279032205 -0.10258742718087337 0.04815587735794423 0.008120982787716469 -0.11178546433386571 0.03314673051136686 -0.020098693717852053 0.16295805667399846 -0.01043437727608909 0.11102628517665136 0.09222136543821066 -0.07343565159647703 -0.0650009263293952 -0.07807901659541641 0.20300849693721945 -0.17293931334020368 -0.08368545769595093 0.10156767887915419 -0.12940806258804405 -0.14956137399426728 0.007870018156355517 0.025470440728741387 0.05279965773503998 0.10163464506517558 0.03140553730841884 -0.07258441345625438 -0.08446891892446068 0.16517580526301373 0.03740243251781775 -0.10944298606690595 -0.014501868760501156 -0.050601781047444075 -0.06280838773611913 -0.023125440098614263 0.041714834208353264 -0.036174840500544043 0.07029567329423468 -0.0998536030629912 0.05407638560688504 -0.00558282790343377 0.15494503813816637 0.07903203921524109 0.00152700149571232 -0.04787549309462767 -0.036785138015242594 0.05167731321098729 -0.14836186439873336 -0.058262894695780845 0.013898520201090404 0.09074966010204415 0.000150899775793753 -0.06650351552777119 0.12358732898308107 -0.03320178048652624 -0.23257621658240454 0.22577922074607232 -0.07061184571624525 -0.250822744940492 -0.04552672977667578 -0.03136608198406489 0.05366029578953855 0.137359489677199 -0.00783295971943489 0.06092300607489272 0.027824006110657197 0.0649874605879698 0.21661446045761046 0.06544239137893072 -0.08854331328803479 -0.1470752647394338 0.13196874615618334 -0.0956512008264918 -0.07410955181458928 -0.09978872168619875 -0.07419786897373634 0.01654626272230837 0.07238965691660279 -0.038180258652444746 0.06589880139624273 -0.014281077501018502 0.07777948188702688 -0.07425577070422205 0.19355641921921732 0.03117730018307518 -0.14845007697266585 0.1134512772270517 0.05233716532731364 -0.0007767009598801644 0.08607893374568158 -0.24100475306086414 -0.1405452711917513 0.029160024809546607 0.07857645338539973 -0.02005945122979763 0.1635204284037473 -0.022570648594525136 -0.03960970346879997 0.050610009392686985 0.13998204885733417 0.0017693202793788066 -0.058402964347192284 -0.0025158981767738316 -0.014162862420359057 -0.13699128034850566 -0.07124937779160355 -0.05302765069244494 -0.055674907015643246 -0.06921519096879142 0.09754092547982608 0.06855763524067916 -0.01463836143990587 0.1961169242406576 -0.019424951220907233 -0.017369148973214465 0.05065317106292533 0.022321293818209086 0.17182432823693808 -0.05433991778826624 0.2215298979895815 0.20032573592834418 0.25747403506207134 0.0479547497521267 -0.019911304275326003 0.15598257702417953 -0.015515076372859772 0.11229470849587621 0.04266500322659683 -0.06262076987089958 0.09932279393309576 0.07154188657330662 0.11718829851866545 -0.09098010478369738 0.013493623026824716 -0.07012393248300176 -0.2471930232809565 0.006619927331113586 0.08909435150517515 0.17031273319044438 0.11549150718533975 -0.053169594568608 -0.011124930781398997 -0.20081643631929386 0.005929347224523366 0.0514579725844172 0.0022573258317239967 0.033287633005590976 0.029772599737958826 0.04456063781875539 0.0035803608919531688 0.05831382915010936 -0.02116634965871108 0.06062895561686886 0.007811962931945094 -0.02467095901583052 -0.22727530274715704 0.03813590829254074 0.026502378231780286 0.079441526536527 0.07781995485989823 0.08884257007945559 0.122311236013277 -0.1081652301040794 -0.049647986461132804 -0.0352180864664972 0.010523688072589582 0.030859528475247006 -0.07117976470721488 -0.07598448960273418 -0.07849653810907017 -0.09757266575147036 0.17744964823737988 0.035727539450362965 0.0823935078170857 -0.103319317219434 0.0032575906028967524 -0.06934428045747928 0.10802249836988542 0.007883867382227376 -0.09399762374648994 0.13159922068308968 0.21053459082128856 -0.19353074378376733 0.06506651983283829 -0.12451131371283622 -0.08733439062550064 0.02860900160695997 0.13176836402670708 0.2537485212448662 0.131773129691753 -0.11246977746773604 0.18658531575704287 -0.17833774293130897 -0.15175751036760174 0.06823936467317687 0.05580459825527216 -0.03796188951479296 -0.050088121532829766 0.03196796554971391 0.11504634478686016 -0.10926270143628755 0.003535782662797196 0.12472472509575173 -0.052551249565972395 -0.038362646431600776 0.05291616088328428 0.06839575573328761 0.11233742696406522 -0.09881693822942221 -0.11028428992026319 -0.07000162211984974 -0.007940687665145711 -0.15472544304597302 -0.16132395736106112 -0.09236385125782003 0.03925856583413405 0.03999311008205246 -0.16567834908180815 -0.018987510860878815 0.0824608307798232 0.19230521950153287 -0.06526605397560682 -0.0685072087320436 -0.08833818640967911 0.14507220234603302 -0.13545625076316883 -0.15972533165963615 0.03806797698531871 -0.013835588315277118 0.01878110983852392 -0.18791990110631698 -0.01763923265121025 0.006045716491057075 0.16148043265360718 0.1628193108650005 -0.09286218223938453 -0.03415271320431492 -0.13115573749501347 0.04381579171290313 -0.05503070668336462 0.0648786101561598 -0.05501380872262398 0.07223272961514478 0.2466374958444164 -0.1656422680820402 -0.2092361982941896 0.07522715880311483 -0.05558008593034039 0.0043327439250537714 0.16939057431179722 0.1938133021155797 0.1509251844713012 -0.014435892189390336 -0.002302639269577081 0.09770260230466671 0.010540894154719397 0.030591885411331964 0.04585321459363453 -0.027216730922402583 0.013758703879786859 0.1974279975846825 -0.024557809254188975 -0.16790119297695683 0.10144819948658786 0.05512813555693912 -0.009721978499775446 -0.14063547142518606 -0.06669188325936355 -0.04316821312992994 -0.05302022202887987 0.021276295522214574 0.011706109679387122 -0.029756318653996302 -0.001141134332458931 -0.0036819181553283146 0.05917747649060427 0.13705054634424735 -0.02716000999677146 0.05210365422848256 -0.03309655740881829 -0.31621649141995883 0.07073643334185256 -0.03056567356576161 -0.23674645532542293 -0.2576718993448171 -0.025783186488829483 0.11415129450787363 -0.11857378836135002 -0.17248114653197552 0.01217775915614603 -0.06966921362499182 0.027653177298238373 -0.1256623568048664 0.14544394131501082 0.10404245331288059 -0.01643896189574845 -0.06244373643256782 0.06509844164346484 -0.17372980464911403 0.05838675651889598 0.08131509274926478 -0.013977501010911888 -0.14530981547151903 -0.0038878724654398383 0.0718430999350486 -0.008285987809401619 -0.10869692925798854 0.01986650212433706 0.029442861265656203 0.06317979850984821 0.11268217928351427 0.04546355165941604 -0.11879555880951263 0.2566080867700191 0.012861479219254589 -0.03346205560323092 0.06454014293315787 -0.026685522363725185 0.18623437849506233 0.05268670456487542 0.030373324524508926 -0.050941124503823834 -0.1839515938089152 0.08167006416343459 -0.305032394258931 -0.07313269594848784 -0.10510214875203015 0.10271360449058932 -0.08071789560133753 -0.11486430948446985 0.022010223311318754 0.12032666311096314 -0.12970581659936134 -0.04412368646579182 -0.09445294991107105 -0.10840588554288394 0.026084089590855935 -0.05939260307138965 -0.07576377036203542 -0.07851856543852512 0.034992739983216045 0.025947484044529456 0.12470059592653115 0.12967460178390572 0.033996588549790624 0.1325786887750348 -0.27833107518213385 0.023663988685737304 0.1366611755049341 0.047470788635313635 0.05184742513296568 0.0731749247429751 0.14768033840766176 -0.05332534875776865 0.03763895835277633 0.01772569372768211 -0.00577476699688846 -0.19589329401704023 0.08557105886518872 0.1317903653138544 -0.01104872985784737 -0.03477159238403854 -0.03129974063669274 0.05604511685682882 -0.1242182684888593 -0.05532484358081528 -0.12516686626625384 -0.03935930598674909 0.10550083101991987 -0.04371948606529046 0.0493577466473141 0.016083974227047996 0.11213620075650643 0.11289250903608611 -0.03016105825261724 -0.02090948392349208 -0.16670531950883571 -0.020082923980213142 0.009143911143644871 -0.00452321377095415 0.13005921520935232 0.032084040391485665 -0.09511564123398757 -0.2417346116037751 0.015101440616005291 -0.07589918696500675 -0.08489966278658713 -0.12667507655515983 -0.02604233721300296 0.05529841748272254 0.06612139751070129 -0.18826696283170596 -0.15142913282577544 0.062463809699862045 -0.10043807959212017 -0.09267872722113882 0.042590537931516965 0.14140791076903694 -0.07913451836752686 -0.018520486080251357 0.0025563251450101076 0.061991683456282844 0.25438109515369545 -0.006715530043566108 0.05382532302845096 0.025473677135545117 0.11466022900337133 0.062059585682773505 -0.06164165490097705 0.10824515346684721 -0.20378261805681375 0.10139945102893888 -0.0030688637373376773 0.03979464197678887 -0.017899148000871265 0.009364955607650115 0.19431789691127904 -0.08868404608169449 -0.007600132686682235 0.06209629430820706 0.03914013012597743 -0.029403023005897425 -0.08211577382250898 0.15234812339816636 -0.14231988907736062 -0.09401017243984407 0.043006716289224096 -0.09736108586821532 0.10146912984598841 0.04165473295884567 0.07754426217911163 0.01982002352007488 0.11441219578714064 -0.1400600391893086 0.06452184010231306 -0.09707760009815442 0.04369824173638705 0.23346043254962504 -0.17462216803801706 0.02122796357563658 0.09799789658192651 0.12889848406612567 -0.16920163492564116 -0.08899405078404488 -0.05873846726416624 0.0226728639990432 -0.08817437889513798 -0.007454029053031573 -0.09981489279885002 -0.003375656014576311 0.10982532225772029 0.09966082122048021 -0.09211301902627508 0.01331614023746602 0.05946438658801819 0.16521428328854101 0.06441513586311774 -0.09614983820640231 -0.12635790868181132 -0.12912050903540637 0.1437389593609056 0.09359613658259837 -0.01604093393742585 -0.16200460839855962 0.16438588692373846 0.09926456724535268 0.009827241501772832 0.16124220017947527 -0.24753990298742853 0.053163428846347366 -0.07392580584558679 -0.1319212813040366 0.036614456374517615 -0.009594899662884583 0.11620644342862939 -0.07077711150927049 0.10481986813558722 0.06483309661609692 -0.08591920816107067 -0.007708788585226106 0.09771427392446246 -0.16779487311178498 0.012208576426723936 -0.10205306508512026 -0.03187394707034731 0.15271346270167482 0.2008160529186826 -0.11547295783162032 0.07863251764261643 -0.02889413823498536 -0.012391132679359424 -0.11655535891636025 0.002204704239973062 -0.257626872717675 0.03416222856416413 0.09702645222917011 -0.055451405716903726 0.07013351092117444 -0.16332154178010644 0.14493816161691042 -0.12740425207651548 0.12191935085504278 0.02818442543794104 -0.08871310459592606 -0.09236732506193032 0.00761331342368467 0.03382148454483977 -0.17274882291879928 -0.02537549256497891 0.140383043912053 -0.02081146887502027 0.051257629623925244 0.1252412225478203 0.024332246104603016 -0.05937014144694197 0.01233239668535913 0.019572267159649475 -0.0778012109428216 -0.05082255456697827 -0.05086967144594732 0.13897274409239402 -0.03751463889066863 0.050173492156195695 0.03347733296350555 0.04716450444746668 -0.11603479743391677 0.03775167270186312 -0.08866594626284523 0.02000353324713007 -0.17339702617640781 0.12937439142784965 -0.037390548000382204 -0.014180467040358042 -0.0637074260329882 0.19754516709463144 -0.13603323789000277 0.002600696402707346 -0.014021209650774476 -0.1447055314114605 -0.13190504796480151 0.07805064315186648 -0.010213842285752587 -0.04918687583617627 -0.195540001639538 -0.04562271538463264 0.12958328146786133 0.058282661045049575 -0.24941433315643907 -0.05579087305612398 -0.03369705698100218 0.13361810132461532 -0.04444994580249356 -0.013720502518359717 0.007419631408125431 0.04988428893444684 -0.05363850958985427 -0.03842647473022847 -0.10906095191715551 -0.11646125104555195 -0.11376516162992424 0.22539380042060617 -0.16832667547388316 0.08044585349293454 0.06561592353270536 -0.07015688791509045 -0.15709462347259387 0.011416892335061454 0.12320513519591893 -0.0027125100212691843 0.02067576507702537 -0.09955936849052159 0.0326959354003869 -0.144896579259634 0.0010144886061817767 -0.13641206331409436 0.08651970741479141 -0.1523676171260698 0.06439308897856588 0.04538261257726991 -0.005550571462184685 -0.08722290367850347 -0.09904242008592622 -0.010847111129441027 0.1575248244929573 -0.022410913384013166 0.15507276416647317 0.08080790563444482 -0.03958214991895601 -0.0075774186918630025 -0.11061167287303665 -0.06032140025794341 -0.1403244603165985 0.10052961602704288 -0.02739111692916455 -0.148827767207529 0.04329489640962485 -0.04275052029219407 0.041261902365609504 -0.12542528804419117 -0.057808825808848906 -0.05634737353698695 0.0633355283691966 0.08867805527372542 0.010333442464374652 0.006623390332014283 0.12904372125910826 0.0771693897918997 0.17395650589887796 0.008610853720874658 -0.014610432313034962 0.16835470990210194 0.05591739970216471 0.17018523368585212 -0.07044080444597095 0.26324320289943454 0.22508284228845454 -0.001616465533651815 -0.019668347346885932 -0.15666974547541948 0.11659213049329488 0.07195622884148609 0.0375047012292639 0.06591647763952417 0.09000761837605788 -0.1491971487891241 0.04208813047052356 -0.19360768687549249 -0.06256881625505159 -0.11356924290195931 -0.023232098456613146 0.13660385137119066 0.13350729876555856 -0.027939858350107257 -0.1749885128988886 -0.11005449169625134 -0.10230492194112994 -0.047349047022738795 0.002929018059466902 0.10019858002613323 0.03693237639286241 0.02495860045948158 0.005153345378605711 -0.08079135168356132 0.03607433511830292 -0.10334200917601462 0.21696301756480083 -0.186431764895578 -0.16076498621750834 -0.07859204497542185 0.07643572597269067 -0.048409031460428305 -0.13463383014014838 -0.02482907321071862 0.11106712045122911 0.11607226248959573 0.019292201979753714 0.14948255546464823 -0.07775046917150456 -0.06566854892767651 0.016302073491733862 0.06877130638296858 -0.03194146384201605 0.12087115591244528 0.017119522903114904 0.053697290376796214 0.09659149318554529 -0.05090392557727414 -0.05290072444710041 -0.051701493409183154 0.015146745428257932 0.11810177193042946 0.059036093668154294 0.17459582237429078 -0.14496575922831906 0.07927141442560967 -0.07514370503373233 0.035730852816384114 0.12573763577734814 0.07334563154344959 -0.0676486259483303 -0.027026171809564112 0.1596904280838996 0.09882395692446348 0.12967723828017513 0.06741836388128608 0.09421572003212439 0.07960520478761124 -0.13235908730879434 0.10428553001354376 -0.10020176627542764 0.3781141616767002 -0.20234991652672524 -0.027997130302545668 -0.04562864112271988 0.09151376708317975 0.15010297352375437 -0.04394307079967259 0.10480952460379322 0.04482445080007126 -0.059653943672984065 -0.1324654341413755 -0.10167054666170056 0.10526941589362232 0.10350110840135908 -0.10613803782725188 0.11142495260843453 