-0.02482639239846699 0.061793832227524326 -0.22731094827504472 0.003663075236782427 0.09277679714278625 -0.06957413242133835 0.05902630795650457 -0.01903251999204279 -0.024145028515389844 -0.027243223671826175 0.02401285342644961 -0.013769922749385967 0.15856157651181838 0.05171153439190765 -0.1379536372693046 -0.09192206043193182 0.011491980946722262 -0.08893961773906302 0.10342254081049936 0.0277026742728159 -0.22137723375577145 0.10799431713477457 -0.08688809866187175 -0.06285937565797096 0.005121438996508193 -0.145376800992275 0.25499176617907016 -0.009167503493812732 -0.03576673690487285 -0.04787336564489916 -0.09397553546627557 0.0027881178022290316 -0.021722923130164943 -0.1280825642994431 -0.2608478303212332 -0.14410307187259686 -0.03193232345478556 -0.01924827037639475 -0.062119242504122985 0.012553239012034404 0.10064860450838112 -0.07881868411652262 0.028959258968144438 0.040525517353896395 0.02824440453035228 0.21664439530964677 0.04954897423998204 -0.20754883496364657 0.10748614204004488 -0.0028917929775491404 0.06475444736201648 0.07482329403212974 -0.030989111896296714 -0.09405554618398732 0.19539300522505182 0.08237831417782217 -0.06882645540562794 0.008858246683315914 0.08593250507065132 -0.10391961594896759 -0.04112125426073768 0.07268172339757893 0.034189543751850536 -0.11787214436868183 -0.14224970074173207 -0.07188749044187424 -0.048324588900019616 0.06301673883355702 0.015163619911709822 0.009264542101118918 0.06926939064539477 -0.015035545493912991 0.10629030504539497 -0.05807858552664433 0.08960362620864457 -0.04540807119935711 -0.219335757221627 0.041947583919589054 -0.025420550113878726 0.14486770891071576 -0.12420750503482086 0.07399656549302862 -0.04720250871888321 0.046937917914927386 0.23564142448006817 0.06071750460236819 -0.052605689180031105 -0.08218689132288595 -0.16197700856254085 0.03534371403806888 0.04516242532852656 -0.06924444905403172 -0.08230970249104869 0.12808325662982017 -0.12306488125783346 -0.09363054212395064 0.012495748072809265 0.21351945703942654 -0.03081365254256345 0.04694705966173862 0.13092844179531005 0.22604985268009875 0.16669230811170954 -0.13497030995979856 0.10383442314260947 -0.132685928367088 -0.07082816451534545 -0.06455199003999759 0.16092724250671725 -0.1491480559567557 0.0817075633326716 0.0689295994767714 -0.13067819140367398 0.1208604859238892 -0.1418537051084383 -0.11755710194441259 -0.1025473149431663 -0.1387479849138957 0.0030656778957728987 -0.06921144399306682 0.12949313272700522 -0.04630170632525061 -0.05417801237510919 -0.18033174919549377 -0.026161985742746804 -0.06738619596175209 -0.015387015895181974 0.02114212599524028 0.0213232768695835 -0.07178301499779258 -0.07154160490996651 0.07336265991850137 0.1008025298901185 -0.00033585831370997637 -0.041689625520446416 0.095367079804403 0.05251189164010717 0.03613136415891827 0.13706538975910443 0.029238583287912984 0.003665320439841024 0.029535098251877362 0.004389857263942462 0.09402202338912607 0.1236208377970257 0.009997600747747908 -0.14522500056804896 0.05790894621261296 0.08220991078920328 -0.07269792541934521 0.014897612709781995 -0.050464237317644815 -0.04356350697533338 -0.04942316063340926 0.02036620963356038 -0.0060556577285871245 -0.07170746387589733 -0.019087186736257547 0.04796052505072276 0.12311812804932716 0.07515806506960172 0.011405630150308474 -0.10209845689523125 -0.12510952855485089 0.13535049325378076 0.12484145593349763 -0.02093636117026633 0.10446094793587267 -0.016616634431495816 0.15513794148110518 -0.008225716345351125 -0.0015897147549178597 -0.08898159250129513 -0.11390395897753965 0.002330022059439159 0.030086350747485165 -0.036817145449851416 0.02729678327707948 0.1286365746410914 -0.07099677168256105 -0.028807140375395276 -0.1876889704510312 -0.03119734064035015 0.031007316106534108 0.13654531410646661 0.00037506693628830705 0.08414888392565978 -0.05272014099425923 -0.018398324673526426 -0.12994933779977327 0.08012835920728385 0.015673093929463266 -0.04513414954233413 -0.140116034926214 0.05995115918988732 -0.02914389015207248 -0.15915872921021273 0.055436776072481465 0.12668488056671443 -0.04716985688194662 0.12801888675928022 -0.16233388293071369 0.04760851484374625 0.08993950393712537 0.18905180375474004 -0.21913802667323046 -0.025004964918374936 0.1292089020351783 0.08898263743496616 -0.024339318071375224 0.23786047638744942 -0.013784541562115563 0.039907175220331235 -0.038488137567283864 0.13788474986279448 0.2149970289218663 0.12372176632067862 0.1034849795006704 -0.12230627154600693 -0.036212029915719486 0.058871593237665935 0.21299252995460424 -0.01100952524627949 0.10374505305616949 0.015174844808543322 -0.11488959213179012 -0.1260772247650597 -0.1117157027952062 0.08758404838360645 -0.006736477791487606 -0.009125437429307605 0.09379549235612228 -0.0960682650167829 0.20832873803072874 -0.016532428479520637 -0.012312682104420325 0.26084002666493505 0.2047554975199363 -0.17217974766998406 -0.149531282938052 -0.1000725983813698 0.1342545610229749 0.06857720200366275 0.05477226941067773 -0.11976680685183061 -0.12415296628425172 -0.025886692000240387 -0.10861202947419807 0.14349269313691979 0.1305883872390028 -0.11037445163291036 -0.05469156693643669 -0.16045341564295965 -0.004657906597590753 -0.0036352738226644293 0.15397359754522422 -0.10046110358432346 0.08359185706249345 0.07120350987892378 -0.07554873930137272 0.28591700842495915 0.05132808735660711 -0.1321193100568321 -0.06680763430813473 -0.1763727411925149 -0.12115277559303357 -0.036515238830603154 -0.0468561625414109 0.07415223551111419 -0.036026709887048224 0.026491027114621507 0.008387896732927341 -0.019741020166943846 0.03155915637354961 -0.05914441769975603 -0.01948105138584391 -0.04662103004481281 0.15848527456495087 -0.13003993222191487 -0.12481785830731701 -0.011452687826486396 -0.02016910156217004 -0.09662207453480459 -0.13387007458298592 -0.005498197416762534 0.0022991630424417727 0.04032186797262319 0.02537882249460471 -0.01927970639745906 0.2064448074647959 0.00437614572323219 0.08169165032348563 -0.1508969766820267 -0.023856866927849156 0.0663030519320886 -0.01629276614030362 -0.009586447691901196 0.09874138483351705 0.04301019355144664 -0.17161567633559713 -0.08145988120895235 0.05840852306334307 0.008115415987698497 -0.18041542222384 -0.13065215742364134 -0.23766245786136203 0.022362462341068198 -0.12580956386481318 -0.0606107492791938 0.04270054990612647 0.037869943460580195 -0.04833727660756082 0.039411962221308744 0.03433546995485152 -0.009418319831248197 -0.05945927142255624 -0.049998194740974757 0.05236427062756156 -0.23223122324808132 -0.06811180473204634 -0.16690961759742823 -0.06400127985922303 0.047187907715761 0.18894791282209272 0.0059918011063111965 -0.08624341591359153 0.18440637156522613 0.15975195856669455 0.09218039181977589 0.08791915631513642 0.08790707049031704 -0.1340065402929805 -0.11737314150415595 -0.05105254065060721 0.0724360930103118 -0.03464259428287486 0.13191384057547575 -0.0256417446265193 0.033041353137401516 -0.05318446750386799 -0.08634196663414134 -0.06905639349831932 -0.026141200120989118 0.1039263299192667 -0.12440052596913305 -0.051762227782668396 -0.12301023991818233 -0.038781500011732604 -0.01932170072772675 -0.03248975621287375 0.0354889156417708 0.01176203053304281 -0.048199753176654724 0.16130096553594234 -0.1796769981398706 -0.11570364236124393 0.1062123437318615 0.09925832820439229 0.05347563930735614 0.0793378700796006 -0.04058712252794261 0.06929432352607799 0.07315187769142098 0.1504425661855631 -0.19003096832263994 -0.0693604699436749 0.10011813536872748 -0.14835569217046696 -0.09531854758958702 -0.01045019680528826 -0.10491037431535684 0.10960716088398914 -0.058637429647213926 0.0469695291063765 -0.007336441091701421 0.000845730019651121 0.09839731067959401 0.1787418737871671 -0.15024862885063361 0.007136003918570029 -0.01713078440418858 0.007859539206275173 -0.22365899543515094 0.14285754841172335 -0.14764204545137177 -0.04555050872139978 -0.05738480230779938 0.06072912902129655 -0.019553533998802424 0.1186710634402371 0.055238642757575035 -0.0635743428812727 -0.03175371748343494 -0.08504238596194791 0.02547567089349161 0.003520088748333445 -0.09353973550206361 -0.02887490427376954 0.14833734737651427 0.014804950645163928 -0.010061978775015714 -0.09610511116048416 -0.03441440009833884 0.12317746574758714 0.18913007447408467 -0.031369155134567436 0.046614098941027596 0.20778381153788184 0.041734316983665615 0.09733482842499558 -0.06786554143514878 0.035403913677915635 0.006937496336678634 0.1769457685474272 -0.014729883869783078 -0.049010433132532887 -0.09088162367708463 0.21098221057197022 -0.1713797375017892 0.1048799794512529 -0.0344338171568228 0.005037426679980599 -0.2210439410033188 -0.002200428671668752 -0.08179420246744627 -0.16511386176013823 -0.04710091198876713 0.058509154240861554 -0.041912839289388916 0.01618508541545146 0.014638117307386006 0.1795464586191492 0.059949800082523354 0.04120948717799788 -0.05502973520175508 -0.1585851165839553 0.05362377580423108 -0.02542297063654475 -0.026131086454210112 0.17128251306656084 -0.09720068375242222 -0.05023634610575413 -0.017209594581880965 -0.08865262830470005 0.07104167534041854 0.0188814238463527 0.01357042318119322 0.06951644527557997 -0.11496581742542825 -0.11894334306980847 -0.050900194667096776 -0.0287181905685564 -0.05898523305216921 -0.19764417243944002 -0.048840777881019815 0.04189264071495185 0.02228922014310042 0.0016345942526731702 -0.0927630775400447 -0.027993104053505552 0.18003283948105986 0.001650099326024808 -0.09575933659817225 0.20701021115121043 -0.09806905443739433 0.23355922580293065 -0.02471025767250696 -0.1100858593000617 -0.0017787936257168857 0.08310440966298221 -0.07143332603453134 0.022589318287310516 0.04482101511584477 -0.14519450555358146 0.018643925012286903 0.01598798667008022 -0.1545348968424225 0.120308908755999 -0.03227002310506117 0.05293792602994926 0.12084466439494507 -0.02897411032017498 -0.011166580614821738 -0.034874024002360816 0.08116246676695804 -0.039738900008704794 -0.021244813288758296 0.13496366843437993 0.04132066538291921 0.09909438534002597 0.016664863667288175 0.04704427125913804 0.0948436793905885 0.03715304305183409 -0.07048599930879579 0.1626231145416135 -0.09346144904559114 0.06996330771467658 -0.04473117837585057 -0.041718253953743734 -0.035519026169722114 -0.03969125677132676 -0.025440538286565603 -0.0372678756967367 -0.01233498690712468 0.04354351865678239 0.11297015488681468 0.0448214400967516 0.037524529922705996 -0.005652706876822478 0.043998005082210405 -0.024329886039252284 -0.1782407548060677 -0.07135848364259563 0.10400992050456304 0.025026520712824036 -0.08143993211923489 -0.06848641874497478 0.11025041758055804 0.058606296991934516 0.05381790758184605 -0.0471285149553961 -0.06865548473834375 -0.013784759726516885 0.06616485004410402 0.06230347633078348 0.053471405562449364 -0.2749250069078632 0.05689228294493928 -0.1935952079919465 -0.2559052115577382 -0.22552091749567305 -0.01441198552654518 0.17879668162136772 0.12061880247387927 -0.1298299617067928 -0.10692976877162999 0.14562356975404786 -0.055517452562102755 0.033349767651741226 0.025218258851932625 0.09728176144543425 0.13458815521209663 0.11159148382233748 -0.0009908607278349688 -0.08715698353976314 0.12542012690772664 -0.04605287555842124 -0.058379384259625924 0.021945062024900347 -0.0667388320912076 -0.09540340043572121 0.011473560396394434 0.03306126898198763 0.09717039656157093 0.15730608423908016 -0.07082711675999503 -0.16126640171889386 -0.047085473962376785 -0.08938142841502894 0.0235763094032783 -0.006759727142397357 0.18579159560700015 0.11997990693800545 -0.022079417352575337 0.045664870772214004 -0.025056223686445618 0.003928581800256127 0.01530816398966829 0.0063965865761484225 -0.04209215602275347 0.08470061444731491 -0.17804979418702438 0.11004515670170045 -0.023478168922101316 -0.16648943825669532 -0.013822325113435206 -0.022757767228143044 0.01773485940810465 -0.13794454712421234 0.29229691910504324 0.08328361889605652 -0.011814392253795186 -0.21345847198248938 -0.05907111403761059 -0.00031116780371129906 -0.14779861993585677 -0.032790075024027386 0.018678591083242158 -0.12026459548898052 -0.02733676054974459 0.05263449817183749 0.039835811802052194 -0.054811453130732796 -0.06648095963319765 0.024039242013820555 -0.07593543462624999 -0.05213132560426135 0.0066812025355873625 0.04476607078691653 0.11096250146865856 0.11714368352865362 0.024860973945564666 0.05153267348168364 -0.034698586514420475 0.044738645268450686 0.10639154176178343 -0.02665153119727938 -0.09102815699293516 -0.10738683520261355 0.1310191199570194 0.04067241635738203 0.07057864273416219 -0.05412990845442629 -0.02085839697357457 0.03936446748471403 -0.08547316436765728 -0.02794827228250142 -0.06407879912376754 -0.10136152800460535 -0.034972547974357955 -0.03982697104738658 0.03958352303627534 0.15771389200697547 -0.12703263826311195 0.006248056908517222 0.03898631950864173 -0.09563103241389767 0.13422509806561975 0.10987705051394646 -0.019738473669716358 -0.05202747649799391 -0.03169091198504586 0.02387144338931571 -0.04070511751693082 0.02458616862663424 0.038426839084230294 -0.06040215151927694 0.11299763742745186 0.03169788775585611 0.05507119026691825 0.148859907186868 0.12312668704661243 -0.09904446085651669 -0.012774799636493951 0.022452447785899422 -0.07934339927559655 0.08039359959381323 -0.18514530526756345 -0.0007442078664591157 -0.031908085250886085 -0.0009838566608346127 -0.12293294583899922 -0.0815546875362563 0.002503349045852036 -0.16150917565783462 0.07239013737599624 0.10312334955930705 0.0331680959190826 -0.03283715056571839 -0.06556718269580593 -0.05482736470455235 0.12258938087946057 0.06781769259850581 0.002156939345294536 0.021006200475117337 0.1589195801771256 0.1716208859773199 0.04178604532371377 -0.04206501472999124 -0.14400051950250833 -0.08875373425886596 -0.24123314393179718 -0.033966423404684164 -0.137665651286298 0.05661675565270555 0.16603081310629597 0.14495131274884665 -0.08211957363873053 -0.08948681140997561 0.016638302722303197 -0.12717401337233694 0.10276455677042771 0.026413159446267723 0.08769208477483885 -0.017249689074040894 -0.08313793500095766 -0.038272289405070346 0.14768228155424826 -0.02193762749269184 -0.055474461951242816 0.15060385407160992 0.08414995857626904 0.09632587855284047 -0.03501101204022377 0.16079596578050348 -0.15868531262544475 0.0008925457272749151 -0.005944825118160035 -0.10207771610574766 0.020623864068948183 0.05253052868879221 -0.00380808727521028 -0.0701977290412273 0.1532117990767559 0.01741105608972809 0.07170902934062436 0.052500193744506166 -0.09926588101829159 0.12663619721501682 -0.041005846590286416 -0.0032281158617619796 -0.08621313352387204 -0.03192485809793277 -0.1333452553391266 -0.028772862475029266 -0.11908245660941447 0.02221540491367953 -0.035560822528073965 0.17021784726385314 0.0986232971133977 0.008283555179384961 -0.07359671214630073 0.027846732296913236 -0.03509409622436659 0.02023292254211401 0.018936855528971813 0.0036059534440257266 -0.10180577725249972 -0.022471280086347405 0.08554562278286695 -0.1546456882934336 -0.00221363591642284 0.06602204170283688 -0.15618563605003752 0.009037688729527317 -0.26147608810149775 -0.11597408886425571 0.09486559471724952 -0.0524116961721451 -0.0743292478887858 -0.02065235085952856 0.03316927205425612 -0.08326484786979241 0.03886135215678162 0.07495917540638791 0.028982427439237908 -0.011388592097975776 0.030603947151217753 -0.06586160968343421 -0.1000925465407683 -0.18974937695038596 0.022268457421084187 0.1451650841717382 -0.05093876696094074 -0.005754700949459073 0.058223465332181604 0.00785551354561586 -0.04568473137335179 -0.0449663452867603 0.1410520365184341 0.036453189915668975 -0.14966916658886717 -0.07452756853676683 0.016991529293937484 -0.1466043113783712 0.024821780981783313 0.14136357286699175 0.006444184548402669 -0.005137225809622096 -0.19933579471899143 -0.001967254773906551 -0.07369400112164447 0.12557332527664686 0.02238577146283692 -0.00878706654801714 -0.08364008486850462 0.15027787750107732 -0.013640311518796742 0.04437685017048105 -0.12000598767824991 -0.024611097015240373 0.031133788039010176 0.002953637167493071
0.003135367237519623 -0.015984590102351103 0.006159770083921275 -0.01576874138115776 -0.0023231359326185454 -0.004635320174787063 0.019733887561882626 0.0039053517154839603 -0.007223206346290461 -0.0024638954760655995 0.014780734297977854 -0.009776093590431398 -0.013459782390066774 0.009180397280867805 0.011846795837346305 -0.0019937595257205664 -0.006746379915465276 0.014605561149081998 0.00665637594692292 -0.02483545487645755 -0.004525494766320892 -0.018733728406499936 -0.0002952211253740018 -0.0018499811150786958 0.008713737619869823 0.01370832709706532 0.0032822487941888247 -0.0008647510956233959 -0.003794406568970367 -0.009549800397757508 -0.01599760154660803 -0.009634727219526582 -0.01035303341861888 0.006449113585014586 0.004617266608456949 -0.016071834061791388 -0.017841462549271173 0.01797143541204547 0.002498932547307712 0.003195844866129377 0.00477294349296961 -0.007613984285108962 -0.012340120612259298 0.01410958010890047 -0.013008215100517646 -0.009890071235813166 0.01092855012936098 0.0034272484808642104 -0.005542826547648649 -0.01430703497459233 -0.002653232998899222 -0.01791928690094493 -0.0009383059208139509 0.020898593835090216 0.020891434716345927 0.008090545175731531 0.010842906001100277 0.01852161599955296 0.0037249839644707696 -0.002969598104825388 -0.0088083801044495 0.006613141371024429 0.014331701125387748 -0.0015028038836839624 -0.00755223061726122 0.020978661915164815 0.014876520721311584 0.004823030442299713 -0.007143891630261274 -0.006861339355568158 0.007140460965905676 -0.003305971248838784 0.010272676294502639 -0.010376224571424302 -0.0002121018574561393 -0.00780294829840549 -0.005715324779080918 -0.013194202767745753 0.0061284176056509475 -7.663505715671148e-06 0.015566393986021445 0.017767039334598604 -0.029766574126965598 -0.005615111483933699 0.004138778667902631 0.00882880531240678 0.00928941499246653 0.007278744815660493 -0.0029427595632640887 0.00850090818841572 -0.000262619943056808 0.00456343251978259 -0.0012559227490531785 -0.0003140674024167738 -0.0032365978177999557 -0.009565964943186338 0.016097888520470564 0.016224006044954574 -0.0038571775297926002 -0.006364277548473445 0.015167095927454419 -0.00745175585318754 -0.013785140460523497 -0.001653131952809488 -0.01261198520147965 0.02498650619108646 -0.012112549327318546 -0.009966151621692029 0.008811890572110397 -0.0011925537626419366 -0.00040084394118087126 0.011410176995235813 0.016995314656989374 0.007703593632733035 -0.008574437850995974 -0.0015013296692276464 0.01441925838267852 -7.149034286042223e-05 0.007849184829808304 0.0020847417443581595 0.0043287613293789455 0.0067910128083687096 0.02061492721368631 -0.02002038638465409 -0.009592492286421124 -0.00010393612696635166 0.005261709485882281 -0.009271069192774461 -0.006610512461879543 0.004124926057247056 -0.001981093284895106 -0.003203465912883444 0.014581919212343558 -0.005076228199846238 0.017724316957005878 0.016989861503310045 -0.006211036320790889 -0.006492214914694872 0.0004219131752342925 -0.003971544343072126 -0.011353027759278022 0.021272530699953794 0.005246811930745632 -0.011574535749523948 0.0011531020352505345 -0.01538388478994549 0.010569415779975944 0.011329866963788552 0.01040530116688744 -0.010966091402026697 -0.014260724505766985 0.008869967880180902 -0.01508065486988164 -0.0038246107822442676 -0.006971363119794628 -0.01831784644363229 0.013592996854321708 0.0017683437175094593 -0.0038935157785253247 -0.0008138365692154576 -0.00046945183044401647 -0.01600002597197038 -0.007724062677911 -0.006556255257174125 0.009223082927464179 -0.015513015299455845 -0.0031640953603732204 0.018122194343982764 0.006952739818399366 0.0013123815731889144 0.0004908572728827678 -0.004780718708996997 -0.012735222327135962 0.013772142538397961 0.006229827716948363 -0.004500804509894697 0.0069251138882449916 0.010585758410953222 0.00640702406209898 -0.012578126682154635 0.014011480966653235 0.013151832111137511 0.007160107072707795 0.005542770665894565 -0.008154668982682287 0.02150624778736571 -0.0178386986965112 -0.012169581481713002 0.0028093997469383135 -0.0027987340930998895 0.016192884241616644 0.013323638848299383 0.011614928324872943 -0.0012280865292917547 0.012771565561298319 0.007294753090900432 -0.016434329812669953 0.001373040651725802 0.00819834255780332 -0.008003981447992803 0.019675675244199387 0.002847522033389926 0.00042478253020407613 -0.004919692185802089 0.006923701041078112 0.006070622552808399 0.012270708046010572 0.019109090575636596 0.0113994403265623 -0.009950740911471254 -0.002682573262876006 -0.0022279718280651655 0.012520272568851652 0.0028119521081850863 0.008421031665101502 0.0017653079395319876 0.010886669541862157 0.0188121097220555 0.011970152652572202 -0.0025567760627619655 0.008971019401962195 -0.002514893486410987 0.01514309101834691 -0.003457704060621565 -0.020150039772314537 0.017826060181092732 0.0016186681535355389 -0.0065800328005012985 0.0053437874613003035 -0.01215090264387717 -0.012090406505214599 0.005315232954420569 0.0211694604790472 0.011009355221852148 0.0017518966172356475 0.008563803704282847 -0.0005381109972096019 -0.0020787461050201968 -0.0026653205769635586 -0.005145518767469105 0.014676110597120286 -0.025658839085128917 -0.007886553343769191 -0.006450823495462946 0.018529701554039737 -0.003412231893333513 -0.007079596045805789 0.011578466941845887 0.0046337101267270335 0.017402530571044995 -0.01523615899350165 0.0006622841404154414 -0.010242270200336991 -0.008219595321128285 -0.0018928631616464532 0.0034993892584295368 -0.020271913761952802 -0.008896911236082912 -0.011742651883047104 -0.008046954999612664 -0.0032249347854605794 -0.010724193895168207 0.007883108385017821 -0.007383274254809074 -0.010531686527812644 -0.025024224419803977 -0.0028101982336991285 0.005219975136125678 0.012504381175836727 0.0125079900417076 0.01669495571065043 0.01089609846311139 -0.007685078168600568 -0.005587513388862336 -0.007727874588924102 -0.004918302272335152 0.0008190357031168639 0.010584303457239652 0.0013314495336280252 0.011675545009433734 0.005023683575776832 -0.0023846591187095803 -0.003394980830454147 -0.0008322915310799001 0.004898170173889288 0.01381974274333774 -0.003795910228479425 -0.0005393894134210587 -0.0009091502516704774 -0.005087976010292343 0.00013951149018584793 -0.012312322861343147 -0.0041091552134032575 0.007625257865775016 -0.0018674229657957315 -0.002063461289620966 -0.02153108939972911 0.02551281770852519 -0.007638164358995287 0.0030968107709804897 0.0014516088143521697 -0.0023355052036671325 -0.003052158389201224 0.004253255741543129 -0.004631849976714546 0.0035922395240094948 -0.003035271005563663 0.013153473425216484 -0.005299041699247165 -0.0034473241656699585 0.004578486026592406 0.003539696851748416 0.003069744078976411 -0.012952110612432937 -0.0037676462863975857 -0.0019334403501394754 0.019120649564683102 0.0018128700660254497 -0.021626739900389658 0.0027582899168753466 0.003603381137309044 0.0034044579566134075 -0.007386475210025917 -0.0021684766488912965 0.0002065654991957715 -0.010410878791841762 0.007121566970607297 -0.017601426017286603 -0.009116800028157138 -0.0012963698316797432 -0.014185636933566462 -0.0042874295742323576 -0.0009587759601176872 0.009140177298060435 -0.005225867775250183 -0.008407279731479471 -0.006440197494963391 0.009169588597964903 0.006364942571055829 -0.0033729884370116985 -0.004278744879004471 -0.02177050448295368 -0.010095492440966844 -0.005523742865518892 0.009247315067842574 0.007288653523130042 -0.00309937554608094 0.0016596810422544537 -0.012138324870683052 -0.0060812403575793185 0.009421641549983286 -0.0161287565946109 -0.008359209150245414 0.00506298318936116 -0.007811604057525532 -0.00040371767572135734 -0.00721323977482095 0.010459256483918586 0.005003238820053996 0.01196121992634709 -0.005451515614728349 -0.00978197240853594 0.003192702169242227 0.002579156701777321 0.00731137059041896 0.0002522224035557872 0.001939724174210524 0.0022703436712982862 -0.007465968864650675 -0.003371703482691392 -0.0016655671706994762 -0.0023005543663581728 0.005325217715594624 0.005634268437253234 -0.001331447515294963 0.0030338634787455015 0.012816489119198247 -0.013098736752659273 0.0021517992245534755 0.005956340428209503 0.0006416942106136865 0.01769918179706554 0.014870408575580852 0.010165010360802322 -0.00585378114798729 -0.010105920463623706 0.00390744928284768 -0.002460838065841799 0.006205069573129025 0.012284672270583332 -0.004559642729335596 9.241567165885301e-05 -0.0026700831225665417 -0.00026124465286372434 -0.004246867017351552 -0.005518367827626614 0.00880542739618979 0.005556680617143096 0.019102943834176843 -0.0059483328934658965 0.007229737826172723 -0.02258215995526332 0.018018993508098026 0.010067666141810346 0.016736509566398744 0.022029421931274915 0.007595084913228906 -0.010783867838534649 0.00029234824411851246 -0.0075644330411516305 0.0007809527728184485 0.00516054266675147 -0.003127997020108547 0.015738935774564505 0.00443535416894961 0.0076858558025928525 0.0016510824974873299 -0.02056701193379352 -0.0060883124248324455 0.014608145127012851 0.015556116598142667 0.000839920244155471 -0.0002685939174180051 0.0033088199440426337 0.020537870452047607 0.008617953254224745 0.0036075651251394735 -0.0026311672714441126 -0.03520867960845847 -0.007716175925184345 0.00013893833705163515 0.006688996685856021 0.005015023186486957 -0.019629082269895702 -0.006606104710573727 0.00015280892289471875 0.007381584788901702 -0.0067536173080519415 -0.022435134750932072 0.007764162128625894 -6.442779535430557e-05 -0.004064357896129156 -0.033102524485614494 -0.003329993712853984 -0.018126684968339066 0.003732972985358851 -0.005896619567106389 0.00846979159181586 -0.0016129548177915309 0.008910039439076903 -0.0029680588635162355 0.014681874626824637 0.0073956285456804605 -0.011715903653018346 -0.0005708244876305229 0.006696731707455967 0.014069393122677663 -0.01754691952271344 0.000225179978070018 0.00821076085126077 0.006512595899594168 -0.002849909455388367 -7.473349675525049e-07 -0.0027741001854304013 0.007104019672445255 0.00946319137629141 0.0017939097072091732 0.007579595428723931 -0.0040762466173982536 -0.000609862330708811 -0.011723507865812496 -0.010934167295616788 0.006598279735122426 -0.003864822582412074 0.012586721819584422 0.01619412784513063 -0.012825400044129343 -0.013519229034513731 0.0009771753996184666 0.0029778184302026406 -0.0012154855224779338 -0.00639841041300512 0.0035211136385711155 -0.0010842090447807041 0.008426097015133725 -0.010431791244407334 0.008738131828780263 -0.007724084531640014 -0.007392690824564086 -0.010579356628089094 -0.014097658106283488 -0.015232977473040246 0.0036955952001095226 -0.0009044377935246652 0.017393877012480904 -0.013681992016337213 0.0010805278726031002 -0.008095463801063052 -0.010802200971216504 -0.0027891966066752576 -0.007185231815925296 0.0037311124894627763 0.008157939914221812 -0.003769525184550268 -0.005747182880349082 0.007034298776878657 -0.006410563736427898 0.004950579788180266 0.011944961735217887 0.0018062411442418456 0.011474672435806936 -0.0030186188883984505 0.016940542351201113 -0.004606119135047963 0.007050186337800242 -0.0010571275904605636 0.00350380511851106 0.001473342000253573 0.01578199654800406 0.004862256748164393 0.00042246612822281505 -0.010423174177604832 -7.790021660399603e-05 -0.0076485122442247425 -0.01986941903062419 0.0007702126322187651 -0.0007187810646071041 0.0031203371245068154 -0.0005081075018750613 -0.006279311825961593 0.007731881520625884 -0.0008545159145139622 0.00012739909564635782 0.002987621225056514 -0.008832676871788845 -0.003144264691317951 -0.009496398146186354 0.01863814352828612 -0.00476253929423949 0.0007368627157010603 -0.016937806313019634 0.018658771169360707 0.0019009414628335186 -0.003346503120290457 -0.0011218230219712927 -0.008305411123512624 0.01066832353861216 0.006827639696253138 0.00913255827513242 -0.006585085607653074 0.01223074596683173 -0.007976049290237267 0.0022417995694790386 -0.009269920212149398 -0.0011943712465820099 -0.0029190347667337286 -0.015172073437367116 -0.014917641928923909 0.0156745332888717 -0.02451536549324936 0.011115758815814794 -0.006221749058905842 6.146015628724229e-05 0.011054023503456339 0.016639097223630862 0.011270096642698256 -0.010704670181217757 0.00867883153516352 0.010209205021598333 0.010654980958833455 -0.008346412007329038 0.005150078934509332 -0.0050180078726936896 0.021889614546573455 0.013457610021137836 0.004675671615673054 0.012008149888490725 0.0028727206610528588 -0.009835841443260702 0.0021191172845183006 0.0057896773952388235 0.006522461322274752 -0.0014240235372338312 0.005914200562873533 0.029960502176787408 0.01364437974482535 0.001257797254929696 0.00014017937502342747 0.010978118921397051 -0.004103685685772667 0.005670509931583612 0.002522653788748627 0.011146262125653488 -0.003367073614963652 0.01968278814666482 0.004007346370073241 0.0018408341295401442 0.007156374114826688 0.010176467810809938 -0.014310485775405939 0.0008209359256767569 0.002710858285192592 -0.001012029635532541 0.0045747626954385995 0.005677993080243098 0.010693352249951263 -0.007746573384184109 0.0168208260779256 0.007828476642199123 0.013407519429356996 0.014528639916807732 -0.0008517578741230554 -0.002257417881417934 -0.0016035228042321759 -0.019761986524501583 -0.011123724411962545 0.013912168700043833 -0.0059930050704144755 -0.007240592470142418 0.018707942903662345 0.017672401590554932 -0.005478705112251431 -0.011319849016096952 0.019172800848814224 -0.01972719904850864 -0.006857580077309137 -0.014620725839718343 0.004983868542011731 -0.006929708537465954 0.0011968836681302572 0.003003147107524598 0.010010314570222978 -0.008436025435457604 0.0020545418181644464 -0.01940240345909433 0.019998874592210534 0.0014780823948608258 0.013059748795669589 0.007242885688288215 -0.008195084111908942 -0.003091832241933848 -0.0048751073168624755 -0.003763102336847496 0.00988836739037253 -0.005125343813532869 -0.000661249680322763 -0.02027569261937375 0.013793421856282483 0.004595994758257059 -0.012694319723281583 0.008202854565884977 0.010802002095902255 0.005026942003159015 -0.0016475584459789089 0.004510040989486259 -0.0059491360073340984 0.006272437200960366 -0.00898772919617187 -0.002521755381330017 0.006897692135711147 0.01845769723836332 0.006453399048023678 -0.004415916237590783 -0.013196968575966141 0.027449350255513844 0.008057294696676516 -0.011973995610037345 0.011818496185608285 -0.010448822874916518 0.01036405695520051 0.004334042319935204 -0.005348787397953559 0.002338567294699114 -0.0067465485543332275 0.008590333211372184 -0.012628261937166698 -0.017048041446294286 0.0018284975843437937 -0.008199647423782855 0.0014656465777549872 -0.0011662499668333257 -0.005269692245196931 -0.013943805321697826 -0.010899305175108542 -0.0038872757982015543 -0.014913095620716995 0.015314404722570568 0.0013093372918306695 0.0014783811454400966 -0.010210717019397367 0.004884871948570778 0.009870541871939113 -0.00196195754175012 -0.005855142728613465 -0.004028664578007345 -0.011052103990898907 -0.0009128684499895045 -0.0061957927675528384 -0.0030586697500711757 0.011690568565194735 0.0056316461964944 -0.0036262902178155697 0.0014699914569699817 0.007564411632717966 -0.0016693411602262424 -0.01769809131739921 -0.004387852680968545 0.014498156496569386 -0.002843054341546375 0.010485800538539725 -0.005681192875978157 -0.004329858424028781 0.003778854034148591 -0.00666615557768342 2.5353743578849738e-05 0.0031549318485307406 0.012995657314190756 -0.01364703496902747 0.01841779369614463 0.005020266881463464 -0.012483370160093954 0.018401965151314106 -0.0027565287982888216 -0.003603091925396355 -0.013831073577387228 -0.021309390996850773 -0.00792394822517913 0.0037342573582302813 0.009936509078494844 -0.01941111965818535 0.0008902519919526485 -0.0021315409672895496 0.03214839272795295 -0.0024949807465823102 -0.011253071646192695 -0.005504214485287829 0.008174805452606924 0.0033472290767697834 0.02357987325451367 -0.010918210806544273 0.003552881189039072 0.0008065104952625317 0.0009239149569652173 0.005492751154037074 -0.018734026299719538 -0.007219031326504697 0.00776386183439007 -0.006999733953204813 -0.01314716632355965 0.012536005155086148 -0.00045298652331115244 -0.021428978831198337 0.009970343218061513 0.005233289814044305 -0.009579197772051578 -0.006065129076256381 -0.005891845684239663 -0.007850026071768238 0.0076129817056502245 -0.005663669507240549 0.008697425236097511 -0.0038443259361584203 -0.011305075945556922 -0.008960992556697554 0.017061537559579128 -0.020487808336721005 0.007578345924989048 0.0037264438202156743 0.008734595100055564 -0.009176857352057307 -0.0010368800488768798 0.0005043362345993753 -0.011989825187646838 7.97385400016847e-05 0.0016292866420013305 0.008113334742479163 -0.0005046623371175275 0.014218758334810375 -0.0036070055201374556 0.0022241419929863795 -0.012916030863831154 -0.004740155071760199 0.0072107467083720525 0.0019451005552870832
-0.19889597571435194 -0.12175460725581348 0.023937794399456227 -0.05314077368469612 0.11329506251004984 -0.09674916601785942 0.04634515385213121 -0.19504593670338685 -0.07339870681277604 -0.019096636004150375 -0.02232257530940428 0.05058355052469112 -0.137064139610513 -0.0884079849791478 -0.16662448778843347 -0.09310014972649158 -0.13734358385425702 -0.04615081811966532 -0.016358825805542453 0.1294232699213942 -0.018816510685369443 -0.02509927253965054 -0.07293875288052971 0.19552892685752343 -0.09797222571720998 -0.1300595493266315 -0.17306194775810035 0.17540135163304926 0.014350129183512915 -0.011028188881988303 0.0027699581219902676 -0.010471563045089704 -0.13009849657953867 0.0606299886206282 0.13537758690444296 -0.109110076628453 0.07867086673841119 0.04541657343855686 0.06514910460822174 0.09535711748612255 0.0235493816484451 -0.079802819923839 0.07887244365273495 0.12904243933815673 -0.056410002824994754 -0.23852743182389316 -0.13041674299100822 -0.06062922537766252 -0.08209571350442185 0.04301866911880476 -0.12873854258839815 -0.10245782361374715 0.004980521471741276 -0.040582905587147784 -0.10567525811413664 -0.171875439891102 -0.10927192980814694 0.06850989069883195 0.08253940657878414 0.048073853211747876 -0.21247720991350538 -0.11798843618707375 0.11250114546304461 -0.1717225182232532 -0.12917478205843047 -0.011616871928788302 0.01849252280280064 -0.09832853899529227 0.03854225645955383 0.01911410363018149 -0.18373420753631536 0.09088184677109057 0.07805899691055068 -0.241604492529653 0.045472064301029624 0.16583146069693638 -0.14902786276730962 0.04025814810086295 -0.05934356801025087 -0.10304910131721559 -0.06797381994873938 0.07814602607014036 -0.13002000776630596 0.07446206303446269 0.03481980968876712 -0.023316300298030102 0.010686633543668797 0.1345303571446629 -0.06099639733452763 -0.03248198586307466 -0.053989643244907744 -0.1251941422325523 0.09211628869840947 -0.16026789624169235 -0.09111575372518882 -0.1731024955496902 -0.022165228452404342 0.06877447804915789 -0.06356992388127106 0.14314339546813287 0.0040487140471348075 0.14596153277450252 -0.06598428493697099 0.05369208128126268 -0.10061671936981585 -0.18368070161083214 0.010889301937299088 0.07070474344257277 -0.06974801637226115 -0.15509259015621885 -0.04184980348166878 -0.13552361111737632 -0.10832269927913826 -0.003440694841661455 -0.09803649657653293 0.2045981863378111 0.19859941061370798 -0.0360570361137087 -0.044504751866737066 -0.1083111560884442 0.11930993561782266 0.039157430780963356 -0.0656442476234808 0.09867381038534061 0.05615616808551565 0.01886561942140689 -0.005928068886615149 -0.06689161184055219 -0.12403042382102991 -0.1080596834651802 -0.031486942751737315 0.00686707787442744 -0.049679924586020996 0.05036104846409329 0.03650110882714156 0.02051526689489645 0.0621429429779976 -0.010496860956624998 -0.12491714930958785 -0.01778387361348018 -0.040102190806070026 0.03462504684217323 -0.12914889864686482 0.08993351105726596 -0.015126810046644477 0.018421785352673033 -0.12095035486571491 0.0075727533785958446 -0.1307679271038047 0.000784051112279275 -0.06160535296179423 0.017519251447282325 -0.009824499515698526 0.061207308618576726 0.07207587397099666 -0.05780354865701902 0.06365983528358653 0.2723381860281488 0.08825870386257902 -0.042520599892536974 -0.0067818889238016895 0.07243103642089956 -0.044052472625766705 0.000379508729197888 0.056356487567133906 0.1254527978170109 -0.05675515337552394 -0.12167410409972773 0.03701140723205634 -0.07399053402292427 0.07152671097497729 0.09332321001214819 0.14358514009270482 0.0824915583246096 -0.10469036860810323 0.12846336388806154 0.05283416932854969 0.10462491109975208 -0.038140933505595845 -0.09159285093718433 -0.020214593271163445 -0.07245256947440416 0.019010272899101382 -0.07841028083823895 -0.07041424621919615 -0.03387810165516606 -0.18402192366233244 0.08869391565701612 -0.05646917653482632 0.028662775587586172 0.03689660718142915 -0.08526987332828129 -0.14955614403070047 -0.18492074104798742 -0.04642395861319034 -0.09659755616286676 0.05391050876695125 0.22304400352316145 -0.001547641411348153 0.09193451727257015 -0.026214194499703487 0.04712236866981851 -0.010548723497919127 0.10684379505187844 0.06921891909337802 -0.08703208140471237 0.2892835005813499 0.07055135431926914 0.06641290548774297 0.08556318168692442 0.10086721656852887 0.0891388818238659 0.0681191137092219 -0.03568613678906931 -0.013805723908613132 0.0823517113909113 0.026596548075698404 0.12603858781410196 0.10461649354125822 0.07967053131033433 -0.03692362471365199 0.04167811373008385 0.005895125318072479 -0.2915729249987783 -0.032854404616532475 0.10203096444966141 -0.1063941646475567 -0.14192554621219516 -0.01626628071195335 0.03219296544243972 -0.12823199049083736 -0.04181918132648149 0.05428312091461818 0.01169826438763662 -0.038996172091680874 -0.023035623010326325 0.016178083231914466 0.14569917824947612 0.048800636163085456 0.03136669569051089 -0.1650255657022758 0.0873571851345014 0.06581199284132414 -0.0957679103538 -0.06208624790841237 0.07007512208841092 0.10282339630638294 0.010794445385978117 0.023902719977453066 -0.18211109751077395 -0.004401601060498182 -0.1750033726636466 -0.15787267612680544 -0.17401579105429732 -0.03097529005635352 0.06316662451852917 0.09524635323121272 -0.029080863798512664 0.10538876827831131 -0.12192979825733968 0.06605881414804976 -0.1572085188493171 -0.03895040676286856 0.014473184332017141 0.03295068832435235 0.04048170002214066 -0.3038880268193307 0.0622237462449777 -0.08009725099882138 0.014216793639828348 0.20434396567151888 -0.0531505056446108 -0.05505457478179237 0.03222188468121454 -0.0013723644593860544 0.1143400118804757 -0.04618755842815702 0.013971846365505068 0.01290164708414996 0.05609896612927442 -0.04585968539080317 0.03735054269058431 0.016540999017479917 -0.18255809024093697 0.09433666355611917 -0.07691162254903605 0.0846463351266693 0.03847378194373508 0.010361973328432925 0.004353769370172103 -0.056997376166168144 0.054132614726723746 -0.1510950779184323 -0.0001732418746991756 -0.06128899374421234 0.2504230334287652 -0.027756339721527374 -0.026513994388020885 0.097064085405209 0.04776024166354517 0.13367203693422194 0.10543324130775021 -0.05752005798298998 0.11988630186626097 -0.11754780031676579 0.11443632018551364 0.08435353731052231 0.006227840816677426 0.08096104108492347 0.16884363275337572 -0.210585551299666 0.05218363906889249 -0.10741174144942532 -0.03767413988070454 0.08060041723574536 -0.05749937150286649 0.022631818781687223 -0.06973044826598557 -0.07317305965447009 -0.017644643585637765 -0.02926996786094632 0.11798205231338114 0.15057565378002083 0.05190534707547468 -0.016430044858835383 0.005074202693121145 0.22563049161598314 -0.030827013526744645 -0.019241057224971016 -0.07819252050979497 -0.09737285322017873 -0.17828427901424157 0.13408743823387176 -0.12125390839172857 -0.00451158629788619 -0.2026185142716518 -0.006022154701051836 -0.046956860480881366 -0.06883201457174895 -0.11279720787255519 0.1148362696068299 -0.037022936396565294 0.05030103048322898 0.0697002322558439 0.0714122568957284 -0.1519699717650374 0.09936790861243261 -0.001259045369921543 0.016276495359245687 0.07243447682703667 -0.06920007485360662 -0.0426166946930009 0.016374119408636763 -0.039619412393874315 -0.10651757339870546 0.025461778249486786 0.08374522941659895 -0.16623629470414703 0.027574085443789254 0.14441495021711587 0.19458770349057347 -0.025130556782895972 0.04559376676778007 0.06438779829174907 -0.11295438862299594 0.1852402269875935 -0.13611786296191747 -0.01894852931650466 -0.08680739538353831 0.05880798292186367 0.08418248805797884 -0.1407606013697238 0.24543688800538035 0.03984294052315749 0.09488061136593932 -0.11676362749226595 0.06573233010979422 -0.04801248226344586 -0.18157365006027004 -0.14055208353640614 -0.019652997530366936 -0.10884558483337284 -0.029748483259120044 0.15032215919437203 -0.03398289357719835 0.1301067393338724 -0.04993084463082766 -0.14622384236212352 -0.04341807200580819 -0.1553984045416628 0.02590730457617564 -0.13137710641859734 -0.15541507231811516 0.015530090498731296 -0.08993794825990249 -0.05758861715835395 -0.07909134145256978 -0.2971077458633432 0.05495578166018449 -0.036336883698358885 0.00995448260472196 -0.00393848482570745 0.05975964258472317 0.02237067361751587 -0.012646907289835495 0.1466078002310138 0.04104937532238019 0.07825556633595841 0.14284645359843032 -0.0968052222097382 -0.11980514859383751 0.1588304446494118 0.15129193241892064 0.17137891324565294 -0.01878077216911321 0.130494449209479 -0.11249873824035851 -0.10907387743988374 -0.09322492289609836 0.004029971880112562 -0.0320613142643766 0.007322492666124975 -0.054341856293607195 -0.0027574544206768886 -0.0637679505484134 0.19485214171497067 0.03795312138880988 -0.01580729008715234 0.024530032624265043 -0.01909881632724661 -0.03209170301432126 -0.0004931273785290457 -0.1612609047961659 0.06545326607953784 0.10942733140146678 -0.017109679625019858 -0.011331451048972374 0.075725408817366 -0.10540920764742819 -0.05275567391642539 0.027681593702969107 -0.079654138459073 0.14911474461052887 -0.18294862620584193 -0.127271074882556 -0.029629759745370927 -0.061312937671806254 0.03703465460176199 -0.11454419391924966 0.08053539829651166 -0.1083130436791889 0.0018551940618805312 0.09435433896150512 -0.06535410575628044 -0.16506771114093602 0.010721551995926159 0.05068251077992148 -0.007885576628285337 -0.09425852450143772 -0.06600509473640212 -0.03083619157853228 0.05571620315934679 -0.09289597192998693 -0.12730596640455719 0.09210988177646572 0.07004715539968788 -0.07740591488798053 -0.09635754520005593 -0.011833658264357484 -0.036194781480416764 -0.1496222893933041 0.07609436043464558 -0.004849439898707551 0.05579694276922558 -0.0021804696310549236 -0.10947697687694674 -0.11171962695184819 -0.09956151330550729 -0.006514197347746252 -0.18995911613890915 -0.01171573719813804 0.013364830489090596 -0.08259831570726878 0.10013548079978651 0.11237080133609517 -0.002464121239198638 -0.0784676614317717 -0.049253443171801504 0.13008156014324976 0.10262878842901162 0.092573663822939 0.11888174251349852 0.0047530149627439105 0.033320141944224474 0.05386728213374558 -0.02326371065671842 0.07780130113712545 -0.012984235759666512 -0.09210305128074427 0.14299807421902394 0.17227285578566076 0.1573882459252376 -0.04366538665349093 -0.10351065044438716 -0.0032275761176590494 -0.13231459504508553 -0.09447126970852743 0.002819964886978976 -0.2940258056801211 0.05545136360046826 -0.1321229197798152 -0.0439890649575479 -0.024238420513199858 0.09847019861439263 -0.0437704952253391 0.16187319693292626 -0.06502590786505408 0.08978680453205391 0.0036054759822051093 -0.07798893127860199 0.08161246864901128 0.02598427951939313 0.003954139409995009 -0.07050281632737612 0.11161139050772169 0.0459603858267931 0.02124060687698083 0.008220989446543857 0.015484161805497693 0.007212593910758774 0.10641950209292389 -0.12926986195299162 -0.1056085792571452 0.049879023839048145 0.027581576107823785 -0.08752078649640413 0.17151099804067754 0.04466726523839988 0.23446754328798225 0.12817954388075892 0.09942766534673945 -0.01228679769219748 -0.09297871029244906 0.06317126926398914 0.11466264291414675 -0.15375128785983522 0.19863087125005652 -0.149135045275067 0.09999107358838644 0.1581658891660362 0.13754600246351167 -0.058304678545553074 -0.011311144766554305 0.1481774583857189 0.02895770659855904 0.017309296518906524 -0.1789050369519643 0.08679212650582431 -0.15558500560196903 0.02371656868769319 -0.12662382627301066 -0.023979512257125368 -0.10160610313887791 0.04495521515360601 0.030002864722047322 -0.02323691126598999 0.08566395102607322 -0.023414963602066817 0.05999116798599649 -0.04103112785578244 0.02960540104489945 0.024400267963159257 0.0957522708937461 -0.14677204025422513 0.0729856167028937 0.03071824122698272 -0.06116508614813999 -0.06856889518793428 0.20240804836256618 -0.06140728052375969 -0.029573428628660935 -0.11055286317613357 -0.017740105377324518 -0.2318965402950165 -0.1782377529447885 0.006385875909433833 0.022446439876154977 -0.06438374451801872 -0.11716630993349536 -0.1802700116287765 -0.1301168747719096 -0.044026172710241576 0.032214460845297915 0.03310634731430654 0.1758494540856404 -0.1266345766595782 -0.17600540082855332 -0.11469851295513335 0.11204797152016632 0.141782886999801 -0.000794799034389907 -0.1804094888336881 -0.07552200775855142 0.06919658515434991 -0.13708761385950285 0.1837636460375101 -0.016854952831995937 0.0835677434060382 0.08836640657298885 0.20226690477704085 -0.01333092801535759 0.03792442658597584 0.1690351350074499 0.05117611414539737 0.16082741716440474 -0.1560620392419794 0.14750971995567003 -0.012389376601578156 -0.031924881990840676 -0.12893000042158653 0.1277898794594992 -0.10708234281477427 -0.03348856295657965 0.05431688311689364 0.1197631839136054 -0.11576717797033456 0.017728525704470425 0.00542763914849424 -0.19085644267165816 0.1576039158986042 -0.0024030976865808246 0.001440300505352969 0.04096307473241151 -0.08187802550192937 -0.20048863424935698 0.06306576794392714 0.0034556895941120773 -0.011022918418222196 -0.12026886069699029 -0.024358819052918725 0.02416015348078487 0.04530859659662045 -0.18901780553079317 -0.04938806223339437 -0.02538114602630552 -0.1926654999002134 -0.10409916263075841 -0.14033191684573718 -0.03831807256241941 -0.05181277642249201 0.1516278669094169 0.049648106703457484 0.020736359088581895 -0.05897980268073567 0.094462535980366 -0.10982747282263738 0.21327092554465588 0.01500202284556389 -0.02143675858136427 0.018097314531513115 0.20865377969636437 0.007245269425400953 0.06935059841994363 -0.014366558988224731 0.06222835930613467 -0.043278836628574784 -0.02284158867232175 -0.037813610690927604 -0.22600453055973388 -0.1658405487710692 0.01910787951718336 -0.028260753357123854 0.1476081433130243 0.11665835672123887 -0.13609249663713247 -0.015603771309316995 0.1417347197154087 0.03449897888478361 -0.08143620447320409 0.04441235551294162 0.014300403072484123 -0.10889225605488816 -0.11845982115179993 -0.13857974762504655 -0.006976709925648293 0.06583673820233824 -0.1676744423239626 0.043151815399393896 0.0017871083288377373 0.013153422632363687 0.07096645493426837 -0.007126044303616022 -0.11230136053897218 0.036115980532163396 0.07403496449232258 -0.17189797012789235 0.043933127484475316 -0.09390174385955966 -0.0005583774769204154 -0.09681727735985361 -0.10829304985304232 -0.05551786828655824 0.07236104614139771 -0.025863126019144967 0.16043253055339357 0.03636320117950111 -0.05337596931520094 -0.061390459489843646 -0.09461069689451174 0.13874980490340383 0.001602079063037072 0.23098012934087514 -0.1006565258635005 -0.07184412554106834 -0.05030417856696586 -0.17549601873076418 -0.10871383729230992 0.03166595067292878 0.02502886538818209 0.12680410635756417 0.03381006217512513 0.03195392182981102 -0.0387490949194324 -0.03720945871917007 0.06110190351131522 -0.18265121687976618 -0.1426366822509954 -0.0773276434180556 -0.18098068058946867 0.020256376688146758 -0.05083921598876992 0.03239756037004415 -0.13615334917618177 -0.018664605209971385 0.05699088168604279 -0.08637657095568867 -0.1693374305385306 0.003502445232625805 0.06247774231826816 -0.17733259309716234 -0.23210539362842803 0.026888857611347846 0.05055659632679759 -0.054697786961351476 -0.10290352186832119 0.07804947167254722 0.021371604749848568 -0.12490428116601172 -0.020324182059548324 -0.015509009797713254 0.04097320658757038 -0.17028890495098714 -0.09417788155099308 -0.07688262340734672 -0.21094724433289574 -0.12239592067407548 -0.0708437166041959 -0.07468684084348622 -0.11647664254005298 -0.3265015213192103 -0.12119168284597656 0.07144827301278577 -0.19146121659375137 -0.2714860272237731 -0.071741575314096 -0.11039516242635572 -0.024019207204770056 0.00042033760148112626 0.10601407425286331 0.05318827158110941 -0.16284107971607453 -0.0067981135280982255 -0.1647123765777237 0.05374972016087175 -0.11696000768805315 -0.0886844381665567 0.114481023790517 0.06076959267031491 0.05817878879786686 -0.208353190647429 0.18957760716072256 0.03708089294448984 0.16252390937456376 -0.10921190411800134 0.003954711150830942 -0.04805019695952525 0.15205911859036556 0.059015427430957466 0.07439864386958567 0.06677916121583072 0.029980123129626644 0.05345559587858217 -0.06052382788237112 -0.03793593022011567 -0.10833145903368749 0.13254743253347773 -0.01938195630090013 0.02688931838282325 -0.07463503067805739 -0.2295300057181902 0.020313842001512712 0.03632788841161771 0.10640324118431811 -0.13857653099002962 0.05177834536056916 0.004290243325300068 -0.030460238647372264 0.044139617861256496 0.009218747816177592 0.07840706071744932 0.08701359429977357 0.04386126330160335 -0.1549250812284196 0.09854149683356206 0.011755129813202363 0.04274000265286354 -0.04482217232122468 -0.11994139419188132 -0.04031133986012941 -0.005043617611932901 0.088929240163064 0.15001849170396972 -0.11066429390550003 0.062219734693683866 0.009339301189825755 0.00308211319653349 -0.07760390286651903 0.003188364680655388 -0.1901451846781042 -0.03235973042815899 -0.05012047814437307 -0.11219124709571279 0.15821999693724986 0.14303451519083382 -0.17535193337315622 0.01068793819623517 -0.15447648079360335 -0.08703283699876133 -0.012296296977767216 0.1873289739396421 0.0012861625123808222 -0.05522305673285868 0.0650938763542507 0.12408726425677309 -0.010807073330484562 0.029555743436204932 0.030204284751989077 -0.05236004176104206 0.05844576823285135 0.046479088931957104 0.11891096917886528 -0.038736373678225765 -0.06316469691056822 0.1139536369505664 0.11723120487817211 -0.11432616158540018 -0.06536117788882381 0.02456780867678606 0.15681022916957044 -0.02143771887790591 0.08082152061803133 -0.11740283030904669 -0.0006395002112576088 0.007326875782066326 0.07105495915156143 0.026911119318961865 0.11425075628590757 0.1057949784535386 0.03483264826747763 -0.26052557064175397 0.09994140170355606 -0.16924754134297595 0.04196427310637173 0.10497668484063476 0.08688836145478532 -0.0943720244078352 -0.12207401111382578 0.09450524038108109 -0.013191561644099868 0.031313308603604144 -0.02424628143129073 -0.16531982618123336 -0.0696679805578005 0.05820236389065897 -0.03469152199135984 -0.0823360964878142 0.06868035326798166 -0.1405906696013128 0.048601702616435996 -0.1174289629102911 -0.024223987192121127 0.02772786981208294 -0.17934242494535121 -0.14989062328136063 -0.06214520593458811 0.010445603409212934 0.15748742176172337 -0.03355385871240561 -0.08002075322806164 0.10452303099601529 -0.15689936794144388 0.06552919166869546 0.05519137638689716 0.03456495958916756 0.0721620381390172 0.2027810565740499 0.052069073495329236 0.11620616019223413 -0.13428954175928023 0.0024904841689025077 -0.140944410326761 -0.010937745786484593 -0.01906025827165415 -0.09295062148655409 -0.09389624821755589 0.11129961323116824 0.03407564357553078 0.03766852332031599 -0.11098691626170458 -0.04383417301481493 0.24249862188408797 0.1547247670326413 0.08751941428339595 -0.03614455369566197 -0.18381208806435642 0.11655349914792336 0.15372871653460732 0.20437926447968827 -0.08473355883487503 0.1092818412974803 0.1123528597354276 -0.17323980573785303 -0.03737402166928594 -0.013532672432387266 -0.13600713686342458 -0.12755741264585727 0.02763253477330869 -0.011314785479322534 0.018357132026771444 0.05569753715198714 -0.12681324181234788 -0.09666644220819903 0.13700323284281568 0.09040881582716022 -0.11310524206076489 -0.07114850327389141 0.0729650505736727 -0.06447580476478665 0.041713558387126225 -0.02953616065476159 0.21083351923863375 0.03240487833387279 0.11497814200453274 0.04233198803268796 -0.0444427954035543 -0.1450950568540999 0.07375384630037167 -0.053314725112895575 0.012243583294910548 -0.011165588590062241 -0.08004455951421652 0.14888282251706886 0.06403929082090325 0.08439445139228494 -0.20591409876512506 -0.023360289400666843 -0.009483470748174141 0.02766726391481001 -0.004795518415515204 -0.010462911507150683 0.002291886225385744 -0.08294118416912809 -0.2139115768344963 0.06944885579092003 0.07792132905654268 0.07822204024326239 -0.07969228008566628 0.05389415781119455 0.00719001800952129 -0.0863502616278744 -0.05163084432677037 -0.24005252754740336 -0.1086279212993138 -0.10758612371855832 -0.06314219921911705 0.0028875060436127933 -0.028522418093946785 -0.021130762339834724 -0.11037860250732805 0.08013243288731786 -0.01014104200474177 0.03539361561194163 0.016151129017294073 0.07815596084638997 0.08973690512977617 -0.04391118249935638 0.1659575041745385 -0.022010717673006077 0.06720775382889885 0.11824624290844858 -0.11860279734675247 -0.04831261969897756 -0.006017063859049987 -0.20048717411329264 0.042123014048115824 0.21412383770193133 -0.09586565355916588 0.01702174651521852 0.09911048254062517 -0.029731698873004614 0.11262124454365023 -0.07636043201779484 -0.10638378673188148 -0.09866976368038348 0.05674832056953025 -0.07847821234882252 0.04473627293630268 -0.09859619575620655 -0.1685786239929441 0.16108143901736693 0.018600174534469178 0.09961142494600812 -0.03805327914706077 0.01498373789826695 0.11395097752707666 -0.04219060716031075 -0.0036094936175775807 0.05405186272193487 0.2638985173789333 0.019366851139532744 -0.08107808541949475 -0.05095718097440702 0.03320106781977287 -0.1449411102266524 -0.012877281876687996 -0.09430098377921041 0.06920794147596612 0.09631091539497312 0.0409290261748783 -0.0902877551777642 0.04253207956542307 -0.028857176184626143 -0.06091125008924651 0.07532339834746522 -0.04574523689227099 0.13523344170507687 0.018494842456412124 0.11897413183781869 0.04988380877178686 0.13690779703788508 0.12082622367346209 -0.000262982244810786 0.09317998400467212 -0.03540070330532339 0.0189598222426145 0.017780451623310305 0.05721741373473202 0.08622453044630801 0.09818439535446151 0.1397737190162915 -0.10629962422976057 -0.12001224107130905 -0.07533890462411125 0.08661007304599808 -0.16274818595170742 -0.004250600421266009 0.08154951941748856 0.0812858456950503 0.13672781408927523 0.025259330961610496 0.15973659330431378 -0.149391977343842 -0.060789427456227375 0.06550756764393495 0.07271818460049342 0.30512149854434234 0.039964647093081986 0.24457949150578842 0.0357554275031965 -0.1233111181850866 -0.13401467128377104 0.026325503119743823 -0.009768971291071673 0.07449646137592722 -0.10550858095916275 0.010672458895824289 -0.1029860647315816 0.1537114575974302 0.0610603346677041 0.14526067274083643 0.01682027291656351 -0.05153024491988398 0.07180673569739758 -0.09613789799645046 -0.03212398078746885 0.05261777483205392 -0.06087252429399455 0.0067565389517711405 0.045369051124543175 0.04294384063619831 -0.11598062157654691 -0.013662933892953607 -0.011537832410017726 0.15784441965308518 0.05794353647848224 -0.10500738772613898 0.040528004451174514 0.056867618134740235 -0.12460065549577204 0.011678996474868423 -0.03801644261064561 -0.07054251824801183 -0.029309169371117407 0.10016977892513534 -0.0159828501069579 0.02209607786601631 -0.07345507470296529 0.053883642231055774 -0.10383269982225576 -0.09600649102384796 -0.146061236710705 0.22092410764477255 -0.20569119060020782 0.050661166190084594 0.16335235970055412 -0.12798495268371504 -0.0028660275762665824 -0.015138158108920712 0.14023868497042127 0.02872753146996062 -0.0021667505345188153 0.07629570204648517 0.2283157123230227 -0.037268579032297286 -0.10512679902534532 0.059151507588415066 0.10190967270329337 -0.11478500160734664 0.0019444207049181287 -0.01416914798403983 0.10377784374306007 -0.14329090099957417 -0.046545596409188136 -0.119556974174622 -0.03556922709308197 0.0413612004381381 0.10734646773692248 -0.06412673497744971 -0.08449855579661762 0.08749823043164252 0.19020045216051096 0.07049917128734982 -0.13848240755022748 0.01658827491505038 -0.13165487986460428 -0.04577390580895707 0.05866489912199262 0.09470898767123828 0.1885942030359645 0.08036556671726136 0.08873583771475538 -0.06051993924175586 -0.209952022891503 0.045204162497433635 0.18811937951941352 -0.18316544052196923 -0.07607324201663916 0.03787143875884637 -0.00779777646953758 0.07081403820253847 -0.1653219072792866 0.18323418506556186 -0.11441393433310351 0.09154933843619753 0.15629477184421978 0.07892552176378692 -0.15428622377910742 0.1570874740663355 -0.16883982076530135 0.09609255000437794 -0.10159252576495635 -0.02277761457309255 -0.15407054629371275 0.10273908312298427 0.07449008481338765 -0.07387549208255509 -0.017799721115302394 0.10009308137106537 0.12082936028797421 -0.1182034492536822 -0.07520368495808934 -0.22129131906836694 -0.018662919082017206 -0.04816598430060386 -0.12897644301467556 0.014183574913519851 0.0005622896105958347 0.06904604228516464 -0.20814526052128743 0.05644454178426302 -0.007574701933217317 0.00953000496769874 0.03987738388931129 0.02835467978848675 -0.05098819387906756 0.013985976116260353 -0.18673572251434642 -0.07320444532566502 -0.06046474664988235 -0.12465091453144055 0.14400812073160071 0.005662159117141714 0.1672656035045625 -0.19116875084118895 -0.0004261572584691192 0.09752470605709118 0.01941454155795579 0.06313363774429226 -0.05955269419586197 -0.07516446712416061 0.14216360492613653 -0.03939768887763152 0.04287639760585837 -0.06040680238313432 -0.04920194010330911 -0.020844570638309332 0.09088280720771695 0.21546067124878154 -0.06612789112569854 -0.18731802144785303 -0.16811771857022528 0.10744644964222624 0.19330631483091795 -0.23378392479888443 -0.05005000915240673 0.21622817129911515 -0.22581770066461535 -0.004969189300710097 -0.020822263418102494 -0.061935374087102146 -0.040950466990197214 0.007989400858811994 -0.007465121235170513 -0.09914148896394828 0.09739735623445722 -0.055139493596107716 -0.14622655614173366 -0.0727131480781122 0.04333791620452459 0.047366497704372436 -0.10855771288124194 0.03906087807531959 0.10092585214229306 -0.07181423952102219 0.1702637137162599 0.043725984845721294 -0.1487838490305746 0.15987988170255038 0.10309140593776092 0.09041673778269033 -0.10532472268842587 -0.07063922659582622 -0.11650886376556366 -0.046537190902678306 0.07482073036153522 -0.0474442525259813 0.11675517472268901 0.06164612177711853 0.061544615607393285 0.02308535121396982 -0.07403482200499058 -0.2267505289452952 0.021947524963251926 0.016229331339636888 0.005852906064753113 -0.01790797097724864 -0.0863177297851733 -0.28639124208849925 -0.039680515068385956 -0.042433899609961266 -0.11448841424125135 0.08308938173418211 -0.07557442393093113 -0.04108894706033883 -0.06055671867688975 -0.1235993558358885 -0.06979602148727296 -0.024991556898916592 -0.22146868317047408 -0.03274723990004825 0.16008360734986707 -0.001597717715599325 -0.12817415280741715 -0.08075525636358225 0.06285734446357467 0.022591004328881427 0.10316512403087469 -0.01893585510518647 -0.021525164550248683 -0.004201677199908554 0.02464915426476903 -0.051318216096037934 0.049258505021052945 0.04283687470952531 0.034111812432948384 -0.09521700642391691 -0.02092282986452542 0.10953237690622179 -0.04386504584401759 0.10551892524064808 0.04360992124391361 0.06427545321764092 -0.09820962636140139 0.18988421539074712 0.048874261430607066 0.0026091548290928207 0.10157953328808395 0.08936213174172356 -0.07991000527714744 -0.05375581520409222 -0.14751461877441394 -0.2403406548477182 -0.028211177753079197 0.04991458943300518 0.017982722000491638 0.01454319832497632 0.011282066434343608 -0.11774222942039919 0.15710670118565032 -0.06217280148312513 -0.06474738108218518 0.11076600380775409 0.026569940365277985 0.1455409968030572 0.08837243324786856 -0.11524739061257962 0.046230978167054966 0.02895007910931624 0.03668272894325788 -0.07343097749117218 -0.0637719759598476 -0.0433770230139928 -0.07744442723385926 0.040520060990514715 -0.00940732395629374 0.01686988144473571 0.05963178005183031 0.0933782459538251 0.05084572044006075 0.17190284717719354 0.003448067882640975 0.14462658566892733 0.07838850438760851 -0.007709287448033047 0.17965646845628436 0.06260598062732475 0.00023373931593058433 -0.1072057517440572 -0.17728446219896837 0.12630212616355774 -0.08909408846449879 -0.12462239661342636 0.10826298020858414 0.04292634278816764 0.0573436643292035 -0.07227227720958837 -0.10606454362968548 -0.15039693503250542 0.09720354321022856 0.15502382241129628 -0.13772138965415814 0.020429979404332277 0.12694407507389446 -0.16212830867416225 0.04253677929667318 -0.07891665230189265 -0.013749721286083028 -0.09459167081101179 -0.11832844766402802 -0.04227371690311936 0.0793413617044496 -0.07614068373817344 0.09021479876365285 -0.03619732419763525 0.12459880052115674 0.08534120760322354 0.08746501122954807 -0.056250254009372454 0.06909029221155612 0.05030886193376547 -0.02285105039360872 -0.01952276783679733 0.08372877251426027 0.06719978154817353 0.0233812479780525 0.03487763126976488 -0.008530329406308598 0.120004898973271 -0.07816353527851336 -0.03849743708775764 -0.06484887440237316 0.027411766602138253 0.12814530673661575 -0.05444740675464534 0.09744991036199935 -0.018125148228755848 -0.022273823478867506 0.03869902403720176 -0.13920149708399426 0.06493553705265072 0.23542008151631794 0.13681106917989666 0.04932124296633903 0.16031977654024718 -0.00904328611655935 0.0024179168038697568 -0.04205852874581063 -0.0025972782504147603 0.062454508516572374 -0.03539482082559026 -0.0833731153761284 -0.0001743180870298069 0.11318517388979647 -0.14053807595770415 -0.07553832485568243 -0.14234921622375496 -0.09709398218451606 -0.0032748725957760247 0.015678086164930202 0.13559723403331073 -0.009766109638267271 -0.08496126559971649 0.10862704759380316 -0.020858167417618787 0.06434546010336714 0.046949894891850655 0.14135436006758803 -0.024991956804920626 -0.029424142644848564 0.061225410576376066 0.10033759401696128 0.017069889842211923 0.01731845298131017 0.03544760015368102 -0.07019526417358735 0.019265307553208374 -0.05046645400479352 -0.09203804788065319 0.052724185084128086 -0.04722156087555955 -0.1059397079931436 0.012029557729487602 -0.04187362842992861 -0.0345821988244804 0.12019200130926608 -0.1633659918220513 0.12260535401028316 -0.12300446025655204 0.029035858668205062 0.10730536693071258 0.19789102715435866 0.028451379734741933 -0.004319128094135457 -0.03210217439094625 -0.04476423092343375 0.08254047197571251 0.0482973071850793 -0.05593947587455778 0.009380162946906303 0.04351097355679388 -0.07809716540611396 0.04535641964929797 -0.09157714431230256 -0.015795128839944557 -0.13742715067925995 0.08399221852257834 -0.13166039269504842 -0.04473846768834598 -0.01254826666949423 -0.041658450875950714 -0.19096279158604496 0.035982287597094285 0.20402345032817693 -0.06372824646792413 -0.011218966852109989 -0.03134735849635362 0.20384188067119557 -0.08253653877249303 0.04093538017251136 -0.0314331181004121 -0.0973577849421317 0.04180962284873648 -0.012241392341832675 -0.1488416121620942 0.1496719866417174 0.01357587733741906 -0.07550831187819534 -0.03385788937944258 -0.07990175181231592 0.10623232099646115 -0.08186399345528846 0.025213092605687333 0.05887323675607955 -0.04603719459761295 0.05262527552774613 0.0411264738860215 -0.027208724287832373 0.05335552391363639 0.038674782728523135 -0.03945562353833047 0.2858211373188804 -0.09109527418266819 -0.03521147636558951 -0.052924106812838 -0.15694465052675174 0.1769586842654623 0.016484650656454616 -0.007564552272760103 0.1201354296707242 0.06541076228600227 0.05125427448434216 -0.09651636496384301 0.060447041903597905 -0.2134471603491183 0.16232647838126868 0.12272052149296846 -0.05511532917164955 -0.03963443642690542 0.12225366368044936 0.23250341437688865 -0.03552268313849644 0.07350105001283326 0.09033609383170907 0.021375223750432795 0.02239671824748455 0.0711714333464705 -0.006532315516127896 -0.09370323845607306 -0.1451722116022057 0.021524376053443987 -0.013636684027542818 0.0751583258942594 -0.04123667392042276 -0.24117330947144924 -0.13469769227862485 0.00565419423386674 -0.12365475497078152 -0.02793583230040524 -0.0336872524500679 -0.014620494255693414 -0.09257421747889938 0.021610293027432784 -0.01708028931913771 0.0068091198644814185 -0.04739769910507139 -0.13579612685214487 -0.0645232829152839 0.0939695375184574 -0.0027569143479639316 0.09039609161393818 0.003612936609634317 0.10579990712317287 -0.13761223083196464 0.034579517300894626 -0.2046993548485039 0.08863094943398496 -0.015251377836732595 0.11908277667254645 0.004378005525322733 -0.09656890223000301 0.12378859395256968 0.17016734071464865 -0.009765954724901675 0.04307353786694457 -0.07306865787345625 0.04141302313033753 0.09102352481239533 -0.015261352351140987 0.06816597180527062 0.023531287893702554 0.14589470007828104 -0.09107559463860074 -0.1744893024006803 0.02320666273870331 -0.04269042533040342 -0.015026506812429744 -0.033838610806438504 -0.2061921498671484 -0.11851080427754956 -0.08730073712013285 0.020003112824077973 0.01970831432526422 -0.15349095946693486 -0.11486351238807466 0.13040184138110394 -0.08029624420111589 0.042580368940479715 -0.04208318563303522 0.03569021171759805 -0.08786987046267204 0.14796648316809047 0.013509998984325883 -0.2120478205592138 -0.010002784176548573 -0.10913945585569196 0.0036247808327802685 0.07798458227513312 -0.05637058133834432 0.009373392243744144 0.12524960765251922 -0.25354959864200166 -0.08756256607047476 -0.09659612733766548 -0.030502414951345886 -0.03848216947178173 0.03742910306987041 0.14538121842521076 -0.07995932396401126 -0.01283288800034216 -0.15527944133891264 -0.1061754775739974 -0.06398801177576305 0.18510483424457874 -0.15570790449530997 -0.03530960080564671 -0.016514396840355713 0.004598390199430035 -0.10299056106268713 0.09337801170238096 -0.13318482521704098 -0.05246269594818633 -0.24888165515820557 -0.12204602102935276 0.23232699588757005 -0.05711441626368198 -0.11392619905251133 0.017342839873511977 -0.04195482351408576 -0.0022414527830897247 0.0731079687982692 -0.18226300963295114 -0.01984370922377688 -0.05237150410979806 0.0798030752071342 0.08167355548240131 -0.10326536478339565 -0.1525235385914714 -0.03116998951345458 -0.08326418599838725 0.11449555341293954 -0.08407506773379925 -0.026837597445158047 -0.07394555329109302 0.08817140545752694 -0.06344375874382475 -0.12576795485316317 -0.15528557012206742 0.059896015668479276 0.12509199813357325 0.15527326028837282 0.14581140587922445 -0.02966573156699937 -0.003874096514863682 0.01589926304271837 -0.30986292440991414 0.12069758301706539 0.1064555770727601 -0.1027095883567466 0.11919953949118774 0.08022094999189502 -0.1390275234183517 -0.019407524201618342 -0.020762217237282898 -0.03508178585753177 -0.16270635634606653 0.06939148134595235 -0.26379338016477616 0.15779194934418486 0.06347258746367071 0.0806657852130018 0.2311904705977291 0.20372369736515136 0.1374540428355162 0.029070788145913334 -0.047873086556125884 0.03864483475860205 0.010092089460777666 0.018635256546155044 -0.08110558893002363 -0.08376218304573854 0.0839722405117033 0.07565519515077335 -0.12150245122864584 0.11693870820870156 0.05490780984927164 -0.10334498843851957 0.14471373826248302 0.17475399950374135 -0.027086301802751078 -0.20097888015959564 0.06319847214587222 -0.24808396190415344 -0.051554444041080234 -0.00973770809648433 0.16403548428878129 -0.007425720076506476 -0.17313287415361675 0.0927536341173178 0.03156117452649013 -0.1681219151470483 0.03201450077197805 0.1048060174897596 0.15394365668382826 0.08217012887519323 0.08080935050579095 0.11040201273902664 -0.17984520617519986 -0.09650298167277514 0.14193013602992074 -0.04356306904296741 0.0660037209922785 0.010990679466774718 -0.13452738740412706 -0.05326280093840178 0.020457673778913 -0.03505103108839319 0.11395083709780135 -0.10338413958675971 0.05074965718233861 0.08319939833693941 0.08425939670106447 -0.08315371790284551 0.09951840921359957 -0.15280082865642403 -0.027752250666063544 -0.06806045566305745 -0.09556477489395317 -0.08744282869758624 -0.07042572170463286 0.14992917037264247 0.033310611198352845 -0.11586702041690243 -0.19996596864449634 -0.009482168139723631 -0.08722611902723196 -0.09885569006985725 0.07572844769768595 -0.06208034593375198 0.07848637489323806 -0.18388155002314804 -0.02325272424370742 -0.1353463075204263 0.003369761349602893 -0.0602133182443412 -0.0012639407243354717 -0.04586129574593638 0.0729033672759806 0.02193987434670076 0.08736113044557797 -0.01357452431161627 -0.09849574655639362 0.19016096294916232 -0.23779923844782425 0.07023401663919426 0.05448936701254482 -0.06961060691788892 -0.1498112950505628 -0.1109082123121343 0.09158848504964964 -0.20004690242636586 0.05924005936476469 -0.04396143428841849 0.06552037325669254 0.12107343761031596 0.08076038997537524 -0.08559400028704726 0.21875735833942098 0.06133075288616731 -0.011860959003930123 0.023048966175099696 -0.15411144520662803 -0.03875915835049844 0.11372144541767597 -0.05255813147475521 -0.06845510395569586 0.041196237195099794 -0.005057859438170138 0.14308869271304753 -0.07434557385973711 0.07926301962257187 0.014772834915975098 0.056094132537853135 0.11215578738464467 -0.10784012906505887 -0.15252812955592213 -0.06464917574991305 -0.11814907823450911 -0.09015002401037348 -0.012559093794277262 0.11299373601222396 -0.021404709641667352 0.05320506320515414 0.04074376550469158 -0.12210000696163284 -0.015334219999775798 0.001401552155283319 -0.030712264444591485 0.026845491706418787 0.10121012989154217 0.08630705778722664 -0.01461268785870035 0.07813580234404567 0.02695682316709268 0.08715718627725498 -0.035037119031201325 -0.012714106204083756 0.08467812684693155 -0.0623412121395234 0.051641686018397276 -0.08527610436770085 0.03419294276408112 0.05891187040666599 0.13903354924862726 0.21880262105624063 -0.004853283365657827 0.2055032269186275 0.09201505934024215 -0.03345229228197777 -0.10967384790611054 -0.01622033482185273 0.14446883950168135 0.32340732314888854 0.11152476450799675 -0.17765272317964528 0.03659075781120295 -0.08532589171835661 -0.1416800594126122 -0.0008757843834604208 0.0681810241804167 -0.04712368122636228 0.28816366178246827 0.2431352091157732 -0.07886365731237013 0.026200200308472508 0.05549829170429994 0.0966681539423437 0.009596316309675423 0.06783524269803311 0.003584218308858664 -0.09236021329745751 -0.06391634925178499 -0.0793948738905792 -0.08137931036815409 -0.0732930871799119 -0.07504276324487368 -0.002486727718175061 -0.05199345730898594 -0.14178803376543336 -0.2191496865222225 -0.23343810165607934 0.21835326353019688 -0.033576498759428766 -0.15390618583003543 0.038437826385181194 -0.05052943414292323 -0.015324185305304699 0.08646971279944181 0.06652852377027535 -0.07002240201668068 0.22654331086904347 0.19331314564899393 0.031896040136380324 0.01398458078263571 0.03571373773541352 -0.08352665716028616 0.11005071597195432 0.05656170253188268 -0.023013692048137004 0.17058557404883062 0.057349827499112147 -0.019095236959767368 0.021326741091734942 -0.0547652912925047 0.09897518019339993 0.09056894184291091 0.0693458946278531 -0.05100341549653621 0.07002783114189418 -0.0748011310951778 -0.06705086602473197 -0.04940440420363235 0.1652522654013296 -0.08535257120735243 0.042455120814858 -0.01813091187898525 0.020550433491793023 -0.032035697119583595 -0.03137778213396207 0.002522587139695927 0.041746915450659366 0.06489071981225328 -0.05183349752919065 -0.020926331427695087 -0.12537156617705475 -0.042720319434866316 -0.069926367419876 0.01344217308734306 -0.05889162447687186 -0.0499650063400051 0.1262866050263566 0.07158562558907515 0.0184750845509154 -0.020797042878625348 0.13190095857072714 0.06884561489159764 -0.07494078701524005 -0.1018958849664015 -0.04151524460545292 -0.017740130123830706 -0.21540503120228113 -0.11895700126280115 0.07994484424272844 0.19296901453745935 0.015856861582767175 0.08557126922085694 -0.11061085417301564 0.03415768392053832 -0.054706634622534375 0.2092016999197104 -0.10600652604643013 0.1841221804369424 -0.010631801230497463 -0.08841151063242927 -0.1848877770559971 0.021651551328611515 -0.1997741190746936 -0.07598384204939038 0.002822801755285612 -0.08463670789725579 -0.02856605710574914 0.026899253788790992 -0.17849303234764624 -0.06889365470519289 -0.0025929956523689283 0.17002713423466154 -0.1560165375156889 0.02944759957237431 -0.16888293457533093 0.08281179890397355 0.20636329585614288 0.04563404623333424 -0.05690870000791075 -0.08377488947419025 0.10990479386610438 0.009328888747923897 -0.04556386583817255 -0.15018200662659778 -0.02080208143659307 0.10505105541556585 0.13571854868846808 0.02838154872772793 0.10606327529758601 0.18412570387623592 -0.008252935445351052 -0.18125347567113873 -0.020594417190868637 0.002826336166269371 0.0005973792751177793 0.024394459581410427 0.036869423493797966 -0.10729736900904238 -0.05437252173981392 -0.0069524767418518586 -0.013916997124372693 -0.13493186455180572 0.10579739409621286 -0.05492894866608906 -0.1616023362041736 -0.06004148348476058 0.027049728155540468 0.05712463654872459 0.0037964461122291003 -0.03965715887298402 -0.17693793979347255 -0.062161671922097046 -0.046509923824631365 -0.03250834969660968 0.009622191250386512 -0.10248397064677717 -0.028969030923003302 0.07031811190200599 -0.030933418255662815 0.01250680983152926 -0.09364979862500554 0.0365173884458229 0.00401468362086056 0.18752495163219218 0.029759602151345908 0.10776201965136836 -0.07863615093071762 0.019360232319005445 0.03859260295285728 0.14530276043377863 -0.06527554576128503 -0.04281833693066319 -0.11274948305113767 0.1285097854363723 -0.1464090782536535 -0.07080106105913912 -0.090582227493585 0.24003426458860902 0.02410183542240874 -0.015002664627282091 0.08256380399308237 -0.18337660569098213 -0.08686374753840227 0.050426342993935176 -0.045568881533259074 -0.11713365610832946 -0.042872215025811865 -0.13468681307942829 -0.13283397902125219 0.036530784497734434 0.11762183296427653 0.19459032362478765 -0.015090822283112525 -0.11761229112475219 0.18939917887648813 -0.03175257912316674 0.012591353369235591 -0.1127045545282161 -0.044587234344614535 0.0015472293925713528 -0.057887126510551785 0.041919886363120724 0.15756702009821932 0.04882109307824678 -0.12528865376496537 0.08845475871636459 0.08816138409763738 -0.10087342770284233 -0.0018984596878131696 -0.0031044847378777045 -0.013607832273754106 0.046300166247379905 -0.035442650108308923 -0.03650880166959032 -0.02775973202542244 -0.030634462436506613 0.17382516359506395 0.10495855592278433 -0.004482796379265299 0.06138283459969702 -0.05508593146565126 0.013706119012336081 0.04161682541730165 0.02325477904611278 0.005117987399178329 0.06123920062932547 -0.18116917704619567 0.07745996471243428 -0.08757371258227113 0.07911861566876977 -0.05137359992790266 -0.06785298526758814 0.01580604984456708 -0.09954557150463055 -0.09175290390578188 0.05238887363326848 0.15290907454650512 -0.039153252843261446 -0.2084594754954182 -0.09670646958824507 0.021346492766917812 -0.04499387569836417 -0.031687683805049306 -0.16692261455800514 -0.09360535100930403 -0.040468059145878955 -0.09489640104786191 -0.06708235346031997 -0.11900973773011966 0.03137572333210691 -0.14962307804632421 -0.0362949509065339 -0.1111452697673492 -0.038159582038513176 -0.030113543786723502 0.056441917659355745 0.06767438407228851 0.08279527251071306 0.10163227961506696 -0.055258249206721566 -0.07799024821924018 -0.044705994081004376 0.011844951926957581 0.2854985384674263 0.21796612498995593 -0.05593728527694225 -0.21582931627036686 0.07236583806697519 -0.014356682209808297 0.2303224668154394 -0.04528108261940012 -0.031619038227313746 0.13217468629204715 -0.03059425065555353 -0.005057673823930373 0.003959167339791882 0.009285385841351726 0.13534244308170737 -0.03054941899868936 0.16644169379102752 0.17099940580793901 0.037025983029505466 -0.06810269376810094 -0.03171332459613615 0.05126413833877294 -0.08884674006363742 0.09662227271674291 -0.0608663100440576 0.012359654633023215 0.06097751324334868 -0.04416117792368094 0.12352508303439609 -0.23379386553087703 0.0718264595752084 -0.08250353425231285 -0.2031684146000349 -0.08410579633296687 0.19055651668114634 -0.12371393096639122 -0.0450047255277405 0.12478511607878448 -0.08188669832797163 0.1656937502021855 0.29106712186716127 -0.06993746783839072 -0.13231110950761038 0.2089184506893288 0.02312734965879902 -0.08048816439004486 -0.006650981942435054 0.15632584495312588 0.08264524758917834 -0.0950941465342893 0.1126233300662842 0.13079293381364318 -0.07775626884834466 0.11387174742286404 0.023585868064260464 0.11902279302523405 0.024684963818040914 -0.16325498442865222 0.04376574636225248 0.01527134390845082 0.05523605581695578 -0.06369498395392258 -0.0978849208513533 -0.05939216303612668 0.012654866408534606 0.06039227790956555 0.008849884795493331 -0.15116102325956612 -0.012343789621588504 0.052479688416307874 -0.046714237496707015 -0.0050645614106475875 -0.1046959926139507 -0.012588245524504414 0.09953080856130336 0.13848125656029775 0.022999361049826833 -0.015212544839152077 -0.10631615887952924 -0.1284448852219946 0.0022746022719667127 -0.0017467583569157135 0.020508000777591042 0.11417624405865867 -0.015456468123496521 -0.04346792162784854 0.00828157307739247 -0.0707654223246171 -0.009114608949776457 0.19233817049688762 -0.0154631631552267 0.011924007185894961 0.09828515405152115 -0.09716579013857757 -0.055532307681621394 -0.0988226851202833 -0.08580081679848546 -0.03932426781291221 0.11853712214019867 -0.0071727724988256214 0.14925083190679814 -0.07539957774682776 0.09161139474897234 -0.07230953677754488 0.0018299453569717238 -0.017483723943279073 -0.061996524289777706 -0.1678567593827772 0.07963263446923499 0.052535746331204836 0.028818539825926377 -0.1978014831744102 -0.07405761927487665 -0.02314622698355162 0.022721769151215276 -0.11255584131024263 -0.18258386623263972 0.12269100269279738 -0.09862304172346459 -0.010900943113275326 -0.08680118846745175 0.13958690192647724 -0.0671962909260795 -0.13954768183971814 0.11122489464383192 -0.002475499805336209 -0.020573458184665928 0.16234711531463347 0.12474662388709612 0.006305544700339805 0.07504173575116452 0.06507927897103138 0.22295242578868443 -0.03223974775081399 0.06676182424331742 0.08742639245613984 0.18043483692680745 -0.018520958639208454 0.28555753933159456 -0.07616474954020835 0.14497098657377075 -0.07749320735400067 0.10001281538921777 -0.10160175960096222 0.08552246417274369 -0.1455247729310309 0.011574140735284861 0.08694546048064579 0.1218684587504664 -0.1556567500786621 -0.02754092624513731 0.11033634591643983 0.014781265966850513 0.04059705470133235 -0.06575847749531213 -0.047771007632568516 0.07359129052544972 0.024089932525734475 0.034870624456475874 0.03825293239288308 -0.12427975951907393 0.06451880348103525 -0.20015097573322432 -0.022068505799966106 -0.02373502277453792 -0.0490430827551023 -0.1038160722539018 -0.10277732147372057 -0.14868663863672346 0.04526126899959893 -0.129648447023316 -0.11420936597948032 -0.08733036271166315 0.09285987709185152 -0.1585406264411876 0.059749560855118164 0.00528737825816531 -0.19341262132287637 -0.16783008768503352 -0.18848897423067895 -0.00018584127133062928 -0.11846926242745635 -0.13550732635901672 0.06079947048849231 0.1443717114727173 -0.06703219678984322 0.06052439655729789 -0.12506286512055487 0.003425349375438038 -0.017879085916104542 -0.21687190994646727 -0.1991013656993946 -0.06353327073335152 -0.010667475032638644 0.006877851989861196 0.019994323629016382 0.09117661182631993 -0.31314017964793445 -0.013394819332523462 0.25294402927150134 -0.18605211157081103 -0.04687566852229381 -0.06553600405440624 -0.041492458213922334 -0.011283126922810775 0.11057473384848539 0.17293869952796828 0.013462117138652974 -0.05495526510969772 0.04531519291906541 0.04473308853917353 0.15762248234105009 0.21996131505952674 0.22427931994602468 -0.047112567936445256 0.09436763004220337 0.04754935998452122 0.004330075601942675 0.11221985849594125 -0.15782555948458 0.08002715275252775 0.020590379598867357 -0.022264535930513422 0.08472534264505324 0.024617209167589804 -0.16845055556380206 0.01984355517684143 -0.09675948237324693 -0.07373407396561589 0.15667754304076523 -0.09957392068477904 -0.07774636670642635 -0.024471605625675213 -0.07895257130344359 -0.11701681707027048 -0.18132611634729345 0.0644282446449423 -0.15486103011525548 0.03745989367897812 0.07426338073210535 0.15494880377025752 -0.06672148590714383 -0.049974850219375665 0.006543194817103294 -0.06969513969205085 -0.08889594469179574 -0.04875980100824941 0.060341015432534784 -0.042317171530911725 -0.26675185249892164 0.09570944924794048 -0.01386955385861053 0.059196265668011554 -0.12250804255145264 0.037774930165849964 -0.049925849959800685 0.08750706609385084 -0.011960694045694439 -0.046354311490027195 0.027212984679111783 0.04810755041049902 0.09856334717032396 0.27445836848138977 -0.02305176446065471 0.09119510409500627 0.132620864212503 -0.06171757422417114 0.14198169743939598 -0.0837276246382191 -0.04165966529315895 -0.01762919527310007 -0.00018710462281628642 0.10080939012735156 -0.07173991789125869 0.04525036973683456 -0.026601176737115578 -0.09291510283999854 0.10296131458695579 -0.0007103954128364558 -0.0811568144513775 0.2243660007617795 -0.04572599335421534 -0.08988617236167022 -0.24787277162019336 0.0863314522281838 0.12393997002269222 -0.022331276497164522 -0.08127943700495915 0.06444438023545006 0.01580038885315739 0.037541456021374105 0.02821556102903868 -0.05004126132843432 -0.08352995535424146 0.02735394856702399 -0.16600602664952474 -0.07518686380587619 0.027640683479564335 -0.03008603522195235 -0.06813050638539644 -0.005284825430945737 0.07527440253597309 0.029197014316579534 -0.11607465483582276 0.15295437719813157 -0.008860560946815792 0.0045966975810914175 -0.12090770135064315 -0.06021870169451507 0.047571472800432724 0.05947344345067969 -0.10442125543013472 0.14096172888567396 0.13841180183951435 -0.10689490081849874 -0.11150683485260883 0.03866608479327872 -0.05169833141989856 -0.009845055850929065 -0.1663859868163617 0.18536638865198843 -0.0985319186947626 0.004777579161634521 0.08053433932680337 0.007779449040034925 -0.05377054251325126 -0.19336623923959756 -0.007956820969090575 -0.20654380062507102 -0.2726628221372714 -0.17166407629042943 -0.09807954164191111 0.02835756054122062 0.0111897552562612 -0.15830878779130883 -0.07040060863642632 0.008876307537547649 -0.046340217783406905 -0.19881987381149638 -0.0371720839534024 0.06463517657319098 -0.047821162949236 0.0020924423225451728 -0.14290531222082592 -0.07155164972330723 -0.009015400761251412 -0.0032441332772759606 0.039201332771836364 -0.07987724772229762 0.032546965961130166 -0.06616537161681856 0.029551721723120216 0.1971869244902802 -0.11937640240793539 0.02954934466849739 0.12679248551604763 0.12718999139824905 0.0742694357203629 0.12036497502163541 0.06168892617501864 -0.08521819275481658 -0.20944375049649697 -0.12988602131468469 0.12232765566064539 0.06803860367052202 -0.07420667295175058 -0.03761331099698606 0.02039911014890212 0.016757578988149842 -0.07872301151224442 0.18485800451065307 -0.025934934731048097 -0.1162601804219937 -0.2374941449489937 -0.01282789809498804 0.05444960891154611 0.038288838462511326 -0.0867052596170701 0.16086589569960846 0.0012471275249005987 0.06475489152929899 -0.10109207404537218 -0.02938888299989347 -0.04518456234183833 0.017753515545646182 0.021123126023699756 0.08411393952001678 0.016262918314617153 0.05511508364665621 -0.14188224696247512 0.08612173520667415 -0.2035295819544413 -0.021230825020418388 0.03716814743389483 0.055950969813948856 -0.1331007495535731 0.02316781170534238 0.045603736141701504 0.11279523745456099 -0.11408572414849663 -0.03721651333898782 0.14861148361794224 0.0894243870306535 0.10757615878925812 -0.05625211512491768 -0.05375521015022742 -0.1799273831915038 0.19492630335804692 0.05008583921694523 0.25321578177690324 0.1141900645508615 0.17994643027063123 0.074515200993822 0.06611651921655164 -0.010059836665183525 0.14871493537910874 -0.019469985962738783 -0.055511391053241585 0.14872476973261167 0.20977207894474373 0.07223881130970623 0.2660108480201037 0.07374171335667971 -0.11081053835658465 -0.15766751659257855 -0.02820588834137751 -0.15767244451623938 -0.09965497324813359 -0.056099474425836376 -0.018198300285397418 -0.12223784094255333 -0.019011652007959994 0.17544638083743852 0.050999286857649866 0.20031807776729038 -0.05949512337845792 0.14413817589421804 -0.18141098204775427 0.029239997408579667 0.16779458592515442 0.16610768969870943 0.07495647782827126 0.0012233316142290943 -0.0648411625632879 0.05891122912872093 0.11149710835767 0.12810202658052577 0.1144000335726199 0.07092098989338545 0.10600804599909852 0.06401542588557024 -0.08001722337677193 -0.03334969290090627 -0.16372784624615996 -0.03659203431751687 0.12297178187256642 -0.11375998617431639 -0.20435754824576668 -0.17247116824040337 -0.05292339460464656 0.042526403967461275 0.03599960841081222 -0.0930857927190909 0.09624500903816606 0.1260795520966327 0.07824497028050893 -0.1364095133883442 0.09699019733282849 0.021267522028224944 -0.06889202838714925 0.04600674611078214 0.17268392901185453 -0.09678250565678205 -0.12650822187851232 0.03804754670926188 0.05187134775618282 -0.13184231678783503 -0.14057784031269052 -0.06533180305945557 0.0056659713401129 -0.048038258921350614 -0.08343408563134652 -0.1521706816188697 0.011995402475214956 -0.10830914252910721 0.11231050442235095 -0.020253618828995363 -0.08728614805919892 0.09686272820646173 -0.11057826885748087 0.1097891568971715 0.10151188335289468 0.13468238003770688 -0.08398801951393363 0.25751007473795806 0.03880406025209561 0.10060327217455231 0.0819111969803985 0.060365171458240933 -0.10433287149326301 -0.0853654464474468 -0.05338627448986593 -0.12427605155713113 0.06392509755381451 -0.011581588460768651 0.002969772317052664 0.01445470933108183 -0.1243745547563589 -0.14162089894008448 0.08827020565561221 -0.14364456878333715 0.10699131783064579 -0.045130827688684136 -0.057458390064064134 0.1162202753823133 -0.06408315511021195 0.13712184197292498 -0.0402413394853298 0.0926336286808356 0.05180419548502441 -0.15297116368729818 0.13564666440762133 0.008575952925697445 0.06370765801931558 -0.041244459118287696 -0.04636475361827604 0.016995678593223366 -0.011449712346692283 0.10942781166653655 0.004395138894686587 -0.11516756969712472 0.04191540181600749 0.11876918707196817 0.15597294251005922 -0.0455187387424129 0.05338151708043552 -0.15162216473883952 -0.10742582182591152 0.08852168996147924 -0.09390595074871637 -0.025414974629470646 -0.0012290475129840498 0.07120493069603263 -0.00469573451657599 0.1475866348152534 -0.05042522058903255 -0.003070097199901332 -0.06904095259897215 0.007723731733128961 -0.14016566773619615 0.01124184807470819 -0.05992725041962367 -0.03799724124140447 0.07026505242198786 -0.12439526746914752 -0.0640047173407109 -0.016646935801823765 -0.0004775283007785734 -0.13525455339894907 -0.19261683979398483 0.1471384281325219 -0.0921999741055044 0.049515661204808735 -0.008981014178705534 -0.037176520003389155 0.20200712128214693 0.019855001543599336 -0.18463513963270176 0.09186093155075906 -0.06659538801864306 0.006887404649963901 0.08455157831888807 -0.07483174881021813 0.04444879310015695 -0.03587337791722714 0.16582141803256395 0.03251307136334483 0.007643714644813178 0.06546937762422986 -0.20397682654421032 0.010095215119149745 -0.09683443343561669 0.24499425062543512 0.01792640643554654 0.08829623769083246 -0.17352060913183132 -0.1226915876757103 0.08557313775946249 -0.15262002817118836 -0.0734519133070281 0.0024224023586694107 0.09081853954539923 0.07747317912298234 0.04232967806475128 0.0823462911299495 -0.00015411827188744161 -0.011008367951539174 -0.08949249396061057 -0.1410237767539176 -0.24275293500588718 -0.034296996490186006 -0.08416550148949697 0.15897110554641575 -0.0724786456373987 0.02585253155370316 0.11734433399732781 -0.02329808084124826 -0.0049479596299877165 -0.0812706504950093 0.06613856059475762 0.07390319110414395 -0.0635846146898291 0.019484253315373085 -0.029465192249096512 -0.13837629522757722 -0.07030601379682341 -0.0220488017732205 0.001511946819200395 0.039173998493001565 -0.12373210364559216 0.02303736752206997 -0.032721328088210495 -0.022603865186865083 -0.058960473486181844 -0.07708915756867829 0.15897801296696396 -0.04353781175530193 -0.28599865383665396 0.16004908404182722 -0.01661794040406938 -0.006549618512413812 0.0342745667645098 -0.08046877835027526 0.04154090630580234 0.07633051908697967 0.0373723549782993 -0.13529828505259847 0.03023933625980958 0.03157033779398544 0.1545540852621113 0.06911280541799632 0.11710376780362224 -0.08768583809420268 0.03608283758427028 -0.08313109012834637 0.07449157979397776 -0.07397623808163416 -0.017970647913349992 -0.15581480516845958 0.010145832820771418 0.0474909050740757 -0.00921804029341561 0.09182280084897919 0.1834426785086036 -0.037490147503868074 -0.0029319351409466034 0.07879613526611919 -0.15686115694073507 0.15329347126921597 0.0019779216267147813 0.0415974033547994 0.1305305031466456 -0.04537923521460801 0.13712523983922847 -0.2064630120462761 -0.022427881312451728 0.014259409341755947 0.11064785460840836 -0.003449688478580625 0.05961276273476827 0.11813427745805348 0.01864959025624128 -0.013634417096272666 -0.1466184572347263 -0.12034761273894307 -0.15506682931351867 -0.21100915085418115 -0.07962674198338064 0.03255475003180197 -0.01654268950811764 0.026849052279926715 -0.06870857957451217 -0.04341519459194861 -0.028515372504980336 0.0804867983573167 -0.09131556496589321 -0.15138366754108099 -0.10603759437343964 -0.09523603828210737 -0.08339943301134171 -0.15741051294740424 -0.097066435935103 0.03609317460668305 -0.08204022278908386 -0.09208087798705394 -0.07975138600154845 -0.18881539038628523 0.030907769502880426 -0.045557376389797455 -0.26928479912723446 0.021879960058424745 0.045561308318667816 0.05323150644236927 0.02692228884048259 -0.009867113808082187 -0.1552183836105583 0.047708442932046166 -0.03841136693448269 0.07523543012520716 0.07136946513289895 -0.0005269532932031909 -0.02294262452510678 -0.028142832170360912 -0.019869913926934397 -0.03535279420428185 -0.01475571759162432 0.21188965893264253 -0.05358394767043702 -0.06401060903840046 -0.03957035533915978 -0.042764298180121806 -0.11163788031280779 0.010709665189031006 -0.09534958850725868 -0.005524041448086028 0.1841142705693189 0.14807132162127853 -0.03244783207779401 -0.04601149276478188 -0.15857116247773723 -0.17028298979088627 -0.08271835542979958 -0.12417291785751788 -0.13740030947633644 -0.34831455700600616 -0.12427040010073663 0.1776405414284727 0.04566200320272979 0.07752185689940229 -0.06427017797993109 0.15379213629728536 -0.06078112189773266 -0.12759607770870196 0.04931687214974713 0.0678999551215389 0.01128384812247389 0.05490344955539469 -0.04621440972646096 -0.13370998679806803 0.09704748804236232 0.0020032890155277333 -0.1551521326832397 0.14745441628344513 0.0004948405915999282 -0.020193798864212246 -0.0706560982882709 0.009245539424920856 -0.04117417881894157 0.06555938985782431 -0.0674585421434878 0.03444219644052162 -0.058256664932368134 -0.09819253346905696 -0.06298486184226346 0.10614885200887732 -0.10130796695098811 0.07242758449980166 0.11298793506514862 -0.1292602212055578 0.05014894647855319 0.16175656563184262 -0.05344494278476692 -0.0697240512841021 0.1589451954156738 -0.049907823117785584 -0.13394558711319157 -0.024615217491677135 -0.016987321963795914 -0.0056498299735932445 -0.10017333786200217 -0.09896651140523642 -0.09601032813780712 0.07173666635390535 -0.006444943603201793 0.060729465065937065 0.04879416087984838 0.10925314770951494 0.08819231969484612 0.07244949602860998 -0.04243516327704312 -0.04120091204903438 0.12377353072896223 -0.22194624420805373 0.10800478873829032 -0.053418881419236466 -0.033156730724956035 -0.057845595540452995 -0.016238365826361092 0.07346324247162514 -0.1430609788580163 -0.004930240540790239 0.00011891159973591642 -0.06860047788758533 -0.021167732356839067 -0.04982996086635085 -0.1602114502220639 -0.005156949526188729 0.08186676229680727 0.04629459924877311 0.017583222280521442 0.10828264307689868 -0.08234204999487675 -0.03699734332777638 -0.019350347588445428 0.09046609476508811 0.06854001455119904 -0.11075829721245 -0.08635199512029723 -0.20455855428167236 -0.02033028250643625 -0.03522134171572751 -0.00022610740609317522 0.011769570162275075 -0.05164028319262481 -0.036251467009537 0.12068753287793883 0.11001105218119567 0.08844931525073213 0.12792166394358273 0.11460555662973253 0.21470864258788538 -0.09610415487631956 0.0686970208572458 -0.13186424739952574 -0.04311905436278086 0.040248446548353016 0.18404809046281634 0.002022258765452392 0.08168537634430609 -0.09369568835253939 -0.04864080915748076 0.12782682579048096 -0.01944520332683125 -0.034885027959873104 -0.048094260544868844 -0.047315751129998716 0.008304227981406669 0.026163357617592708 -0.15109721794213923 -0.06853104181250298 -0.033906918514724466 -0.07713135717676378 0.02605585223942843 -0.007789925895148131 -0.0612846871595038 -0.1522461040007496 -0.13731360331206208 0.15684477882840575 -0.02541077925683633 -0.10255177243640966 0.07770938038298193 0.030268219390301426 0.08014791962012613 0.0326926611153696 -0.051673861431395955 -0.18053194150144058 -0.06941329996254315 0.07591219162890245 0.053991248706714436 0.17683752172309242 -0.02665176517289182 -0.017286140205258038 -0.06526711451208432 -0.15993086610372284 0.17621561216907264 -0.1341491510030029 -0.21759179434509412 0.048001351540476064 -0.0031573791451164246 -0.10238004729454124 -0.09630781496480954 0.08196382360625888 0.12337717585371938 0.06977256712291464 -0.059052505291192874 -0.07088269608051521 0.017027026440317554 0.09559483342321891 -0.03895717741231465 -0.20250427510970118 0.06703909437078685 0.0913530351374623 0.03185185765278053 -0.09133406218228314 -0.0870768119153472 0.0036672133789052114 -0.01817083357738797 0.010577349601722933 -0.06995259397199399 -0.07702642023340159 0.011991563643677606 -0.06980917647482718 -0.020280335767627302 -0.0919315382152816 -0.10456439726323813 -0.020366862314329073 -0.023283302917843293 -0.06616493445856263 0.020081830160595664 0.06660904786823693 -0.009699298208125828 0.1508306449308181 -0.28532260331497483 -0.1260831461303468 -0.026034209999804155 -0.10191515741111595 -0.001965604478000202 0.16610914538615107 -0.05658543883862864 0.11407490120201405 -0.012192432841699833 0.1011407393411569 -0.010336996039487399 0.09823372056579091 -0.052750137782557154 -0.0659512810548684 0.01243644154650767 0.07593028411652136 -0.08102174303067847 -0.0700796620935853 -0.02426025729014832 0.031010935306491745 -0.0824734061232831 0.12205732368071101 -0.057309494730606626 -0.028110057160246366 -0.019516048261671377 -0.09320526087712824 0.02580760031275862 -0.14018645399691387 0.03725099050601394 0.08752437266334165 -0.0792853160898799 0.01875266270949804 -0.06974718577195288 0.06173865108459534 0.05563447399482707 0.11523951570803331 0.09169901840857375 -0.12481665836906321 0.05320826730759927 -0.020724808749058667 -0.06900266541850052 -0.12132815307868021 0.05906877521580431 0.026911730681249826 0.2039124097721183 -0.010265695589239036 0.07600592834818141 0.05555828789070859 -0.06343078278840616 0.07573323460738618 0.01643908176455794 -0.051277841455835325 -0.08675219393934108 -0.04985187223260506 -0.10866967202804112 0.12377106966229195 -0.010017059658213633 -0.04026237803520195 0.11036849575162132 0.035820210762576375 -0.12909298836080219 0.030991166697415556 -0.0595920523734191 0.02203529539375703 -0.04970980910893335 -0.0013789210003231464 0.15926798875901238 -0.10176916560070119 -0.0618671845918063 0.044480062207326344 0.14818874242012223 0.06106396986042654 0.06440767197159149 -0.06692370739544866 -0.10564960906753314 -0.10716238473593284 0.1337692776345565 -0.07679380147839852 -0.07510763176536493 -0.09575533063259409 0.12460475682487451 0.07287729057897109 -0.1262397230421465 -0.09085065628038844 -0.08496886306255366 -0.09051302189820971 0.022287678819448816 -0.03439198315778533 -0.03962149546693056 0.14735431770784727 -0.005404673962033198 -0.035191572636215876 -0.02298136403191969 -0.1700029008925711 0.03594492145925958 0.09006293318905909 -0.05522813056884923 -0.03662991552325043 0.0420759750732595 -0.014577651667889421 0.1538134119711015 0.059003331825696816 -0.034949480855730665 0.03114513639098979 -0.17394835089672775 0.06063555939497021 0.18402403671342535 0.046169096957850035 -0.1640015995113845 -0.06455096007157757 0.061620046965863935 0.04629214012597311 0.027869281513472354 -0.02996862118659468 0.2110029430106975 -0.08233646436694404 -0.040548090858465724 -0.3088438513316386 0.09713392042826074 -0.1824060252739141 -0.04100467870919406 -0.04745435527492025 -0.12777031710655307 -0.12844479630381986 -0.024114462238252386 -0.07396785429460065 -0.0813330587524067 -0.10929634245760404 -0.05849111142522409 0.04682544759604564 0.056027450668118726 0.061866660146295445 -0.0938888780977637 -0.08806622406049884 0.1655029162569219 0.098341435116573 0.033320841373176105 0.0025704705445403807 0.12184662021935112 -0.07371757761667705 -0.03239197489243096 -0.024474412651794772 -0.14205339384006674 -0.005975192808745081 -0.21100117840950386 0.0534305028385284 -0.08758353983270831 0.11020625754552771 0.1307968783425297 -0.03334163142530012 -0.06158236546772676 0.07918085028386189 0.11076530464757682 -0.17364102105666518 0.008581128258568963 -0.016406413037113737 0.09160333987168948 0.023234314935631502 -0.16124911354356442 -0.1731812395297401 -0.050280122962996485 -0.1297017450029784 0.06528876571057546 0.06481787030551665 -0.0680583154061437 0.06480361710767694 -0.1674543568844048 0.11642601236061144 -0.07450105746553408 0.15759554971474765 0.00958138867040055 -0.17797604288018548 0.057602050002608346 -0.07264213776096488 0.03029698935078608 0.07875919768932427 -0.02848063900337079 -0.14241357792779938 -0.09767999231053542 -0.09687573508345892 -0.18499495096784746 -0.06809818125280885 0.10837840868783552 -0.11107434345462021 0.1943910153751687 -0.05766623293688594 0.012075779054018914 -0.19470300478480534 0.0766161228520411 -0.07830799902846859 -0.0345008349550143 -0.017831485868598288 0.0455135457631135 0.01581482123831998 0.14890986542932644 0.0019280628421983433 0.0233713309739906 -0.3344860903417868 0.028477994766787418 -0.07775618844667075 0.025524146420555317 -0.031713868831890896 -0.018600034802403326 0.14356768516773816 0.05920951197324824 -0.06248935679016236 -0.1387741802865159 -0.05992860230747235 -0.038918963145760176 0.08506805616968588 -0.09648485153373759 0.009315969978100658 -0.11212848107634459 -0.1200521453628342 0.1385927600776915 0.04966182324690267 -0.0734935392791241 -0.06358008238956452 -0.04427879840109404 -0.15571290400425 0.008028056064586871 0.04335476875005721 0.0023115579942602892 0.1588635361200254 -0.10940252385694936 0.14118340862085255 -0.07671465430003166 0.040422969757229824 